FANN_FLO_2.1
num_layers=4
learning_rate=0.000500
connection_rate=1.000000
network_type=0
learning_momentum=0.000000
training_algorithm=2
train_error_function=1
train_stop_function=0
cascade_output_change_fraction=0.010000
quickprop_decay=-0.000100
quickprop_mu=1.750000
rprop_increase_factor=1.200000
rprop_decrease_factor=0.500000
rprop_delta_min=0.000000
rprop_delta_max=50.000000
rprop_delta_zero=0.100000
cascade_output_stagnation_epochs=12
cascade_candidate_change_fraction=0.010000
cascade_candidate_stagnation_epochs=12
cascade_max_out_epochs=150
cascade_min_out_epochs=50
cascade_max_cand_epochs=150
cascade_min_cand_epochs=50
cascade_num_candidate_groups=2
bit_fail_limit=3.49999994039535522461e-01
cascade_candidate_limit=1.00000000000000000000e+03
cascade_weight_multiplier=4.00000005960464477539e-01
cascade_activation_functions_count=10
cascade_activation_functions=3 5 7 8 10 11 14 15 16 17 
cascade_activation_steepnesses_count=4
cascade_activation_steepnesses=2.50000000000000000000e-01 5.00000000000000000000e-01 7.50000000000000000000e-01 1.00000000000000000000e+00 
layer_sizes=194 33 9 5 
scale_included=0
neurons (num_inputs, activation_function, activation_steepness)=(0, 0, 0.00000000000000000000e+00) (0, 0, 0.00000000000000000000e+00) (0, 0, 0.00000000000000000000e+00) (0, 0, 0.00000000000000000000e+00) (0, 0, 0.00000000000000000000e+00) (0, 0, 0.00000000000000000000e+00) (0, 0, 0.00000000000000000000e+00) (0, 0, 0.00000000000000000000e+00) (0, 0, 0.00000000000000000000e+00) (0, 0, 0.00000000000000000000e+00) (0, 0, 0.00000000000000000000e+00) (0, 0, 0.00000000000000000000e+00) (0, 0, 0.00000000000000000000e+00) (0, 0, 0.00000000000000000000e+00) (0, 0, 0.00000000000000000000e+00) (0, 0, 0.00000000000000000000e+00) (0, 0, 0.00000000000000000000e+00) (0, 0, 0.00000000000000000000e+00) (0, 0, 0.00000000000000000000e+00) (0, 0, 0.00000000000000000000e+00) (0, 0, 0.00000000000000000000e+00) (0, 0, 0.00000000000000000000e+00) (0, 0, 0.00000000000000000000e+00) (0, 0, 0.00000000000000000000e+00) (0, 0, 0.00000000000000000000e+00) (0, 0, 0.00000000000000000000e+00) (0, 0, 0.00000000000000000000e+00) (0, 0, 0.00000000000000000000e+00) (0, 0, 0.00000000000000000000e+00) (0, 0, 0.00000000000000000000e+00) (0, 0, 0.00000000000000000000e+00) (0, 0, 0.00000000000000000000e+00) (0, 0, 0.00000000000000000000e+00) (0, 0, 0.00000000000000000000e+00) (0, 0, 0.00000000000000000000e+00) (0, 0, 0.00000000000000000000e+00) (0, 0, 0.00000000000000000000e+00) (0, 0, 0.00000000000000000000e+00) (0, 0, 0.00000000000000000000e+00) (0, 0, 0.00000000000000000000e+00) (0, 0, 0.00000000000000000000e+00) (0, 0, 0.00000000000000000000e+00) (0, 0, 0.00000000000000000000e+00) (0, 0, 0.00000000000000000000e+00) (0, 0, 0.00000000000000000000e+00) (0, 0, 0.00000000000000000000e+00) (0, 0, 0.00000000000000000000e+00) (0, 0, 0.00000000000000000000e+00) (0, 0, 0.00000000000000000000e+00) (0, 0, 0.00000000000000000000e+00) (0, 0, 0.00000000000000000000e+00) (0, 0, 0.00000000000000000000e+00) (0, 0, 0.00000000000000000000e+00) (0, 0, 0.00000000000000000000e+00) (0, 0, 0.00000000000000000000e+00) (0, 0, 0.00000000000000000000e+00) (0, 0, 0.00000000000000000000e+00) (0, 0, 0.00000000000000000000e+00) (0, 0, 0.00000000000000000000e+00) (0, 0, 0.00000000000000000000e+00) (0, 0, 0.00000000000000000000e+00) (0, 0, 0.00000000000000000000e+00) (0, 0, 0.00000000000000000000e+00) (0, 0, 0.00000000000000000000e+00) (0, 0, 0.00000000000000000000e+00) (0, 0, 0.00000000000000000000e+00) (0, 0, 0.00000000000000000000e+00) (0, 0, 0.00000000000000000000e+00) (0, 0, 0.00000000000000000000e+00) (0, 0, 0.00000000000000000000e+00) (0, 0, 0.00000000000000000000e+00) (0, 0, 0.00000000000000000000e+00) (0, 0, 0.00000000000000000000e+00) (0, 0, 0.00000000000000000000e+00) (0, 0, 0.00000000000000000000e+00) (0, 0, 0.00000000000000000000e+00) (0, 0, 0.00000000000000000000e+00) (0, 0, 0.00000000000000000000e+00) (0, 0, 0.00000000000000000000e+00) (0, 0, 0.00000000000000000000e+00) (0, 0, 0.00000000000000000000e+00) (0, 0, 0.00000000000000000000e+00) (0, 0, 0.00000000000000000000e+00) (0, 0, 0.00000000000000000000e+00) (0, 0, 0.00000000000000000000e+00) (0, 0, 0.00000000000000000000e+00) (0, 0, 0.00000000000000000000e+00) (0, 0, 0.00000000000000000000e+00) (0, 0, 0.00000000000000000000e+00) (0, 0, 0.00000000000000000000e+00) (0, 0, 0.00000000000000000000e+00) (0, 0, 0.00000000000000000000e+00) (0, 0, 0.00000000000000000000e+00) (0, 0, 0.00000000000000000000e+00) (0, 0, 0.00000000000000000000e+00) (0, 0, 0.00000000000000000000e+00) (0, 0, 0.00000000000000000000e+00) (0, 0, 0.00000000000000000000e+00) (0, 0, 0.00000000000000000000e+00) (0, 0, 0.00000000000000000000e+00) (0, 0, 0.00000000000000000000e+00) (0, 0, 0.00000000000000000000e+00) (0, 0, 0.00000000000000000000e+00) (0, 0, 0.00000000000000000000e+00) (0, 0, 0.00000000000000000000e+00) (0, 0, 0.00000000000000000000e+00) (0, 0, 0.00000000000000000000e+00) (0, 0, 0.00000000000000000000e+00) (0, 0, 0.00000000000000000000e+00) (0, 0, 0.00000000000000000000e+00) (0, 0, 0.00000000000000000000e+00) (0, 0, 0.00000000000000000000e+00) (0, 0, 0.00000000000000000000e+00) (0, 0, 0.00000000000000000000e+00) (0, 0, 0.00000000000000000000e+00) (0, 0, 0.00000000000000000000e+00) (0, 0, 0.00000000000000000000e+00) (0, 0, 0.00000000000000000000e+00) (0, 0, 0.00000000000000000000e+00) (0, 0, 0.00000000000000000000e+00) (0, 0, 0.00000000000000000000e+00) (0, 0, 0.00000000000000000000e+00) (0, 0, 0.00000000000000000000e+00) (0, 0, 0.00000000000000000000e+00) (0, 0, 0.00000000000000000000e+00) (0, 0, 0.00000000000000000000e+00) (0, 0, 0.00000000000000000000e+00) (0, 0, 0.00000000000000000000e+00) (0, 0, 0.00000000000000000000e+00) (0, 0, 0.00000000000000000000e+00) (0, 0, 0.00000000000000000000e+00) (0, 0, 0.00000000000000000000e+00) (0, 0, 0.00000000000000000000e+00) (0, 0, 0.00000000000000000000e+00) (0, 0, 0.00000000000000000000e+00) (0, 0, 0.00000000000000000000e+00) (0, 0, 0.00000000000000000000e+00) (0, 0, 0.00000000000000000000e+00) (0, 0, 0.00000000000000000000e+00) (0, 0, 0.00000000000000000000e+00) (0, 0, 0.00000000000000000000e+00) (0, 0, 0.00000000000000000000e+00) (0, 0, 0.00000000000000000000e+00) (0, 0, 0.00000000000000000000e+00) (0, 0, 0.00000000000000000000e+00) (0, 0, 0.00000000000000000000e+00) (0, 0, 0.00000000000000000000e+00) (0, 0, 0.00000000000000000000e+00) (0, 0, 0.00000000000000000000e+00) (0, 0, 0.00000000000000000000e+00) (0, 0, 0.00000000000000000000e+00) (0, 0, 0.00000000000000000000e+00) (0, 0, 0.00000000000000000000e+00) (0, 0, 0.00000000000000000000e+00) (0, 0, 0.00000000000000000000e+00) (0, 0, 0.00000000000000000000e+00) (0, 0, 0.00000000000000000000e+00) (0, 0, 0.00000000000000000000e+00) (0, 0, 0.00000000000000000000e+00) (0, 0, 0.00000000000000000000e+00) (0, 0, 0.00000000000000000000e+00) (0, 0, 0.00000000000000000000e+00) (0, 0, 0.00000000000000000000e+00) (0, 0, 0.00000000000000000000e+00) (0, 0, 0.00000000000000000000e+00) (0, 0, 0.00000000000000000000e+00) (0, 0, 0.00000000000000000000e+00) (0, 0, 0.00000000000000000000e+00) (0, 0, 0.00000000000000000000e+00) (0, 0, 0.00000000000000000000e+00) (0, 0, 0.00000000000000000000e+00) (0, 0, 0.00000000000000000000e+00) (0, 0, 0.00000000000000000000e+00) (0, 0, 0.00000000000000000000e+00) (0, 0, 0.00000000000000000000e+00) (0, 0, 0.00000000000000000000e+00) (0, 0, 0.00000000000000000000e+00) (0, 0, 0.00000000000000000000e+00) (0, 0, 0.00000000000000000000e+00) (0, 0, 0.00000000000000000000e+00) (0, 0, 0.00000000000000000000e+00) (0, 0, 0.00000000000000000000e+00) (0, 0, 0.00000000000000000000e+00) (0, 0, 0.00000000000000000000e+00) (0, 0, 0.00000000000000000000e+00) (0, 0, 0.00000000000000000000e+00) (0, 0, 0.00000000000000000000e+00) (0, 0, 0.00000000000000000000e+00) (0, 0, 0.00000000000000000000e+00) (0, 0, 0.00000000000000000000e+00) (0, 0, 0.00000000000000000000e+00) (0, 0, 0.00000000000000000000e+00) (0, 0, 0.00000000000000000000e+00) (0, 0, 0.00000000000000000000e+00) (194, 3, 5.00000000000000000000e-01) (194, 3, 5.00000000000000000000e-01) (194, 3, 5.00000000000000000000e-01) (194, 3, 5.00000000000000000000e-01) (194, 3, 5.00000000000000000000e-01) (194, 3, 5.00000000000000000000e-01) (194, 3, 5.00000000000000000000e-01) (194, 3, 5.00000000000000000000e-01) (194, 3, 5.00000000000000000000e-01) (194, 3, 5.00000000000000000000e-01) (194, 3, 5.00000000000000000000e-01) (194, 3, 5.00000000000000000000e-01) (194, 3, 5.00000000000000000000e-01) (194, 3, 5.00000000000000000000e-01) (194, 3, 5.00000000000000000000e-01) (194, 3, 5.00000000000000000000e-01) (194, 3, 5.00000000000000000000e-01) (194, 3, 5.00000000000000000000e-01) (194, 3, 5.00000000000000000000e-01) (194, 3, 5.00000000000000000000e-01) (194, 3, 5.00000000000000000000e-01) (194, 3, 5.00000000000000000000e-01) (194, 3, 5.00000000000000000000e-01) (194, 3, 5.00000000000000000000e-01) (194, 3, 5.00000000000000000000e-01) (194, 3, 5.00000000000000000000e-01) (194, 3, 5.00000000000000000000e-01) (194, 3, 5.00000000000000000000e-01) (194, 3, 5.00000000000000000000e-01) (194, 3, 5.00000000000000000000e-01) (194, 3, 5.00000000000000000000e-01) (194, 3, 5.00000000000000000000e-01) (0, 3, 0.00000000000000000000e+00) (33, 3, 5.00000000000000000000e-01) (33, 3, 5.00000000000000000000e-01) (33, 3, 5.00000000000000000000e-01) (33, 3, 5.00000000000000000000e-01) (33, 3, 5.00000000000000000000e-01) (33, 3, 5.00000000000000000000e-01) (33, 3, 5.00000000000000000000e-01) (33, 3, 5.00000000000000000000e-01) (0, 3, 0.00000000000000000000e+00) (9, 3, 5.00000000000000000000e-01) (9, 3, 5.00000000000000000000e-01) (9, 3, 5.00000000000000000000e-01) (9, 3, 5.00000000000000000000e-01) (0, 3, 0.00000000000000000000e+00) 
connections (connected_to_neuron, weight)=(0, 8.01461696624755859375e-01) (1, 1.38077856445312500000e+03) (2, -3.58864593505859375000e+00) (3, 2.05417785644531250000e+01) (4, 2.83151874542236328125e+01) (5, 4.08116394042968750000e+02) (6, -1.47790412902832031250e+01) (7, 5.30172920227050781250e+01) (8, 1.01011138916015625000e+03) (9, -2.55066680908203125000e+01) (10, -1.02601647949218750000e+03) (11, -1.11234292984008789062e+01) (12, 9.46348022460937500000e+02) (13, -3.95920074462890625000e+02) (14, -1.49220739746093750000e+03) (15, 1.54897003173828125000e+02) (16, 8.06958374023437500000e+02) (17, 9.91554870605468750000e+02) (18, 7.48831481933593750000e+01) (19, 2.45664858818054199219e+00) (20, 1.58550701141357421875e+01) (21, -1.43447998046875000000e+03) (22, 4.06497711181640625000e+02) (23, -3.39752197265625000000e+00) (24, -6.54213027954101562500e+01) (25, 1.14080004882812500000e+03) (26, -1.26192398071289062500e+02) (27, -1.50000000000000000000e+03) (28, -8.41280090332031250000e+02) (29, -2.81975036621093750000e+02) (30, 1.53764099121093750000e+02) (31, -8.80417480468750000000e+02) (32, -8.79006164550781250000e+02) (33, -5.30406570434570312500e+01) (34, -1.01103704833984375000e+03) (35, 1.26164697265625000000e+03) (36, 5.43945251464843750000e+02) (37, 6.63254394531250000000e+02) (38, 1.39080004882812500000e+03) (39, 9.56711120605468750000e+02) (40, -8.79647277832031250000e+02) (41, -1.94453582763671875000e+02) (42, -2.48978942871093750000e+02) (43, -1.87805297851562500000e+02) (44, 2.68967781066894531250e+01) (45, -9.94950294494628906250e-01) (46, -9.46650268554687500000e+02) (47, 1.50000000000000000000e+03) (48, 1.50000000000000000000e+03) (49, 1.50000000000000000000e+03) (50, 1.50000000000000000000e+03) (51, 1.50000000000000000000e+03) (52, 1.50000000000000000000e+03) (53, 1.50000000000000000000e+03) (54, 1.50000000000000000000e+03) (55, 1.50000000000000000000e+03) (56, 1.50000000000000000000e+03) (57, 1.50000000000000000000e+03) (58, 1.50000000000000000000e+03) (59, 1.50000000000000000000e+03) (60, -4.07370376586914062500e+01) (61, -2.82955017089843750000e+01) (62, -2.81176910400390625000e+01) (63, -2.82831954956054687500e+01) (64, -2.81178588867187500000e+01) (65, -8.52816314697265625000e+01) (66, -2.83157691955566406250e+01) (67, -2.81226501464843750000e+01) (68, -2.80815086364746093750e+01) (69, -2.82247543334960937500e+01) (70, -8.78445816040039062500e+00) (71, -2.82606086730957031250e+01) (72, -2.82596549987792968750e+01) (73, -4.07471466064453125000e+01) (74, -2.82782974243164062500e+01) (75, -2.82537689208984375000e+01) (76, -2.82216987609863281250e+01) (77, -2.81710128784179687500e+01) (78, -4.09090728759765625000e+01) (79, -2.82935523986816406250e+01) (80, -2.78826599121093750000e+01) (81, -2.81532936096191406250e+01) (82, -3.15100784301757812500e+01) (83, -1.17111644744873046875e+01) (84, -2.82863845825195312500e+01) (85, -3.30837326049804687500e+01) (86, -7.81794929504394531250e+00) (87, -4.57898254394531250000e+01) (88, -1.34842919921875000000e+03) (89, -1.32316918945312500000e+03) (90, -7.65800048828125000000e+02) (91, -9.67044296264648437500e+01) (92, -1.36262402343750000000e+03) (93, -1.23010620117187500000e+03) (94, 1.50000000000000000000e+03) (95, 1.50000000000000000000e+03) (96, 1.50000000000000000000e+03) (97, 1.50000000000000000000e+03) (98, 1.50000000000000000000e+03) (99, 1.50000000000000000000e+03) (100, 1.50000000000000000000e+03) (101, 1.50000000000000000000e+03) (102, 1.50000000000000000000e+03) (103, 1.50000000000000000000e+03) (104, 1.50000000000000000000e+03) (105, 1.50000000000000000000e+03) (106, 1.50000000000000000000e+03) (107, -3.71260986328125000000e+02) (108, -1.10633996582031250000e+03) (109, -2.52415537834167480469e-01) (110, -1.50000000000000000000e+03) (111, -1.88833923339843750000e+01) (112, 3.13412904739379882812e+00) (113, -2.89212951660156250000e+02) (114, -8.70583374023437500000e+02) (115, -1.40900000000000000000e+03) (116, 1.08099426269531250000e+03) (117, -1.47500000000000000000e+03) (118, 1.34491149902343750000e+03) (119, -7.61066162109375000000e+02) (120, 3.67494988441467285156e+00) (121, -6.91994018554687500000e+02) (122, -3.00483112335205078125e+01) (123, -5.81127624511718750000e+02) (124, -1.15362758636474609375e+01) (125, -1.38087453842163085938e+01) (126, -1.69212005615234375000e+02) (127, -7.80405334472656250000e+02) (128, -6.63291015625000000000e+01) (129, -2.10551010131835937500e+02) (130, -2.55625244140625000000e+02) (131, -2.10879043579101562500e+02) (132, -2.02832279205322265625e+01) (133, -2.37903137207031250000e+01) (134, 3.34105224609375000000e+02) (135, -1.50000000000000000000e+03) (136, -4.62039703369140625000e+02) (137, 3.94530320167541503906e+00) (138, -7.69764892578125000000e+02) (139, -8.22519531250000000000e+01) (140, 8.04211914062500000000e+02) (141, 1.50000000000000000000e+03) (142, 1.50000000000000000000e+03) (143, 1.50000000000000000000e+03) (144, 1.50000000000000000000e+03) (145, 1.50000000000000000000e+03) (146, 1.50000000000000000000e+03) (147, 1.50000000000000000000e+03) (148, 1.50000000000000000000e+03) (149, 1.50000000000000000000e+03) (150, 1.50000000000000000000e+03) (151, 1.50000000000000000000e+03) (152, 1.50000000000000000000e+03) (153, 1.50000000000000000000e+03) (154, 3.64583301544189453125e+00) (155, 2.96511474609375000000e+02) (156, 5.17074890136718750000e+01) (157, 5.04564971923828125000e+01) (158, 7.19439268112182617188e-01) (159, -1.78438529968261718750e+01) (160, 3.39557385444641113281e+00) (161, 7.76627731323242187500e+01) (162, 7.32547807693481445312e+00) (163, 1.33298446655273437500e+02) (164, 1.35116897583007812500e+02) (165, 2.15798797607421875000e+01) (166, 3.08506011962890625000e+00) (167, -2.55468654632568359375e+00) (168, 2.96517700195312500000e+02) (169, 9.95948257446289062500e+01) (170, 1.54704345703125000000e+02) (171, 1.86862564086914062500e+00) (172, 3.63694477081298828125e+00) (173, 1.69429016113281250000e+01) (174, 3.71825500488281250000e+02) (175, 3.94689750671386718750e+01) (176, 2.92158813476562500000e+02) (177, 9.01348953247070312500e+01) (178, 1.22404991149902343750e+02) (179, 3.30841255187988281250e+00) (180, -1.34215373992919921875e+01) (181, 1.21307446289062500000e+03) (182, -4.75670745849609375000e+02) (183, -1.70326995849609375000e+02) (184, 7.80428886413574218750e+00) (185, 9.22224426269531250000e+02) (186, 1.44339074707031250000e+03) (187, -6.26018981933593750000e+01) (188, 5.86479492187500000000e+02) (189, -5.37187957763671875000e+01) (190, 8.70497192382812500000e+02) (191, 2.59689140319824218750e+01) (192, -8.69367492675781250000e+02) (193, -2.99747675657272338867e-01) (0, 4.74596405029296875000e+00) (1, 1.06692295074462890625e+01) (2, -4.15998792648315429688e+00) (3, -9.20322656631469726562e-01) (4, 2.63600611686706542969e+00) (5, 1.61375200748443603516e+00) (6, -2.91537314653396606445e-01) (7, 6.14399766921997070312e+00) (8, 3.80036979913711547852e-01) (9, 2.45098280906677246094e+00) (10, -1.28179514408111572266e+00) (11, 1.03237688541412353516e+00) (12, -5.20996332168579101562e+00) (13, 5.31075596809387207031e-01) (14, 8.93251448869705200195e-02) (15, 6.42839574813842773438e+00) (16, -3.65411496162414550781e+00) (17, 2.04096293449401855469e+00) (18, -1.31675183773040771484e-01) (19, 4.08711481094360351562e+00) (20, -2.65645432472229003906e+00) (21, -2.43130326271057128906e+00) (22, -2.26166868209838867188e+00) (23, 4.24889469146728515625e+00) (24, -1.48410904407501220703e+00) (25, -6.08233833312988281250e+00) (26, 1.25760364532470703125e+00) (27, 2.71711182594299316406e+00) (28, 1.35064804553985595703e+00) (29, 3.18414258956909179688e+00) (30, 3.94083476066589355469e+00) (31, 9.53029036521911621094e-01) (32, -6.45512533187866210938e+00) (33, 1.41596734523773193359e+00) (34, -3.50063633918762207031e+00) (35, 3.93347829580307006836e-01) (36, 5.58381843566894531250e+00) (37, -2.00558996200561523438e+00) (38, -2.60924625396728515625e+00) (39, 1.68282127380371093750e+00) (40, -1.83011341094970703125e+00) (41, -1.84648728370666503906e+00) (42, -1.63559243083000183105e-01) (43, -9.52137485146522521973e-02) (44, -9.14863884449005126953e-01) (45, -1.96942761540412902832e-01) (46, -5.03090977668762207031e-01) (47, 1.50000000000000000000e+03) (48, 1.50000000000000000000e+03) (49, 1.50000000000000000000e+03) (50, 1.50000000000000000000e+03) (51, 1.50000000000000000000e+03) (52, 1.50000000000000000000e+03) (53, 1.50000000000000000000e+03) (54, 1.50000000000000000000e+03) (55, 1.50000000000000000000e+03) (56, 1.50000000000000000000e+03) (57, 1.50000000000000000000e+03) (58, 1.50000000000000000000e+03) (59, 1.50000000000000000000e+03) (60, -1.35356366634368896484e-01) (61, -1.00270576775074005127e-01) (62, -1.52123346924781799316e-01) (63, -9.84574481844902038574e-02) (64, -1.70358210802078247070e-01) (65, -1.21944606304168701172e-01) (66, -1.65767684578895568848e-01) (67, -1.13597869873046875000e-01) (68, -7.50324726104736328125e-02) (69, -1.20438776910305023193e-01) (70, -4.66246977448463439941e-02) (71, -8.19404274225234985352e-02) (72, -5.84098622202873229980e-02) (73, -1.18283115327358245850e-01) (74, -1.17567919194698333740e-01) (75, -2.20440223813056945801e-01) (76, -1.82582482695579528809e-01) (77, -1.55057296156883239746e-01) (78, -1.13411642611026763916e-01) (79, -1.39512047171592712402e-01) (80, -4.76094521582126617432e-02) (81, -1.77736401557922363281e-01) (82, -1.78147405385971069336e-01) (83, -1.48875594139099121094e-01) (84, -1.28489971160888671875e-01) (85, -3.86497713625431060791e-02) (86, 3.05277705192565917969e+00) (87, -1.33335628509521484375e+01) (88, -1.71364203095436096191e-01) (89, -1.88988998532295227051e-01) (90, 5.81808423995971679688e+00) (91, -3.33804655075073242188e+00) (92, -1.04336702823638916016e+00) (93, 2.24889588356018066406e+00) (94, 1.50000000000000000000e+03) (95, 1.50000000000000000000e+03) (96, 1.50000000000000000000e+03) (97, 1.50000000000000000000e+03) (98, 1.50000000000000000000e+03) (99, 1.50000000000000000000e+03) (100, 1.50000000000000000000e+03) (101, 1.50000000000000000000e+03) (102, 1.50000000000000000000e+03) (103, 1.50000000000000000000e+03) (104, 1.50000000000000000000e+03) (105, 1.50000000000000000000e+03) (106, 1.50000000000000000000e+03) (107, -9.37913239002227783203e-01) (108, -2.40816801786422729492e-01) (109, 2.37346148490905761719e+00) (110, 7.87473738193511962891e-01) (111, 9.12536978721618652344e-01) (112, 1.67859077453613281250e+00) (113, 4.86252593994140625000e+00) (114, 6.93260729312896728516e-01) (115, 5.10054409503936767578e-01) (116, 1.96992969512939453125e+00) (117, -2.23058414459228515625e+00) (118, -1.03951015472412109375e+01) (119, -6.03691339492797851562e-01) (120, 3.47084712982177734375e+00) (121, 1.89103853702545166016e+00) (122, 2.21321985125541687012e-01) (123, 2.43485379219055175781e+00) (124, 1.42944312095642089844e+00) (125, 1.18778312206268310547e+00) (126, 1.08331644535064697266e+00) (127, 4.21697258949279785156e-01) (128, 1.43332207202911376953e+00) (129, 2.07927036285400390625e+00) (130, -1.80884793400764465332e-01) (131, 1.61500763893127441406e+00) (132, 1.10736274719238281250e+00) (133, 6.45549058914184570312e+00) (134, 1.93204712867736816406e+00) (135, 3.37565040588378906250e+00) (136, 8.05857777595520019531e-01) (137, 1.93983840942382812500e+00) (138, 2.74446082115173339844e+00) (139, 4.37787199020385742188e+00) (140, 1.01455473899841308594e+00) (141, 1.50000000000000000000e+03) (142, 1.50000000000000000000e+03) (143, 1.50000000000000000000e+03) (144, 1.50000000000000000000e+03) (145, 1.50000000000000000000e+03) (146, 1.50000000000000000000e+03) (147, 1.50000000000000000000e+03) (148, 1.50000000000000000000e+03) (149, 1.50000000000000000000e+03) (150, 1.50000000000000000000e+03) (151, 1.50000000000000000000e+03) (152, 1.50000000000000000000e+03) (153, 1.50000000000000000000e+03) (154, -1.79830658435821533203e+00) (155, -6.06925129890441894531e-01) (156, 2.28220000863075256348e-01) (157, -6.21099710464477539062e-01) (158, -6.02468192577362060547e-01) (159, 2.02468290925025939941e-01) (160, -1.86274275183677673340e-01) (161, -2.73289829492568969727e-01) (162, -5.24626731872558593750e-01) (163, -1.72525835037231445312e+00) (164, 3.26869368553161621094e+00) (165, -6.60956668853759765625e+00) (166, -4.13271397352218627930e-01) (167, -6.18711590766906738281e-01) (168, -8.19506198167800903320e-02) (169, 6.99896037578582763672e-01) (170, -1.60388171672821044922e-01) (171, -6.38450920581817626953e-01) (172, -2.68299262970685958862e-02) (173, -5.67137151956558227539e-02) (174, 3.64056885242462158203e-01) (175, -1.69642090797424316406e-01) (176, -1.58801150321960449219e+00) (177, 2.17387413978576660156e+00) (178, -9.13773119449615478516e-01) (179, -2.85983115434646606445e-01) (180, 3.56797266006469726562e+00) (181, -1.15772807598114013672e+00) (182, -5.27793455123901367188e+00) (183, 7.08666753768920898438e+00) (184, 2.50034272670745849609e-01) (185, -2.04896569252014160156e+00) (186, -4.41646957397460937500e+00) (187, 5.79402923583984375000e-01) (188, 1.53358864784240722656e+00) (189, -2.78836798667907714844e+00) (190, 8.02950635552406311035e-02) (191, -1.37962079048156738281e+00) (192, 1.29214358329772949219e+00) (193, -8.95834062248468399048e-03) (0, 1.24360871315002441406e+00) (1, 1.36630344390869140625e+01) (2, -1.80005884170532226562e+00) (3, 2.98936533927917480469e+00) (4, 8.72112333774566650391e-01) (5, -1.12496340274810791016e+00) (6, 2.21659803390502929688e+00) (7, 9.51069641113281250000e+00) (8, -1.20430183410644531250e+00) (9, -2.68448925018310546875e+00) (10, 6.65736818313598632812e+00) (11, 7.95326995849609375000e+00) (12, -4.31722021102905273438e+00) (13, -3.86056602001190185547e-01) (14, -7.82032683491706848145e-03) (15, -1.19549036026000976562e+00) (16, 1.55118584632873535156e+00) (17, 1.36196479797363281250e+01) (18, 6.49604415893554687500e+00) (19, -6.97861528396606445312e+00) (20, -6.13863468170166015625e+00) (21, -2.74187355041503906250e+01) (22, -5.98040437698364257812e+00) (23, -8.08957993984222412109e-01) (24, -2.63569921255111694336e-01) (25, 6.70890665054321289062e+00) (26, 3.36248248815536499023e-01) (27, 4.68693923950195312500e+00) (28, -7.09286451339721679688e+00) (29, 4.69170182943344116211e-01) (30, 3.01995038986206054688e-01) (31, 1.09449841082096099854e-01) (32, -7.29394674301147460938e+00) (33, -1.09163713455200195312e+00) (34, -1.30743360519409179688e+01) (35, 4.12770795822143554688e+00) (36, 1.32245361804962158203e+00) (37, 5.74887633323669433594e-01) (38, 6.41321706771850585938e+00) (39, 4.30795311927795410156e-01) (40, 9.28070425987243652344e-01) (41, 2.50279688835144042969e+00) (42, 8.26656401157379150391e-01) (43, 3.11023664474487304688e+00) (44, 9.65868756175041198730e-02) (45, 4.36912298202514648438e-01) (46, -1.56223297119140625000e+00) (47, 1.50000000000000000000e+03) (48, 1.50000000000000000000e+03) (49, 1.50000000000000000000e+03) (50, 1.50000000000000000000e+03) (51, 1.50000000000000000000e+03) (52, 1.50000000000000000000e+03) (53, 1.50000000000000000000e+03) (54, 1.50000000000000000000e+03) (55, 1.50000000000000000000e+03) (56, 1.50000000000000000000e+03) (57, 1.50000000000000000000e+03) (58, 1.50000000000000000000e+03) (59, 1.50000000000000000000e+03) (60, 1.27041921019554138184e-01) (61, 1.73977687954902648926e-01) (62, 1.85871243476867675781e-01) (63, 1.77595704793930053711e-01) (64, 1.20096489787101745605e-01) (65, 1.77067682147026062012e-01) (66, 1.53977245092391967773e-01) (67, 2.67817497253417968750e-01) (68, 2.68014013767242431641e-01) (69, 2.49712169170379638672e-01) (70, 4.53920066356658935547e-01) (71, 1.21406599879264831543e-01) (72, 1.88873499631881713867e-01) (73, 1.49507194757461547852e-01) (74, 1.90948694944381713867e-01) (75, 2.57872700691223144531e-01) (76, 2.58863568305969238281e-01) (77, 1.27502113580703735352e-01) (78, 1.46940782666206359863e-01) (79, 2.37141564488410949707e-01) (80, 3.69059652090072631836e-01) (81, 1.84243291616439819336e-01) (82, 1.03948913514614105225e-01) (83, 4.44014310836791992188e-01) (84, 2.59302288293838500977e-01) (85, 2.48756796121597290039e-01) (86, 1.98805257678031921387e-02) (87, 1.55772089958190917969e+00) (88, -2.08608603477478027344e+00) (89, -8.24998378753662109375e-01) (90, 1.23604226112365722656e+00) (91, -7.25443840026855468750e-01) (92, -1.96822500228881835938e+00) (93, 3.65249061584472656250e+00) (94, 1.50000000000000000000e+03) (95, 1.50000000000000000000e+03) (96, 1.50000000000000000000e+03) (97, 1.50000000000000000000e+03) (98, 1.50000000000000000000e+03) (99, 1.50000000000000000000e+03) (100, 1.50000000000000000000e+03) (101, 1.50000000000000000000e+03) (102, 1.50000000000000000000e+03) (103, 1.50000000000000000000e+03) (104, 1.50000000000000000000e+03) (105, 1.50000000000000000000e+03) (106, 1.50000000000000000000e+03) (107, 7.01310777664184570312e+00) (108, 6.81010961532592773438e+00) (109, 5.68514728546142578125e+00) (110, 2.29592412710189819336e-01) (111, 1.67677998542785644531e+00) (112, 5.19848489761352539062e+00) (113, 3.82823181152343750000e+00) (114, -1.06557404994964599609e+00) (115, -2.45666809082031250000e+01) (116, 9.20873928070068359375e+00) (117, -6.79761588573455810547e-01) (118, -1.70790767669677734375e+00) (119, 1.62178516387939453125e-01) (120, 2.64574676752090454102e-01) (121, -3.42825829982757568359e-01) (122, -1.56999945640563964844e-01) (123, 1.46524831652641296387e-01) (124, 1.17157794535160064697e-01) (125, -7.33038932085037231445e-02) (126, -4.38193790614604949951e-02) (127, 4.09904457628726959229e-02) (128, -3.48931327462196350098e-02) (129, 2.11817756295204162598e-01) (130, -2.02320769429206848145e-01) (131, 6.81260004639625549316e-02) (132, 8.96583557128906250000e-01) (133, 8.30527603626251220703e-01) (134, -6.87413930892944335938e+00) (135, 4.67975556850433349609e-01) (136, 1.17470026016235351562e+00) (137, -1.83646225929260253906e+00) (138, -2.93287539482116699219e+00) (139, 4.94124174118041992188e+00) (140, -1.30304431915283203125e+00) (141, 1.50000000000000000000e+03) (142, 1.50000000000000000000e+03) (143, 1.50000000000000000000e+03) (144, 1.50000000000000000000e+03) (145, 1.50000000000000000000e+03) (146, 1.50000000000000000000e+03) (147, 1.50000000000000000000e+03) (148, 1.50000000000000000000e+03) (149, 1.50000000000000000000e+03) (150, 1.50000000000000000000e+03) (151, 1.50000000000000000000e+03) (152, 1.50000000000000000000e+03) (153, 1.50000000000000000000e+03) (154, 2.82261103391647338867e-01) (155, 4.16604310274124145508e-01) (156, 1.54601657390594482422e+00) (157, 4.02490437030792236328e-01) (158, 6.13535583019256591797e-01) (159, 3.42493057250976562500e-01) (160, 5.34853279590606689453e-01) (161, 5.37839710712432861328e-01) (162, 4.83529388904571533203e-01) (163, 2.31085538864135742188e-01) (164, 8.24357509613037109375e-01) (165, 3.79038542509078979492e-01) (166, 3.73203158378601074219e-01) (167, 5.93930363655090332031e-01) (168, 3.78545612096786499023e-01) (169, 6.64097368717193603516e-01) (170, 3.02635014057159423828e-01) (171, 4.16714012622833251953e-01) (172, 3.39029341936111450195e-01) (173, 5.02515077590942382812e-01) (174, 1.87625795602798461914e-01) (175, 2.79608517885208129883e-01) (176, 3.23684006929397583008e-01) (177, 5.52265942096710205078e-01) (178, 4.18325632810592651367e-01) (179, 4.19635385274887084961e-01) (180, 4.26674413681030273438e+00) (181, -3.25808614492416381836e-01) (182, -1.30330991744995117188e+00) (183, 7.23628476262092590332e-02) (184, 8.99619936943054199219e-01) (185, 5.77593183517456054688e+00) (186, 1.09175558090209960938e+01) (187, -2.89862895011901855469e+00) (188, 3.46379041671752929688e-01) (189, 1.39382171630859375000e+00) (190, -6.63836002349853515625e-01) (191, -4.16296339035034179688e+00) (192, -1.99241244792938232422e+00) (193, -5.45452308654785156250e+00) (0, 1.35129528045654296875e+01) (1, 6.10400867462158203125e+00) (2, -2.22709751129150390625e+00) (3, 2.96142363548278808594e+00) (4, 3.01924729347229003906e+00) (5, -7.31459438800811767578e-01) (6, -1.24369263648986816406e+00) (7, 5.64856576919555664062e+00) (8, 4.92859315872192382812e+00) (9, -2.04843354225158691406e+00) (10, 3.28579092025756835938e+00) (11, 2.27060198783874511719e+00) (12, -1.62941944599151611328e+00) (13, 2.16032004356384277344e+00) (14, -1.57577180862426757812e+00) (15, -9.11149740219116210938e-01) (16, -6.31761169433593750000e+00) (17, 1.49990153312683105469e+00) (18, 9.47837054729461669922e-01) (19, 1.11964535713195800781e+00) (20, 9.74102839827537536621e-02) (21, 7.63892269134521484375e+00) (22, -4.27875661849975585938e+00) (23, -2.12600183486938476562e+00) (24, -1.95660960674285888672e+00) (25, -4.10647839307785034180e-02) (26, 3.78529220819473266602e-01) (27, 1.86368370056152343750e+00) (28, 2.78975796699523925781e+00) (29, 5.04503786563873291016e-01) (30, 1.75674617290496826172e+00) (31, 3.13721448183059692383e-01) (32, -2.58249908685684204102e-01) (33, -8.95186710357666015625e+00) (34, -7.96567559242248535156e-01) (35, 2.43355974555015563965e-01) (36, 4.23675447702407836914e-01) (37, -1.12704589962959289551e-01) (38, 7.94095516204833984375e-01) (39, 1.55858337879180908203e+00) (40, -8.92923414707183837891e-01) (41, -2.05610609054565429688e+00) (42, -1.55627429485321044922e-02) (43, 1.61354139447212219238e-01) (44, -4.44016277790069580078e-01) (45, 1.24928092956542968750e+00) (46, 5.00668001174926757812e+00) (47, 1.50000000000000000000e+03) (48, 1.50000000000000000000e+03) (49, 1.50000000000000000000e+03) (50, 1.50000000000000000000e+03) (51, 1.50000000000000000000e+03) (52, 1.50000000000000000000e+03) (53, 1.50000000000000000000e+03) (54, 1.50000000000000000000e+03) (55, 1.50000000000000000000e+03) (56, 1.50000000000000000000e+03) (57, 1.50000000000000000000e+03) (58, 1.50000000000000000000e+03) (59, 1.50000000000000000000e+03) (60, 6.01756386458873748779e-02) (61, -5.28862737119197845459e-02) (62, 4.29002679884433746338e-02) (63, -4.88835982978343963623e-02) (64, 3.22008468210697174072e-02) (65, 5.89264892041683197021e-02) (66, 1.18067152798175811768e-01) (67, -9.14463028311729431152e-02) (68, 2.13801991194486618042e-02) (69, 3.47709916532039642334e-02) (70, -1.20320864021778106689e-01) (71, 6.91540986299514770508e-02) (72, 1.84007938951253890991e-02) (73, -3.05282440967857837677e-03) (74, 6.63094371557235717773e-02) (75, 7.86678642034530639648e-02) (76, -1.14261493086814880371e-01) (77, 7.03424774110317230225e-03) (78, 2.74324212223291397095e-02) (79, 1.17705836892127990723e-01) (80, -1.13056704401969909668e-01) (81, 1.22992806136608123779e-02) (82, -6.01817183196544647217e-02) (83, -3.72745795175433158875e-03) (84, 8.37214738130569458008e-02) (85, 2.79882084578275680542e-02) (86, -2.60391616821289062500e+00) (87, 1.74795973300933837891e+00) (88, 2.90885162353515625000e+00) (89, 4.94012758135795593262e-02) (90, 3.84919375181198120117e-01) (91, -1.06106758117675781250e+00) (92, 7.69492506980895996094e-01) (93, 1.84613919258117675781e+00) (94, 1.50000000000000000000e+03) (95, 1.50000000000000000000e+03) (96, 1.50000000000000000000e+03) (97, 1.50000000000000000000e+03) (98, 1.50000000000000000000e+03) (99, 1.50000000000000000000e+03) (100, 1.50000000000000000000e+03) (101, 1.50000000000000000000e+03) (102, 1.50000000000000000000e+03) (103, 1.50000000000000000000e+03) (104, 1.50000000000000000000e+03) (105, 1.50000000000000000000e+03) (106, 1.50000000000000000000e+03) (107, -2.79060935974121093750e+00) (108, 3.08752804994583129883e-01) (109, 3.53648018836975097656e+00) (110, -4.64092940092086791992e-02) (111, 4.38031625747680664062e+00) (112, 1.45347714424133300781e+00) (113, 6.13112163543701171875e+00) (114, 4.79115819931030273438e+00) (115, -1.17882375717163085938e+01) (116, -1.94462013244628906250e+00) (117, -1.09471058845520019531e+00) (118, 8.90759229660034179688e-01) (119, -8.96034002304077148438e-01) (120, 1.15425133705139160156e+00) (121, 1.13012969493865966797e+00) (122, 3.95568847656250000000e-01) (123, 1.24687623977661132812e+00) (124, 1.13272893428802490234e+00) (125, 3.30472683906555175781e+00) (126, 1.68817353248596191406e+00) (127, 8.40940237045288085938e-01) (128, 7.71654188632965087891e-01) (129, 7.79124498367309570312e-01) (130, 1.21915757656097412109e-01) (131, 6.63845658302307128906e-01) (132, 1.59052264690399169922e+00) (133, 1.87784326076507568359e+00) (134, -2.95409280806779861450e-02) (135, 1.69488513469696044922e+00) (136, -1.30563974380493164062e-01) (137, 4.07872104644775390625e+00) (138, 6.10941123962402343750e+00) (139, 3.66910934448242187500e-01) (140, -7.92911574244499206543e-02) (141, 1.50000000000000000000e+03) (142, 1.50000000000000000000e+03) (143, 1.50000000000000000000e+03) (144, 1.50000000000000000000e+03) (145, 1.50000000000000000000e+03) (146, 1.50000000000000000000e+03) (147, 1.50000000000000000000e+03) (148, 1.50000000000000000000e+03) (149, 1.50000000000000000000e+03) (150, 1.50000000000000000000e+03) (151, 1.50000000000000000000e+03) (152, 1.50000000000000000000e+03) (153, 1.50000000000000000000e+03) (154, -6.73287689685821533203e-01) (155, -8.06283727288246154785e-02) (156, 2.21848607063293457031e-01) (157, 4.73095923662185668945e-02) (158, -2.62170284986495971680e-01) (159, -4.61557209491729736328e-01) (160, -1.73563972115516662598e-01) (161, -7.35779553651809692383e-02) (162, 1.70183718204498291016e-01) (163, 7.22892135381698608398e-02) (164, 2.47892707586288452148e-01) (165, 3.19474637508392333984e-01) (166, -1.09385639429092407227e-01) (167, -4.26385909318923950195e-01) (168, -1.29922702908515930176e-01) (169, 2.92159825563430786133e-01) (170, 2.46824115514755249023e-01) (171, -1.10507175326347351074e-01) (172, -5.03311932086944580078e-01) (173, -6.35784640908241271973e-02) (174, -8.15999656915664672852e-02) (175, 6.18116319179534912109e-01) (176, 1.23722113668918609619e-01) (177, 7.72985458374023437500e-01) (178, 4.82341796159744262695e-01) (179, -5.01373827457427978516e-01) (180, 2.32158467173576354980e-01) (181, -2.17394039034843444824e-01) (182, 6.71218186616897583008e-02) (183, 8.72107923030853271484e-01) (184, 4.71243470907211303711e-01) (185, 2.24942088127136230469e+00) (186, -1.12013268470764160156e+00) (187, 5.17164897918701171875e+00) (188, -6.89344704151153564453e-01) (189, 2.73276877403259277344e+00) (190, -5.04113435745239257812e+00) (191, -2.55201411247253417969e+00) (192, -1.40753781795501708984e+00) (193, 1.37458980083465576172e+00) (0, -1.00000061035156250000e+02) (1, 1.26915820312500000000e+03) (2, -6.16476501464843750000e+02) (3, 4.69312103271484375000e+02) (4, -7.85647338867187500000e+02) (5, 3.14759277343750000000e+02) (6, 1.07112109375000000000e+03) (7, 6.49723999023437500000e+02) (8, 1.04645434570312500000e+03) (9, 1.78856079101562500000e+02) (10, -9.00904479980468750000e+02) (11, -1.01194641113281250000e+03) (12, 1.24580004882812500000e+03) (13, -3.84091156005859375000e+02) (14, -1.17775610351562500000e+03) (15, -9.25000061035156250000e+02) (16, -2.15800048828125000000e+02) (17, -1.15800048828125000000e+02) (18, -9.15800048828125000000e+02) (19, 2.76213745117187500000e+02) (20, -7.16598571777343750000e+02) (21, -1.41947998046875000000e+03) (22, 1.46133862304687500000e+03) (23, 7.16573242187500000000e+02) (24, 7.05145202636718750000e+02) (25, 1.14080004882812500000e+03) (26, -5.43137130737304687500e+01) (27, -1.50000000000000000000e+03) (28, -8.41280090332031250000e+02) (29, -7.15800048828125000000e+02) (30, 9.85385131835937500000e+01) (31, -9.64776733398437500000e+02) (32, -1.36580004882812500000e+03) (33, -1.11723486328125000000e+03) (34, -1.53642406463623046875e+01) (35, 1.50000000000000000000e+03) (36, 1.50000000000000000000e+03) (37, 1.50000000000000000000e+03) (38, 1.43400000000000000000e+03) (39, 1.50000000000000000000e+03) (40, -7.14270324707031250000e+01) (41, -1.42808203125000000000e+03) (42, -8.20512023925781250000e+02) (43, -6.93736206054687500000e+02) (44, 2.04902099609375000000e+02) (45, -1.45413549804687500000e+03) (46, -1.50000000000000000000e+03) (47, 1.50000000000000000000e+03) (48, 1.50000000000000000000e+03) (49, 1.50000000000000000000e+03) (50, 1.50000000000000000000e+03) (51, 1.50000000000000000000e+03) (52, 1.50000000000000000000e+03) (53, 1.50000000000000000000e+03) (54, 1.50000000000000000000e+03) (55, 1.50000000000000000000e+03) (56, 1.50000000000000000000e+03) (57, 1.50000000000000000000e+03) (58, 1.50000000000000000000e+03) (59, 1.50000000000000000000e+03) (60, -3.34661865234375000000e+02) (61, -5.29468750000000000000e+02) (62, -4.79598388671875000000e+02) (63, -6.18351379394531250000e+02) (64, -3.27585632324218750000e+02) (65, -1.32492675781250000000e+02) (66, -3.95264892578125000000e+02) (67, -3.34610839843750000000e+02) (68, -6.17921447753906250000e+02) (69, -1.32568481445312500000e+02) (70, -4.81561279296875000000e+02) (71, -3.79673950195312500000e+02) (72, -2.27503356933593750000e+02) (73, -4.81396240234375000000e+02) (74, -3.79354248046875000000e+02) (75, -9.50000061035156250000e+02) (76, -6.18425842285156250000e+02) (77, -4.18280456542968750000e+02) (78, -1.25079467773437500000e+02) (79, -3.95179931640625000000e+02) (80, -3.34533386230468750000e+02) (81, -3.94791931152343750000e+02) (82, -3.34362609863281250000e+02) (83, -1.32575988769531250000e+02) (84, -3.79200927734375000000e+02) (85, -4.94449707031250000000e+02) (86, -7.85657119750976562500e+01) (87, -1.50000000000000000000e+03) (88, -1.50000000000000000000e+03) (89, -1.50000000000000000000e+03) (90, -7.00000061035156250000e+02) (91, -1.23944958496093750000e+03) (92, -1.50000000000000000000e+03) (93, -1.50000000000000000000e+03) (94, 1.50000000000000000000e+03) (95, 1.50000000000000000000e+03) (96, 1.50000000000000000000e+03) (97, 1.50000000000000000000e+03) (98, 1.50000000000000000000e+03) (99, 1.50000000000000000000e+03) (100, 1.50000000000000000000e+03) (101, 1.50000000000000000000e+03) (102, 1.50000000000000000000e+03) (103, 1.50000000000000000000e+03) (104, 1.50000000000000000000e+03) (105, 1.50000000000000000000e+03) (106, 1.50000000000000000000e+03) (107, 1.26225662231445312500e+02) (108, -5.56417724609375000000e+02) (109, -9.43728485107421875000e+01) (110, -4.34739288330078125000e+02) (111, 3.96319488525390625000e+02) (112, -1.11580004882812500000e+03) (113, -4.38592163085937500000e+02) (114, -8.92542663574218750000e+02) (115, -1.36580004882812500000e+03) (116, 6.22841552734375000000e+02) (117, -9.42240783691406250000e+02) (118, 1.01643487548828125000e+03) (119, -2.93627319335937500000e+02) (120, 8.21133193969726562500e+01) (121, -1.44800000000000000000e+03) (122, -2.73281066894531250000e+02) (123, -2.38628173828125000000e+02) (124, -2.68275817871093750000e+02) (125, -3.38469543457031250000e+02) (126, -2.22275207519531250000e+02) (127, -7.78631469726562500000e+02) (128, -6.92979187011718750000e+02) (129, -1.44800000000000000000e+03) (130, -1.42707348632812500000e+03) (131, -1.20947607421875000000e+03) (132, -6.02756713867187500000e+02) (133, -1.30563305664062500000e+03) (134, 4.77525634765625000000e+02) (135, -1.50000000000000000000e+03) (136, -1.45766137695312500000e+03) (137, -1.46799804687500000000e+02) (138, 2.02861389160156250000e+02) (139, 1.02878576660156250000e+03) (140, 1.36532006835937500000e+03) (141, 1.50000000000000000000e+03) (142, 1.50000000000000000000e+03) (143, 1.50000000000000000000e+03) (144, 1.50000000000000000000e+03) (145, 1.50000000000000000000e+03) (146, 1.50000000000000000000e+03) (147, 1.50000000000000000000e+03) (148, 1.50000000000000000000e+03) (149, 1.50000000000000000000e+03) (150, 1.50000000000000000000e+03) (151, 1.50000000000000000000e+03) (152, 1.50000000000000000000e+03) (153, 1.50000000000000000000e+03) (154, 3.39615051269531250000e+02) (155, 1.50000000000000000000e+03) (156, 1.49705834960937500000e+03) (157, 6.35098693847656250000e+02) (158, 7.01357841491699218750e+00) (159, 4.41767517089843750000e+02) (160, 2.70236633300781250000e+02) (161, -3.31552917480468750000e+02) (162, 8.14252197265625000000e+02) (163, 1.03069433593750000000e+03) (164, 4.90586059570312500000e+02) (165, 7.69993103027343750000e+02) (166, -2.24363956451416015625e+01) (167, 6.96145935058593750000e+02) (168, 1.50000000000000000000e+03) (169, 1.50000000000000000000e+03) (170, 3.72951904296875000000e+02) (171, 3.06381931304931640625e+01) (172, 8.34172973632812500000e+01) (173, 1.33580004882812500000e+03) (174, -2.66800109863281250000e+02) (175, 3.66774841308593750000e+02) (176, 1.40238012695312500000e+03) (177, 3.23603424072265625000e+02) (178, 9.48429077148437500000e+02) (179, 7.18676834106445312500e+01) (180, -5.14223999023437500000e+02) (181, 1.50000000000000000000e+03) (182, 1.55725402832031250000e+02) (183, 5.07633117675781250000e+02) (184, 8.99016357421875000000e+02) (185, 1.04055065917968750000e+03) (186, 1.44339074707031250000e+03) (187, 9.59620361328125000000e+02) (188, 1.50000000000000000000e+03) (189, 1.13580004882812500000e+03) (190, 1.67927124023437500000e+02) (191, 1.50000000000000000000e+03) (192, -1.50000000000000000000e+03) (193, -3.75839143991470336914e-01) (0, -2.15800048828125000000e+02) (1, 9.41275756835937500000e+02) (2, 1.25030151367187500000e+02) (3, 6.64538696289062500000e+02) (4, -1.28497543334960937500e+02) (5, -7.73461364746093750000e+02) (6, 1.14842822265625000000e+03) (7, -3.89301452636718750000e+02) (8, -3.45558700561523437500e+01) (9, -3.23674316406250000000e+01) (10, -1.50000000000000000000e+03) (11, -1.17058731079101562500e+02) (12, 1.24580004882812500000e+03) (13, -4.17513236999511718750e+01) (14, -9.17938537597656250000e+02) (15, -9.25000061035156250000e+02) (16, -1.35530883789062500000e+02) (17, -1.15800048828125000000e+02) (18, -9.15800048828125000000e+02) (19, 2.81201843261718750000e+02) (20, -1.79649475097656250000e+02) (21, -1.41947998046875000000e+03) (22, 1.47359997558593750000e+03) (23, 8.60968627929687500000e+02) (24, 1.09080004882812500000e+03) (25, 1.14080004882812500000e+03) (26, 2.93652404785156250000e+02) (27, -1.50000000000000000000e+03) (28, -8.41280090332031250000e+02) (29, -8.31691894531250000000e+02) (30, 2.32826354980468750000e+02) (31, -1.19080004882812500000e+03) (32, -1.36580004882812500000e+03) (33, -8.01483337402343750000e+02) (34, 1.08999946594238281250e+02) (35, 1.50000000000000000000e+03) (36, 1.50000000000000000000e+03) (37, 1.50000000000000000000e+03) (38, 1.43400000000000000000e+03) (39, 1.50000000000000000000e+03) (40, -4.16502044677734375000e+02) (41, -1.43803491210937500000e+03) (42, -1.05000000000000000000e+03) (43, -1.15000000000000000000e+03) (44, -5.28627929687500000000e+01) (45, -1.46513830566406250000e+03) (46, -1.50000000000000000000e+03) (47, 1.50000000000000000000e+03) (48, 1.50000000000000000000e+03) (49, 1.50000000000000000000e+03) (50, 1.50000000000000000000e+03) (51, 1.50000000000000000000e+03) (52, 1.50000000000000000000e+03) (53, 1.50000000000000000000e+03) (54, 1.50000000000000000000e+03) (55, 1.50000000000000000000e+03) (56, 1.50000000000000000000e+03) (57, 1.50000000000000000000e+03) (58, 1.50000000000000000000e+03) (59, 1.50000000000000000000e+03) (60, -9.50000061035156250000e+02) (61, -8.87681701660156250000e+02) (62, -9.50000061035156250000e+02) (63, -9.50000061035156250000e+02) (64, -9.50000061035156250000e+02) (65, -9.50000061035156250000e+02) (66, -9.50000061035156250000e+02) (67, -9.50000061035156250000e+02) (68, -9.50000061035156250000e+02) (69, -9.50000061035156250000e+02) (70, -9.50000061035156250000e+02) (71, -9.50000061035156250000e+02) (72, -9.50000061035156250000e+02) (73, -9.50000061035156250000e+02) (74, -9.50000061035156250000e+02) (75, -9.50000061035156250000e+02) (76, -9.50000061035156250000e+02) (77, -9.50000061035156250000e+02) (78, -9.50000061035156250000e+02) (79, -9.50000061035156250000e+02) (80, -9.50000061035156250000e+02) (81, -9.50000061035156250000e+02) (82, -9.50000061035156250000e+02) (83, -9.50000061035156250000e+02) (84, -9.50000061035156250000e+02) (85, -9.50000061035156250000e+02) (86, -8.64306518554687500000e+02) (87, -1.24253857421875000000e+03) (88, -1.50000000000000000000e+03) (89, -1.50000000000000000000e+03) (90, -7.00000061035156250000e+02) (91, -1.27838574218750000000e+03) (92, -1.50000000000000000000e+03) (93, -1.50000000000000000000e+03) (94, 1.50000000000000000000e+03) (95, 1.50000000000000000000e+03) (96, 1.50000000000000000000e+03) (97, 1.50000000000000000000e+03) (98, 1.50000000000000000000e+03) (99, 1.50000000000000000000e+03) (100, 1.50000000000000000000e+03) (101, 1.50000000000000000000e+03) (102, 1.50000000000000000000e+03) (103, 1.50000000000000000000e+03) (104, 1.50000000000000000000e+03) (105, 1.50000000000000000000e+03) (106, 1.50000000000000000000e+03) (107, 5.98361389160156250000e+02) (108, -6.34911254882812500000e+02) (109, -1.47592651367187500000e+03) (110, -8.40787719726562500000e+02) (111, 4.24825653076171875000e+02) (112, -1.11580004882812500000e+03) (113, -5.67061401367187500000e+02) (114, -1.46857543945312500000e+03) (115, -1.36580004882812500000e+03) (116, 9.34262451171875000000e+02) (117, -1.25713745117187500000e+03) (118, 1.08443261718750000000e+03) (119, -1.10012292480468750000e+03) (120, 2.78040618896484375000e+01) (121, -1.44800000000000000000e+03) (122, -1.32254980468750000000e+03) (123, -4.14916259765625000000e+02) (124, -5.07629211425781250000e+02) (125, -1.11273651123046875000e+02) (126, -4.73191589355468750000e+02) (127, -8.02152038574218750000e+02) (128, -5.63545959472656250000e+02) (129, -1.38519799804687500000e+03) (130, -9.78688110351562500000e+02) (131, -9.68408813476562500000e+02) (132, -6.42755737304687500000e+02) (133, -1.50000000000000000000e+03) (134, 1.22359997558593750000e+03) (135, -1.50000000000000000000e+03) (136, -1.50000000000000000000e+03) (137, -5.05699340820312500000e+02) (138, 2.52522827148437500000e+02) (139, -4.11151123046875000000e+02) (140, 1.36532006835937500000e+03) (141, 1.50000000000000000000e+03) (142, 1.50000000000000000000e+03) (143, 1.50000000000000000000e+03) (144, 1.50000000000000000000e+03) (145, 1.50000000000000000000e+03) (146, 1.50000000000000000000e+03) (147, 1.50000000000000000000e+03) (148, 1.50000000000000000000e+03) (149, 1.50000000000000000000e+03) (150, 1.50000000000000000000e+03) (151, 1.50000000000000000000e+03) (152, 1.50000000000000000000e+03) (153, 1.50000000000000000000e+03) (154, -3.68361633300781250000e+02) (155, 1.50000000000000000000e+03) (156, 9.49723388671875000000e+02) (157, 1.35430737304687500000e+03) (158, 6.42992919921875000000e+02) (159, 6.83292053222656250000e+02) (160, 4.92675842285156250000e+02) (161, -5.45163574218750000000e+01) (162, 1.02007873535156250000e+02) (163, 5.42807495117187500000e+02) (164, 1.47359997558593750000e+03) (165, 5.53534423828125000000e+02) (166, 4.17515014648437500000e+02) (167, -5.12812194824218750000e+02) (168, 1.50000000000000000000e+03) (169, 6.47828186035156250000e+02) (170, 1.10928857421875000000e+03) (171, 9.35003906250000000000e+02) (172, 1.84423461914062500000e+02) (173, 1.38543334960937500000e+03) (174, -2.66800109863281250000e+02) (175, 1.22137683105468750000e+03) (176, 1.48086279296875000000e+03) (177, 1.50000000000000000000e+03) (178, 1.02353051757812500000e+03) (179, 5.11900451660156250000e+02) (180, -6.30023925781250000000e+02) (181, 1.50000000000000000000e+03) (182, 2.42503005981445312500e+02) (183, 5.07633117675781250000e+02) (184, 8.23167663574218750000e+02) (185, 9.22224426269531250000e+02) (186, 1.41651684570312500000e+03) (187, 1.02530834960937500000e+03) (188, 1.50000000000000000000e+03) (189, 1.09080004882812500000e+03) (190, 1.38873864746093750000e+03) (191, 1.50000000000000000000e+03) (192, -1.50000000000000000000e+03) (193, 5.51590025424957275391e-01) (0, -1.03390064239501953125e+01) (1, 7.34183931350708007812e+00) (2, -3.98721575736999511719e-01) (3, 2.58607506752014160156e-01) (4, 3.75172448158264160156e+00) (5, 3.92958104610443115234e-01) (6, 2.53892254829406738281e+00) (7, 2.31586790084838867188e+00) (8, 4.20694065093994140625e+00) (9, -5.32725334167480468750e+00) (10, 8.75441908836364746094e-01) (11, 1.20637378692626953125e+01) (12, -4.75560396909713745117e-01) (13, -8.11612308025360107422e-02) (14, 2.17656299471855163574e-01) (15, 4.09078598022460937500e+00) (16, 1.20132660865783691406e+00) (17, 1.52593660354614257812e+01) (18, -1.26619696617126464844e+00) (19, -3.87653529644012451172e-01) (20, 3.58367204666137695312e-01) (21, 1.24298453330993652344e+00) (22, -1.20539855957031250000e+01) (23, -2.21874737739562988281e+00) (24, -6.56349539756774902344e-01) (25, 2.55928158760070800781e+00) (26, 5.59243619441986083984e-01) (27, 5.49671125411987304688e+00) (28, 2.48777532577514648438e+00) (29, 4.75602006912231445312e+00) (30, 5.53618431091308593750e-01) (31, 1.68015241622924804688e+00) (32, 1.45274534821510314941e-01) (33, 9.58257317543029785156e-01) (34, -2.73513436317443847656e+00) (35, 6.68585777282714843750e-01) (36, 6.79563856124877929688e+00) (37, -3.09512042999267578125e+00) (38, -1.23009121417999267578e+00) (39, 8.46127867698669433594e-02) (40, 3.38559240102767944336e-01) (41, 9.14796829223632812500e-01) (42, 2.25999355316162109375e-02) (43, 2.74248600006103515625e-01) (44, -9.06366854906082153320e-02) (45, -4.08377361297607421875e+00) (46, -3.06026530265808105469e+00) (47, 1.50000000000000000000e+03) (48, 1.50000000000000000000e+03) (49, 1.50000000000000000000e+03) (50, 1.50000000000000000000e+03) (51, 1.50000000000000000000e+03) (52, 1.50000000000000000000e+03) (53, 1.50000000000000000000e+03) (54, 1.50000000000000000000e+03) (55, 1.50000000000000000000e+03) (56, 1.50000000000000000000e+03) (57, 1.50000000000000000000e+03) (58, 1.50000000000000000000e+03) (59, 1.50000000000000000000e+03) (60, 1.06879912316799163818e-01) (61, 9.34245139360427856445e-02) (62, -1.66004907805472612381e-03) (63, 4.54204194247722625732e-02) (64, 1.60945802927017211914e-01) (65, 1.01543724536895751953e-01) (66, 1.05298638343811035156e-01) (67, 7.74204656481742858887e-02) (68, 1.93489596247673034668e-01) (69, 6.57036975026130676270e-02) (70, 1.33637547492980957031e-01) (71, 8.89825299382209777832e-02) (72, 2.48469691723585128784e-02) (73, 7.36985877156257629395e-02) (74, -7.98517838120460510254e-03) (75, 6.90319985151290893555e-02) (76, 1.26893334090709686279e-02) (77, 1.21920019388198852539e-01) (78, 2.09967553615570068359e-01) (79, 1.28990426659584045410e-01) (80, 8.33067074418067932129e-02) (81, 1.80886656045913696289e-01) (82, 1.78201615810394287109e-01) (83, 6.68826177716255187988e-02) (84, 1.56227141618728637695e-01) (85, 8.38096961379051208496e-02) (86, 2.58916795253753662109e-01) (87, -1.67674756050109863281e+00) (88, -2.64904558658599853516e-01) (89, 2.77891516685485839844e-01) (90, 1.30856066942214965820e-01) (91, -5.50956106185913085938e+00) (92, -8.04477119445800781250e+00) (93, -8.60440582036972045898e-02) (94, 1.50000000000000000000e+03) (95, 1.50000000000000000000e+03) (96, 1.50000000000000000000e+03) (97, 1.50000000000000000000e+03) (98, 1.50000000000000000000e+03) (99, 1.50000000000000000000e+03) (100, 1.50000000000000000000e+03) (101, 1.50000000000000000000e+03) (102, 1.50000000000000000000e+03) (103, 1.50000000000000000000e+03) (104, 1.50000000000000000000e+03) (105, 1.50000000000000000000e+03) (106, 1.50000000000000000000e+03) (107, 5.92560648918151855469e-01) (108, -2.19101816415786743164e-01) (109, -2.62595772743225097656e+00) (110, 2.01038026809692382812e+00) (111, 1.04001307487487792969e+00) (112, 3.76461505889892578125e+00) (113, -2.21429800987243652344e+00) (114, -5.61326932907104492188e+00) (115, -3.68037152290344238281e+00) (116, 5.61238908767700195312e+00) (117, 2.66907143592834472656e+00) (118, 4.26797819137573242188e+00) (119, 4.13949775695800781250e+00) (120, 1.20093739032745361328e+00) (121, 8.39272022247314453125e-01) (122, 1.83732852339744567871e-01) (123, 2.08453759551048278809e-02) (124, 1.08007717132568359375e+00) (125, 6.19299530982971191406e-01) (126, 1.38205075263977050781e+00) (127, 5.46353876590728759766e-01) (128, 9.45684969425201416016e-01) (129, 1.15136635303497314453e+00) (130, -3.79523366689682006836e-01) (131, 1.07466125488281250000e+00) (132, 9.95015859603881835938e-01) (133, 1.26057946681976318359e+00) (134, 1.49107381701469421387e-01) (135, 3.66616439819335937500e+00) (136, -5.02355623245239257812e+00) (137, 3.88729184865951538086e-01) (138, -2.32649278640747070312e+00) (139, 1.07890319824218750000e+00) (140, 3.82251334190368652344e+00) (141, 1.50000000000000000000e+03) (142, 1.50000000000000000000e+03) (143, 1.50000000000000000000e+03) (144, 1.50000000000000000000e+03) (145, 1.50000000000000000000e+03) (146, 1.50000000000000000000e+03) (147, 1.50000000000000000000e+03) (148, 1.50000000000000000000e+03) (149, 1.50000000000000000000e+03) (150, 1.50000000000000000000e+03) (151, 1.50000000000000000000e+03) (152, 1.50000000000000000000e+03) (153, 1.50000000000000000000e+03) (154, -1.10956823825836181641e+00) (155, -5.92747390270233154297e-01) (156, 1.04246151447296142578e+00) (157, -4.04222011566162109375e-01) (158, -4.43517565727233886719e-01) (159, -3.43906104564666748047e-01) (160, -6.18902385234832763672e-01) (161, 7.86105155944824218750e-01) (162, -3.34082871675491333008e-01) (163, -2.24840477108955383301e-01) (164, 4.05424833297729492188e+00) (165, -1.57540738582611083984e-01) (166, -5.17095088958740234375e-01) (167, -5.09592831134796142578e-01) (168, -2.71554917097091674805e-01) (169, 1.11485600471496582031e+00) (170, -6.76554024219512939453e-01) (171, -5.73079049587249755859e-01) (172, -2.68910735845565795898e-01) (173, -7.81480193138122558594e-01) (174, -5.84676302969455718994e-02) (175, 2.21412390470504760742e-01) (176, -5.31961560249328613281e-01) (177, 1.69708275794982910156e+00) (178, -1.95169523358345031738e-01) (179, -3.10538232326507568359e-01) (180, 5.87400138378143310547e-01) (181, -6.14421218633651733398e-02) (182, -9.74043941497802734375e+00) (183, 2.91633993387222290039e-01) (184, 6.34956693649291992188e+00) (185, -6.70272016525268554688e+00) (186, -8.46541702747344970703e-01) (187, -1.74081251025199890137e-01) (188, 4.30670119822025299072e-02) (189, -6.49824619293212890625e+00) (190, 5.12130022048950195312e-01) (191, -1.18786156177520751953e+00) (192, 2.54906922578811645508e-01) (193, 2.02452468872070312500e+00) (0, -1.08120396733283996582e-01) (1, 1.69954729080200195312e+00) (2, -2.97627949714660644531e+00) (3, 1.40146815776824951172e+00) (4, 3.85871469974517822266e-01) (5, -1.86635076999664306641e-01) (6, 3.45161318778991699219e+00) (7, 4.95917129516601562500e+00) (8, 3.06668114662170410156e+00) (9, -4.70182371139526367188e+00) (10, -5.89847183227539062500e+00) (11, 4.42938375473022460938e+00) (12, 1.50653171539306640625e+00) (13, -3.80309033393859863281e+00) (14, -3.63228249549865722656e+00) (15, -9.57314682006835937500e+00) (16, -4.57179594039916992188e+00) (17, 7.35956335067749023438e+00) (18, -5.99023640155792236328e-01) (19, 7.35677540302276611328e-01) (20, 5.32699108123779296875e-01) (21, -9.88939762115478515625e-01) (22, -1.46593894958496093750e+01) (23, 2.39405250549316406250e+00) (24, 3.21171790361404418945e-01) (25, 2.52423877716064453125e+01) (26, -8.91072928905487060547e-01) (27, 1.65236914157867431641e+00) (28, 3.43953680992126464844e+00) (29, 1.93267810344696044922e+00) (30, 2.07134866714477539062e+00) (31, 8.52758467197418212891e-01) (32, 1.09493315219879150391e+00) (33, -2.97673583030700683594e+00) (34, -2.01347661018371582031e+00) (35, -6.49150431156158447266e-01) (36, 3.73276066780090332031e+00) (37, 7.36435711383819580078e-01) (38, 1.07727928161621093750e+01) (39, 2.42449775338172912598e-01) (40, -3.08876544237136840820e-01) (41, -8.41657066345214843750e+00) (42, 3.88748124241828918457e-02) (43, 2.62081414461135864258e-01) (44, 1.84074208140373229980e-01) (45, -3.80824118852615356445e-01) (46, -1.70985963195562362671e-02) (47, 1.50000000000000000000e+03) (48, 1.50000000000000000000e+03) (49, 1.50000000000000000000e+03) (50, 1.50000000000000000000e+03) (51, 1.50000000000000000000e+03) (52, 1.50000000000000000000e+03) (53, 1.50000000000000000000e+03) (54, 1.50000000000000000000e+03) (55, 1.50000000000000000000e+03) (56, 1.50000000000000000000e+03) (57, 1.50000000000000000000e+03) (58, 1.50000000000000000000e+03) (59, 1.50000000000000000000e+03) (60, 1.16405235603451728821e-02) (61, 9.18645411729812622070e-02) (62, 3.75877246260643005371e-02) (63, 9.55762341618537902832e-02) (64, -3.11978184618055820465e-03) (65, -3.85100319981575012207e-02) (66, 1.47119751200079917908e-02) (67, 5.86189180612564086914e-02) (68, -3.39570059441030025482e-03) (69, -7.37667009234428405762e-02) (70, 2.84314807504415512085e-03) (71, 4.32373508810997009277e-02) (72, 2.00317148119211196899e-02) (73, 1.08657563105225563049e-02) (74, 1.17111336439847946167e-02) (75, -1.30935041233897209167e-02) (76, 1.54302893206477165222e-02) (77, 6.81255981326103210449e-02) (78, -3.54310348629951477051e-02) (79, -6.92920237779617309570e-02) (80, -1.10314019024372100830e-01) (81, 1.36747360229492187500e-02) (82, 5.05371391773223876953e-02) (83, -1.14249505102634429932e-01) (84, -8.23245644569396972656e-02) (85, 1.18430471047759056091e-02) (86, 5.82418107986450195312e+00) (87, 5.20682752132415771484e-01) (88, -8.28322827816009521484e-01) (89, -5.80623447895050048828e-01) (90, -2.02668726444244384766e-01) (91, -8.53817105293273925781e-01) (92, 7.27847158908843994141e-01) (93, -1.98282098770141601562e+00) (94, 1.50000000000000000000e+03) (95, 1.50000000000000000000e+03) (96, 1.50000000000000000000e+03) (97, 1.50000000000000000000e+03) (98, 1.50000000000000000000e+03) (99, 1.50000000000000000000e+03) (100, 1.50000000000000000000e+03) (101, 1.50000000000000000000e+03) (102, 1.50000000000000000000e+03) (103, 1.50000000000000000000e+03) (104, 1.50000000000000000000e+03) (105, 1.50000000000000000000e+03) (106, 1.50000000000000000000e+03) (107, 3.16384148597717285156e+00) (108, 2.76373219490051269531e+00) (109, 9.05560207366943359375e+00) (110, 9.47757482528686523438e-01) (111, 2.41156125068664550781e+00) (112, 1.08485794067382812500e+00) (113, 3.54633831977844238281e+00) (114, -2.29814219474792480469e+00) (115, -5.56784725189208984375e+00) (116, -1.28480648994445800781e+00) (117, -1.24840095639228820801e-01) (118, -1.96850925683975219727e-01) (119, 2.64200401306152343750e+00) (120, 4.28433942794799804688e+00) (121, 2.60693520307540893555e-01) (122, 2.78756231069564819336e-01) (123, 1.47606182098388671875e+01) (124, 1.01123726367950439453e+00) (125, 1.06225168704986572266e+00) (126, 2.35298848152160644531e+00) (127, 1.14835798740386962891e+00) (128, 1.90186464786529541016e+00) (129, 8.13482105731964111328e-01) (130, 2.34061777591705322266e-01) (131, 1.04046547412872314453e+00) (132, 1.41270720958709716797e+00) (133, 2.16307663917541503906e+00) (134, 3.99121880531311035156e+00) (135, -3.71592807769775390625e+00) (136, 8.24048399925231933594e-01) (137, 4.24053192138671875000e+00) (138, 8.54078650474548339844e-01) (139, 8.00085783004760742188e-01) (140, -3.69362187385559082031e+00) (141, 1.50000000000000000000e+03) (142, 1.50000000000000000000e+03) (143, 1.50000000000000000000e+03) (144, 1.50000000000000000000e+03) (145, 1.50000000000000000000e+03) (146, 1.50000000000000000000e+03) (147, 1.50000000000000000000e+03) (148, 1.50000000000000000000e+03) (149, 1.50000000000000000000e+03) (150, 1.50000000000000000000e+03) (151, 1.50000000000000000000e+03) (152, 1.50000000000000000000e+03) (153, 1.50000000000000000000e+03) (154, -1.00235033035278320312e+00) (155, -1.35023641586303710938e+00) (156, 9.33003664016723632812e-01) (157, -1.84824973344802856445e-01) (158, -4.83561187982559204102e-01) (159, -5.27293145656585693359e-01) (160, -2.65453279018402099609e-01) (161, -3.80284160375595092773e-01) (162, -2.82390475273132324219e-01) (163, -5.01831471920013427734e-01) (164, 1.95029842853546142578e+00) (165, -1.88789695501327514648e-01) (166, -1.85336694121360778809e-01) (167, -9.51112031936645507812e-01) (168, -1.65045171976089477539e-01) (169, 8.62232506275177001953e-01) (170, -1.19442343711853027344e-01) (171, -4.02072042226791381836e-01) (172, -4.74697321653366088867e-01) (173, -3.04706186056137084961e-01) (174, -3.23072701692581176758e-01) (175, -7.84279406070709228516e-01) (176, -3.99543523788452148438e-01) (177, 6.83943748474121093750e-01) (178, -1.34303838014602661133e-01) (179, 1.36358857154846191406e-01) (180, 1.43897545337677001953e+00) (181, -1.17691501975059509277e-01) (182, 2.33607602119445800781e+00) (183, 4.59402561187744140625e+00) (184, 4.55707263946533203125e+00) (185, 2.55730915069580078125e+00) (186, 7.21969425678253173828e-01) (187, 7.66795158386230468750e-01) (188, -5.88314914703369140625e+00) (189, -5.47137832641601562500e+00) (190, -9.45237696170806884766e-01) (191, -1.15433764457702636719e+00) (192, 1.42505258321762084961e-01) (193, 6.87119126319885253906e-01) (0, 6.01493597030639648438e-01) (1, 4.45936489105224609375e+00) (2, -3.84055423736572265625e+00) (3, 1.56492209434509277344e+00) (4, 3.65768718719482421875e+00) (5, -6.13138914108276367188e+00) (6, 2.68244838714599609375e+00) (7, 7.02983379364013671875e-01) (8, 1.03533375263214111328e+00) (9, 2.31794643402099609375e+00) (10, 5.44143140316009521484e-01) (11, 8.56792569160461425781e-01) (12, -5.69080114364624023438e+00) (13, -7.10500621795654296875e+00) (14, -6.04512453079223632812e+00) (15, 4.76952314376831054688e-01) (16, 7.85408830642700195312e+00) (17, 1.61006259918212890625e+01) (18, 1.38746964931488037109e+00) (19, -1.31886124610900878906e-01) (20, -5.25217361450195312500e+01) (21, -7.66639614105224609375e+00) (22, -1.95946097373962402344e+00) (23, -3.38004326820373535156e+00) (24, -2.27756738662719726562e+00) (25, 1.72089374065399169922e+00) (26, 9.58168685436248779297e-01) (27, 1.11297333240509033203e+00) (28, 2.80410218238830566406e+00) (29, 1.93708407878875732422e+00) (30, 4.02371138334274291992e-01) (31, 8.52850914001464843750e-01) (32, 4.76430177688598632812e+00) (33, -1.32269363403320312500e+02) (34, -1.50576248764991760254e-01) (35, 6.46334350109100341797e-01) (36, 5.25585317611694335938e+00) (37, -1.20846710205078125000e+01) (38, 3.28683700561523437500e+01) (39, 2.29351425170898437500e+00) (40, 4.34821987152099609375e+00) (41, -2.68257141113281250000e+00) (42, -4.00871634483337402344e-02) (43, -1.51254266500473022461e-01) (44, -9.69007849693298339844e-01) (45, -6.63763332366943359375e+00) (46, -6.83231949806213378906e-01) (47, 1.50000000000000000000e+03) (48, 1.50000000000000000000e+03) (49, 1.50000000000000000000e+03) (50, 1.50000000000000000000e+03) (51, 1.50000000000000000000e+03) (52, 1.50000000000000000000e+03) (53, 1.50000000000000000000e+03) (54, 1.50000000000000000000e+03) (55, 1.50000000000000000000e+03) (56, 1.50000000000000000000e+03) (57, 1.50000000000000000000e+03) (58, 1.50000000000000000000e+03) (59, 1.50000000000000000000e+03) (60, -2.55598694086074829102e-01) (61, 1.03593491017818450928e-01) (62, -1.20999924838542938232e-01) (63, -5.52191995084285736084e-02) (64, -1.16820350289344787598e-01) (65, -7.40619450807571411133e-02) (66, -1.16907149553298950195e-01) (67, -3.17949473857879638672e-01) (68, -7.22838118672370910645e-02) (69, -6.96311518549919128418e-02) (70, -1.98081552982330322266e-01) (71, -1.19084410369396209717e-01) (72, -2.15048342943191528320e-02) (73, -1.78348273038864135742e-01) (74, 4.82347123324871063232e-02) (75, -1.03580012917518615723e-01) (76, -8.75243842601776123047e-02) (77, -1.54935240745544433594e-01) (78, -5.96969015896320343018e-02) (79, -1.76952734589576721191e-01) (80, -2.94371128082275390625e-01) (81, -1.27513155341148376465e-01) (82, 6.49734139442443847656e-02) (83, -1.65287598967552185059e-01) (84, -5.27885854244232177734e-02) (85, -8.69072079658508300781e-02) (86, 6.40783166885375976562e+00) (87, 4.90750598907470703125e+00) (88, -7.59051024913787841797e-01) (89, 1.65274369716644287109e+00) (90, -1.20767879486083984375e+01) (91, 2.84861654043197631836e-01) (92, 2.28963736444711685181e-02) (93, -1.84655761718750000000e+01) (94, 1.50000000000000000000e+03) (95, 1.50000000000000000000e+03) (96, 1.50000000000000000000e+03) (97, 1.50000000000000000000e+03) (98, 1.50000000000000000000e+03) (99, 1.50000000000000000000e+03) (100, 1.50000000000000000000e+03) (101, 1.50000000000000000000e+03) (102, 1.50000000000000000000e+03) (103, 1.50000000000000000000e+03) (104, 1.50000000000000000000e+03) (105, 1.50000000000000000000e+03) (106, 1.50000000000000000000e+03) (107, -1.58451852798461914062e+01) (108, 3.45176249742507934570e-01) (109, 1.22968888282775878906e+00) (110, -1.00158472061157226562e+01) (111, 1.11380398273468017578e+00) (112, 6.57387161254882812500e+00) (113, -1.99325065612792968750e+01) (114, -1.13758583068847656250e+01) (115, -1.47124013900756835938e+01) (116, 1.54162254333496093750e+01) (117, -9.22726249694824218750e+00) (118, -1.11196494102478027344e+00) (119, 1.03268444538116455078e+00) (120, 5.48587894439697265625e+00) (121, 2.75025391578674316406e+00) (122, 1.01059532165527343750e+00) (123, 1.02065575122833251953e+00) (124, 1.32410109043121337891e+00) (125, 1.75250935554504394531e+00) (126, 2.03483438491821289062e+00) (127, 3.96065980195999145508e-01) (128, 1.00516104698181152344e+00) (129, 5.36973714828491210938e-01) (130, 9.69853341579437255859e-01) (131, 4.80739176273345947266e-01) (132, 7.67558574676513671875e-01) (133, -4.40220862627029418945e-01) (134, 5.99316835403442382812e+00) (135, 8.58126926422119140625e+00) (136, -3.53016281127929687500e+00) (137, -9.83166599273681640625e+00) (138, -1.57746756076812744141e+00) (139, 2.55983710289001464844e-01) (140, -9.52306365966796875000e+00) (141, 1.50000000000000000000e+03) (142, 1.50000000000000000000e+03) (143, 1.50000000000000000000e+03) (144, 1.50000000000000000000e+03) (145, 1.50000000000000000000e+03) (146, 1.50000000000000000000e+03) (147, 1.50000000000000000000e+03) (148, 1.50000000000000000000e+03) (149, 1.50000000000000000000e+03) (150, 1.50000000000000000000e+03) (151, 1.50000000000000000000e+03) (152, 1.50000000000000000000e+03) (153, 1.50000000000000000000e+03) (154, -9.75296306610107421875e+00) (155, -1.21868050098419189453e+00) (156, -7.79029577970504760742e-02) (157, -1.07954226434230804443e-01) (158, -3.26087206602096557617e-01) (159, -1.18013274669647216797e+00) (160, -6.03181660175323486328e-01) (161, -6.95145511627197265625e+00) (162, -1.27715438604354858398e-01) (163, -9.06394481658935546875e+00) (164, -4.72442179918289184570e-01) (165, -6.74126386642456054688e-01) (166, -4.11748021841049194336e-01) (167, -3.11465144157409667969e+00) (168, -1.58249783515930175781e+00) (169, -3.49607646465301513672e-01) (170, -3.48905158042907714844e+00) (171, -4.38659459352493286133e-01) (172, -2.77860569953918457031e+00) (173, -7.56286323070526123047e-01) (174, -4.32954931259155273438e+00) (175, -2.82089442014694213867e-01) (176, -1.30842316150665283203e+00) (177, -6.13576769828796386719e-01) (178, -2.57257968187332153320e-01) (179, -1.17420233786106109619e-01) (180, 4.02571344375610351562e+00) (181, 4.12914848327636718750e+00) (182, 1.08231391906738281250e+01) (183, -3.60485029220581054688e+00) (184, -2.48308491706848144531e+00) (185, -1.03330030441284179688e+01) (186, 1.29537582397460937500e+01) (187, -8.29580500721931457520e-02) (188, 4.82331663370132446289e-01) (189, 5.26856899261474609375e-01) (190, -8.24658632278442382812e-01) (191, 6.49299442768096923828e-01) (192, -1.11010730266571044922e+00) (193, 4.26496237516403198242e-01) (0, 5.68729281425476074219e-01) (1, 4.09417659044265747070e-01) (2, -1.07017412185668945312e+01) (3, -1.07319273054599761963e-01) (4, -6.94311499595642089844e-01) (5, -3.72816967964172363281e+00) (6, 5.50212526321411132812e+00) (7, 2.22183251380920410156e+00) (8, 1.79169864654541015625e+01) (9, 7.62892866134643554688e+00) (10, 1.01561641693115234375e+01) (11, 8.46696317195892333984e-01) (12, -2.46834969520568847656e+00) (13, 2.09425711631774902344e+00) (14, 1.84246349334716796875e+00) (15, 1.16273832321166992188e+00) (16, 4.18584899902343750000e+01) (17, 1.31560363769531250000e+02) (18, 4.12628459930419921875e+00) (19, 3.84025305509567260742e-01) (20, -5.40544450283050537109e-01) (21, 1.40746366977691650391e+00) (22, 9.57115745544433593750e+00) (23, 6.17422246932983398438e+00) (24, 1.75064182281494140625e+01) (25, 8.63140296936035156250e+00) (26, 4.63459539413452148438e+00) (27, -1.53659582138061523438e-01) (28, 3.51682448387145996094e+00) (29, -8.03630471229553222656e-01) (30, 4.74882632493972778320e-01) (31, 4.60831522941589355469e-01) (32, -5.39060302734375000000e+02) (33, -8.01468933105468750000e+02) (34, -2.88565278053283691406e+00) (35, -8.45489203929901123047e-01) (36, 1.00077438354492187500e+01) (37, 1.62217402458190917969e+00) (38, 2.73394287109375000000e+02) (39, 1.55417311191558837891e+00) (40, -5.58373518288135528564e-02) (41, -2.29463484138250350952e-02) (42, -3.16282778978347778320e-01) (43, -1.94493561983108520508e-01) (44, -6.57495117187500000000e+00) (45, -2.27080512046813964844e+00) (46, 4.58562582731246948242e-01) (47, 1.50000000000000000000e+03) (48, 1.50000000000000000000e+03) (49, 1.50000000000000000000e+03) (50, 1.50000000000000000000e+03) (51, 1.50000000000000000000e+03) (52, 1.50000000000000000000e+03) (53, 1.50000000000000000000e+03) (54, 1.50000000000000000000e+03) (55, 1.50000000000000000000e+03) (56, 1.50000000000000000000e+03) (57, 1.50000000000000000000e+03) (58, 1.50000000000000000000e+03) (59, 1.50000000000000000000e+03) (60, -2.08237096667289733887e-01) (61, -2.64151006937026977539e-01) (62, -5.02932250499725341797e-01) (63, -6.25637173652648925781e-01) (64, -4.31134104728698730469e-01) (65, -2.43210613727569580078e-01) (66, -4.18094307184219360352e-01) (67, -2.58852958679199218750e-01) (68, -3.03584933280944824219e-01) (69, -3.54967057704925537109e-01) (70, -1.74983322620391845703e-01) (71, -1.17490911483764648438e+00) (72, -3.34485113620758056641e-01) (73, -3.22587400674819946289e-01) (74, -2.44410991668701171875e-01) (75, -5.58155298233032226562e-01) (76, -2.06954449415206909180e-01) (77, -2.77344465255737304688e-01) (78, -2.81998425722122192383e-01) (79, -5.17631292343139648438e-01) (80, -3.68394345045089721680e-01) (81, -3.47556978464126586914e-01) (82, -2.18265891075134277344e-01) (83, -2.25105360150337219238e-01) (84, -4.56069558858871459961e-01) (85, -4.13740575313568115234e-01) (86, 1.37242209911346435547e+00) (87, -1.03321194648742675781e+00) (88, 8.62471342086791992188e-01) (89, -5.70332348346710205078e-01) (90, 8.36991119384765625000e+00) (91, -5.02544546127319335938e+00) (92, -5.52852451801300048828e-01) (93, 1.07897195816040039062e+01) (94, 1.50000000000000000000e+03) (95, 1.50000000000000000000e+03) (96, 1.50000000000000000000e+03) (97, 1.50000000000000000000e+03) (98, 1.50000000000000000000e+03) (99, 1.50000000000000000000e+03) (100, 1.50000000000000000000e+03) (101, 1.50000000000000000000e+03) (102, 1.50000000000000000000e+03) (103, 1.50000000000000000000e+03) (104, 1.50000000000000000000e+03) (105, 1.50000000000000000000e+03) (106, 1.50000000000000000000e+03) (107, 5.21671414375305175781e-01) (108, 2.31193351745605468750e+00) (109, 1.65884137153625488281e+00) (110, -1.77927583456039428711e-01) (111, 1.24147999286651611328e+00) (112, -9.95012092590332031250e+00) (113, 7.56230711936950683594e-01) (114, 5.99298000335693359375e-01) (115, 1.72873187065124511719e+00) (116, -6.45493268966674804688e+00) (117, -5.43971347808837890625e+00) (118, 3.82494473457336425781e+00) (119, 8.97474825382232666016e-01) (120, 1.14590489864349365234e+00) (121, 1.31634831428527832031e+00) (122, 1.12216317653656005859e+00) (123, 6.92315280437469482422e-01) (124, 7.42622554302215576172e-01) (125, -8.08906674385070800781e-01) (126, 5.12491703033447265625e-01) (127, 1.08423316478729248047e+00) (128, -4.19926977157592773438e+00) (129, 2.13265633583068847656e+00) (130, 9.11281466484069824219e-01) (131, 1.12205958366394042969e+00) (132, 5.93012273311614990234e-01) (133, 4.51788473129272460938e+00) (134, 2.25981426239013671875e+00) (135, 2.49524068832397460938e+00) (136, 1.00703346729278564453e+00) (137, 5.83336114883422851562e+00) (138, 8.03950667381286621094e-01) (139, 5.13639867305755615234e-01) (140, 3.38003921508789062500e+00) (141, 1.50000000000000000000e+03) (142, 1.50000000000000000000e+03) (143, 1.50000000000000000000e+03) (144, 1.50000000000000000000e+03) (145, 1.50000000000000000000e+03) (146, 1.50000000000000000000e+03) (147, 1.50000000000000000000e+03) (148, 1.50000000000000000000e+03) (149, 1.50000000000000000000e+03) (150, 1.50000000000000000000e+03) (151, 1.50000000000000000000e+03) (152, 1.50000000000000000000e+03) (153, 1.50000000000000000000e+03) (154, -4.27699148654937744141e-01) (155, -5.32895267009735107422e-01) (156, -2.10535836219787597656e+00) (157, -5.77973090112209320068e-02) (158, -5.19917726516723632812e-01) (159, -4.80717867612838745117e-02) (160, -5.67611455917358398438e-01) (161, -6.15247376263141632080e-02) (162, -9.99776601791381835938e-01) (163, -5.37680089473724365234e-01) (164, -3.33837568759918212891e-01) (165, -4.84516710042953491211e-01) (166, -6.49086087942123413086e-02) (167, -5.41536033153533935547e-01) (168, -3.94585222005844116211e-01) (169, -8.26869845390319824219e-01) (170, 1.07242792844772338867e-01) (171, -5.28827428817749023438e-01) (172, -1.32847219705581665039e-01) (173, -8.31679701805114746094e-02) (174, -1.72199327498674392700e-02) (175, -1.80903166532516479492e-01) (176, -1.31676137447357177734e+00) (177, -2.54390627145767211914e-01) (178, -5.40358006954193115234e-01) (179, 5.47987706959247589111e-02) (180, 3.27635645866394042969e+00) (181, 4.40976709127426147461e-01) (182, 2.38125640898942947388e-02) (183, -2.18489694595336914062e+00) (184, -3.02006721496582031250e+00) (185, 2.04847431182861328125e+00) (186, 4.16758388280868530273e-01) (187, 1.20866289138793945312e+01) (188, -3.21595978736877441406e+00) (189, 3.10664558410644531250e+00) (190, -9.29485321044921875000e-01) (191, 3.53612422943115234375e-01) (192, 1.58481049537658691406e+00) (193, 4.59482759237289428711e-01) (0, 4.76702308654785156250e+00) (1, -3.53812623023986816406e+00) (2, 8.26047360897064208984e-03) (3, 4.53897809982299804688e+00) (4, 5.64546585083007812500e-01) (5, -1.01602637767791748047e+00) (6, -1.77827668190002441406e+00) (7, 6.38786745071411132812e+00) (8, 1.81775116920471191406e+00) (9, -1.08975183963775634766e+00) (10, -8.62460315227508544922e-01) (11, 5.29706239700317382812e+00) (12, -6.65578889846801757812e+00) (13, -7.78438925743103027344e-01) (14, -3.17141771316528320312e+00) (15, -1.90531238913536071777e-01) (16, -9.95291137695312500000e+00) (17, 2.06244969367980957031e+00) (18, -3.78094124794006347656e+00) (19, 1.98548913002014160156e+00) (20, -4.02912348508834838867e-01) (21, 1.63168060779571533203e+00) (22, -2.87586522102355957031e+00) (23, -7.62679433822631835938e+00) (24, 6.68893754482269287109e-01) (25, 3.43683505058288574219e+00) (26, 8.47667098045349121094e-01) (27, 1.32009768486022949219e+00) (28, 2.17001438140869140625e+00) (29, 4.34513747692108154297e-01) (30, 7.43487179279327392578e-01) (31, 5.13279676437377929688e-01) (32, -6.86977922916412353516e-01) (33, -6.69067680835723876953e-01) (34, -2.10820481181144714355e-01) (35, -5.85107040405273437500e+00) (36, 1.38323247432708740234e+00) (37, 7.94918727874755859375e+00) (38, -1.12686944007873535156e+00) (39, -2.02413961291313171387e-01) (40, 2.76480937004089355469e+00) (41, 9.48427677154541015625e-01) (42, 6.86285018920898437500e-01) (43, 2.17543542385101318359e-01) (44, -1.53728991746902465820e-01) (45, 8.82214866578578948975e-03) (46, 1.81582045555114746094e+00) (47, 1.50000000000000000000e+03) (48, 1.50000000000000000000e+03) (49, 1.50000000000000000000e+03) (50, 1.50000000000000000000e+03) (51, 1.50000000000000000000e+03) (52, 1.50000000000000000000e+03) (53, 1.50000000000000000000e+03) (54, 1.50000000000000000000e+03) (55, 1.50000000000000000000e+03) (56, 1.50000000000000000000e+03) (57, 1.50000000000000000000e+03) (58, 1.50000000000000000000e+03) (59, 1.50000000000000000000e+03) (60, -3.13876181840896606445e-01) (61, 2.36998498439788818359e-01) (62, 3.04510951042175292969e-01) (63, 1.91985785961151123047e-01) (64, -1.13592758774757385254e-01) (65, 1.84944823384284973145e-01) (66, 2.42962583899497985840e-01) (67, 1.61692678928375244141e-01) (68, 2.04700604081153869629e-01) (69, 1.71635225415229797363e-01) (70, 2.14651226997375488281e-01) (71, 3.08869391679763793945e-01) (72, 1.61488786339759826660e-01) (73, 1.87276065349578857422e-01) (74, 2.19732701778411865234e-01) (75, 1.56446173787117004395e-01) (76, 1.73287853598594665527e-01) (77, -1.11399136483669281006e-01) (78, 2.11464688181877136230e-01) (79, 2.17395782470703125000e-01) (80, 1.75101548433303833008e-01) (81, 2.82882094383239746094e-01) (82, 2.42844969034194946289e-01) (83, 9.49997678399085998535e-02) (84, 2.18768745660781860352e-01) (85, 2.93250828981399536133e-01) (86, 2.26171064376831054688e+00) (87, -3.22819399833679199219e+00) (88, 1.83749318122863769531e+00) (89, 3.77594791352748870850e-02) (90, 3.99170786142349243164e-01) (91, 2.02544617652893066406e+00) (92, -4.72522139549255371094e-01) (93, -1.19376337528228759766e+00) (94, 1.50000000000000000000e+03) (95, 1.50000000000000000000e+03) (96, 1.50000000000000000000e+03) (97, 1.50000000000000000000e+03) (98, 1.50000000000000000000e+03) (99, 1.50000000000000000000e+03) (100, 1.50000000000000000000e+03) (101, 1.50000000000000000000e+03) (102, 1.50000000000000000000e+03) (103, 1.50000000000000000000e+03) (104, 1.50000000000000000000e+03) (105, 1.50000000000000000000e+03) (106, 1.50000000000000000000e+03) (107, -8.21218729019165039062e-01) (108, -1.25755786895751953125e+00) (109, -2.67636030912399291992e-01) (110, 2.88509488105773925781e+00) (111, 6.93375945091247558594e-01) (112, 3.50637745857238769531e+00) (113, 1.59909796714782714844e+00) (114, 2.47098731994628906250e+00) (115, -2.09655303955078125000e+01) (116, 1.82499103546142578125e+01) (117, 6.81099057197570800781e-01) (118, -1.94905352592468261719e+00) (119, 1.48385715484619140625e+00) (120, 1.38829803466796875000e+00) (121, 4.49882984161376953125e-01) (122, 3.71555447578430175781e-01) (123, 1.61715638637542724609e+00) (124, 2.90923285484313964844e+00) (125, 1.75903165340423583984e+00) (126, 1.22316694259643554688e+00) (127, 3.36222553253173828125e+00) (128, 3.29268813133239746094e-01) (129, 9.57474529743194580078e-01) (130, 1.05655360221862792969e+00) (131, -4.63027842342853546143e-02) (132, 1.28523385524749755859e+00) (133, -2.12140727043151855469e+00) (134, 7.14846324920654296875e+00) (135, 8.92682313919067382812e-01) (136, 8.96355450153350830078e-01) (137, 4.06589937210083007812e+00) (138, 5.86214900016784667969e-01) (139, -4.68998956680297851562e+00) (140, 2.74666333198547363281e+00) (141, 1.50000000000000000000e+03) (142, 1.50000000000000000000e+03) (143, 1.50000000000000000000e+03) (144, 1.50000000000000000000e+03) (145, 1.50000000000000000000e+03) (146, 1.50000000000000000000e+03) (147, 1.50000000000000000000e+03) (148, 1.50000000000000000000e+03) (149, 1.50000000000000000000e+03) (150, 1.50000000000000000000e+03) (151, 1.50000000000000000000e+03) (152, 1.50000000000000000000e+03) (153, 1.50000000000000000000e+03) (154, -4.26206767559051513672e-01) (155, -1.20213769376277923584e-01) (156, -1.15156680345535278320e-01) (157, 5.50972700119018554688e-01) (158, -2.99674004316329956055e-01) (159, -2.59424328804016113281e-01) (160, -9.35033038258552551270e-02) (161, -2.10383653640747070312e-01) (162, -1.80753003805875778198e-02) (163, -2.04963877797126770020e-01) (164, -1.83560401201248168945e-01) (165, 3.11099678277969360352e-01) (166, -2.50706374645233154297e-01) (167, -4.34861302375793457031e-01) (168, -2.48297899961471557617e-01) (169, -6.37570321559906005859e-02) (170, 6.79138839244842529297e-01) (171, -6.56337738037109375000e-01) (172, -6.76038622856140136719e-01) (173, -2.20051124691963195801e-01) (174, -5.73409140110015869141e-01) (175, 6.65567278861999511719e-01) (176, -2.41535305976867675781e-01) (177, -3.32270085811614990234e-01) (178, 6.14303946495056152344e-01) (179, -4.56516593694686889648e-01) (180, 1.24590241909027099609e+00) (181, -3.25487184524536132812e+00) (182, 3.54071468114852905273e-01) (183, 5.88009774684906005859e-01) (184, -3.59367489814758300781e+00) (185, 5.47910261154174804688e+00) (186, -1.81918919086456298828e-01) (187, 5.13837873935699462891e-01) (188, -2.82771921157836914062e+00) (189, -3.00167965888977050781e+00) (190, 1.32789611816406250000e+00) (191, -4.54687881469726562500e+00) (192, -2.93619823455810546875e+00) (193, 1.95146036148071289062e+00) (0, -1.14806884765625000000e+02) (1, 8.63357177734375000000e+02) (2, 1.37968139648437500000e+02) (3, -2.73832458496093750000e+02) (4, -4.80182464599609375000e+02) (5, -4.25149169921875000000e+02) (6, 1.82406005859375000000e+02) (7, 2.99190795898437500000e+02) (8, 3.99520446777343750000e+02) (9, -1.16999694824218750000e+02) (10, -1.03257629394531250000e+03) (11, -2.42644762992858886719e+00) (12, 1.24580004882812500000e+03) (13, -2.63119354248046875000e+01) (14, -1.50000000000000000000e+03) (15, 2.83285583496093750000e+02) (16, -2.15800048828125000000e+02) (17, 8.21015441894531250000e+02) (18, -9.15800048828125000000e+02) (19, 4.69309759140014648438e+00) (20, -6.11319030761718750000e+02) (21, -1.20368969726562500000e+03) (22, 1.47359997558593750000e+03) (23, 8.11802978515625000000e+02) (24, 1.09080004882812500000e+03) (25, 1.14080004882812500000e+03) (26, -9.33622589111328125000e+01) (27, -1.50000000000000000000e+03) (28, -7.91280090332031250000e+02) (29, -7.24691894531250000000e+02) (30, -1.08803161621093750000e+02) (31, -1.07359277343750000000e+03) (32, -1.36580004882812500000e+03) (33, -3.24411590576171875000e+02) (34, 4.77999382019042968750e+01) (35, 1.50000000000000000000e+03) (36, 1.50000000000000000000e+03) (37, 1.07299780273437500000e+03) (38, 1.43400000000000000000e+03) (39, 1.50000000000000000000e+03) (40, -8.20180297851562500000e+02) (41, -1.08385229492187500000e+03) (42, -9.90194396972656250000e+02) (43, -1.15000000000000000000e+03) (44, -4.55000061035156250000e+02) (45, -1.50000000000000000000e+03) (46, -1.50000000000000000000e+03) (47, 1.50000000000000000000e+03) (48, 1.50000000000000000000e+03) (49, 1.50000000000000000000e+03) (50, 1.50000000000000000000e+03) (51, 1.50000000000000000000e+03) (52, 1.50000000000000000000e+03) (53, 1.50000000000000000000e+03) (54, 1.50000000000000000000e+03) (55, 1.50000000000000000000e+03) (56, 1.50000000000000000000e+03) (57, 1.50000000000000000000e+03) (58, 1.50000000000000000000e+03) (59, 1.50000000000000000000e+03) (60, -8.16144226074218750000e+02) (61, -6.25855773925781250000e+02) (62, -4.77115600585937500000e+02) (63, -4.75984497070312500000e+02) (64, -8.66790466308593750000e+02) (65, -4.77312133789062500000e+02) (66, -7.14806701660156250000e+02) (67, -8.15860656738281250000e+02) (68, -4.96239135742187500000e+02) (69, -7.15218078613281250000e+02) (70, -5.77166992187500000000e+02) (71, -4.75787353515625000000e+02) (72, -9.66835998535156250000e+02) (73, -7.16150695800781250000e+02) (74, -7.15280578613281250000e+02) (75, -4.77243774414062500000e+02) (76, -4.75956542968750000000e+02) (77, -8.66847961425781250000e+02) (78, -4.77333862304687500000e+02) (79, -7.14606018066406250000e+02) (80, -7.15905822753906250000e+02) (81, -4.96122192382812500000e+02) (82, -8.15362854003906250000e+02) (83, -5.77234497070312500000e+02) (84, -7.15409240722656250000e+02) (85, -9.66863464355468750000e+02) (86, -3.36882110595703125000e+02) (87, -1.50000000000000000000e+03) (88, -1.50000000000000000000e+03) (89, -1.50000000000000000000e+03) (90, -7.00000061035156250000e+02) (91, -1.27838574218750000000e+03) (92, -1.50000000000000000000e+03) (93, -1.50000000000000000000e+03) (94, 1.50000000000000000000e+03) (95, 1.50000000000000000000e+03) (96, 1.50000000000000000000e+03) (97, 1.50000000000000000000e+03) (98, 1.50000000000000000000e+03) (99, 1.50000000000000000000e+03) (100, 1.50000000000000000000e+03) (101, 1.50000000000000000000e+03) (102, 1.50000000000000000000e+03) (103, 1.50000000000000000000e+03) (104, 1.50000000000000000000e+03) (105, 1.50000000000000000000e+03) (106, 1.50000000000000000000e+03) (107, 5.66363586425781250000e+02) (108, -1.23247729492187500000e+03) (109, -1.20666735839843750000e+03) (110, -1.48861254882812500000e+03) (111, -3.02693786621093750000e+02) (112, -7.82652343750000000000e+02) (113, -5.67061401367187500000e+02) (114, -5.00608428955078125000e+02) (115, -1.36580004882812500000e+03) (116, 6.48761108398437500000e+02) (117, -9.42240783691406250000e+02) (118, 1.39736254882812500000e+03) (119, -6.59360839843750000000e+02) (120, -4.17868103027343750000e+02) (121, -1.44800000000000000000e+03) (122, -1.36527001953125000000e+03) (123, -1.43222070312500000000e+03) (124, -4.32912536621093750000e+02) (125, -2.16194427490234375000e+02) (126, -6.73214904785156250000e+02) (127, -4.95658508300781250000e+02) (128, -9.28022705078125000000e+02) (129, -1.25099523925781250000e+03) (130, -1.30336816406250000000e+03) (131, -9.67611389160156250000e+02) (132, -7.12033020019531250000e+02) (133, -4.74045288085937500000e+02) (134, 4.94492828369140625000e+02) (135, -1.50000000000000000000e+03) (136, -9.40551635742187500000e+02) (137, -6.53650894165039062500e+01) (138, 2.52522827148437500000e+02) (139, 1.00378814697265625000e+02) (140, 1.36532006835937500000e+03) (141, 1.50000000000000000000e+03) (142, 1.50000000000000000000e+03) (143, 1.50000000000000000000e+03) (144, 1.50000000000000000000e+03) (145, 1.50000000000000000000e+03) (146, 1.50000000000000000000e+03) (147, 1.50000000000000000000e+03) (148, 1.50000000000000000000e+03) (149, 1.50000000000000000000e+03) (150, 1.50000000000000000000e+03) (151, 1.50000000000000000000e+03) (152, 1.50000000000000000000e+03) (153, 1.50000000000000000000e+03) (154, 5.22528381347656250000e+02) (155, 1.50000000000000000000e+03) (156, 1.50000000000000000000e+03) (157, 1.39580004882812500000e+03) (158, 6.21119079589843750000e+01) (159, 7.46545349121093750000e+02) (160, 7.93152893066406250000e+02) (161, 7.39763671875000000000e+02) (162, 1.29881372070312500000e+03) (163, 9.07039978027343750000e+02) (164, 1.05838916015625000000e+03) (165, 6.96467834472656250000e+02) (166, 8.49804199218750000000e+02) (167, 6.18674377441406250000e+02) (168, 1.50000000000000000000e+03) (169, 1.50000000000000000000e+03) (170, 1.28256127929687500000e+03) (171, 3.69329895019531250000e+02) (172, 7.14507873535156250000e+02) (173, 1.33580004882812500000e+03) (174, 9.63384460449218750000e+02) (175, 1.21201000976562500000e+03) (176, 1.31559301757812500000e+03) (177, 1.20122033691406250000e+03) (178, 1.15689575195312500000e+03) (179, 8.24003845214843750000e+02) (180, -5.14223999023437500000e+02) (181, 1.50000000000000000000e+03) (182, 1.55725402832031250000e+02) (183, 5.07633117675781250000e+02) (184, -1.26639831542968750000e+02) (185, 9.22224426269531250000e+02) (186, 1.43206884765625000000e+03) (187, 1.10530834960937500000e+03) (188, 1.50000000000000000000e+03) (189, -3.92716827392578125000e+01) (190, 1.38873864746093750000e+03) (191, 1.50000000000000000000e+03) (192, -1.50000000000000000000e+03) (193, -1.63629841804504394531e+00) (0, -3.10285162925720214844e+00) (1, 2.79558634757995605469e+00) (2, -2.02033549547195434570e-01) (3, 5.55701375007629394531e-01) (4, 2.27338480949401855469e+00) (5, -1.40141904354095458984e+00) (6, -2.75366926193237304688e+00) (7, 1.24959783554077148438e+01) (8, 7.32983493804931640625e+00) (9, -5.17411470413208007812e-01) (10, 4.00470972061157226562e+00) (11, 5.47466087341308593750e+00) (12, 8.04459095001220703125e-01) (13, -7.87034845352172851562e+00) (14, -1.34439849853515625000e+01) (15, 1.50347441434860229492e-01) (16, -2.23828136920928955078e-01) (17, 1.90209507942199707031e+00) (18, -2.16884255409240722656e+00) (19, 3.55313754081726074219e+00) (20, 5.15821504592895507812e+00) (21, -6.13282012939453125000e+00) (22, 2.35414281487464904785e-01) (23, 1.66621303558349609375e+00) (24, 1.93990433216094970703e+00) (25, -4.98899936676025390625e+00) (26, 2.06761813163757324219e+00) (27, 1.73543035984039306641e+00) (28, -1.17820870876312255859e+00) (29, -2.16428947448730468750e+00) (30, 8.32547366619110107422e-01) (31, -1.01579437255859375000e+01) (32, -1.08820343017578125000e+01) (33, -1.11184120178222656250e-01) (34, 1.05159368515014648438e+01) (35, 1.43081979751586914062e+01) (36, -6.42843246459960937500e-01) (37, 1.72622680664062500000e+00) (38, -5.68042325973510742188e+00) (39, 5.17766523361206054688e+00) (40, 2.62866473197937011719e+00) (41, 7.61722505092620849609e-01) (42, 6.50110661983489990234e-01) (43, 1.80623546242713928223e-01) (44, -8.59479248523712158203e-01) (45, 4.09605979919433593750e-01) (46, 1.89415931701660156250e+00) (47, 1.50000000000000000000e+03) (48, 1.50000000000000000000e+03) (49, 1.50000000000000000000e+03) (50, 1.50000000000000000000e+03) (51, 1.50000000000000000000e+03) (52, 1.50000000000000000000e+03) (53, 1.50000000000000000000e+03) (54, 1.50000000000000000000e+03) (55, 1.50000000000000000000e+03) (56, 1.50000000000000000000e+03) (57, 1.50000000000000000000e+03) (58, 1.50000000000000000000e+03) (59, 1.50000000000000000000e+03) (60, -7.91177153587341308594e-02) (61, 6.25163987278938293457e-02) (62, 5.03502152860164642334e-02) (63, -3.12074162065982818604e-02) (64, 1.97646915912628173828e-02) (65, 6.29701837897300720215e-02) (66, 7.72720053791999816895e-02) (67, -1.14703647792339324951e-01) (68, 4.75316494703292846680e-02) (69, 4.03949283063411712646e-02) (70, -1.17062315344810485840e-01) (71, -8.30077901482582092285e-02) (72, -1.39487713575363159180e-01) (73, 3.54417227208614349365e-02) (74, -2.77920309454202651978e-02) (75, -2.91699077934026718140e-02) (76, -9.00092869997024536133e-02) (77, -5.78219480812549591064e-02) (78, -1.07539318501949310303e-01) (79, 2.86404304206371307373e-02) (80, -1.36533260345458984375e-01) (81, -1.36773958802223205566e-01) (82, -1.32482513785362243652e-01) (83, 5.88771775364875793457e-02) (84, -1.19177237153053283691e-01) (85, 2.41462606936693191528e-02) (86, -6.30074024200439453125e-01) (87, 3.74452054500579833984e-01) (88, 1.35531342029571533203e+00) (89, -5.46654127538204193115e-02) (90, 2.39963364601135253906e+00) (91, -3.25042772293090820312e+00) (92, 3.39304320514202117920e-02) (93, 6.99915313720703125000e+00) (94, 1.50000000000000000000e+03) (95, 1.50000000000000000000e+03) (96, 1.50000000000000000000e+03) (97, 1.50000000000000000000e+03) (98, 1.50000000000000000000e+03) (99, 1.50000000000000000000e+03) (100, 1.50000000000000000000e+03) (101, 1.50000000000000000000e+03) (102, 1.50000000000000000000e+03) (103, 1.50000000000000000000e+03) (104, 1.50000000000000000000e+03) (105, 1.50000000000000000000e+03) (106, 1.50000000000000000000e+03) (107, 8.41103267669677734375e+00) (108, -5.93727588653564453125e+00) (109, -2.36032605171203613281e-01) (110, 9.18342208862304687500e+00) (111, 4.83129787445068359375e+00) (112, 2.65147328376770019531e+00) (113, 1.86276268959045410156e+00) (114, 2.10639074444770812988e-01) (115, -1.93634116649627685547e+00) (116, 3.21876678466796875000e+01) (117, 5.76175546646118164062e+00) (118, -1.37553870677947998047e+00) (119, -1.57773926854133605957e-01) (120, 7.08727121353149414062e-01) (121, -8.30271148681640625000e+00) (122, 4.57838736474514007568e-02) (123, 2.54003375768661499023e-01) (124, 2.52576541900634765625e+00) (125, 3.44687521457672119141e-01) (126, 6.69699370861053466797e-01) (127, 3.48609656095504760742e-01) (128, 1.25616610050201416016e-01) (129, -3.98154646158218383789e-01) (130, 1.03392809629440307617e-01) (131, 3.71772289276123046875e-01) (132, 8.14762115478515625000e-01) (133, -7.76971995830535888672e-01) (134, -1.01061582565307617188e+01) (135, 5.82198977470397949219e-01) (136, -4.66304588317871093750e+00) (137, 5.58722615242004394531e-01) (138, 3.36613565683364868164e-01) (139, -8.08907318115234375000e+00) (140, 3.34008860588073730469e+00) (141, 1.50000000000000000000e+03) (142, 1.50000000000000000000e+03) (143, 1.50000000000000000000e+03) (144, 1.50000000000000000000e+03) (145, 1.50000000000000000000e+03) (146, 1.50000000000000000000e+03) (147, 1.50000000000000000000e+03) (148, 1.50000000000000000000e+03) (149, 1.50000000000000000000e+03) (150, 1.50000000000000000000e+03) (151, 1.50000000000000000000e+03) (152, 1.50000000000000000000e+03) (153, 1.50000000000000000000e+03) (154, -1.36501714587211608887e-01) (155, 2.97216534614562988281e-01) (156, 1.70812994241714477539e-01) (157, 2.39563137292861938477e-01) (158, 6.07192330062389373779e-02) (159, 1.45027115941047668457e-01) (160, 2.05200046300888061523e-01) (161, 1.98253929615020751953e-01) (162, 3.15126553177833557129e-02) (163, -2.89418026804924011230e-02) (164, 3.09394299983978271484e-01) (165, 2.03113272786140441895e-01) (166, 6.30916357040405273438e-02) (167, -1.65120050311088562012e-01) (168, 3.31037938594818115234e-01) (169, 1.12387135624885559082e-01) (170, 2.08589911460876464844e-01) (171, -7.56186991930007934570e-02) (172, 1.29997372627258300781e-01) (173, 2.30071306228637695312e-01) (174, 9.52377989888191223145e-02) (175, 1.62393182516098022461e-01) (176, 1.13475441932678222656e-01) (177, 2.46017977595329284668e-01) (178, 2.19099774956703186035e-01) (179, 1.50737136602401733398e-01) (180, -5.59513419866561889648e-02) (181, -7.04532337188720703125e+00) (182, -6.17116832733154296875e+00) (183, 1.00844466686248779297e+00) (184, 1.92204594612121582031e+00) (185, 1.09828214645385742188e+01) (186, 7.93225383758544921875e+00) (187, 1.13330888748168945312e+00) (188, -4.52871227264404296875e+00) (189, -6.43185806274414062500e+00) (190, 2.81114292144775390625e+00) (191, -1.77415180206298828125e+01) (192, -1.05278122425079345703e+00) (193, 1.13519620895385742188e+00) (0, -2.10497766733169555664e-01) (1, 4.62105751037597656250e+00) (2, -2.57962083816528320312e+00) (3, 4.98083686828613281250e+00) (4, -9.36589717864990234375e-01) (5, -1.79809784889221191406e+00) (6, 1.17428040504455566406e+00) (7, 6.98328161239624023438e+00) (8, 3.43585777282714843750e+00) (9, 1.35353541374206542969e+00) (10, -2.43422746658325195312e-01) (11, 4.87024879455566406250e+00) (12, -6.43254399299621582031e-01) (13, -1.01057100296020507812e+01) (14, -1.55041313171386718750e+00) (15, -7.01050937175750732422e-01) (16, -1.09165143966674804688e+00) (17, 2.83039498329162597656e+00) (18, 1.01140987873077392578e+00) (19, 1.35007464885711669922e+00) (20, 1.48767650127410888672e+00) (21, 2.39290642738342285156e+00) (22, -2.70670628547668457031e+00) (23, -6.54414987564086914062e+00) (24, -7.35509574413299560547e-01) (25, 1.43681287765502929688e+01) (26, -1.70365706086158752441e-01) (27, 1.20564675331115722656e+00) (28, 1.17993748188018798828e+00) (29, 3.29388189315795898438e+00) (30, 9.36873376369476318359e-01) (31, 2.45552778244018554688e+00) (32, 1.13839483261108398438e+00) (33, 1.55388379096984863281e+00) (34, -1.49179613590240478516e+00) (35, -1.44103574752807617188e+00) (36, -1.38149178028106689453e+00) (37, -8.48412036895751953125e-01) (38, 9.83980298042297363281e-01) (39, 1.19830286502838134766e+00) (40, 7.78010034561157226562e+00) (41, 8.09649944305419921875e-01) (42, -2.55829077214002609253e-02) (43, 3.67187142372131347656e-01) (44, -3.98970782756805419922e-01) (45, -5.31322431564331054688e+00) (46, -2.64491748809814453125e+00) (47, 1.50000000000000000000e+03) (48, 1.50000000000000000000e+03) (49, 1.50000000000000000000e+03) (50, 1.50000000000000000000e+03) (51, 1.50000000000000000000e+03) (52, 1.50000000000000000000e+03) (53, 1.50000000000000000000e+03) (54, 1.50000000000000000000e+03) (55, 1.50000000000000000000e+03) (56, 1.50000000000000000000e+03) (57, 1.50000000000000000000e+03) (58, 1.50000000000000000000e+03) (59, 1.50000000000000000000e+03) (60, -2.60375440120697021484e-01) (61, 1.92143410444259643555e-01) (62, 8.62978398799896240234e-02) (63, 8.74848961830139160156e-02) (64, 1.78440749645233154297e-01) (65, 3.96119020879268646240e-02) (66, 1.13354913890361785889e-01) (67, 1.18623271584510803223e-01) (68, 9.99522656202316284180e-02) (69, 2.32006069272756576538e-02) (70, 4.21554818749427795410e-02) (71, -2.72203087806701660156e-01) (72, 1.86082929372787475586e-01) (73, -3.78018140792846679688e-01) (74, 1.14542245864868164062e-01) (75, -3.51392298936843872070e-01) (76, 1.90650373697280883789e-01) (77, 1.11557312309741973877e-01) (78, 9.52777266502380371094e-02) (79, 1.32869631052017211914e-01) (80, 2.71108716726303100586e-01) (81, 1.98504075407981872559e-01) (82, 3.93359065055847167969e-01) (83, 7.82325863838195800781e-02) (84, -3.78133445978164672852e-01) (85, 1.53037399053573608398e-01) (86, 2.04334712028503417969e+00) (87, -4.61282634735107421875e+00) (88, -7.82040548324584960938e+00) (89, -1.48911803960800170898e-01) (90, 8.78139659762382507324e-02) (91, -3.80313456058502197266e-01) (92, -6.48033618927001953125e-01) (93, 1.23444473743438720703e+00) (94, 1.50000000000000000000e+03) (95, 1.50000000000000000000e+03) (96, 1.50000000000000000000e+03) (97, 1.50000000000000000000e+03) (98, 1.50000000000000000000e+03) (99, 1.50000000000000000000e+03) (100, 1.50000000000000000000e+03) (101, 1.50000000000000000000e+03) (102, 1.50000000000000000000e+03) (103, 1.50000000000000000000e+03) (104, 1.50000000000000000000e+03) (105, 1.50000000000000000000e+03) (106, 1.50000000000000000000e+03) (107, 5.84829139709472656250e+00) (108, -4.75186586380004882812e+00) (109, -3.53592658042907714844e+00) (110, 4.74817895889282226562e+00) (111, 1.89571714401245117188e+00) (112, 2.98447799682617187500e+00) (113, -1.21710956096649169922e+00) (114, 1.52343010902404785156e+00) (115, -1.95247542858123779297e+00) (116, 3.43484950065612792969e+00) (117, 2.15976309776306152344e+00) (118, 4.74330139160156250000e+00) (119, 6.57136887311935424805e-02) (120, 1.46818804740905761719e+00) (121, 8.91601920127868652344e-01) (122, 3.17884504795074462891e-01) (123, 2.53950119018554687500e-01) (124, 2.76461672782897949219e+00) (125, 6.67809069156646728516e-01) (126, 1.11362648010253906250e+00) (127, 2.26961588859558105469e+00) (128, 4.55329298973083496094e-01) (129, -3.33168029785156250000e-01) (130, 8.92282903194427490234e-01) (131, 2.72872596979141235352e-01) (132, 3.06142002344131469727e-01) (133, -4.14145326614379882812e+00) (134, 2.02855968475341796875e+00) (135, -9.47500824928283691406e-01) (136, 7.47631132602691650391e-01) (137, -2.96634316444396972656e-01) (138, -1.43191659450531005859e+00) (139, -7.12328791618347167969e-01) (140, -3.09267431497573852539e-01) (141, 1.50000000000000000000e+03) (142, 1.50000000000000000000e+03) (143, 1.50000000000000000000e+03) (144, 1.50000000000000000000e+03) (145, 1.50000000000000000000e+03) (146, 1.50000000000000000000e+03) (147, 