FANN_FLO_2.1
num_layers=4
learning_rate=0.000500
connection_rate=1.000000
network_type=0
learning_momentum=0.000000
training_algorithm=2
train_error_function=1
train_stop_function=0
cascade_output_change_fraction=0.010000
quickprop_decay=-0.000100
quickprop_mu=1.750000
rprop_increase_factor=1.200000
rprop_decrease_factor=0.500000
rprop_delta_min=0.000000
rprop_delta_max=50.000000
rprop_delta_zero=0.100000
cascade_output_stagnation_epochs=12
cascade_candidate_change_fraction=0.010000
cascade_candidate_stagnation_epochs=12
cascade_max_out_epochs=150
cascade_min_out_epochs=50
cascade_max_cand_epochs=150
cascade_min_cand_epochs=50
cascade_num_candidate_groups=2
bit_fail_limit=3.49999994039535522461e-01
cascade_candidate_limit=1.00000000000000000000e+03
cascade_weight_multiplier=4.00000005960464477539e-01
cascade_activation_functions_count=10
cascade_activation_functions=3 5 7 8 10 11 14 15 16 17 
cascade_activation_steepnesses_count=4
cascade_activation_steepnesses=2.50000000000000000000e-01 5.00000000000000000000e-01 7.50000000000000000000e-01 1.00000000000000000000e+00 
layer_sizes=194 33 9 5 
scale_included=0
neurons (num_inputs, activation_function, activation_steepness)=(0, 0, 0.00000000000000000000e+00) (0, 0, 0.00000000000000000000e+00) (0, 0, 0.00000000000000000000e+00) (0, 0, 0.00000000000000000000e+00) (0, 0, 0.00000000000000000000e+00) (0, 0, 0.00000000000000000000e+00) (0, 0, 0.00000000000000000000e+00) (0, 0, 0.00000000000000000000e+00) (0, 0, 0.00000000000000000000e+00) (0, 0, 0.00000000000000000000e+00) (0, 0, 0.00000000000000000000e+00) (0, 0, 0.00000000000000000000e+00) (0, 0, 0.00000000000000000000e+00) (0, 0, 0.00000000000000000000e+00) (0, 0, 0.00000000000000000000e+00) (0, 0, 0.00000000000000000000e+00) (0, 0, 0.00000000000000000000e+00) (0, 0, 0.00000000000000000000e+00) (0, 0, 0.00000000000000000000e+00) (0, 0, 0.00000000000000000000e+00) (0, 0, 0.00000000000000000000e+00) (0, 0, 0.00000000000000000000e+00) (0, 0, 0.00000000000000000000e+00) (0, 0, 0.00000000000000000000e+00) (0, 0, 0.00000000000000000000e+00) (0, 0, 0.00000000000000000000e+00) (0, 0, 0.00000000000000000000e+00) (0, 0, 0.00000000000000000000e+00) (0, 0, 0.00000000000000000000e+00) (0, 0, 0.00000000000000000000e+00) (0, 0, 0.00000000000000000000e+00) (0, 0, 0.00000000000000000000e+00) (0, 0, 0.00000000000000000000e+00) (0, 0, 0.00000000000000000000e+00) (0, 0, 0.00000000000000000000e+00) (0, 0, 0.00000000000000000000e+00) (0, 0, 0.00000000000000000000e+00) (0, 0, 0.00000000000000000000e+00) (0, 0, 0.00000000000000000000e+00) (0, 0, 0.00000000000000000000e+00) (0, 0, 0.00000000000000000000e+00) (0, 0, 0.00000000000000000000e+00) (0, 0, 0.00000000000000000000e+00) (0, 0, 0.00000000000000000000e+00) (0, 0, 0.00000000000000000000e+00) (0, 0, 0.00000000000000000000e+00) (0, 0, 0.00000000000000000000e+00) (0, 0, 0.00000000000000000000e+00) (0, 0, 0.00000000000000000000e+00) (0, 0, 0.00000000000000000000e+00) (0, 0, 0.00000000000000000000e+00) (0, 0, 0.00000000000000000000e+00) (0, 0, 0.00000000000000000000e+00) (0, 0, 0.00000000000000000000e+00) (0, 0, 0.00000000000000000000e+00) (0, 0, 0.00000000000000000000e+00) (0, 0, 0.00000000000000000000e+00) (0, 0, 0.00000000000000000000e+00) (0, 0, 0.00000000000000000000e+00) (0, 0, 0.00000000000000000000e+00) (0, 0, 0.00000000000000000000e+00) (0, 0, 0.00000000000000000000e+00) (0, 0, 0.00000000000000000000e+00) (0, 0, 0.00000000000000000000e+00) (0, 0, 0.00000000000000000000e+00) (0, 0, 0.00000000000000000000e+00) (0, 0, 0.00000000000000000000e+00) (0, 0, 0.00000000000000000000e+00) (0, 0, 0.00000000000000000000e+00) (0, 0, 0.00000000000000000000e+00) (0, 0, 0.00000000000000000000e+00) (0, 0, 0.00000000000000000000e+00) (0, 0, 0.00000000000000000000e+00) (0, 0, 0.00000000000000000000e+00) (0, 0, 0.00000000000000000000e+00) (0, 0, 0.00000000000000000000e+00) (0, 0, 0.00000000000000000000e+00) (0, 0, 0.00000000000000000000e+00) (0, 0, 0.00000000000000000000e+00) (0, 0, 0.00000000000000000000e+00) (0, 0, 0.00000000000000000000e+00) (0, 0, 0.00000000000000000000e+00) (0, 0, 0.00000000000000000000e+00) (0, 0, 0.00000000000000000000e+00) (0, 0, 0.00000000000000000000e+00) (0, 0, 0.00000000000000000000e+00) (0, 0, 0.00000000000000000000e+00) (0, 0, 0.00000000000000000000e+00) (0, 0, 0.00000000000000000000e+00) (0, 0, 0.00000000000000000000e+00) (0, 0, 0.00000000000000000000e+00) (0, 0, 0.00000000000000000000e+00) (0, 0, 0.00000000000000000000e+00) (0, 0, 0.00000000000000000000e+00) (0, 0, 0.00000000000000000000e+00) (0, 0, 0.00000000000000000000e+00) (0, 0, 0.00000000000000000000e+00) (0, 0, 0.00000000000000000000e+00) (0, 0, 0.00000000000000000000e+00) (0, 0, 0.00000000000000000000e+00) (0, 0, 0.00000000000000000000e+00) (0, 0, 0.00000000000000000000e+00) (0, 0, 0.00000000000000000000e+00) (0, 0, 0.00000000000000000000e+00) (0, 0, 0.00000000000000000000e+00) (0, 0, 0.00000000000000000000e+00) (0, 0, 0.00000000000000000000e+00) (0, 0, 0.00000000000000000000e+00) (0, 0, 0.00000000000000000000e+00) (0, 0, 0.00000000000000000000e+00) (0, 0, 0.00000000000000000000e+00) (0, 0, 0.00000000000000000000e+00) (0, 0, 0.00000000000000000000e+00) (0, 0, 0.00000000000000000000e+00) (0, 0, 0.00000000000000000000e+00) (0, 0, 0.00000000000000000000e+00) (0, 0, 0.00000000000000000000e+00) (0, 0, 0.00000000000000000000e+00) (0, 0, 0.00000000000000000000e+00) (0, 0, 0.00000000000000000000e+00) (0, 0, 0.00000000000000000000e+00) (0, 0, 0.00000000000000000000e+00) (0, 0, 0.00000000000000000000e+00) (0, 0, 0.00000000000000000000e+00) (0, 0, 0.00000000000000000000e+00) (0, 0, 0.00000000000000000000e+00) (0, 0, 0.00000000000000000000e+00) (0, 0, 0.00000000000000000000e+00) (0, 0, 0.00000000000000000000e+00) (0, 0, 0.00000000000000000000e+00) (0, 0, 0.00000000000000000000e+00) (0, 0, 0.00000000000000000000e+00) (0, 0, 0.00000000000000000000e+00) (0, 0, 0.00000000000000000000e+00) (0, 0, 0.00000000000000000000e+00) (0, 0, 0.00000000000000000000e+00) (0, 0, 0.00000000000000000000e+00) (0, 0, 0.00000000000000000000e+00) (0, 0, 0.00000000000000000000e+00) (0, 0, 0.00000000000000000000e+00) (0, 0, 0.00000000000000000000e+00) (0, 0, 0.00000000000000000000e+00) (0, 0, 0.00000000000000000000e+00) (0, 0, 0.00000000000000000000e+00) (0, 0, 0.00000000000000000000e+00) (0, 0, 0.00000000000000000000e+00) (0, 0, 0.00000000000000000000e+00) (0, 0, 0.00000000000000000000e+00) (0, 0, 0.00000000000000000000e+00) (0, 0, 0.00000000000000000000e+00) (0, 0, 0.00000000000000000000e+00) (0, 0, 0.00000000000000000000e+00) (0, 0, 0.00000000000000000000e+00) (0, 0, 0.00000000000000000000e+00) (0, 0, 0.00000000000000000000e+00) (0, 0, 0.00000000000000000000e+00) (0, 0, 0.00000000000000000000e+00) (0, 0, 0.00000000000000000000e+00) (0, 0, 0.00000000000000000000e+00) (0, 0, 0.00000000000000000000e+00) (0, 0, 0.00000000000000000000e+00) (0, 0, 0.00000000000000000000e+00) (0, 0, 0.00000000000000000000e+00) (0, 0, 0.00000000000000000000e+00) (0, 0, 0.00000000000000000000e+00) (0, 0, 0.00000000000000000000e+00) (0, 0, 0.00000000000000000000e+00) (0, 0, 0.00000000000000000000e+00) (0, 0, 0.00000000000000000000e+00) (0, 0, 0.00000000000000000000e+00) (0, 0, 0.00000000000000000000e+00) (0, 0, 0.00000000000000000000e+00) (0, 0, 0.00000000000000000000e+00) (0, 0, 0.00000000000000000000e+00) (0, 0, 0.00000000000000000000e+00) (0, 0, 0.00000000000000000000e+00) (0, 0, 0.00000000000000000000e+00) (0, 0, 0.00000000000000000000e+00) (0, 0, 0.00000000000000000000e+00) (0, 0, 0.00000000000000000000e+00) (0, 0, 0.00000000000000000000e+00) (0, 0, 0.00000000000000000000e+00) (0, 0, 0.00000000000000000000e+00) (0, 0, 0.00000000000000000000e+00) (0, 0, 0.00000000000000000000e+00) (0, 0, 0.00000000000000000000e+00) (0, 0, 0.00000000000000000000e+00) (0, 0, 0.00000000000000000000e+00) (0, 0, 0.00000000000000000000e+00) (0, 0, 0.00000000000000000000e+00) (0, 0, 0.00000000000000000000e+00) (0, 0, 0.00000000000000000000e+00) (0, 0, 0.00000000000000000000e+00) (0, 0, 0.00000000000000000000e+00) (194, 3, 5.00000000000000000000e-01) (194, 3, 5.00000000000000000000e-01) (194, 3, 5.00000000000000000000e-01) (194, 3, 5.00000000000000000000e-01) (194, 3, 5.00000000000000000000e-01) (194, 3, 5.00000000000000000000e-01) (194, 3, 5.00000000000000000000e-01) (194, 3, 5.00000000000000000000e-01) (194, 3, 5.00000000000000000000e-01) (194, 3, 5.00000000000000000000e-01) (194, 3, 5.00000000000000000000e-01) (194, 3, 5.00000000000000000000e-01) (194, 3, 5.00000000000000000000e-01) (194, 3, 5.00000000000000000000e-01) (194, 3, 5.00000000000000000000e-01) (194, 3, 5.00000000000000000000e-01) (194, 3, 5.00000000000000000000e-01) (194, 3, 5.00000000000000000000e-01) (194, 3, 5.00000000000000000000e-01) (194, 3, 5.00000000000000000000e-01) (194, 3, 5.00000000000000000000e-01) (194, 3, 5.00000000000000000000e-01) (194, 3, 5.00000000000000000000e-01) (194, 3, 5.00000000000000000000e-01) (194, 3, 5.00000000000000000000e-01) (194, 3, 5.00000000000000000000e-01) (194, 3, 5.00000000000000000000e-01) (194, 3, 5.00000000000000000000e-01) (194, 3, 5.00000000000000000000e-01) (194, 3, 5.00000000000000000000e-01) (194, 3, 5.00000000000000000000e-01) (194, 3, 5.00000000000000000000e-01) (0, 3, 0.00000000000000000000e+00) (33, 3, 5.00000000000000000000e-01) (33, 3, 5.00000000000000000000e-01) (33, 3, 5.00000000000000000000e-01) (33, 3, 5.00000000000000000000e-01) (33, 3, 5.00000000000000000000e-01) (33, 3, 5.00000000000000000000e-01) (33, 3, 5.00000000000000000000e-01) (33, 3, 5.00000000000000000000e-01) (0, 3, 0.00000000000000000000e+00) (9, 3, 5.00000000000000000000e-01) (9, 3, 5.00000000000000000000e-01) (9, 3, 5.00000000000000000000e-01) (9, 3, 5.00000000000000000000e-01) (0, 3, 0.00000000000000000000e+00) 
connections (connected_to_neuron, weight)=(0, 1.25982213020324707031e+00) (1, 3.05198049545288085938e+00) (2, -3.08197319507598876953e-01) (3, 1.43629717826843261719e+00) (4, 4.98258590698242187500e+00) (5, -5.50114274024963378906e-01) (6, -1.28469228744506835938e-01) (7, 3.66933298110961914062e+00) (8, 2.28149758186191320419e-04) (9, -4.19004470109939575195e-01) (10, -1.65507781505584716797e+00) (11, 6.55899238586425781250e+00) (12, -9.64995145797729492188e-01) (13, 6.42045080661773681641e-01) (14, 1.39832556247711181641e+00) (15, 1.21857845783233642578e+00) (16, 6.54467463493347167969e-01) (17, 5.79479575157165527344e-01) (18, -2.19925031065940856934e-01) (19, 1.16157484054565429688e+00) (20, -2.12956404685974121094e+00) (21, 2.26422739028930664062e+00) (22, 8.41248631477355957031e-01) (23, -1.07828557491302490234e+00) (24, -4.69394713640213012695e-01) (25, 2.44833931326866149902e-01) (26, -8.58797430992126464844e-01) (27, 3.64182926714420318604e-02) (28, 3.68875050544738769531e+00) (29, 6.38292133808135986328e-01) (30, 5.65869025886058807373e-02) (31, 3.37304443120956420898e-01) (32, 5.22057247161865234375e+00) (33, 4.32409137487411499023e-01) (34, 3.07567954063415527344e+00) (35, 2.04247927665710449219e+00) (36, -2.89455652236938476562e-01) (37, -2.24015712738037109375e+00) (38, -7.63248085975646972656e-01) (39, 2.17304632067680358887e-01) (40, -9.58481132984161376953e-01) (41, 5.53094744682312011719e-01) (42, -3.33014458417892456055e-01) (43, 1.02189190685749053955e-01) (44, -3.24983745813369750977e-01) (45, 5.38300633430480957031e-01) (46, -1.38228356838226318359e+00) (47, 1.50000000000000000000e+03) (48, 1.50000000000000000000e+03) (49, 1.50000000000000000000e+03) (50, 1.50000000000000000000e+03) (51, 1.50000000000000000000e+03) (52, 1.50000000000000000000e+03) (53, 1.50000000000000000000e+03) (54, 1.50000000000000000000e+03) (55, 1.50000000000000000000e+03) (56, 1.50000000000000000000e+03) (57, 1.50000000000000000000e+03) (58, 1.50000000000000000000e+03) (59, 1.50000000000000000000e+03) (60, -2.42288708686828613281e-01) (61, -1.70773848891258239746e-01) (62, -8.27436074614524841309e-02) (63, -2.62606590986251831055e-01) (64, -1.98003634810447692871e-01) (65, -1.39056161046028137207e-01) (66, -1.78218439221382141113e-01) (67, -1.56725317239761352539e-01) (68, -2.64035195112228393555e-01) (69, -2.48668938875198364258e-02) (70, -3.08225452899932861328e-01) (71, -1.06535956263542175293e-01) (72, -1.49776011705398559570e-01) (73, -2.89799839258193969727e-01) (74, -2.45934650301933288574e-01) (75, 8.15688148140907287598e-02) (76, -1.78468793630599975586e-01) (77, -3.20277810096740722656e-01) (78, -1.83288574218750000000e-01) (79, -1.59750908613204956055e-01) (80, -2.17731207609176635742e-01) (81, -1.53377413749694824219e-01) (82, -1.26552572473883628845e-02) (83, -3.21943461894989013672e-01) (84, 4.42091524600982666016e-02) (85, -2.01917767524719238281e-01) (86, 2.69992351531982421875e+00) (87, 3.52094960212707519531e+00) (88, 1.42921578884124755859e+00) (89, -8.79869043827056884766e-01) (90, 1.46885621547698974609e+00) (91, 2.72287696599960327148e-01) (92, -4.90568995475769042969e-01) (93, -1.20169413089752197266e+00) (94, 1.50000000000000000000e+03) (95, 1.50000000000000000000e+03) (96, 1.50000000000000000000e+03) (97, 1.50000000000000000000e+03) (98, 1.50000000000000000000e+03) (99, 1.50000000000000000000e+03) (100, 1.50000000000000000000e+03) (101, 1.50000000000000000000e+03) (102, 1.50000000000000000000e+03) (103, 1.50000000000000000000e+03) (104, 1.50000000000000000000e+03) (105, 1.50000000000000000000e+03) (106, 1.50000000000000000000e+03) (107, -1.61775305867195129395e-01) (108, 7.96978354454040527344e-01) (109, 8.03203392028808593750e+00) (110, -1.81181803345680236816e-01) (111, 2.98721241950988769531e+00) (112, -4.69123832881450653076e-02) (113, -3.62550854682922363281e+00) (114, 3.09102487564086914062e+00) (115, -6.46078443527221679688e+00) (116, -6.51850271224975585938e+00) (117, 7.03951776027679443359e-01) (118, -2.45913290977478027344e+00) (119, 4.91024613380432128906e-01) (120, -2.03738898038864135742e-01) (121, 8.39088633656501770020e-02) (122, -6.42010033130645751953e-01) (123, -2.00524866580963134766e-01) (124, 2.54439520835876464844e+00) (125, 3.56241434812545776367e-01) (126, 7.29335546493530273438e-01) (127, 3.18887293338775634766e-01) (128, -1.15070633590221405029e-01) (129, -1.30139291286468505859e+00) (130, -1.36065292358398437500e+00) (131, -4.01764273643493652344e-01) (132, 9.32464599609375000000e-01) (133, 2.12798714637756347656e+00) (134, 8.89521241188049316406e-01) (135, -2.16316103935241699219e+00) (136, -7.44769096374511718750e-01) (137, 1.65052700042724609375e+00) (138, 1.15176844596862792969e+00) (139, -5.78339636325836181641e-01) (140, -9.02279078960418701172e-01) (141, 1.50000000000000000000e+03) (142, 1.50000000000000000000e+03) (143, 1.50000000000000000000e+03) (144, 1.50000000000000000000e+03) (145, 1.50000000000000000000e+03) (146, 1.50000000000000000000e+03) (147, 1.50000000000000000000e+03) (148, 1.50000000000000000000e+03) (149, 1.50000000000000000000e+03) (150, 1.50000000000000000000e+03) (151, 1.50000000000000000000e+03) (152, 1.50000000000000000000e+03) (153, 1.50000000000000000000e+03) (154, -2.14028656482696533203e-01) (155, 5.00609040260314941406e-01) (156, 1.00831508636474609375e+00) (157, 4.58333969116210937500e-01) (158, -8.00150394439697265625e-01) (159, -2.15153515338897705078e-01) (160, 2.72725403308868408203e-01) (161, 1.86975583434104919434e-01) (162, 1.92633882164955139160e-01) (163, 6.05299413204193115234e-01) (164, 5.71602880954742431641e-01) (165, 1.24506819248199462891e+00) (166, -4.71487522125244140625e-01) (167, 4.70196783542633056641e-01) (168, 3.54138761758804321289e-01) (169, 6.62562429904937744141e-01) (170, 6.42507612705230712891e-01) (171, -1.15724718570709228516e+00) (172, -7.68544971942901611328e-01) (173, 2.38970011472702026367e-01) (174, -9.51813999563455581665e-03) (175, 2.01614990830421447754e-01) (176, 5.65561234951019287109e-01) (177, 5.88547706604003906250e-01) (178, 1.19088435173034667969e+00) (179, -4.79263454675674438477e-01) (180, 1.13836717605590820312e+00) (181, 4.90558683872222900391e-01) (182, -3.20529073476791381836e-01) (183, 1.34697949886322021484e+00) (184, 1.14141869544982910156e+00) (185, 3.81100088357925415039e-01) (186, 1.30651578307151794434e-01) (187, -1.81942254304885864258e-01) (188, -2.65029263496398925781e+00) (189, -1.29833817481994628906e+00) (190, -4.25359606742858886719e-01) (191, -4.96821975708007812500e+00) (192, 7.69152045249938964844e-01) (193, 4.44834351539611816406e-01) (0, 2.44801092147827148438e+00) (1, -1.02583885192871093750e+00) (2, 7.58860528469085693359e-01) (3, 3.30746030807495117188e+00) (4, 2.29845428466796875000e+00) (5, -7.33138263225555419922e-01) (6, 1.15484416484832763672e+00) (7, 6.63977479934692382812e+00) (8, 1.50906944274902343750e+00) (9, -4.31304311752319335938e+00) (10, 8.69305655360221862793e-02) (11, 3.25830459594726562500e+00) (12, -3.51713466644287109375e+00) (13, 4.32702350616455078125e+00) (14, 4.02300655841827392578e-01) (15, 2.02285289764404296875e+00) (16, 1.62339776754379272461e-01) (17, 2.14235186576843261719e+00) (18, -8.54327857494354248047e-01) (19, -8.54103922843933105469e-01) (20, 9.77927684783935546875e-01) (21, 2.50300765037536621094e+00) (22, -2.54637908935546875000e+00) (23, -7.22966861724853515625e+00) (24, -4.44312661886215209961e-01) (25, 2.42357301712036132812e+00) (26, -4.60114359855651855469e-01) (27, 2.02522873878479003906e+00) (28, 2.14015579223632812500e+00) (29, 1.47991538047790527344e-01) (30, 6.06908261775970458984e-01) (31, -8.32827627658843994141e-01) (32, 1.97554636001586914062e+00) (33, -1.03781676292419433594e+00) (34, -1.30225110054016113281e+00) (35, 2.82238745689392089844e+00) (36, 2.10716223716735839844e+00) (37, -1.65791356563568115234e+00) (38, -3.46361947059631347656e+00) (39, -1.50120127201080322266e+00) (40, 5.04123926162719726562e-01) (41, 9.80662465095520019531e-01) (42, -3.88324022293090820312e-01) (43, 1.24776139855384826660e-01) (44, -4.82937954366207122803e-02) (45, 6.22590184211730957031e-02) (46, 1.58991587162017822266e+00) (47, 1.50000000000000000000e+03) (48, 1.50000000000000000000e+03) (49, 1.50000000000000000000e+03) (50, 1.50000000000000000000e+03) (51, 1.50000000000000000000e+03) (52, 1.50000000000000000000e+03) (53, 1.50000000000000000000e+03) (54, 1.50000000000000000000e+03) (55, 1.50000000000000000000e+03) (56, 1.50000000000000000000e+03) (57, 1.50000000000000000000e+03) (58, 1.50000000000000000000e+03) (59, 1.50000000000000000000e+03) (60, 6.83629587292671203613e-02) (61, -2.93290261179208755493e-02) (62, 1.06098860502243041992e-01) (63, -4.16748709976673126221e-02) (64, -2.46283300220966339111e-02) (65, -7.70703852176666259766e-02) (66, -3.62530499696731567383e-02) (67, 6.19768388569355010986e-02) (68, -4.06448245048522949219e-02) (69, 7.85515829920768737793e-03) (70, -1.14172555506229400635e-01) (71, 5.15433847904205322266e-02) (72, -1.16020396351814270020e-01) (73, 5.42129836976528167725e-02) (74, -8.94032716751098632812e-02) (75, 3.10901124030351638794e-02) (76, -8.94745662808418273926e-02) (77, -1.25172793865203857422e-01) (78, -9.59897041320800781250e-02) (79, -5.61213940382003784180e-02) (80, 8.08255225419998168945e-02) (81, -6.07576593756675720215e-02) (82, -4.74337451159954071045e-02) (83, 1.47156536579132080078e-01) (84, -2.69251540303230285645e-02) (85, -1.05013921856880187988e-01) (86, 9.79125857353210449219e-01) (87, 2.95822739601135253906e-01) (88, 3.14856076240539550781e+00) (89, 6.44849985837936401367e-02) (90, 2.87360757589340209961e-01) (91, 3.70820593833923339844e+00) (92, 5.87890267372131347656e-01) (93, 4.99602031707763671875e+00) (94, 1.50000000000000000000e+03) (95, 1.50000000000000000000e+03) (96, 1.50000000000000000000e+03) (97, 1.50000000000000000000e+03) (98, 1.50000000000000000000e+03) (99, 1.50000000000000000000e+03) (100, 1.50000000000000000000e+03) (101, 1.50000000000000000000e+03) (102, 1.50000000000000000000e+03) (103, 1.50000000000000000000e+03) (104, 1.50000000000000000000e+03) (105, 1.50000000000000000000e+03) (106, 1.50000000000000000000e+03) (107, -3.12176764011383056641e-01) (108, -1.82162553071975708008e-01) (109, -1.87283277511596679688e+00) (110, 3.78190803527832031250e+00) (111, -1.91188052296638488770e-01) (112, 8.30883026123046875000e-01) (113, 2.60430002212524414062e+00) (114, -2.85349869728088378906e+00) (115, -3.31430673599243164062e-01) (116, -1.80534720420837402344e+00) (117, -2.38034224510192871094e+00) (118, 6.89200103282928466797e-01) (119, -3.52378815412521362305e-01) (120, 8.38320851325988769531e-01) (121, 5.50333261489868164062e-01) (122, 4.35120791196823120117e-01) (123, 3.79175871610641479492e-01) (124, 4.55557942390441894531e-01) (125, 8.15342962741851806641e-02) (126, 8.10358464717864990234e-01) (127, 7.42739886045455932617e-02) (128, 7.65462398529052734375e-01) (129, 4.10312592983245849609e-01) (130, 2.05519750714302062988e-01) (131, 1.09412737190723419189e-01) (132, 7.08528995513916015625e-01) (133, 4.00231504440307617188e+00) (134, 3.09892505407333374023e-01) (135, 3.77986580133438110352e-01) (136, 1.74191880226135253906e+00) (137, 2.92489480972290039062e+00) (138, 4.50040245056152343750e+00) (139, -4.92083930969238281250e+00) (140, 5.01235365867614746094e-01) (141, 1.50000000000000000000e+03) (142, 1.50000000000000000000e+03) (143, 1.50000000000000000000e+03) (144, 1.50000000000000000000e+03) (145, 1.50000000000000000000e+03) (146, 1.50000000000000000000e+03) (147, 1.50000000000000000000e+03) (148, 1.50000000000000000000e+03) (149, 1.50000000000000000000e+03) (150, 1.50000000000000000000e+03) (151, 1.50000000000000000000e+03) (152, 1.50000000000000000000e+03) (153, 1.50000000000000000000e+03) (154, -5.18043339252471923828e-01) (155, -2.22398757934570312500e-01) (156, 2.28413045406341552734e-01) (157, -1.47213220596313476562e-01) (158, -6.16608001291751861572e-02) (159, -3.24198633432388305664e-01) (160, -3.31016600131988525391e-01) (161, 6.80090487003326416016e-01) (162, -1.50280132889747619629e-01) (163, 2.76449527591466903687e-02) (164, -1.18956871330738067627e-01) (165, 1.25134289264678955078e-01) (166, -1.54007881879806518555e-01) (167, -5.93609690666198730469e-01) (168, -2.07996919751167297363e-01) (169, 2.92773932218551635742e-01) (170, -1.66294965893030166626e-02) (171, -8.58192667365074157715e-02) (172, -3.95331978797912597656e-01) (173, -1.75089150667190551758e-01) (174, 2.61438965797424316406e-01) (175, -3.22419553995132446289e-01) (176, 6.73057213425636291504e-02) (177, 2.40296810865402221680e-01) (178, 1.61795169115066528320e-02) (179, -3.26128691434860229492e-01) (180, 9.97523069381713867188e-01) (181, 2.32069754600524902344e+00) (182, 8.04757773876190185547e-01) (183, 2.45900654792785644531e+00) (184, 2.91842412948608398438e+00) (185, -9.37449693679809570312e-01) (186, 6.72233819961547851562e-01) (187, 1.81103870272636413574e-01) (188, -5.02063393592834472656e-01) (189, 7.82245039939880371094e-01) (190, -2.06758522987365722656e+00) (191, -8.53243350982666015625e-01) (192, -1.80876934528350830078e+00) (193, 9.24980521202087402344e-01) (0, 1.60439062118530273438e+00) (1, -7.86238685250282287598e-02) (2, 1.14782166481018066406e+00) (3, 3.79561960697174072266e-01) (4, 3.09642761945724487305e-01) (5, -1.02289402484893798828e+00) (6, 1.00312900543212890625e+00) (7, 2.32826995849609375000e+00) (8, 2.24177122116088867188e+00) (9, -1.09308934211730957031e+00) (10, -1.16649381816387176514e-01) (11, 1.43332004547119140625e+00) (12, -7.41368830204010009766e-01) (13, 5.85226964950561523438e+00) (14, 2.31949925422668457031e+00) (15, 1.72818005084991455078e-01) (16, -2.02593673020601272583e-02) (17, -2.21398286521434783936e-02) (18, 9.67284977436065673828e-01) (19, 6.28400444984436035156e-01) (20, 3.89453053474426269531e-01) (21, -3.61121267080307006836e-01) (22, 3.46524059772491455078e-01) (23, -1.67843267321586608887e-01) (24, 1.43373385071754455566e-01) (25, -3.88549476861953735352e-01) (26, 1.92876979708671569824e-02) (27, 6.13709092140197753906e-01) (28, 2.04055023193359375000e+00) (29, 3.92732411623001098633e-01) (30, -9.20757800340652465820e-02) (31, 6.08166635036468505859e-01) (32, 5.51858007907867431641e-01) (33, -1.36172258853912353516e+00) (34, 7.14961290359497070312e-01) (35, 6.99151992797851562500e-01) (36, 9.66238677501678466797e-01) (37, -3.13560180366039276123e-02) (38, 1.14078819751739501953e+00) (39, -9.25453901290893554688e-01) (40, 6.43643677234649658203e-01) (41, 3.60441350936889648438e+00) (42, 4.20043975114822387695e-01) (43, 2.76138275861740112305e-01) (44, 4.08832132816314697266e-01) (45, 1.74626803398132324219e+00) (46, -4.49905663728713989258e-01) (47, 1.50000000000000000000e+03) (48, 1.50000000000000000000e+03) (49, 1.50000000000000000000e+03) (50, 1.50000000000000000000e+03) (51, 1.50000000000000000000e+03) (52, 1.50000000000000000000e+03) (53, 1.50000000000000000000e+03) (54, 1.50000000000000000000e+03) (55, 1.50000000000000000000e+03) (56, 1.50000000000000000000e+03) (57, 1.50000000000000000000e+03) (58, 1.50000000000000000000e+03) (59, 1.50000000000000000000e+03) (60, 3.31278473138809204102e-01) (61, 5.31426310539245605469e-01) (62, 3.92299979925155639648e-01) (63, 7.84244894981384277344e-01) (64, 2.52720415592193603516e-01) (65, 4.12259995937347412109e-01) (66, 2.41522118449211120605e-01) (67, 3.44792842864990234375e-01) (68, 4.04976069927215576172e-01) (69, 5.09334623813629150391e-01) (70, 2.25428998470306396484e-01) (71, 4.07379478216171264648e-01) (72, 4.15913075208663940430e-01) (73, 2.19117164611816406250e-01) (74, 4.58691328763961791992e-01) (75, 2.61288464069366455078e-01) (76, 6.63760483264923095703e-01) (77, 3.36130648851394653320e-01) (78, 4.62723374366760253906e-01) (79, 4.18260812759399414062e-01) (80, 3.58930081129074096680e-01) (81, 3.55027556419372558594e-01) (82, 3.55915188789367675781e-01) (83, 4.07722473144531250000e-01) (84, 3.50555449724197387695e-01) (85, 3.55503976345062255859e-01) (86, 4.53645706176757812500e-01) (87, -4.64069187641143798828e-01) (88, 8.93092536926269531250e+00) (89, -1.09883040189743041992e-01) (90, -6.42318904399871826172e-01) (91, 1.13684189319610595703e+00) (92, 6.67533755302429199219e-01) (93, 4.08835792541503906250e+00) (94, 1.50000000000000000000e+03) (95, 1.50000000000000000000e+03) (96, 1.50000000000000000000e+03) (97, 1.50000000000000000000e+03) (98, 1.50000000000000000000e+03) (99, 1.50000000000000000000e+03) (100, 1.50000000000000000000e+03) (101, 1.50000000000000000000e+03) (102, 1.50000000000000000000e+03) (103, 1.50000000000000000000e+03) (104, 1.50000000000000000000e+03) (105, 1.50000000000000000000e+03) (106, 1.50000000000000000000e+03) (107, -1.03596723079681396484e+00) (108, 1.10775446891784667969e+00) (109, 3.86749076843261718750e+00) (110, -4.33598423004150390625e+00) (111, -2.03219994902610778809e-01) (112, -2.83372640609741210938e-01) (113, -1.11205838620662689209e-01) (114, 4.02241855859756469727e-01) (115, 1.42153954505920410156e+00) (116, 1.29276320338249206543e-01) (117, 3.00575345754623413086e-01) (118, -2.43881559371948242188e+00) (119, 8.19628238677978515625e-01) (120, -2.20677182078361511230e-01) (121, 1.56004369258880615234e-01) (122, 3.52909862995147705078e-01) (123, 5.74201762676239013672e-01) (124, 6.03722631931304931641e-01) (125, 7.35057532787322998047e-01) (126, 7.95161664485931396484e-01) (127, 6.91410899162292480469e-01) (128, 1.55676320195198059082e-01) (129, 4.16801601648330688477e-01) (130, 3.34762156009674072266e-01) (131, 6.37459158897399902344e-01) (132, 6.88074886798858642578e-01) (133, -1.14470124244689941406e+00) (134, 1.18990302085876464844e+00) (135, 1.64342451095581054688e+00) (136, -3.94732385873794555664e-01) (137, -1.89444333314895629883e-01) (138, 1.02440929412841796875e+00) (139, 4.63406753540039062500e+00) (140, 3.02623772621154785156e+00) (141, 1.50000000000000000000e+03) (142, 1.50000000000000000000e+03) (143, 1.50000000000000000000e+03) (144, 1.50000000000000000000e+03) (145, 1.50000000000000000000e+03) (146, 1.50000000000000000000e+03) (147, 1.50000000000000000000e+03) (148, 1.50000000000000000000e+03) (149, 1.50000000000000000000e+03) (150, 1.50000000000000000000e+03) (151, 1.50000000000000000000e+03) (152, 1.50000000000000000000e+03) (153, 1.50000000000000000000e+03) (154, 6.20994344353675842285e-02) (155, -8.26547816395759582520e-02) (156, -5.99911287426948547363e-02) (157, -2.30685085058212280273e-01) (158, -1.59271135926246643066e-01) (159, -2.21024900674819946289e-01) (160, -1.47151693701744079590e-01) (161, 1.22156560420989990234e-01) (162, -3.58876474201679229736e-02) (163, 3.95091308746486902237e-04) (164, -1.63376420736312866211e-01) (165, -2.62022852897644042969e-01) (166, -2.25976139307022094727e-01) (167, 3.16894710063934326172e-01) (168, 3.54779958724975585938e-02) (169, 4.98035609722137451172e-01) (170, -3.34830492734909057617e-01) (171, -1.36486157774925231934e-01) (172, -1.42120689153671264648e-01) (173, -1.64745002985000610352e-01) (174, -1.06020621955394744873e-01) (175, -4.78064753115177154541e-02) (176, -7.35445469617843627930e-02) (177, -8.50689783692359924316e-02) (178, -3.68143171072006225586e-01) (179, -6.14003278315067291260e-02) (180, 2.35069632530212402344e-01) (181, 2.81183749437332153320e-01) (182, 1.64209055900573730469e+00) (183, 2.10390686988830566406e+00) (184, 1.66187036037445068359e+00) (185, 4.71892744302749633789e-01) (186, 2.56032991409301757812e+00) (187, 2.27938580513000488281e+00) (188, 1.92398250102996826172e-01) (189, -3.62392354011535644531e+00) (190, 3.45095962285995483398e-01) (191, -1.47986814379692077637e-01) (192, 4.51560401916503906250e+00) (193, 6.07643485069274902344e-01) (0, -4.53782081604003906250e-01) (1, 8.50008904933929443359e-01) (2, 1.55729621648788452148e-01) (3, 1.60549068450927734375e+00) (4, 1.70838654041290283203e+00) (5, -2.42534470558166503906e+00) (6, 2.56189012527465820312e+00) (7, 3.79156708717346191406e+00) (8, 3.84088587760925292969e+00) (9, -1.83864963054656982422e+00) (10, 2.54227495193481445312e+00) (11, 2.42919063568115234375e+00) (12, -4.98157596588134765625e+00) (13, -1.21747612953186035156e+00) (14, 1.75517648458480834961e-01) (15, -8.93979817628860473633e-02) (16, -3.31965923309326171875e-01) (17, 2.02878212928771972656e+00) (18, 2.99672216176986694336e-01) (19, -1.81774780154228210449e-01) (20, 1.11736500263214111328e+00) (21, -2.05461040139198303223e-01) (22, 6.97194878011941909790e-03) (23, -2.26545357704162597656e+00) (24, 1.68326348066329956055e-01) (25, 2.72206878662109375000e+00) (26, -2.18223929405212402344e-01) (27, 2.82264620065689086914e-01) (28, 2.55079358816146850586e-01) (29, 1.11677646636962890625e+00) (30, 8.72691333293914794922e-01) (31, -1.88134402036666870117e-01) (32, -9.29628670215606689453e-01) (33, -7.17403471469879150391e-01) (34, -6.32637798786163330078e-01) (35, -2.19065380096435546875e+00) (36, -3.71127277612686157227e-01) (37, 7.34113454818725585938e-01) (38, 2.09354057908058166504e-01) (39, 5.18137156963348388672e-01) (40, 5.55827021598815917969e-01) (41, 6.66670441627502441406e-01) (42, -2.24455073475837707520e-01) (43, 1.03441104292869567871e-01) (44, -2.64066219329833984375e-01) (45, 6.73275738954544067383e-02) (46, -9.48197916150093078613e-02) (47, 1.50000000000000000000e+03) (48, 1.50000000000000000000e+03) (49, 1.50000000000000000000e+03) (50, 1.50000000000000000000e+03) (51, 1.50000000000000000000e+03) (52, 1.50000000000000000000e+03) (53, 1.50000000000000000000e+03) (54, 1.50000000000000000000e+03) (55, 1.50000000000000000000e+03) (56, 1.50000000000000000000e+03) (57, 1.50000000000000000000e+03) (58, 1.50000000000000000000e+03) (59, 1.50000000000000000000e+03) (60, 5.63030801713466644287e-02) (61, 4.81479056179523468018e-02) (62, -2.81684637069702148438e-01) (63, -1.75111353397369384766e-01) (64, 9.83364731073379516602e-02) (65, 1.30504876375198364258e-01) (66, 1.50234565138816833496e-01) (67, -1.21205849573016166687e-02) (68, -4.14306782186031341553e-02) (69, 3.33638414740562438965e-02) (70, -1.52402400970458984375e-01) (71, 6.10355213284492492676e-02) (72, 4.31732125580310821533e-02) (73, 9.25074294209480285645e-02) (74, 1.10281826928257942200e-02) (75, -1.06401614844799041748e-01) (76, 1.07533790171146392822e-01) (77, 7.18504115939140319824e-02) (78, 1.05743557214736938477e-01) (79, 1.84772461652755737305e-02) (80, 2.96207182109355926514e-02) (81, -1.79568529129028320312e-02) (82, 8.74946415424346923828e-02) (83, -1.60147905349731445312e-01) (84, 7.09356041625142097473e-03) (85, 6.10430650413036346436e-02) (86, 2.54618883132934570312e-01) (87, 7.69959151744842529297e-01) (88, 6.20609104633331298828e-01) (89, -4.15788203477859497070e-01) (90, -1.07170097529888153076e-01) (91, 2.84014530479907989502e-02) (92, -6.22050203382968902588e-02) (93, 1.16651272401213645935e-02) (94, 1.50000000000000000000e+03) (95, 1.50000000000000000000e+03) (96, 1.50000000000000000000e+03) (97, 1.50000000000000000000e+03) (98, 1.50000000000000000000e+03) (99, 1.50000000000000000000e+03) (100, 1.50000000000000000000e+03) (101, 1.50000000000000000000e+03) (102, 1.50000000000000000000e+03) (103, 1.50000000000000000000e+03) (104, 1.50000000000000000000e+03) (105, 1.50000000000000000000e+03) (106, 1.50000000000000000000e+03) (107, 6.28020167350769042969e-01) (108, -5.36549448966979980469e-01) (109, -2.42313432693481445312e+00) (110, 4.90294873714447021484e-01) (111, -9.90531500428915023804e-03) (112, 1.09361934661865234375e+00) (113, -3.85880768299102783203e-01) (114, -2.71266341209411621094e-01) (115, 8.92987623810768127441e-02) (116, 1.87453615665435791016e+00) (117, -2.38693404197692871094e+00) (118, -1.34143888950347900391e+00) (119, 3.45471978187561035156e-01) (120, 4.60636645555496215820e-01) (121, -2.65175014734268188477e-01) (122, 2.67088294029235839844e-01) (123, 5.76865673065185546875e-01) (124, 5.09277582168579101562e-01) (125, 7.18826591968536376953e-01) (126, 3.53470504283905029297e-01) (127, 4.96261388063430786133e-01) (128, 3.87627869844436645508e-01) (129, -3.50093811750411987305e-01) (130, 2.83472537994384765625e-01) (131, 1.79915875196456909180e-01) (132, 9.53388214111328125000e-01) (133, -2.37051868438720703125e+00) (134, 4.87159997224807739258e-01) (135, 2.70845055580139160156e-01) (136, 9.16903495788574218750e-01) (137, 2.88088202476501464844e+00) (138, 7.51707255840301513672e-01) (139, 1.57425656914710998535e-01) (140, 4.25359755754470825195e-01) (141, 1.50000000000000000000e+03) (142, 1.50000000000000000000e+03) (143, 1.50000000000000000000e+03) (144, 1.50000000000000000000e+03) (145, 1.50000000000000000000e+03) (146, 1.50000000000000000000e+03) (147, 1.50000000000000000000e+03) (148, 1.50000000000000000000e+03) (149, 1.50000000000000000000e+03) (150, 1.50000000000000000000e+03) (151, 1.50000000000000000000e+03) (152, 1.50000000000000000000e+03) (153, 1.50000000000000000000e+03) (154, -3.72040361166000366211e-01) (155, 6.08214020729064941406e-01) (156, -3.36369592696428298950e-03) (157, 3.26071947813034057617e-01) (158, -3.99377532303333282471e-02) (159, 3.06422084569931030273e-01) (160, 8.57021361589431762695e-02) (161, -1.58246278762817382812e-01) (162, 2.28040993213653564453e-01) (163, 2.88466125726699829102e-01) (164, 3.82027626037597656250e-01) (165, 2.16320589184761047363e-01) (166, -1.93383172154426574707e-01) (167, -1.12459264695644378662e-01) (168, 7.86445438861846923828e-01) (169, 2.78679102659225463867e-01) (170, 3.92412096261978149414e-01) (171, -1.05916842818260192871e-01) (172, 3.46816539764404296875e-01) (173, 6.03664815425872802734e-02) (174, -6.07353262603282928467e-02) (175, 3.94193887710571289062e-01) (176, 3.65378409624099731445e-01) (177, 3.05351585149765014648e-01) (178, 2.38474741578102111816e-01) (179, -1.05536893010139465332e-01) (180, -1.29723048210144042969e+00) (181, -1.68818688392639160156e+00) (182, 9.79115366935729980469e-01) (183, -1.29457974433898925781e+00) (184, -2.12058168835937976837e-03) (185, -1.95171833038330078125e-01) (186, -7.44826018810272216797e-01) (187, 2.43485784530639648438e+00) (188, -1.24692022800445556641e+00) (189, -6.18987798690795898438e-01) (190, 7.10011959075927734375e-01) (191, -2.97852945327758789062e+00) (192, 1.53647947311401367188e+00) (193, 7.12644383311271667480e-02) (0, -3.34704256057739257812e+00) (1, 1.17211604118347167969e+00) (2, -6.90792143344879150391e-01) (3, 2.70211005210876464844e+00) (4, 9.72653102874755859375e+00) (5, 2.27753305435180664062e+00) (6, 2.49198412895202636719e+00) (7, 3.53163123130798339844e-01) (8, 1.53164649009704589844e+00) (9, 6.22281789779663085938e-01) (10, 1.63667476177215576172e+00) (11, 4.94804263114929199219e-01) (12, 4.62044239044189453125e-01) (13, 4.92860412597656250000e+00) (14, -6.84106051921844482422e-02) (15, 1.87704920768737792969e+00) (16, -2.01940089464187622070e-01) (17, 4.52264845371246337891e-01) (18, 4.30531597137451171875e+00) (19, 1.74741899967193603516e+00) (20, 6.02850496768951416016e-01) (21, -4.43287819623947143555e-01) (22, -2.42491936683654785156e+00) (23, -4.38070106506347656250e+00) (24, -4.25643110275268554688e+00) (25, -1.97824090719223022461e-01) (26, 4.49365973472595214844e-01) (27, 1.52695059776306152344e+00) (28, 2.80129611492156982422e-01) (29, 1.07026135921478271484e+00) (30, 1.23677361011505126953e+00) (31, 1.46634864807128906250e+00) (32, 6.03382873535156250000e+00) (33, -1.01953279972076416016e+00) (34, 1.75786733627319335938e+00) (35, -2.55376958847045898438e+00) (36, -1.04164731502532958984e+00) (37, -3.22099328041076660156e+00) (38, 2.84791326522827148438e+00) (39, -1.92033469676971435547e+00) (40, 1.94555950164794921875e+00) (41, 2.74714279174804687500e+00) (42, -1.17131280899047851562e+00) (43, -4.03485536575317382812e-01) (44, -1.42814815044403076172e-01) (45, -3.14313918352127075195e-02) (46, -4.28987121582031250000e+00) (47, 1.50000000000000000000e+03) (48, 1.50000000000000000000e+03) (49, 1.50000000000000000000e+03) (50, 1.50000000000000000000e+03) (51, 1.50000000000000000000e+03) (52, 1.50000000000000000000e+03) (53, 1.50000000000000000000e+03) (54, 1.50000000000000000000e+03) (55, 1.50000000000000000000e+03) (56, 1.50000000000000000000e+03) (57, 1.50000000000000000000e+03) (58, 1.50000000000000000000e+03) (59, 1.50000000000000000000e+03) (60, -4.12997901439666748047e-01) (61, -3.01387667655944824219e-01) (62, -4.62499111890792846680e-01) (63, -4.17266041040420532227e-01) (64, -4.29373949766159057617e-01) (65, -3.56532722711563110352e-01) (66, -2.95412212610244750977e-01) (67, 1.24705068767070770264e-01) (68, -4.83510673046112060547e-01) (69, -4.44684058427810668945e-01) (70, -3.63211870193481445312e-01) (71, -4.55342710018157958984e-01) (72, -3.40417981147766113281e-01) (73, 1.58100381493568420410e-01) (74, -2.74836122989654541016e-01) (75, -3.43722730875015258789e-01) (76, -3.43577355146408081055e-01) (77, -3.97681564092636108398e-01) (78, -3.97741705179214477539e-01) (79, -3.88388961553573608398e-01) (80, 1.35150089859962463379e-01) (81, -3.71427059173583984375e-01) (82, -3.69114458560943603516e-01) (83, -4.54700678586959838867e-01) (84, -4.33491230010986328125e-01) (85, -3.10070157051086425781e-01) (86, 9.84948873519897460938e-01) (87, 4.52481460571289062500e+00) (88, 5.52474164962768554688e+00) (89, -3.13371539115905761719e-01) (90, -4.16855573654174804688e+00) (91, 9.26975011825561523438e-01) (92, 1.17598342895507812500e+00) (93, 1.01162557601928710938e+01) (94, 1.50000000000000000000e+03) (95, 1.50000000000000000000e+03) (96, 1.50000000000000000000e+03) (97, 1.50000000000000000000e+03) (98, 1.50000000000000000000e+03) (99, 1.50000000000000000000e+03) (100, 1.50000000000000000000e+03) (101, 1.50000000000000000000e+03) (102, 1.50000000000000000000e+03) (103, 1.50000000000000000000e+03) (104, 1.50000000000000000000e+03) (105, 1.50000000000000000000e+03) (106, 1.50000000000000000000e+03) (107, -3.02610576152801513672e-01) (108, -5.18674552440643310547e-01) (109, 1.10790789127349853516e+00) (110, 1.41490306854248046875e+01) (111, 5.34753024578094482422e-01) (112, 4.17798787355422973633e-01) (113, 9.53661346435546875000e+00) (114, -6.63203287124633789062e+00) (115, 1.43157827854156494141e+00) (116, 1.26821947097778320312e+00) (117, 5.47962760925292968750e+00) (118, -1.63939151763916015625e+01) (119, 1.26950416564941406250e+01) (120, 1.80378675460815429688e+00) (121, -1.19848608970642089844e+00) (122, 1.35202467441558837891e+00) (123, 3.47974359989166259766e-01) (124, 7.29422390460968017578e-01) (125, 2.80436068773269653320e-01) (126, 7.78243064880371093750e-01) (127, 8.07059466838836669922e-01) (128, 1.07106280326843261719e+00) (129, -1.38230490684509277344e+00) (130, 5.26731491088867187500e-01) (131, 8.53547215461730957031e-01) (132, -2.29886934161186218262e-01) (133, -1.91908681392669677734e+00) (134, -1.12643814086914062500e+00) (135, 3.42110013961791992188e+00) (136, 2.78744721412658691406e+00) (137, 6.83593702316284179688e+00) (138, -2.76376438140869140625e+00) (139, -1.94172918796539306641e+00) (140, 4.49653339385986328125e+00) (141, 1.50000000000000000000e+03) (142, 1.50000000000000000000e+03) (143, 1.50000000000000000000e+03) (144, 1.50000000000000000000e+03) (145, 1.50000000000000000000e+03) (146, 1.50000000000000000000e+03) (147, 1.50000000000000000000e+03) (148, 1.50000000000000000000e+03) (149, 1.50000000000000000000e+03) (150, 1.50000000000000000000e+03) (151, 1.50000000000000000000e+03) (152, 1.50000000000000000000e+03) (153, 1.50000000000000000000e+03) (154, 1.26883959770202636719e+00) (155, -4.54897463321685791016e-01) (156, -9.42905247211456298828e-01) (157, -7.66504585742950439453e-01) (158, -5.06463587284088134766e-01) (159, 4.75595295429229736328e-01) (160, -4.03277665376663208008e-01) (161, -6.03038519620895385742e-02) (162, -1.75400540232658386230e-01) (163, -4.90226179361343383789e-01) (164, -2.52068698406219482422e-01) (165, -7.47013151645660400391e-01) (166, -1.70902445912361145020e-01) (167, -2.97271400690078735352e-01) (168, -3.53238523006439208984e-01) (169, -4.48665827512741088867e-01) (170, -6.11032605171203613281e-01) (171, -1.02857097983360290527e-01) (172, 8.44241797924041748047e-01) (173, -2.28467494249343872070e-01) (174, -2.95708030462265014648e-01) (175, 2.96902328729629516602e-01) (176, 1.76848495006561279297e+00) (177, 1.17242142558097839355e-01) (178, -9.31114077568054199219e-01) (179, -1.14961639046669006348e-01) (180, -3.67468237876892089844e-01) (181, -4.23654222488403320312e+00) (182, 3.83276867866516113281e+00) (183, 1.04722490310668945312e+01) (184, 4.59541225433349609375e+00) (185, 1.53320288658142089844e+00) (186, 5.21956861019134521484e-01) (187, -1.18416166305541992188e+00) (188, 1.25764787197113037109e+00) (189, -6.58733844757080078125e-01) (190, 5.86450815200805664062e-01) (191, 4.50526803731918334961e-01) (192, 1.13675985336303710938e+01) (193, -9.42660644650459289551e-02) (0, 1.42387318611145019531e+00) (1, 6.71627581119537353516e-01) (2, 1.34477651119232177734e+00) (3, 1.82375478744506835938e+00) (4, 1.44408571720123291016e+00) (5, -9.37283635139465332031e-01) (6, 7.73820817470550537109e-01) (7, 3.36291766166687011719e+00) (8, 2.00855240225791931152e-01) (9, 1.03220753371715545654e-01) (10, 1.60959744453430175781e+00) (11, 2.41953778266906738281e+00) (12, 9.74203944206237792969e-02) (13, -1.29783838987350463867e-01) (14, -2.87181377410888671875e-01) (15, -3.32785636186599731445e-01) (16, 4.60057407617568969727e-01) (17, 1.89984905719757080078e+00) (18, 1.17808485031127929688e+00) (19, 2.46301054954528808594e+00) (20, 9.13658082485198974609e-01) (21, 1.53879180550575256348e-01) (22, -2.98826575279235839844e-01) (23, -2.35174417495727539062e+00) (24, 2.39502477645874023438e+00) (25, 2.15216970443725585938e+00) (26, -1.23334980010986328125e+00) (27, -6.79461479187011718750e-01) (28, 1.75414872169494628906e+00) (29, 4.29785907268524169922e-01) (30, -1.42933785915374755859e-01) (31, -3.87808792293071746826e-02) (32, 6.15246713161468505859e-01) (33, 2.21864625811576843262e-01) (34, 2.79909229278564453125e+00) (35, 5.49372769892215728760e-02) (36, -9.68543171882629394531e-01) (37, -2.45946541428565979004e-01) (38, 3.22066277265548706055e-01) (39, 1.86412155628204345703e-01) (40, 1.85085916519165039062e+00) (41, 1.65110969543457031250e+00) (42, -4.22633141279220581055e-01) (43, -1.18643172085285186768e-01) (44, -2.82357841730117797852e-01) (45, -5.07875680923461914062e-01) (46, -2.08556222915649414062e+00) (47, 1.50000000000000000000e+03) (48, 1.50000000000000000000e+03) (49, 1.50000000000000000000e+03) (50, 1.50000000000000000000e+03) (51, 1.50000000000000000000e+03) (52, 1.50000000000000000000e+03) (53, 1.50000000000000000000e+03) (54, 1.50000000000000000000e+03) (55, 1.50000000000000000000e+03) (56, 1.50000000000000000000e+03) (57, 1.50000000000000000000e+03) (58, 1.50000000000000000000e+03) (59, 1.50000000000000000000e+03) (60, -3.18961143493652343750e-01) (61, -4.72341388463973999023e-01) (62, -4.10850614309310913086e-01) (63, -4.87503886222839355469e-01) (64, -4.91556972265243530273e-01) (65, -3.44412803649902343750e-01) (66, -3.92585366964340209961e-01) (67, -3.27763229608535766602e-01) (68, -3.15826416015625000000e-01) (69, -2.31128036975860595703e-01) (70, -4.21259701251983642578e-01) (71, -4.88299190998077392578e-01) (72, -4.41188424825668334961e-01) (73, -2.03873559832572937012e-01) (74, -4.17828440666198730469e-01) (75, -1.97476595640182495117e-01) (76, -4.93464320898056030273e-01) (77, -5.18015503883361816406e-01) (78, -4.18480128049850463867e-01) (79, -4.01977121829986572266e-01) (80, -3.70987445116043090820e-01) (81, -2.50758022069931030273e-01) (82, -3.05157184600830078125e-01) (83, -3.79174590110778808594e-01) (84, -3.83138507604598999023e-01) (85, -4.11556094884872436523e-01) (86, -1.87074929475784301758e-01) (87, 2.53175765275955200195e-01) (88, -6.18385970592498779297e-01) (89, 3.78607094287872314453e-01) (90, -1.04077529907226562500e+00) (91, 2.06809806823730468750e+00) (92, 2.82958000898361206055e-01) (93, 4.92366194725036621094e-01) (94, 1.50000000000000000000e+03) (95, 1.50000000000000000000e+03) (96, 1.50000000000000000000e+03) (97, 1.50000000000000000000e+03) (98, 1.50000000000000000000e+03) (99, 1.50000000000000000000e+03) (100, 1.50000000000000000000e+03) (101, 1.50000000000000000000e+03) (102, 1.50000000000000000000e+03) (103, 1.50000000000000000000e+03) (104, 1.50000000000000000000e+03) (105, 1.50000000000000000000e+03) (106, 1.50000000000000000000e+03) (107, 6.01943969726562500000e-01) (108, 1.19711518287658691406e-01) (109, 6.46731519699096679688e+00) (110, 1.69775831699371337891e+00) (111, -3.66464585065841674805e-01) (112, 1.20059192180633544922e+00) (113, 9.63875114917755126953e-01) (114, -1.06911075115203857422e+00) (115, -2.78809368610382080078e-01) (116, 2.22719359397888183594e+00) (117, 1.02756261825561523438e+00) (118, -3.89226943254470825195e-01) (119, -1.49706566333770751953e+00) (120, 6.93942248821258544922e-01) (121, -4.94436547160148620605e-02) (122, -2.54770219326019287109e-02) (123, 2.20063909888267517090e-01) (124, 6.75241708755493164062e-01) (125, 3.89681458473205566406e-01) (126, 7.38934814929962158203e-01) (127, -2.44287893176078796387e-01) (128, 2.11719423532485961914e-01) (129, -8.04260730743408203125e-01) (130, -4.71956133842468261719e-01) (131, -3.51816236972808837891e-01) (132, 3.26970964670181274414e-02) (133, 1.03334701061248779297e+00) (134, -5.05427360534667968750e-01) (135, -8.75576734542846679688e-01) (136, -6.82165861129760742188e-01) (137, -2.94549512863159179688e+00) (138, -6.28708600997924804688e-02) (139, 1.07395446300506591797e+00) (140, -2.01255023479461669922e-01) (141, 1.50000000000000000000e+03) (142, 1.50000000000000000000e+03) (143, 1.50000000000000000000e+03) (144, 1.50000000000000000000e+03) (145, 1.50000000000000000000e+03) (146, 1.50000000000000000000e+03) (147, 1.50000000000000000000e+03) (148, 1.50000000000000000000e+03) (149, 1.50000000000000000000e+03) (150, 1.50000000000000000000e+03) (151, 1.50000000000000000000e+03) (152, 1.50000000000000000000e+03) (153, 1.50000000000000000000e+03) (154, 5.38000285625457763672e-01) (155, 9.21521902084350585938e-01) (156, 8.56209933757781982422e-01) (157, 2.76228398084640502930e-01) (158, 6.21161580085754394531e-01) (159, 4.41564977169036865234e-01) (160, 2.78004586696624755859e-01) (161, 6.72087490558624267578e-01) (162, 4.46801304817199707031e-01) (163, 4.38134819269180297852e-01) (164, 1.10042107105255126953e+00) (165, 9.38671827316284179688e-01) (166, 3.38706582784652709961e-01) (167, 5.68074405193328857422e-01) (168, 9.29404258728027343750e-01) (169, 9.72868919372558593750e-01) (170, 2.38008245825767517090e-01) (171, 5.59830188751220703125e-01) (172, 9.15177315473556518555e-02) (173, 3.18987727165222167969e-01) (174, 7.08510696887969970703e-01) (175, 5.23636221885681152344e-01) (176, 5.89713990688323974609e-01) (177, 9.28991258144378662109e-01) (178, 7.13872969150543212891e-01) (179, 3.79485905170440673828e-01) (180, 2.10061407089233398438e+00) (181, 1.33721992373466491699e-01) (182, 3.78592163324356079102e-01) (183, 2.92877101898193359375e+00) (184, 9.52074646949768066406e-01) (185, -5.98763048648834228516e-01) (186, 1.13959111273288726807e-01) (187, -5.53891479969024658203e-01) (188, -1.71940490603446960449e-01) (189, -1.95199346542358398438e+00) (190, -4.74610120058059692383e-01) (191, -2.97402048110961914062e+00) (192, 1.42025187611579895020e-01) (193, -1.86154335737228393555e-01) (0, 8.56811404228210449219e-01) (1, -8.64949798583984375000e+00) (2, 2.67932176589965820312e+00) (3, 2.99464130401611328125e+00) (4, 7.39956140518188476562e-01) (5, 2.28682272136211395264e-02) (6, -3.63994288444519042969e+00) (7, -1.02463829517364501953e+00) (8, -1.50417125225067138672e+00) (9, 9.56069469451904296875e-01) (10, 4.23215055465698242188e+00) (11, 1.31129407882690429688e+00) (12, -1.05237448215484619141e+00) (13, 1.87780427932739257812e+00) (14, 4.49911385774612426758e-01) (15, -2.59595178067684173584e-02) (16, 6.11842811107635498047e-01) (17, -1.81594148278236389160e-01) (18, -9.95442345738410949707e-02) (19, 1.36666202545166015625e+00) (20, 3.22088408470153808594e+00) (21, 3.48895877599716186523e-01) (22, -3.99809032678604125977e-01) (23, 2.56873834878206253052e-02) (24, 3.88978362083435058594e-01) (25, -1.10291457176208496094e+00) (26, 2.28776097297668457031e+00) (27, 3.02641606330871582031e+00) (28, 1.70461559295654296875e+00) (29, 4.72990006208419799805e-01) (30, 5.64976871013641357422e-01) (31, -3.90494585037231445312e-01) (32, 2.93285250663757324219e-01) (33, 2.16276121139526367188e+00) (34, 1.38446009159088134766e+00) (35, 8.05001854896545410156e-01) (36, -6.58132672309875488281e-01) (37, 2.75858610868453979492e-01) (38, 2.95755124092102050781e+00) (39, -1.09088146686553955078e+00) (40, 4.18722867965698242188e+00) (41, 3.60202693939208984375e+00) (42, -1.77241668105125427246e-01) (43, -7.79338777065277099609e-02) (44, 1.55272940173745155334e-02) (45, 9.68886837363243103027e-02) (46, 1.21651411056518554688e+01) (47, 1.50000000000000000000e+03) (48, 1.50000000000000000000e+03) (49, 1.50000000000000000000e+03) (50, 1.50000000000000000000e+03) (51, 1.50000000000000000000e+03) (52, 1.50000000000000000000e+03) (53, 1.50000000000000000000e+03) (54, 1.50000000000000000000e+03) (55, 1.50000000000000000000e+03) (56, 1.50000000000000000000e+03) (57, 1.50000000000000000000e+03) (58, 1.50000000000000000000e+03) (59, 1.50000000000000000000e+03) (60, -8.35256651043891906738e-02) (61, -1.04680053889751434326e-01) (62, -3.11447493731975555420e-03) (63, -1.14743404090404510498e-01) (64, -1.21189147233963012695e-01) (65, 5.89826237410306930542e-03) (66, -9.97103080153465270996e-02) (67, -2.25361087359488010406e-03) (68, -1.12212918698787689209e-01) (69, -1.93125586956739425659e-02) (70, -1.75473973155021667480e-01) (71, -1.48403421044349670410e-01) (72, -7.68155306577682495117e-02) (73, -1.73742845654487609863e-01) (74, -2.96611990779638290405e-02) (75, -1.33421063423156738281e-01) (76, -1.81251466274261474609e-01) (77, -5.82225732505321502686e-02) (78, -3.36278863251209259033e-02) (79, -1.43551523797214031219e-03) (80, -1.60109754651784896851e-02) (81, -7.94300213456153869629e-02) (82, -1.52859255671501159668e-01) (83, -1.46408259868621826172e-01) (84, -7.15819075703620910645e-02) (85, -7.44655728340148925781e-03) (86, -1.02773594856262207031e+00) (87, 1.73360979557037353516e+00) (88, 3.45693945884704589844e+00) (89, 3.68397176265716552734e-01) (90, -2.96879038214683532715e-02) (91, 3.29610514640808105469e+00) (92, 1.25281202793121337891e+00) (93, 7.08083391189575195312e-01) (94, 1.50000000000000000000e+03) (95, 1.50000000000000000000e+03) (96, 1.50000000000000000000e+03) (97, 1.50000000000000000000e+03) (98, 1.50000000000000000000e+03) (99, 1.50000000000000000000e+03) (100, 1.50000000000000000000e+03) (101, 1.50000000000000000000e+03) (102, 1.50000000000000000000e+03) (103, 1.50000000000000000000e+03) (104, 1.50000000000000000000e+03) (105, 1.50000000000000000000e+03) (106, 1.50000000000000000000e+03) (107, 3.37419629096984863281e-01) (108, 2.21271014213562011719e+00) (109, 8.39379131793975830078e-01) (110, -3.23160076141357421875e+00) (111, -1.06455914676189422607e-01) (112, 8.82305324077606201172e-01) (113, 1.97042691707611083984e+00) (114, -4.02395635843276977539e-01) (115, 1.56811863183975219727e-01) (116, 1.70732855796813964844e+00) (117, -2.26513713598251342773e-01) (118, -3.87500911951065063477e-01) (119, 4.86762857437133789062e+00) (120, 1.46803885698318481445e-01) (121, 3.29937845468521118164e-01) (122, -1.94048181176185607910e-01) (123, 2.20206215977668762207e-01) (124, 4.86776739358901977539e-01) (125, 2.71035224199295043945e-01) (126, 1.56510576605796813965e-01) (127, 1.12781278789043426514e-01) (128, -7.01803714036941528320e-02) (129, 1.67063754051923751831e-02) (130, 2.00245693325996398926e-01) (131, 1.60394206643104553223e-01) (132, 3.02953980863094329834e-02) (133, 3.42765860259532928467e-02) (134, -1.20872724056243896484e+00) (135, 6.87321662902832031250e-01) (136, 2.19823980331420898438e+00) (137, -3.46007972955703735352e-01) (138, 2.66972899436950683594e-01) (139, -1.47636735439300537109e+00) (140, 6.83599054813385009766e-01) (141, 1.50000000000000000000e+03) (142, 1.50000000000000000000e+03) (143, 1.50000000000000000000e+03) (144, 1.50000000000000000000e+03) (145, 1.50000000000000000000e+03) (146, 1.50000000000000000000e+03) (147, 1.50000000000000000000e+03) (148, 1.50000000000000000000e+03) (149, 1.50000000000000000000e+03) (150, 1.50000000000000000000e+03) (151, 1.50000000000000000000e+03) (152, 1.50000000000000000000e+03) (153, 1.50000000000000000000e+03) (154, 2.42975309491157531738e-01) (155, -1.50065436959266662598e-01) (156, 2.23087117075920104980e-01) (157, 1.38583242893218994141e-01) (158, 8.93459990620613098145e-02) (159, 4.48983281850814819336e-01) (160, 6.21775835752487182617e-02) (161, 1.40172600746154785156e-01) (162, 1.58217489719390869141e-01) (163, 2.22970366477966308594e-01) (164, 3.11571896076202392578e-01) (165, 1.84038400650024414062e-01) (166, 1.85151576995849609375e-01) (167, 2.46906802058219909668e-01) (168, 1.25391051173210144043e-01) (169, -1.50801360607147216797e-01) (170, 4.75094437599182128906e-01) (171, 1.31568536162376403809e-01) (172, 1.06025969982147216797e+00) (173, 2.39615082740783691406e-01) (174, 3.44530850648880004883e-01) (175, 2.95861244201660156250e-01) (176, 2.95693129301071166992e-01) (177, 1.34592622518539428711e-01) (178, 2.39055559039115905762e-01) (179, 1.04385033249855041504e-01) (180, 5.50095140933990478516e-01) (181, 5.35029433667659759521e-02) (182, 4.84122931957244873047e-01) (183, -2.12739443778991699219e+00) (184, -1.45919060707092285156e+00) (185, -5.54999746382236480713e-02) (186, -6.97628021240234375000e-01) (187, 1.75044703483581542969e+00) (188, -1.79957938194274902344e+00) (189, -8.25439929962158203125e-01) (190, -1.41548852920532226562e+01) (191, -4.98174428939819335938e+00) (192, 8.16095924377441406250e+00) (193, 1.66927838325500488281e+00) (0, 6.91629409790039062500e-01) (1, -2.43742156028747558594e+00) (2, 5.71659505367279052734e-01) (3, -1.54498898983001708984e+00) (4, 5.77945590019226074219e-01) (5, 1.05479955673217773438e+00) (6, -1.10351055860519409180e-01) (7, 2.24932217597961425781e+00) (8, -7.63549268245697021484e-01) (9, 5.07344841957092285156e-01) (10, -8.60785901546478271484e-01) (11, -8.18224072456359863281e-01) (12, 4.87614297866821289062e+00) (13, 8.75235462188720703125e+00) (14, 1.73845422267913818359e+00) (15, 5.25323390960693359375e-01) (16, -5.99700093269348144531e-01) (17, 3.34684419631958007812e+00) (18, -2.92306065559387207031e-01) (19, 1.85504424571990966797e+00) (20, 1.92862546443939208984e+00) (21, 1.09489238262176513672e+00) (22, 3.30730766057968139648e-01) (23, 1.70639872550964355469e+00) (24, 1.45978093147277832031e+00) (25, 1.50585189461708068848e-01) (26, 1.15357965230941772461e-01) (27, 4.47290033102035522461e-01) (28, 4.53295707702636718750e-01) (29, -3.76212215423583984375e+00) (30, -3.37684005498886108398e-01) (31, -2.18134317547082901001e-02) (32, 1.41047120094299316406e+00) (33, 6.31791532039642333984e-01) (34, 3.41166555881500244141e-01) (35, -2.96968936920166015625e-01) (36, 1.57008051872253417969e+00) (37, -1.71221113204956054688e+00) (38, -5.55688977241516113281e-01) (39, 1.03568889200687408447e-01) (40, 3.43669384717941284180e-01) (41, 2.12730193138122558594e+00) (42, 1.06990623474121093750e+00) (43, 6.73669874668121337891e-01) (44, 7.19228029251098632812e-01) (45, 7.16172754764556884766e-01) (46, -2.14445278048515319824e-01) (47, 1.50000000000000000000e+03) (48, 1.50000000000000000000e+03) (49, 1.50000000000000000000e+03) (50, 1.50000000000000000000e+03) (51, 1.50000000000000000000e+03) (52, 1.50000000000000000000e+03) (53, 1.50000000000000000000e+03) (54, 1.50000000000000000000e+03) (55, 1.50000000000000000000e+03) (56, 1.50000000000000000000e+03) (57, 1.50000000000000000000e+03) (58, 1.50000000000000000000e+03) (59, 1.50000000000000000000e+03) (60, 5.83351016044616699219e-01) (61, 7.83772349357604980469e-01) (62, 3.65786463022232055664e-01) (63, 4.50950980186462402344e-01) (64, 2.61832624673843383789e-01) (65, 5.17454743385314941406e-01) (66, 3.15089583396911621094e-01) (67, 9.75322782993316650391e-01) (68, 4.55129742622375488281e-01) (69, 2.76932746171951293945e-01) (70, 2.89546221494674682617e-01) (71, 5.26012420654296875000e-01) (72, 4.00979638099670410156e-01) (73, 4.84612256288528442383e-01) (74, 7.63249456882476806641e-01) (75, 4.84303563833236694336e-01) (76, 3.74643772840499877930e-01) (77, 2.37828359007835388184e-01) (78, 4.41700637340545654297e-01) (79, 3.06602060794830322266e-01) (80, 9.52998936176300048828e-01) (81, 5.55031299591064453125e-01) (82, 4.76543247699737548828e-01) (83, 3.38779181241989135742e-01) (84, 4.74541485309600830078e-01) (85, 4.20734882354736328125e-01) (86, -2.61520361900329589844e+00) (87, 4.42102909088134765625e-01) (88, 1.35372877120971679688e+00) (89, -5.41604697704315185547e-01) (90, 2.59528547525405883789e-01) (91, 3.35127830505371093750e+00) (92, -4.27185916900634765625e+00) (93, -5.76072740554809570312e+00) (94, 1.50000000000000000000e+03) (95, 1.50000000000000000000e+03) (96, 1.50000000000000000000e+03) (97, 1.50000000000000000000e+03) (98, 1.50000000000000000000e+03) (99, 1.50000000000000000000e+03) (100, 1.50000000000000000000e+03) (101, 1.50000000000000000000e+03) (102, 1.50000000000000000000e+03) (103, 1.50000000000000000000e+03) (104, 1.50000000000000000000e+03) (105, 1.50000000000000000000e+03) (106, 1.50000000000000000000e+03) (107, 5.80305862426757812500e+00) (108, 2.93995976448059082031e+00) (109, 2.34979248046875000000e+00) (110, 8.73191729187965393066e-02) (111, -1.73327171802520751953e+00) (112, 9.52894091606140136719e-01) (113, 4.93342208862304687500e+00) (114, 1.27466452121734619141e+00) (115, 1.08286596834659576416e-01) (116, 3.85834431648254394531e+00) (117, 2.47526526451110839844e+00) (118, -4.06657266616821289062e+00) (119, 4.22408056259155273438e+00) (120, 1.13157376646995544434e-01) (121, 5.01225963234901428223e-02) (122, 3.10518920421600341797e-01) (123, -1.13758884370326995850e-01) (124, 1.69523239135742187500e-01) (125, 1.88299581408500671387e-01) (126, 2.12055802345275878906e-01) (127, 3.25399756431579589844e-01) (128, -1.22189775109291076660e-01) (129, -6.59464776515960693359e-01) (130, 1.41346305608749389648e-01) (131, 6.25493898987770080566e-02) (132, 4.09238368272781372070e-01) (133, 3.98056507110595703125e-01) (134, 9.46681439876556396484e-01) (135, -2.39232277870178222656e+00) (136, 3.20441532135009765625e+00) (137, 1.02198684215545654297e+00) (138, 2.04427313804626464844e+00) (139, 3.44171226024627685547e-01) (140, -5.84022521972656250000e-01) (141, 1.50000000000000000000e+03) (142, 1.50000000000000000000e+03) (143, 1.50000000000000000000e+03) (144, 1.50000000000000000000e+03) (145, 1.50000000000000000000e+03) (146, 1.50000000000000000000e+03) (147, 1.50000000000000000000e+03) (148, 1.50000000000000000000e+03) (149, 1.50000000000000000000e+03) (150, 1.50000000000000000000e+03) (151, 1.50000000000000000000e+03) (152, 1.50000000000000000000e+03) (153, 1.50000000000000000000e+03) (154, 2.49821409583091735840e-01) (155, 7.23367273807525634766e-01) (156, 3.87746430933475494385e-02) (157, 5.08955419063568115234e-01) (158, 1.64356529712677001953e-01) (159, 3.62613350152969360352e-01) (160, 5.67100405693054199219e-01) (161, -1.70721054077148437500e+00) (162, 4.44736748933792114258e-01) (163, 4.40336555242538452148e-01) (164, 3.45240980386734008789e-02) (165, 6.32975459098815917969e-01) (166, 7.47214332222938537598e-02) (167, 3.99528056383132934570e-01) (168, 4.89143252372741699219e-01) (169, 2.33290600590407848358e-03) (170, 7.04286277294158935547e-01) (171, 1.85111477971076965332e-01) (172, 3.42772811651229858398e-01) (173, 6.63936555385589599609e-01) (174, -7.55863845348358154297e-01) (175, 2.85392791032791137695e-01) (176, 5.50732016563415527344e-01) (177, 7.21720010042190551758e-02) (178, 6.83083117008209228516e-01) (179, 5.20395748317241668701e-02) (180, 2.80482816696166992188e+00) (181, 3.43341326713562011719e+00) (182, 3.38269186019897460938e+00) (183, -1.94344580173492431641e-01) (184, 8.51937472820281982422e-01) (185, 1.45091104507446289062e+00) (186, 1.23634707927703857422e+00) (187, 2.78386449813842773438e+00) (188, -2.05482101440429687500e+00) (189, 6.63418197631835937500e+00) (190, -1.29939270019531250000e+00) (191, -3.96504688262939453125e+00) (192, 2.46374949812889099121e-01) (193, -3.44111990928649902344e+00) (0, 2.12453818321228027344e+00) (1, 9.47072029113769531250e-01) (2, 2.65773844718933105469e+00) (3, 1.27351450920104980469e+00) (4, 2.16074848175048828125e+00) (5, -5.46387314796447753906e-01) (6, -1.75703048706054687500e-01) (7, 6.72541633248329162598e-02) (8, -2.06164196133613586426e-01) (9, 1.21901881694793701172e+00) (10, -1.62305939197540283203e+00) (11, 2.58566117286682128906e+00) (12, 2.25646048784255981445e-02) (13, 3.85488653182983398438e+00) (14, 1.29518258571624755859e+00) (15, 5.16655184328556060791e-02) (16, -1.80052787065505981445e-01) (17, -1.33363291621208190918e-01) (18, 3.11651182174682617188e+00) (19, 1.17910718917846679688e+00) (20, 1.08051335811614990234e+00) (21, -5.07121515274047851562e+00) (22, 1.29742312431335449219e+00) (23, 9.27670180797576904297e-01) (24, 4.14012402296066284180e-01) (25, 3.09288811683654785156e+00) (26, 4.99552220106124877930e-01) (27, 2.14753770828247070312e+00) (28, -4.71327096223831176758e-01) (29, -1.28765261173248291016e+00) (30, -5.75141236186027526855e-02) (31, -2.39869415760040283203e-01) (32, -5.64311087131500244141e-01) (33, -1.36594200134277343750e+00) (34, 5.91877937316894531250e-01) (35, 3.51904845237731933594e+00) (36, 2.47887820005416870117e-02) (37, 2.95758932828903198242e-01) (38, 1.48165476322174072266e+00) (39, -1.20910668373107910156e+00) (40, 3.40699982643127441406e+00) (41, 3.37459039688110351562e+00) (42, 5.79162979125976562500e+00) (43, 3.77238959074020385742e-01) (44, 4.90859568119049072266e-01) (45, 4.15394496917724609375e+00) (46, 1.09735393524169921875e+00) (47, 1.50000000000000000000e+03) (48, 1.50000000000000000000e+03) (49, 1.50000000000000000000e+03) (50, 1.50000000000000000000e+03) (51, 1.50000000000000000000e+03) (52, 1.50000000000000000000e+03) (53, 1.50000000000000000000e+03) (54, 1.50000000000000000000e+03) (55, 1.50000000000000000000e+03) (56, 1.50000000000000000000e+03) (57, 1.50000000000000000000e+03) (58, 1.50000000000000000000e+03) (59, 1.50000000000000000000e+03) (60, 4.58348572254180908203e-01) (61, 3.14928084611892700195e-01) (62, 4.51548755168914794922e-01) (63, 4.17230576276779174805e-01) (64, 3.31726998090744018555e-01) (65, 4.51022386550903320312e-01) (66, 4.86597746610641479492e-01) (67, 4.09943163394927978516e-01) (68, 5.56205749511718750000e-01) (69, 3.33875209093093872070e-01) (70, 4.77655768394470214844e-01) (71, 4.20948326587677001953e-01) (72, 4.93999511003494262695e-01) (73, 6.36014521121978759766e-01) (74, 4.57963824272155761719e-01) (75, 4.07326847314834594727e-01) (76, 5.08057773113250732422e-01) (77, 3.13504785299301147461e-01) (78, 4.82656419277191162109e-01) (79, 3.33224952220916748047e-01) (80, 3.69544565677642822266e-01) (81, 5.54605484008789062500e-01) (82, 6.51975274085998535156e-01) (83, 3.47997725009918212891e-01) (84, 3.43546450138092041016e-01) (85, 4.32710379362106323242e-01) (86, -1.09103596210479736328e+00) (87, 6.12861931324005126953e-01) (88, 5.75672507286071777344e-01) (89, 3.53407204151153564453e-01) (90, 1.26802876591682434082e-01) (91, 4.38892889022827148438e+00) (92, 1.46104824542999267578e+00) (93, -5.37051439285278320312e-01) (94, 1.50000000000000000000e+03) (95, 1.50000000000000000000e+03) (96, 1.50000000000000000000e+03) (97, 1.50000000000000000000e+03) (98, 1.50000000000000000000e+03) (99, 1.50000000000000000000e+03) (100, 1.50000000000000000000e+03) (101, 1.50000000000000000000e+03) (102, 1.50000000000000000000e+03) (103, 1.50000000000000000000e+03) (104, 1.50000000000000000000e+03) (105, 1.50000000000000000000e+03) (106, 1.50000000000000000000e+03) (107, 6.92269921302795410156e-01) (108, -3.76413679122924804688e+00) (109, -4.22005224227905273438e+00) (110, -1.91140472888946533203e+00) (111, -1.53101873397827148438e+00) (112, -1.18341088294982910156e+00) (113, 1.05082631111145019531e+00) (114, 4.63449478149414062500e+00) (115, -7.29948902130126953125e+00) (116, 1.59802639484405517578e+00) (117, -2.95009553432464599609e-01) (118, 4.17282390594482421875e+00) (119, 6.28793764114379882812e+00) (120, 1.85989245772361755371e-01) (121, 1.48815393447875976562e-01) (122, 1.23927533626556396484e-01) (123, 2.93387651443481445312e-01) (124, 5.69719970226287841797e-01) (125, 3.42691957950592041016e-01) (126, 2.19656884670257568359e-01) (127, 1.25204414129257202148e-01) (128, -7.11348652839660644531e-02) (129, 1.42492845654487609863e-01) (130, 2.66043633222579956055e-01) (131, 1.62017792463302612305e-01) (132, 3.40861469507217407227e-01) (133, -6.48627579212188720703e-01) (134, 6.86615526676177978516e-01) (135, -1.59366893768310546875e+00) (136, 1.69183421134948730469e+00) (137, 1.28567659854888916016e+00) (138, -9.23609733581542968750e-01) (139, -6.57439902424812316895e-02) (140, -1.58721911907196044922e+00) (141, 1.50000000000000000000e+03) (142, 1.50000000000000000000e+03) (143, 1.50000000000000000000e+03) (144, 1.50000000000000000000e+03) (145, 1.50000000000000000000e+03) (146, 1.50000000000000000000e+03) (147, 1.50000000000000000000e+03) (148, 1.50000000000000000000e+03) (149, 1.50000000000000000000e+03) (150, 1.50000000000000000000e+03) (151, 1.50000000000000000000e+03) (152, 1.50000000000000000000e+03) (153, 1.50000000000000000000e+03) (154, 2.71320462226867675781e-01) (155, 1.41817450523376464844e-01) (156, 3.77591252326965332031e-01) (157, 1.93154707551002502441e-01) (158, 1.50645196437835693359e-01) (159, -1.26953154802322387695e-01) (160, 6.57684803009033203125e-01) (161, -2.45862364768981933594e-01) (162, 1.08079552650451660156e+00) (163, 5.41707515716552734375e-01) (164, 2.33757585287094116211e-01) (165, 2.47057303786277770996e-02) (166, 1.55379220843315124512e-01) (167, 2.11001306772232055664e-01) (168, 1.57295823097229003906e-01) (169, 3.16914528608322143555e-01) (170, 2.15153843164443969727e-01) (171, 7.55532085895538330078e-02) (172, -3.13356332480907440186e-02) (173, 4.75847393274307250977e-01) (174, -1.89879223704338073730e-01) (175, 5.73242068290710449219e-01) (176, 1.30884826183319091797e+00) (177, 1.17686569690704345703e-01) (178, 1.05680517852306365967e-01) (179, -3.33236679434776306152e-02) (180, 2.79325294494628906250e+00) (181, -1.51387739181518554688e+00) (182, 1.77270269393920898438e+00) (183, 2.90856033563613891602e-01) (184, -1.85320866107940673828e+00) (185, -2.57881593704223632812e+00) (186, 1.13262200355529785156e+00) (187, 4.75123673677444458008e-01) (188, -1.38434398174285888672e+00) (189, 8.78436374664306640625e+00) (190, -1.37144899368286132812e+00) (191, -6.05772399902343750000e+00) (192, 1.14424633979797363281e+00) (193, -6.88150763511657714844e-01) (0, 3.59733819961547851562e+00) (1, -7.14520037174224853516e-01) (2, 9.94252413511276245117e-02) (3, 6.14245033264160156250e+00) (4, 1.10136318206787109375e+00) (5, 4.05824869871139526367e-01) (6, -2.29710912704467773438e+00) (7, 3.82227587699890136719e+00) (8, -4.76124107837677001953e-01) (9, -4.27447795867919921875e-01) (10, 1.55513584613800048828e-01) (11, 5.34320533275604248047e-01) (12, 1.21568655967712402344e+00) (13, 4.71862435340881347656e-01) (14, 1.08973078429698944092e-01) (15, -1.70152425765991210938e-01) (16, 3.85677844285964965820e-01) (17, 2.00305485725402832031e+00) (18, 3.62525194883346557617e-01) (19, 3.96307945251464843750e+00) (20, 3.30552840232849121094e+00) (21, 2.01146736741065979004e-01) (22, -1.23754692077636718750e+00) (23, -7.99931406974792480469e-01) (24, -1.48667490482330322266e+00) (25, 2.25048398971557617188e+00) (26, 1.43757522106170654297e-01) (27, 2.58775162696838378906e+00) (28, 3.20502728223800659180e-01) (29, 4.01021271944046020508e-01) (30, 1.30925759673118591309e-01) (31, 1.14372909069061279297e-01) (32, 2.21650195121765136719e+00) (33, 7.05357491970062255859e-01) (34, -3.33204239606857299805e-01) (35, -6.81344330310821533203e-01) (36, -1.50401747226715087891e+00) (37, 2.72026538848876953125e+00) (38, -2.86311912536621093750e+00) (39, -1.09703111648559570312e+00) (40, 2.54683899879455566406e+00) (41, 1.99077939987182617188e+00) (42, 4.27697986364364624023e-01) (43, 1.95041298866271972656e-01) (44, 1.79432854056358337402e-01) (45, 3.87900590896606445312e-01) (46, 2.24439382553100585938e+00) (47, 1.50000000000000000000e+03) (48, 1.50000000000000000000e+03) (49, 1.50000000000000000000e+03) (50, 1.50000000000000000000e+03) (51, 1.50000000000000000000e+03) (52, 1.50000000000000000000e+03) (53, 1.50000000000000000000e+03) (54, 1.50000000000000000000e+03) (55, 1.50000000000000000000e+03) (56, 1.50000000000000000000e+03) (57, 1.50000000000000000000e+03) (58, 1.50000000000000000000e+03) (59, 1.50000000000000000000e+03) (60, 3.50800216197967529297e-01) (61, 1.27511426806449890137e-01) (62, 5.56395063176751136780e-03) (63, 5.99327199161052703857e-02) (64, 1.03427991271018981934e-01) (65, -4.91044670343399047852e-02) (66, 3.30817490816116333008e-01) (67, -2.55450755357742309570e-02) (68, 1.22755549848079681396e-01) (69, 6.01453986018896102905e-03) (70, -3.35903242230415344238e-02) (71, 2.95796096324920654297e-01) (72, 2.59355157613754272461e-01) (73, 3.28193336725234985352e-01) (74, 8.96681174635887145996e-02) (75, -4.88454997539520263672e-02) (76, 3.40607762336730957031e-02) (77, -2.40753330290317535400e-02) (78, 2.04228758811950683594e-01) (79, -5.98048418760299682617e-02) (80, -3.83686739951372146606e-03) (81, 1.20415583252906799316e-01) (82, 1.54188171029090881348e-01) (83, 1.03657029569149017334e-01) (84, 2.81209528446197509766e-01) (85, 3.26695114374160766602e-01) (86, 6.02653861045837402344e-01) (87, 1.31766164302825927734e+00) (88, 2.84236168861389160156e+00) (89, -1.04838229715824127197e-01) (90, 2.51249164342880249023e-01) (91, -1.11961454153060913086e-01) (92, 5.82566440105438232422e-01) (93, 1.68391871452331542969e+00) (94, 1.50000000000000000000e+03) (95, 1.50000000000000000000e+03) (96, 1.50000000000000000000e+03) (97, 1.50000000000000000000e+03) (98, 1.50000000000000000000e+03) (99, 1.50000000000000000000e+03) (100, 1.50000000000000000000e+03) (101, 1.50000000000000000000e+03) (102, 1.50000000000000000000e+03) (103, 1.50000000000000000000e+03) (104, 1.50000000000000000000e+03) (105, 1.50000000000000000000e+03) (106, 1.50000000000000000000e+03) (107, 3.63659083843231201172e-01) (108, 4.46521431207656860352e-01) (109, -9.86978352069854736328e-01) (110, 1.37946403026580810547e+00) (111, -1.11918926239013671875e+00) (112, 8.16648125648498535156e-01) (113, 4.14277124404907226562e+00) (114, 1.85173809528350830078e-01) (115, 6.35790765285491943359e-01) (116, -1.06382203102111816406e+00) (117, -1.05292171239852905273e-01) (118, -3.55551505088806152344e+00) (119, 4.66310644149780273438e+00) (120, 3.66695523262023925781e-01) (121, 2.02811852097511291504e-01) (122, -1.28469884395599365234e-01) (123, 2.74075627326965332031e-01) (124, 5.12602031230926513672e-01) (125, 5.05647361278533935547e-01) (126, 4.70476597547531127930e-01) (127, 3.23262721300125122070e-01) (128, 3.78865867853164672852e-01) (129, -1.10761851072311401367e-01) (130, 3.58205765485763549805e-01) (131, -1.27838253974914550781e-01) (132, 1.80631411075592041016e+00) (133, -4.43618148565292358398e-01) (134, -2.94734567403793334961e-01) (135, 7.45449304580688476562e-01) (136, 2.11543560028076171875e+00) (137, 2.15140223503112792969e-01) (138, 6.31083786487579345703e-01) (139, -8.75635504722595214844e-01) (140, -2.83427745103836059570e-01) (141, 1.50000000000000000000e+03) (142, 1.50000000000000000000e+03) (143, 1.50000000000000000000e+03) (144, 1.50000000000000000000e+03) (145, 1.50000000000000000000e+03) (146, 1.50000000000000000000e+03) (147, 1.50000000000000000000e+03) (148, 1.50000000000000000000e+03) (149, 1.50000000000000000000e+03) (150, 1.50000000000000000000e+03) (151, 1.50000000000000000000e+03) (152, 1.50000000000000000000e+03) (153, 1.50000000000000000000e+03) (154, 2.61514708399772644043e-02) (155, -3.13849300146102905273e-02) (156, -3.77791151404380798340e-02) (157, 2.54474937915802001953e-01) (158, -5.78844189643859863281e-01) (159, -1.96163937449455261230e-01) (160, -2.66545146703720092773e-01) (161, -2.89630770683288574219e-01) (162, -9.23336297273635864258e-02) (163, 3.10496568679809570312e-01) (164, -1.67195662856101989746e-01) (165, 4.92260247468948364258e-01) (166, -4.03673201799392700195e-01) (167, 9.41399112343788146973e-03) (168, 4.05528813600540161133e-01) (169, 5.89037597179412841797e-01) (170, 2.99590289592742919922e-01) (171, -1.24969497323036193848e-01) (172, -5.42891502380371093750e-01) (173, -2.30264425277709960938e-01) (174, -1.33007228374481201172e-01) (175, 6.58230409026145935059e-02) (176, 4.90565180778503417969e-01) (177, -4.53023284673690795898e-01) (178, 1.04634916782379150391e+00) (179, -6.34879946708679199219e-01) (180, 9.20587539672851562500e-01) (181, 1.74785703420639038086e-01) (182, -5.92933177947998046875e-01) (183, 7.83101081848144531250e-01) (184, -2.67399406433105468750e+00) (185, 8.95700335502624511719e-01) (186, 3.03671741485595703125e+00) (187, 7.60052502155303955078e-02) (188, -2.55035281181335449219e-01) (189, -9.76855576038360595703e-01) (190, -7.33103692531585693359e-01) (191, -2.99393868446350097656e+00) (192, -9.62327718734741210938e-01) (193, 1.11405938863754272461e-01) (0, 1.19597160816192626953e+00) (1, -1.89896786212921142578e+00) (2, 2.23607897758483886719e+00) (3, 3.66491317749023437500e+00) (4, 2.20097213983535766602e-01) (5, 3.33467610180377960205e-02) (6, -1.08770525455474853516e+00) (7, 2.41918110847473144531e+00) (8, 7.35671103000640869141e-01) (9, -1.67179453372955322266e+00) (10, 1.10492122173309326172e+00) (11, 2.40263342857360839844e+00) (12, -2.38641476631164550781e+00) (13, 1.31649982929229736328e+00) (14, 1.51959896087646484375e+00) (15, 1.67348992824554443359e+00) (16, 2.60023087263107299805e-01) (17, 5.59637129306793212891e-01) (18, 8.84192287921905517578e-01) (19, 1.80945146083831787109e+00) (20, 8.87943863868713378906e-01) (21, 1.31037569046020507812e+00) (22, 2.42841467261314392090e-01) (23, 2.61325359344482421875e+00) (24, 1.59518614411354064941e-01) (25, -4.51119303703308105469e-01) (26, 1.13882906734943389893e-01) (27, 3.03829461336135864258e-01) (28, 1.36251056194305419922e+00) (29, -5.83524584770202636719e-01) (30, -1.79733768105506896973e-01) (31, -7.15568006038665771484e-01) (32, -2.78290486335754394531e+00) (33, -3.54557514190673828125e-01) (34, -3.82002303376793861389e-03) (35, -4.51347559690475463867e-01) (36, -2.92671024799346923828e-01) (37, -6.92902863025665283203e-01) (38, -5.18007397651672363281e-01) (39, 1.41865706443786621094e+00) (40, 1.06656610965728759766e+00) (41, 9.01708185672760009766e-01) (42, 2.70343050360679626465e-02) (43, 6.35332390666007995605e-02) (44, 3.21229174733161926270e-02) (45, -4.83012676239013671875e-01) (46, 5.40150463581085205078e-01) (47, 1.50000000000000000000e+03) (48, 1.50000000000000000000e+03) (49, 1.50000000000000000000e+03) (50, 1.50000000000000000000e+03) (51, 1.50000000000000000000e+03) (52, 1.50000000000000000000e+03) (53, 1.50000000000000000000e+03) (54, 1.50000000000000000000e+03) (55, 1.50000000000000000000e+03) (56, 1.50000000000000000000e+03) (57, 1.50000000000000000000e+03) (58, 1.50000000000000000000e+03) (59, 1.50000000000000000000e+03) (60, 2.86754667758941650391e-01) (61, 1.35867418721318244934e-02) (62, 9.95689481496810913086e-02) (63, 1.76346618682146072388e-02) (64, 1.10280655324459075928e-01) (65, 3.55007290840148925781e-01) (66, 1.89515814185142517090e-01) (67, 4.43596392869949340820e-02) (68, 8.27259570360183715820e-02) (69, 1.34053543210029602051e-01) (70, 1.26942232251167297363e-01) (71, 4.83649000525474548340e-02) (72, 1.84485137462615966797e-01) (73, 2.33963921666145324707e-01) (74, 1.12142257392406463623e-01) (75, 1.87546566128730773926e-01) (76, 7.04119205474853515625e-02) (77, 4.66597005724906921387e-02) (78, 4.11964684724807739258e-01) (79, 2.94896624982357025146e-02) (80, 3.53266038000583648682e-02) (81, 1.45001262426376342773e-01) (82, 7.02895596623420715332e-02) (83, 1.32090210914611816406e-01) (84, 6.97174668312072753906e-02) (85, 1.48129671812057495117e-01) (86, -1.56104910373687744141e+00) (87, 2.55761051177978515625e+00) (88, 1.32074749469757080078e+00) (89, 6.02088198065757751465e-02) (90, 3.83141487836837768555e-01) (91, 4.81927394866943359375e+00) (92, 3.51200819015502929688e+00) (93, -8.77473056316375732422e-01) (94, 1.50000000000000000000e+03) (95, 1.50000000000000000000e+03) (96, 1.50000000000000000000e+03) (97, 1.50000000000000000000e+03) (98, 1.50000000000000000000e+03) (99, 1.50000000000000000000e+03) (100, 1.50000000000000000000e+03) (101, 1.50000000000000000000e+03) (102, 1.50000000000000000000e+03) (103, 1.50000000000000000000e+03) (104, 1.50000000000000000000e+03) (105, 1.50000000000000000000e+03) (106, 1.50000000000000000000e+03) (107, 3.29097539186477661133e-01) (108, -7.41220295429229736328e-01) (109, -4.78310406208038330078e-01) (110, -1.33529126644134521484e+00) (111, 5.53951300680637359619e-02) (112, -1.79899203777313232422e+00) (113, 3.92477250099182128906e+00) (114, -6.10616028308868408203e-01) (115, 2.61368185281753540039e-01) (116, -1.52863413095474243164e-01) (117, -1.19661152362823486328e-01) (118, 1.55230045318603515625e-01) (119, 5.14214420318603515625e+00) (120, 3.27689945697784423828e-01) (121, 2.87746220827102661133e-01) (122, 1.22255519032478332520e-01) (123, 2.33795031905174255371e-01) (124, 4.56057161092758178711e-01) (125, 8.50670158863067626953e-01) (126, 3.51317256689071655273e-01) (127, 3.77154946327209472656e-01) (128, 2.97544270753860473633e-01) (129, 3.70127677917480468750e-01) (130, 2.64135301113128662109e-01) (131, 5.63499569892883300781e-01) (132, 8.82572948932647705078e-01) (133, -2.61298656463623046875e+00) (134, 3.18047463893890380859e-01) (135, 1.33461844921112060547e+00) (136, 2.59596300125122070312e+00) (137, -7.45160728693008422852e-02) (138, 9.85850274562835693359e-01) (139, 1.08918440341949462891e+00) (140, -9.12578344345092773438e-01) (141, 1.50000000000000000000e+03) (142, 1.50000000000000000000e+03) (143, 1.50000000000000000000e+03) (144, 1.50000000000000000000e+03) (145, 1.50000000000000000000e+03) (146, 1.50000000000000000000e+03) (147, 1.50000000000000000000e+03) (148, 1.50000000000000000000e+03) (149, 1.50000000000000000000e+03) (150, 1.50000000000000000000e+03) (151, 1.50000000000000000000e+03) (152, 1.50000000000000000000e+03) (153, 1.50000000000000000000e+03) (154, 6.89838975667953491211e-02) (155, 1.22819319367408752441e-01) (156, 2.66202837228775024414e-01) (157, 2.19950810074806213379e-01) (158, 1.75169229507446289062e-01) (159, 1.08345679938793182373e-01) (160, 6.58155307173728942871e-02) (161, 9.98926311731338500977e-02) (162, 3.36443074047565460205e-02) (163, 1.12075738608837127686e-01) (164, 2.15598300099372863770e-01) (165, 3.18838983774185180664e-01) (166, 7.95457959175109863281e-02) (167, 1.18685074150562286377e-01) (168, 5.12162707746028900146e-02) (169, 1.25454023480415344238e-01) (170, 3.30017268657684326172e-01) (171, 1.33012801408767700195e-01) (172, 1.13498464226722717285e-01) (173, -2.11874097585678100586e-02) (174, 3.43964517116546630859e-01) (175, 8.65108333528041839600e-03) (176, 5.55132389068603515625e-01) (177, 2.15264722704887390137e-01) (178, 2.86560714244842529297e-01) (179, 9.93232205510139465332e-02) (180, 4.90660238265991210938e+00) (181, -1.79888033866882324219e+00) (182, 5.25344252586364746094e-01) (183, -4.93934869766235351562e+00) (184, -1.12742757797241210938e+00) (185, 1.90415370464324951172e+00) (186, 5.44173240661621093750e-01) (187, 9.18141603469848632812e-01) (188, 1.29263237118721008301e-01) (189, -2.81086772680282592773e-01) (190, -1.78438961505889892578e+00) (191, -1.60300254821777343750e+00) (192, 1.49509048461914062500e+00) (193, -1.01081609725952148438e+00) (0, 4.52249139547348022461e-01) (1, 3.89732098579406738281e+00) (2, 7.44387805461883544922e-01) (3, -2.62387543916702270508e-01) (4, 5.44587969779968261719e-01) (5, 2.25902825593948364258e-01) (6, -4.76357787847518920898e-02) (7, 7.90226578712463378906e-01) (8, 7.89695203304290771484e-01) (9, -2.23524585366249084473e-01) (10, 2.25030221045017242432e-02) (11, 7.93072271347045898438e+00) (12, -8.29058170318603515625e+00) (13, -1.38926878571510314941e-01) (14, 3.36376237869262695312e+00) (15, 7.79617488384246826172e-01) (16, 6.86957359313964843750e+00) (17, 1.33644592761993408203e+00) (18, -6.84377610683441162109e-01) (19, 7.53861188888549804688e-01) (20, 2.44499707221984863281e+00) (21, 1.34627413749694824219e+00) (22, -7.59179770946502685547e-01) (23, 3.10220867395401000977e-02) (24, 6.08810961246490478516e-01) (25, -2.94225072860717773438e+00) (26, -2.40506649017333984375e+00) (27, 1.95441150665283203125e+00) (28, 1.24958789348602294922e+00) (29, 7.29574561119079589844e-01) (30, 2.77306407690048217773e-01) (31, -7.33215153217315673828e-01) (32, -4.54578310251235961914e-01) (33, -1.26835727691650390625e+00) (34, 1.01461626589298248291e-01) (35, -1.45979154109954833984e+00) (36, -1.89499184489250183105e-01) (37, 8.67471027374267578125e+00) (38, 3.20107007026672363281e+00) (39, 1.56860566139221191406e+00) (40, 2.45669078826904296875e+00) (41, 2.18503379821777343750e+00) (42, 2.54692375659942626953e-01) (43, 5.59167265892028808594e-01) (44, 2.81661842018365859985e-02) (45, 4.97133702039718627930e-01) (46, 2.69386601448059082031e+00) (47, 1.50000000000000000000e+03) (48, 1.50000000000000000000e+03) (49, 1.50000000000000000000e+03) (50, 1.50000000000000000000e+03) (51, 1.50000000000000000000e+03) (52, 1.50000000000000000000e+03) (53, 1.50000000000000000000e+03) (54, 1.50000000000000000000e+03) (55, 1.50000000000000000000e+03) (56, 1.50000000000000000000e+03) (57, 1.50000000000000000000e+03) (58, 1.50000000000000000000e+03) (59, 1.50000000000000000000e+03) (60, 2.00308516621589660645e-01) (61, 2.25463598966598510742e-01) (62, 3.78559112548828125000e-01) (63, 3.81976842880249023438e-01) (64, 1.53086781501770019531e-01) (65, 3.00992935895919799805e-01) (66, 5.43948233127593994141e-01) (67, 3.30089092254638671875e-01) (68, 2.60779142379760742188e-01) (69, 4.26989316940307617188e-01) (70, 1.34460985660552978516e-01) (71, 4.86618459224700927734e-01) (72, 2.41607338190078735352e-01) (73, 2.14634776115417480469e-01) (74, 3.41565907001495361328e-01) (75, 3.65314245223999023438e-01) (76, 3.31816226243972778320e-01) (77, 1.23537361621856689453e-01) (78, 2.98535048961639404297e-01) (79, 4.27965700626373291016e-01) (80, 2.48454317450523376465e-01) (81, 1.54008761048316955566e-01) (82, 3.72562050819396972656e-01) (83, 2.15759053826332092285e-01) (84, 4.01565641164779663086e-01) (85, 1.30913481116294860840e-01) (86, 3.44672036170959472656e+00) (87, -6.57868862152099609375e-01) (88, -4.37493038177490234375e+00) (89, -1.02594780921936035156e+00) (90, 2.20377969741821289062e+00) (91, 1.87628352642059326172e+00) (92, 2.16724467277526855469e+00) (93, -1.61669099330902099609e+00) (94, 1.50000000000000000000e+03) (95, 1.50000000000000000000e+03) (96, 1.50000000000000000000e+03) (97, 1.50000000000000000000e+03) (98, 1.50000000000000000000e+03) (99, 1.50000000000000000000e+03) (100, 1.50000000000000000000e+03) (101, 1.50000000000000000000e+03) (102, 1.50000000000000000000e+03) (103, 1.50000000000000000000e+03) (104, 1.50000000000000000000e+03) (105, 1.50000000000000000000e+03) (106, 1.50000000000000000000e+03) (107, 1.96682453155517578125e+00) (108, -8.04912209510803222656e-01) (109, -5.05376994609832763672e-01) (110, -1.84939742088317871094e+00) (111, -3.95312368869781494141e-01) (112, 1.94875323772430419922e+00) (113, 3.97781342267990112305e-01) (114, 2.08494949340820312500e+00) (115, -2.07711982727050781250e+00) (116, -5.54199361801147460938e+00) (117, 3.29287385940551757812e+00) (118, -4.39101552963256835938e+00) (119, 6.12683773040771484375e+00) (120, 1.25095367431640625000e+00) (121, 9.10468399524688720703e-01) (122, 2.88392841815948486328e-01) (123, -1.61072984337806701660e-01) (124, 1.48749482631683349609e+00) (125, 1.75680208206176757812e+00) (126, 1.06546700000762939453e+00) (127, 5.45881271362304687500e-01) (128, 3.79597842693328857422e-01) (129, 2.95803964138031005859e-01) (130, -1.87543794512748718262e-01) (131, 7.87344872951507568359e-02) (132, 3.12475061416625976562e+00) (133, 3.49693149328231811523e-01) (134, -4.54494333267211914062e+00) (135, 2.92818450927734375000e+00) (136, 7.59531974792480468750e+00) (137, 3.56751632690429687500e+00) (138, 2.55121636390686035156e+00) (139, 1.80819225311279296875e+00) (140, 3.10819983482360839844e-01) (141, 1.50000000000000000000e+03) (142, 1.50000000000000000000e+03) (143, 1.50000000000000000000e+03) (144, 1.50000000000000000000e+03) (145, 1.50000000000000000000e+03) (146, 1.50000000000000000000e+03) (147, 1.50000000000000000000e+03) (148, 1.50000000000000000000e+03) (149, 1.50000000000000000000e+03) (150, 1.50000000000000000000e+03) (151, 1.50000000000000000000e+03) (152, 1.50000000000000000000e+03) (153, 1.50000000000000000000e+03) (154, 9.13352444767951965332e-02) (155, -9.87081587314605712891e-01) (156, 2.44848698377609252930e-01) (157, 2.01068833470344543457e-01) (158, -6.88522815704345703125e-01) (159, 1.94382399320602416992e-01) (160, -1.74143716692924499512e-01) (161, 7.44650840759277343750e-01) (162, 6.39786064624786376953e-01) (163, -4.80640947818756103516e-01) (164, 4.83686655759811401367e-01) (165, 1.76615923643112182617e-01) (166, -4.61718626320362091064e-02) (167, -1.85321539640426635742e-01) (168, -6.46668016910552978516e-01) (169, 2.11723774671554565430e-01) (170, 2.41840869188308715820e-01) (171, -2.42518797516822814941e-01) (172, 2.06662207841873168945e-01) (173, -1.07532128691673278809e-01) (174, 6.46454870700836181641e-01) (175, 2.62082695960998535156e-01) (176, -1.41745820641517639160e-01) (177, 5.96252858638763427734e-01) (178, 1.83640107512474060059e-01) (179, 2.06421362236142158508e-03) (180, 7.67301654815673828125e+00) (181, -4.11856746673583984375e+00) (182, 4.41819429397583007812e+00) (183, -6.63140118122100830078e-01) (184, 5.84226608276367187500e-01) (185, 3.30767512321472167969e+00) (186, -1.30735802650451660156e+00) (187, 3.49393439292907714844e+00) (188, -2.49287104606628417969e+00) (189, -2.76223373413085937500e+00) (190, 4.01269197463989257812e+00) (191, -1.46599559783935546875e+01) (192, 4.10555046983063220978e-04) (193, -1.70245456695556640625e+00) (0, -7.26090148091316223145e-02) (1, 6.02882564067840576172e-01) (2, 8.20004165172576904297e-01) (3, 2.25080466270446777344e+00) (4, 5.53887605667114257812e-01) (5, 4.58395302295684814453e-01) (6, -9.39698576927185058594e-01) (7, 1.37092709541320800781e+00) (8, -4.58915090560913085938e+00) (9, 3.93598347902297973633e-01) (10, 4.21946078538894653320e-01) (11, 2.95650529861450195312e+00) (12, -8.32532465457916259766e-01) (13, 1.16466915607452392578e+00) (14, 4.13909673690795898438e-01) (15, -3.72563099861145019531e+00) (16, -6.19768321514129638672e-01) (17, 7.90146052837371826172e-01) (18, 1.08413362503051757812e+00) (19, 6.71298205852508544922e-01) (20, -9.08788323402404785156e-01) (21, 5.17986416816711425781e-01) (22, -1.22522902488708496094e+00) (23, 3.85943442583084106445e-01) (24, -1.53600856661796569824e-01) (25, 1.93285560607910156250e+00) (26, 2.58581060916185379028e-02) (27, 1.55079948902130126953e+00) (28, -3.93096119165420532227e-01) (29, 1.42704378813505172729e-02) (30, -1.87577128410339355469e-01) (31, -1.23140692710876464844e+00) (32, -5.87509870529174804688e-01) (33, -2.23443388938903808594e-01) (34, 8.02969157695770263672e-01) (35, -1.03070926666259765625e+00) (36, -3.99747073650360107422e-01) (37, 2.43360900878906250000e+00) (38, 9.87008750438690185547e-01) (39, 4.18790251016616821289e-01) (40, 6.36503323912620544434e-02) (41, 9.93301987648010253906e-01) (42, 1.99707850813865661621e-01) (43, 2.31690213084220886230e-01) (44, 9.48366001248359680176e-02) (45, 1.62777006626129150391e-01) (46, 6.66037678718566894531e-01) (47, 1.50000000000000000000e+03) (48, 1.50000000000000000000e+03) (49, 1.50000000000000000000e+03) (50, 1.50000000000000000000e+03) (51, 1.50000000000000000000e+03) (52, 1.50000000000000000000e+03) (53, 1.50000000000000000000e+03) (54, 1.50000000000000000000e+03) (55, 1.50000000000000000000e+03) (56, 1.50000000000000000000e+03) (57, 1.50000000000000000000e+03) (58, 1.50000000000000000000e+03) (59, 1.50000000000000000000e+03) (60, 3.63351143896579742432e-02) (61, 1.13804854452610015869e-01) (62, 8.61127898097038269043e-02) (63, 1.94168567657470703125e-01) (64, 1.92037865519523620605e-01) (65, 5.75415380299091339111e-02) (66, 3.28892953693866729736e-02) (67, 1.09856806695461273193e-01) (68, 5.60026988387107849121e-02) (69, 8.13262388110160827637e-02) (70, 1.33902981877326965332e-01) (71, 8.18370953202247619629e-02) (72, 1.37945249676704406738e-01) (73, 1.19193747639656066895e-01) (74, 5.39388842880725860596e-02) (75, 2.59398519992828369141e-02) (76, 6.01209104061126708984e-02) (77, 1.41625568270683288574e-01) (78, 2.15771600604057312012e-01) (79, 1.20486967265605926514e-01) (80, 1.28769099712371826172e-01) (81, 1.33738845586776733398e-01) (82, 1.49443551898002624512e-01) (83, 8.37504044175148010254e-02) (84, 1.32479682564735412598e-01) (85, 1.35156467556953430176e-01) (86, 3.23606181144714355469e+00) (87, 7.89103507995605468750e-01) (88, -7.75931835174560546875e-01) (89, -2.91916042566299438477e-01) (90, -3.56929153203964233398e-01) (91, 1.10396218299865722656e+00) (92, 3.09781789779663085938e-01) (93, 7.71079659461975097656e-01) (94, 1.50000000000000000000e+03) (95, 1.50000000000000000000e+03) (96, 1.50000000000000000000e+03) (97, 1.50000000000000000000e+03) (98, 1.50000000000000000000e+03) (99, 1.50000000000000000000e+03) (100, 1.50000000000000000000e+03) (101, 1.50000000000000000000e+03) (102, 1.50000000000000000000e+03) (103, 1.50000000000000000000e+03) (104, 1.50000000000000000000e+03) (105, 1.50000000000000000000e+03) (106, 1.50000000000000000000e+03) (107, 2.39321336150169372559e-01) (108, -6.02793991565704345703e-01) (109, -8.75527918338775634766e-01) (110, 5.90422987937927246094e-01) (111, -3.28925907611846923828e-01) (112, 5.58006763458251953125e-01) (113, 2.95982336997985839844e+00) (114, 1.54760003089904785156e+00) (115, 6.58230409026145935059e-02) (116, 9.31599378585815429688e-01) (117, -4.85322117805480957031e-01) (118, -4.29761791229248046875e+00) (119, 1.84467208385467529297e+00) (120, 1.22746989130973815918e-01) (121, -1.45586967468261718750e-01) (122, 1.61385282874107360840e-01) (123, 1.78175479173660278320e-01) (124, 7.25634098052978515625e-01) (125, 1.00162684917449951172e+00) (126, 1.00052738189697265625e+00) (127, 9.35733020305633544922e-01) (128, 4.29507009685039520264e-02) (129, -1.54978677630424499512e-01) (130, 5.25063633918762207031e-01) (131, 1.12586058676242828369e-01) (132, 7.22967863082885742188e-01) (133, 2.41402953863143920898e-01) (134, -1.49240529537200927734e+00) (135, -2.28848361968994140625e+00) (136, 9.03494536876678466797e-01) (137, 4.29194629192352294922e-01) (138, 1.39235806465148925781e+00) (139, 3.84976410865783691406e+00) (140, 4.27832871675491333008e-01) (141, 1.50000000000000000000e+03) (142, 1.50000000000000000000e+03) (143, 1.50000000000000000000e+03) (144, 1.50000000000000000000e+03) (145, 1.50000000000000000000e+03) (146, 1.50000000000000000000e+03) (147, 1.50000000000000000000e+03) (148, 1.50000000000000000000e+03) (149, 1.50000000000000000000e+03) (150, 1.50000000000000000000e+03) (151, 1.50000000000000000000e+03) (152, 1.50000000000000000000e+03) (153, 1.50000000000000000000e+03) (154, 2.26450815796852111816e-01) (155, 5.79809963703155517578e-01) (156, 5.32067179679870605469e-01) (157, 1.55168727040290832520e-01) (158, -2.85526484251022338867e-01) (159, -3.29072833061218261719e-01) (160, 1.09263107180595397949e-01) (161, -1.75934940576553344727e-01) (162, 1.06507360935211181641e-01) (163, 4.42155241966247558594e-01) (164, 1.09719485044479370117e-01) (165, 1.82767122983932495117e-01) (166, -1.64857491850852966309e-01) (167, 2.20234245061874389648e-01) (168, 4.93521362543106079102e-01) (169, 5.27039349079132080078e-01) (170, 5.41518144309520721436e-02) (171, -1.76013767719268798828e-01) (172, -4.74755018949508666992e-01) (173, 1.82637065649032592773e-01) (174, -2.32763931155204772949e-01) (175, 2.54412256181240081787e-02) (176, 5.63497126102447509766e-01) (177, -3.66292119026184082031e-01) (178, 1.03049792349338531494e-01) (179, -2.00628355145454406738e-01) (180, 3.43707180023193359375e+00) (181, -6.33322191238403320312e+00) (182, 5.94627201557159423828e-01) (183, 3.46458840370178222656e+00) (184, 5.83146736025810241699e-02) (185, 3.55390667915344238281e-01) (186, 5.53298830986022949219e-01) (187, -4.76086914539337158203e-01) (188, -9.36328828334808349609e-01) (189, -5.47916412353515625000e+00) (190, 7.64468967914581298828e-01) (191, -9.59696292877197265625e-01) (192, 5.68284213542938232422e-01) (193, -9.58680927753448486328e-01) (0, 4.91008818149566650391e-01) (1, -8.82159352302551269531e-01) (2, 2.35616013407707214355e-01) (3, 1.74478113651275634766e+00) (4, 2.19254660606384277344e+00) (5, 5.35628460347652435303e-02) (6, 2.95065730810165405273e-01) (7, 5.94512319564819335938e+00) (8, 1.49306774139404296875e+00) (9, -2.86315846443176269531e+00) (10, 1.74797189235687255859e+00) (11, 2.93670034408569335938e+00) (12, -9.24687981605529785156e-01) (13, 6.06807768344879150391e-01) (14, 3.84837770462036132812e+00) (15, 6.50158941745758056641e-01) (16, -2.28311762213706970215e-01) (17, 2.43196412920951843262e-01) (18, 3.29334169626235961914e-01) (19, 1.88860762119293212891e+00) (20, -2.87556946277618408203e-01) (21, 1.05819416046142578125e+00) (22, 1.13533270359039306641e+00) (23, -5.36928653717041015625e-01) (24, -1.23686945438385009766e+00) (25, 6.66911125183105468750e-01) (26, -2.98393070697784423828e-01) (27, 2.55200833082199096680e-01) (28, 2.10582375526428222656e+00) (29, -1.06188857555389404297e+00) (30, -4.58902195096015930176e-02) (31, -7.87429451942443847656e-01) (32, -1.07496380805969238281e+00) (33, 2.32855111360549926758e-01) (34, 1.77577435970306396484e+00) (35, 2.45657634735107421875e+00) (36, -1.59995758533477783203e+00) (37, -1.34880566596984863281e+00) (38, 3.25768780708312988281e+00) (39, 3.41423451900482177734e-01) (40, 1.27528059482574462891e+00) (41, 1.21770584583282470703e+00) (42, 1.64713829755783081055e-01) (43, 1.74430027604103088379e-01) (44, 2.84850388765335083008e-01) (45, 1.54343321919441223145e-01) (46, 1.62927114963531494141e+00) (47, 1.50000000000000000000e+03) (48, 1.50000000000000000000e+03) (49, 1.50000000000000000000e+03) (50, 1.50000000000000000000e+03) (51, 1.50000000000000000000e+03) (52, 1.50000000000000000000e+03) (53, 1.50000000000000000000e+03) (54, 1.50000000000000000000e+03) (55, 1.50000000000000000000e+03) (56, 1.50000000000000000000e+03) (57, 1.50000000000000000000e+03) (58, 1.50000000000000000000e+03) (59, 1.50000000000000000000e+03) (60, 2.07083642482757568359e-01) (61, 9.32303369045257568359e-02) (62, 2.17437848448753356934e-01) (63, 1.00584916770458221436e-01) (64, 7.56589099764823913574e-02) (65, 7.67745822668075561523e-02) (66, 1.04751296341419219971e-01) (67, 2.41298899054527282715e-01) (68, 2.15459808707237243652e-01) (69, 9.16684940457344055176e-02) (70, 1.41432270407676696777e-01) (71, 5.49369491636753082275e-02) (72, 1.82256743311882019043e-01) (73, 5.27375862002372741699e-02) (74, 1.95773333311080932617e-01) (75, 1.67184263467788696289e-01) (76, 1.05117499828338623047e-01) (77, 8.78301933407783508301e-02) (78, 1.66159003973007202148e-01) (79, 7.37501755356788635254e-02) (80, 2.15853556990623474121e-01) (81, 8.72165188193321228027e-02) (82, 7.51322954893112182617e-02) (83, 8.79454538226127624512e-02) (84, 1.91845878958702087402e-01) (85, 2.08804592490196228027e-01) (86, -3.78521651029586791992e-01) (87, 1.81426978111267089844e+00) (88, 1.46820664405822753906e+00) (89, -6.53739154338836669922e-01) (90, -7.61594995856285095215e-02) (91, 8.22656750679016113281e-01) (92, 1.76434361934661865234e+00) (93, -1.25459265708923339844e+00) (94, 1.50000000000000000000e+03) (95, 1.50000000000000000000e+03) (96, 1.50000000000000000000e+03) (97, 1.50000000000000000000e+03) (98, 1.50000000000000000000e+03) (99, 1.50000000000000000000e+03) (100, 1.50000000000000000000e+03) (101, 1.50000000000000000000e+03) (102, 1.50000000000000000000e+03) (103, 1.50000000000000000000e+03) (104, 1.50000000000000000000e+03) (105, 1.50000000000000000000e+03) (106, 1.50000000000000000000e+03) (107, -2.30894327163696289062e+00) (108, -1.89917802810668945312e+00) (109, 1.57232984900474548340e-01) (110, -3.71119976043701171875e-02) (111, 3.19059640169143676758e-01) (112, 3.58733963966369628906e+00) (113, 2.60644340515136718750e+00) (114, -1.03144729137420654297e+00) (115, 7.11994826793670654297e-01) (116, -1.26186013221740722656e+00) (117, -1.00220525264739990234e+00) (118, 2.73461437225341796875e+00) (119, 5.92973995208740234375e+00) (120, 3.42103809118270874023e-01) (121, 2.32134416699409484863e-01) (122, -2.69801527261734008789e-01) (123, -1.06850266456604003906e-02) (124, 3.56462657451629638672e-01) (125, 5.45198693871498107910e-02) (126, 4.76535618305206298828e-01) (127, 2.26605292409658432007e-02) (128, 4.22628760337829589844e-01) (129, -1.54360398650169372559e-01) (130, -4.49321307241916656494e-02) (131, 3.45665290951728820801e-02) (132, 1.30687057971954345703e+00) (133, 3.92957717180252075195e-01) (134, -4.02785444259643554688e+00) (135, 3.22742652893066406250e+00) (136, -5.11129796504974365234e-01) (137, 1.57237839698791503906e+00) (138, 6.99885189533233642578e-01) (139, -1.43226182460784912109e+00) (140, 1.44321592524647712708e-02) (141, 1.50000000000000000000e+03) (142, 1.50000000000000000000e+03) (143, 1.50000000000000000000e+03) (144, 1.50000000000000000000e+03) (145, 1.50000000000000000000e+03) (146, 1.50000000000000000000e+03) (147, 1.50000000000000000000e+03) (148, 1.50000000000000000000e+03) (149, 1.50000000000000000000e+03) (150, 1.50000000000000000000e+03) (151, 1.50000000000000000000e+03) (152, 1.50000000000000000000e+03) (153, 1.50000000000000000000e+03) (154, 2.87256427109241485596e-02) (155, 