FANN_FLO_2.1
num_layers=4
learning_rate=0.000500
connection_rate=1.000000
network_type=0
learning_momentum=0.000000
training_algorithm=2
train_error_function=1
train_stop_function=0
cascade_output_change_fraction=0.010000
quickprop_decay=-0.000100
quickprop_mu=1.750000
rprop_increase_factor=1.200000
rprop_decrease_factor=0.500000
rprop_delta_min=0.000000
rprop_delta_max=50.000000
rprop_delta_zero=0.100000
cascade_output_stagnation_epochs=12
cascade_candidate_change_fraction=0.010000
cascade_candidate_stagnation_epochs=12
cascade_max_out_epochs=150
cascade_min_out_epochs=50
cascade_max_cand_epochs=150
cascade_min_cand_epochs=50
cascade_num_candidate_groups=2
bit_fail_limit=3.49999994039535522461e-01
cascade_candidate_limit=1.00000000000000000000e+03
cascade_weight_multiplier=4.00000005960464477539e-01
cascade_activation_functions_count=10
cascade_activation_functions=3 5 7 8 10 11 14 15 16 17 
cascade_activation_steepnesses_count=4
cascade_activation_steepnesses=2.50000000000000000000e-01 5.00000000000000000000e-01 7.50000000000000000000e-01 1.00000000000000000000e+00 
layer_sizes=194 33 9 5 
scale_included=0
neurons (num_inputs, activation_function, activation_steepness)=(0, 0, 0.00000000000000000000e+00) (0, 0, 0.00000000000000000000e+00) (0, 0, 0.00000000000000000000e+00) (0, 0, 0.00000000000000000000e+00) (0, 0, 0.00000000000000000000e+00) (0, 0, 0.00000000000000000000e+00) (0, 0, 0.00000000000000000000e+00) (0, 0, 0.00000000000000000000e+00) (0, 0, 0.00000000000000000000e+00) (0, 0, 0.00000000000000000000e+00) (0, 0, 0.00000000000000000000e+00) (0, 0, 0.00000000000000000000e+00) (0, 0, 0.00000000000000000000e+00) (0, 0, 0.00000000000000000000e+00) (0, 0, 0.00000000000000000000e+00) (0, 0, 0.00000000000000000000e+00) (0, 0, 0.00000000000000000000e+00) (0, 0, 0.00000000000000000000e+00) (0, 0, 0.00000000000000000000e+00) (0, 0, 0.00000000000000000000e+00) (0, 0, 0.00000000000000000000e+00) (0, 0, 0.00000000000000000000e+00) (0, 0, 0.00000000000000000000e+00) (0, 0, 0.00000000000000000000e+00) (0, 0, 0.00000000000000000000e+00) (0, 0, 0.00000000000000000000e+00) (0, 0, 0.00000000000000000000e+00) (0, 0, 0.00000000000000000000e+00) (0, 0, 0.00000000000000000000e+00) (0, 0, 0.00000000000000000000e+00) (0, 0, 0.00000000000000000000e+00) (0, 0, 0.00000000000000000000e+00) (0, 0, 0.00000000000000000000e+00) (0, 0, 0.00000000000000000000e+00) (0, 0, 0.00000000000000000000e+00) (0, 0, 0.00000000000000000000e+00) (0, 0, 0.00000000000000000000e+00) (0, 0, 0.00000000000000000000e+00) (0, 0, 0.00000000000000000000e+00) (0, 0, 0.00000000000000000000e+00) (0, 0, 0.00000000000000000000e+00) (0, 0, 0.00000000000000000000e+00) (0, 0, 0.00000000000000000000e+00) (0, 0, 0.00000000000000000000e+00) (0, 0, 0.00000000000000000000e+00) (0, 0, 0.00000000000000000000e+00) (0, 0, 0.00000000000000000000e+00) (0, 0, 0.00000000000000000000e+00) (0, 0, 0.00000000000000000000e+00) (0, 0, 0.00000000000000000000e+00) (0, 0, 0.00000000000000000000e+00) (0, 0, 0.00000000000000000000e+00) (0, 0, 0.00000000000000000000e+00) (0, 0, 0.00000000000000000000e+00) (0, 0, 0.00000000000000000000e+00) (0, 0, 0.00000000000000000000e+00) (0, 0, 0.00000000000000000000e+00) (0, 0, 0.00000000000000000000e+00) (0, 0, 0.00000000000000000000e+00) (0, 0, 0.00000000000000000000e+00) (0, 0, 0.00000000000000000000e+00) (0, 0, 0.00000000000000000000e+00) (0, 0, 0.00000000000000000000e+00) (0, 0, 0.00000000000000000000e+00) (0, 0, 0.00000000000000000000e+00) (0, 0, 0.00000000000000000000e+00) (0, 0, 0.00000000000000000000e+00) (0, 0, 0.00000000000000000000e+00) (0, 0, 0.00000000000000000000e+00) (0, 0, 0.00000000000000000000e+00) (0, 0, 0.00000000000000000000e+00) (0, 0, 0.00000000000000000000e+00) (0, 0, 0.00000000000000000000e+00) (0, 0, 0.00000000000000000000e+00) (0, 0, 0.00000000000000000000e+00) (0, 0, 0.00000000000000000000e+00) (0, 0, 0.00000000000000000000e+00) (0, 0, 0.00000000000000000000e+00) (0, 0, 0.00000000000000000000e+00) (0, 0, 0.00000000000000000000e+00) (0, 0, 0.00000000000000000000e+00) (0, 0, 0.00000000000000000000e+00) (0, 0, 0.00000000000000000000e+00) (0, 0, 0.00000000000000000000e+00) (0, 0, 0.00000000000000000000e+00) (0, 0, 0.00000000000000000000e+00) (0, 0, 0.00000000000000000000e+00) (0, 0, 0.00000000000000000000e+00) (0, 0, 0.00000000000000000000e+00) (0, 0, 0.00000000000000000000e+00) (0, 0, 0.00000000000000000000e+00) (0, 0, 0.00000000000000000000e+00) (0, 0, 0.00000000000000000000e+00) (0, 0, 0.00000000000000000000e+00) (0, 0, 0.00000000000000000000e+00) (0, 0, 0.00000000000000000000e+00) (0, 0, 0.00000000000000000000e+00) (0, 0, 0.00000000000000000000e+00) (0, 0, 0.00000000000000000000e+00) (0, 0, 0.00000000000000000000e+00) (0, 0, 0.00000000000000000000e+00) (0, 0, 0.00000000000000000000e+00) (0, 0, 0.00000000000000000000e+00) (0, 0, 0.00000000000000000000e+00) (0, 0, 0.00000000000000000000e+00) (0, 0, 0.00000000000000000000e+00) (0, 0, 0.00000000000000000000e+00) (0, 0, 0.00000000000000000000e+00) (0, 0, 0.00000000000000000000e+00) (0, 0, 0.00000000000000000000e+00) (0, 0, 0.00000000000000000000e+00) (0, 0, 0.00000000000000000000e+00) (0, 0, 0.00000000000000000000e+00) (0, 0, 0.00000000000000000000e+00) (0, 0, 0.00000000000000000000e+00) (0, 0, 0.00000000000000000000e+00) (0, 0, 0.00000000000000000000e+00) (0, 0, 0.00000000000000000000e+00) (0, 0, 0.00000000000000000000e+00) (0, 0, 0.00000000000000000000e+00) (0, 0, 0.00000000000000000000e+00) (0, 0, 0.00000000000000000000e+00) (0, 0, 0.00000000000000000000e+00) (0, 0, 0.00000000000000000000e+00) (0, 0, 0.00000000000000000000e+00) (0, 0, 0.00000000000000000000e+00) (0, 0, 0.00000000000000000000e+00) (0, 0, 0.00000000000000000000e+00) (0, 0, 0.00000000000000000000e+00) (0, 0, 0.00000000000000000000e+00) (0, 0, 0.00000000000000000000e+00) (0, 0, 0.00000000000000000000e+00) (0, 0, 0.00000000000000000000e+00) (0, 0, 0.00000000000000000000e+00) (0, 0, 0.00000000000000000000e+00) (0, 0, 0.00000000000000000000e+00) (0, 0, 0.00000000000000000000e+00) (0, 0, 0.00000000000000000000e+00) (0, 0, 0.00000000000000000000e+00) (0, 0, 0.00000000000000000000e+00) (0, 0, 0.00000000000000000000e+00) (0, 0, 0.00000000000000000000e+00) (0, 0, 0.00000000000000000000e+00) (0, 0, 0.00000000000000000000e+00) (0, 0, 0.00000000000000000000e+00) (0, 0, 0.00000000000000000000e+00) (0, 0, 0.00000000000000000000e+00) (0, 0, 0.00000000000000000000e+00) (0, 0, 0.00000000000000000000e+00) (0, 0, 0.00000000000000000000e+00) (0, 0, 0.00000000000000000000e+00) (0, 0, 0.00000000000000000000e+00) (0, 0, 0.00000000000000000000e+00) (0, 0, 0.00000000000000000000e+00) (0, 0, 0.00000000000000000000e+00) (0, 0, 0.00000000000000000000e+00) (0, 0, 0.00000000000000000000e+00) (0, 0, 0.00000000000000000000e+00) (0, 0, 0.00000000000000000000e+00) (0, 0, 0.00000000000000000000e+00) (0, 0, 0.00000000000000000000e+00) (0, 0, 0.00000000000000000000e+00) (0, 0, 0.00000000000000000000e+00) (0, 0, 0.00000000000000000000e+00) (0, 0, 0.00000000000000000000e+00) (0, 0, 0.00000000000000000000e+00) (0, 0, 0.00000000000000000000e+00) (0, 0, 0.00000000000000000000e+00) (0, 0, 0.00000000000000000000e+00) (0, 0, 0.00000000000000000000e+00) (0, 0, 0.00000000000000000000e+00) (0, 0, 0.00000000000000000000e+00) (0, 0, 0.00000000000000000000e+00) (0, 0, 0.00000000000000000000e+00) (0, 0, 0.00000000000000000000e+00) (0, 0, 0.00000000000000000000e+00) (0, 0, 0.00000000000000000000e+00) (0, 0, 0.00000000000000000000e+00) (0, 0, 0.00000000000000000000e+00) (0, 0, 0.00000000000000000000e+00) (0, 0, 0.00000000000000000000e+00) (0, 0, 0.00000000000000000000e+00) (0, 0, 0.00000000000000000000e+00) (0, 0, 0.00000000000000000000e+00) (0, 0, 0.00000000000000000000e+00) (0, 0, 0.00000000000000000000e+00) (0, 0, 0.00000000000000000000e+00) (0, 0, 0.00000000000000000000e+00) (0, 0, 0.00000000000000000000e+00) (0, 0, 0.00000000000000000000e+00) (0, 0, 0.00000000000000000000e+00) (0, 0, 0.00000000000000000000e+00) (0, 0, 0.00000000000000000000e+00) (0, 0, 0.00000000000000000000e+00) (194, 3, 5.00000000000000000000e-01) (194, 3, 5.00000000000000000000e-01) (194, 3, 5.00000000000000000000e-01) (194, 3, 5.00000000000000000000e-01) (194, 3, 5.00000000000000000000e-01) (194, 3, 5.00000000000000000000e-01) (194, 3, 5.00000000000000000000e-01) (194, 3, 5.00000000000000000000e-01) (194, 3, 5.00000000000000000000e-01) (194, 3, 5.00000000000000000000e-01) (194, 3, 5.00000000000000000000e-01) (194, 3, 5.00000000000000000000e-01) (194, 3, 5.00000000000000000000e-01) (194, 3, 5.00000000000000000000e-01) (194, 3, 5.00000000000000000000e-01) (194, 3, 5.00000000000000000000e-01) (194, 3, 5.00000000000000000000e-01) (194, 3, 5.00000000000000000000e-01) (194, 3, 5.00000000000000000000e-01) (194, 3, 5.00000000000000000000e-01) (194, 3, 5.00000000000000000000e-01) (194, 3, 5.00000000000000000000e-01) (194, 3, 5.00000000000000000000e-01) (194, 3, 5.00000000000000000000e-01) (194, 3, 5.00000000000000000000e-01) (194, 3, 5.00000000000000000000e-01) (194, 3, 5.00000000000000000000e-01) (194, 3, 5.00000000000000000000e-01) (194, 3, 5.00000000000000000000e-01) (194, 3, 5.00000000000000000000e-01) (194, 3, 5.00000000000000000000e-01) (194, 3, 5.00000000000000000000e-01) (0, 3, 0.00000000000000000000e+00) (33, 3, 5.00000000000000000000e-01) (33, 3, 5.00000000000000000000e-01) (33, 3, 5.00000000000000000000e-01) (33, 3, 5.00000000000000000000e-01) (33, 3, 5.00000000000000000000e-01) (33, 3, 5.00000000000000000000e-01) (33, 3, 5.00000000000000000000e-01) (33, 3, 5.00000000000000000000e-01) (0, 3, 0.00000000000000000000e+00) (9, 3, 5.00000000000000000000e-01) (9, 3, 5.00000000000000000000e-01) (9, 3, 5.00000000000000000000e-01) (9, 3, 5.00000000000000000000e-01) (0, 3, 0.00000000000000000000e+00) 
connections (connected_to_neuron, weight)=(0, 5.75201809406280517578e-01) (1, -1.27483105659484863281e+00) (2, -8.60005140304565429688e-01) (3, 1.86994656920433044434e-01) (4, 5.85981197655200958252e-02) (5, 2.68965888023376464844e+00) (6, -5.95635473728179931641e-01) (7, -9.77757632732391357422e-01) (8, -9.86482977867126464844e-01) (9, 2.36592316627502441406e+00) (10, -2.99584984779357910156e+00) (11, -1.19790303707122802734e+00) (12, 3.81580448150634765625e+00) (13, 1.93657779693603515625e+00) (14, 1.22110998630523681641e+00) (15, 4.85634899139404296875e+00) (16, -1.43448400497436523438e+00) (17, -3.43235206604003906250e+00) (18, -9.78590369224548339844e-01) (19, 5.63643395900726318359e-01) (20, 2.74711704254150390625e+00) (21, 2.71894168853759765625e+00) (22, 5.41015529632568359375e+00) (23, 3.63842391967773437500e+00) (24, -7.84920036792755126953e-01) (25, -3.15428447723388671875e+00) (26, 1.31877347826957702637e-01) (27, -1.36025118827819824219e+00) (28, 9.13060367107391357422e-01) (29, -1.69702827930450439453e+00) (30, -9.03492629528045654297e-01) (31, 8.64573240280151367188e-01) (32, 1.27601194381713867188e+00) (33, -2.60585814714431762695e-01) (34, -6.42238318920135498047e-01) (35, 1.12766551971435546875e+00) (36, 9.57242965698242187500e-01) (37, -4.45113182067871093750e+00) (38, -1.79996943473815917969e+00) (39, 1.99560046195983886719e+00) (40, 8.07918131351470947266e-01) (41, 1.04827725887298583984e+00) (42, 1.46397516131401062012e-01) (43, 4.25876706838607788086e-01) (44, 4.18792903423309326172e-01) (45, 3.33646565675735473633e-01) (46, 3.41062784194946289062e-01) (47, 1.50000000000000000000e+03) (48, 1.50000000000000000000e+03) (49, 1.50000000000000000000e+03) (50, 1.50000000000000000000e+03) (51, 1.50000000000000000000e+03) (52, 1.50000000000000000000e+03) (53, 1.50000000000000000000e+03) (54, 1.50000000000000000000e+03) (55, 1.50000000000000000000e+03) (56, 1.50000000000000000000e+03) (57, 1.50000000000000000000e+03) (58, 1.50000000000000000000e+03) (59, 1.50000000000000000000e+03) (60, 4.66486513614654541016e-01) (61, 5.41180551052093505859e-01) (62, 5.30105233192443847656e-01) (63, 5.06269037723541259766e-01) (64, 4.91645127534866333008e-01) (65, 4.39626365900039672852e-01) (66, 5.17735123634338378906e-01) (67, 3.75488996505737304688e-01) (68, 4.74111914634704589844e-01) (69, 4.65928852558135986328e-01) (70, 5.00212669372558593750e-01) (71, 5.08596837520599365234e-01) (72, 4.96696799993515014648e-01) (73, 5.39210021495819091797e-01) (74, 3.83844137191772460938e-01) (75, 3.73343199491500854492e-01) (76, 3.99321913719177246094e-01) (77, 4.32265341281890869141e-01) (78, 4.67291325330734252930e-01) (79, 4.23004329204559326172e-01) (80, 5.25934159755706787109e-01) (81, 5.26648521423339843750e-01) (82, 5.57767689228057861328e-01) (83, 3.99293601512908935547e-01) (84, 5.24941027164459228516e-01) (85, 5.09572446346282958984e-01) (86, -1.39336735010147094727e-01) (87, -2.38743126392364501953e-01) (88, 4.01233404874801635742e-01) (89, -3.07125657796859741211e-01) (90, 4.09565180540084838867e-01) (91, -2.91088938713073730469e+00) (92, -1.71617627143859863281e-01) (93, 3.34158003330230712891e-01) (94, 1.50000000000000000000e+03) (95, 1.50000000000000000000e+03) (96, 1.50000000000000000000e+03) (97, 1.50000000000000000000e+03) (98, 1.50000000000000000000e+03) (99, 1.50000000000000000000e+03) (100, 1.50000000000000000000e+03) (101, 1.50000000000000000000e+03) (102, 1.50000000000000000000e+03) (103, 1.50000000000000000000e+03) (104, 1.50000000000000000000e+03) (105, 1.50000000000000000000e+03) (106, 1.50000000000000000000e+03) (107, -1.14274132251739501953e+00) (108, 5.45919220894575119019e-03) (109, -4.91951018571853637695e-01) (110, -3.28408050537109375000e+00) (111, 6.67347908020019531250e-01) (112, -1.48423492908477783203e+00) (113, -1.72621917724609375000e+00) (114, 3.52531456947326660156e+00) (115, -4.64291423559188842773e-01) (116, -1.69403284788131713867e-01) (117, -2.13939738273620605469e+00) (118, 1.45374393463134765625e+00) (119, -6.74551904201507568359e-01) (120, 4.94923055171966552734e-01) (121, 8.85285258293151855469e-01) (122, 4.95395392179489135742e-01) (123, 5.95410048961639404297e-01) (124, 3.80976319313049316406e-01) (125, 2.91152954101562500000e-01) (126, 5.65419077873229980469e-01) (127, 4.54330027103424072266e-01) (128, -1.91709790378808975220e-02) (129, 1.02886056900024414062e+00) (130, 3.60613618977367877960e-03) (131, 6.99704587459564208984e-01) (132, 2.02715665102005004883e-01) (133, 5.78842610120773315430e-02) (134, -4.43287700414657592773e-01) (135, 3.26050780713558197021e-02) (136, -3.58906716108322143555e-01) (137, -3.83820652961730957031e-01) (138, 8.15918624401092529297e-01) (139, -1.21852076053619384766e+00) (140, 2.07085824012756347656e+00) (141, 1.50000000000000000000e+03) (142, 1.50000000000000000000e+03) (143, 1.50000000000000000000e+03) (144, 1.50000000000000000000e+03) (145, 1.50000000000000000000e+03) (146, 1.50000000000000000000e+03) (147, 1.50000000000000000000e+03) (148, 1.50000000000000000000e+03) (149, 1.50000000000000000000e+03) (150, 1.50000000000000000000e+03) (151, 1.50000000000000000000e+03) (152, 1.50000000000000000000e+03) (153, 1.50000000000000000000e+03) (154, -3.89738008379936218262e-02) (155, -1.60657882690429687500e-01) (156, 7.33683705329895019531e-01) (157, -2.17608273029327392578e-01) (158, -3.84671799838542938232e-02) (159, 7.91632950305938720703e-01) (160, -3.22638899087905883789e-01) (161, 7.80937373638153076172e-01) (162, -1.27001941204071044922e-01) (163, -3.59218031167984008789e-01) (164, 4.46430206298828125000e-01) (165, -1.81712910532951354980e-01) (166, -5.21776685491204261780e-03) (167, -3.52731384336948394775e-02) (168, -3.90576392412185668945e-01) (169, 5.20170986652374267578e-01) (170, -1.27395465970039367676e-01) (171, -1.22990183532238006592e-01) (172, 6.71779453754425048828e-01) (173, -3.61395984888076782227e-01) (174, 7.89536297321319580078e-01) (175, 3.44436585903167724609e-01) (176, -3.67170631885528564453e-01) (177, 5.13235270977020263672e-01) (178, -3.18967252969741821289e-01) (179, 1.19786141440272331238e-02) (180, -3.10783553123474121094e+00) (181, 1.51831352710723876953e+00) (182, -3.77051800489425659180e-01) (183, 1.52185785770416259766e+00) (184, -1.43393528461456298828e+00) (185, 5.81477701663970947266e-01) (186, 2.84524589776992797852e-01) (187, 5.63014864921569824219e-01) (188, 8.23576748371124267578e-01) (189, 5.50859093666076660156e-01) (190, 5.27778029441833496094e-01) (191, 7.02176141738891601562e+00) (192, 1.70536327362060546875e+00) (193, 3.67597162723541259766e-01) (0, 1.53796339035034179688e+00) (1, 4.08093124628067016602e-01) (2, 2.40182328224182128906e+00) (3, 1.91971850395202636719e+00) (4, 4.31428700685501098633e-01) (5, 6.62552297115325927734e-01) (6, 1.06249725818634033203e+00) (7, -3.04655337333679199219e+00) (8, -8.32809090614318847656e-01) (9, 3.39944648742675781250e+00) (10, -3.80856007337570190430e-01) (11, -1.30653917789459228516e+00) (12, -7.09500074386596679688e-01) (13, -7.20302820205688476562e-01) (14, -5.17788648605346679688e-01) (15, -2.21793198585510253906e+00) (16, -1.28190803527832031250e+00) (17, -9.37943744659423828125e+00) (18, -2.04254984855651855469e+00) (19, -5.92533540725708007812e+00) (20, 2.99392795562744140625e+00) (21, 2.47933936119079589844e+00) (22, 3.09770070016384124756e-02) (23, -3.39494061470031738281e+00) (24, 9.55341756343841552734e-01) (25, 4.89659845829010009766e-01) (26, 2.64099454879760742188e+00) (27, 3.09244573116302490234e-01) (28, 1.41442358493804931641e-01) (29, 3.25695008039474487305e-01) (30, 2.29705065488815307617e-01) (31, -6.50366604328155517578e-01) (32, -5.82217121124267578125e+00) (33, -3.50559401512145996094e+00) (34, -3.22402477264404296875e+00) (35, -4.69976633787155151367e-01) (36, -7.73421049118041992188e-01) (37, 1.26324820518493652344e+00) (38, 1.35007560253143310547e+00) (39, 6.54447138309478759766e-01) (40, -1.33673858642578125000e+00) (41, -1.93697586655616760254e-01) (42, -4.70576696097850799561e-02) (43, -1.31675645709037780762e-01) (44, 1.90866645425558090210e-02) (45, 9.86537113785743713379e-02) (46, 8.96175980567932128906e-01) (47, 1.50000000000000000000e+03) (48, 1.50000000000000000000e+03) (49, 1.50000000000000000000e+03) (50, 1.50000000000000000000e+03) (51, 1.50000000000000000000e+03) (52, 1.50000000000000000000e+03) (53, 1.50000000000000000000e+03) (54, 1.50000000000000000000e+03) (55, 1.50000000000000000000e+03) (56, 1.50000000000000000000e+03) (57, 1.50000000000000000000e+03) (58, 1.50000000000000000000e+03) (59, 1.50000000000000000000e+03) (60, -1.15338325500488281250e-01) (61, -1.68747365474700927734e-01) (62, -2.12193861603736877441e-01) (63, -1.05948284268379211426e-01) (64, -5.91384768486022949219e-02) (65, -5.92515729367733001709e-02) (66, -1.40972509980201721191e-01) (67, -2.06627145409584045410e-01) (68, -1.73483937978744506836e-01) (69, -7.61491656303405761719e-02) (70, -2.02012181282043457031e-01) (71, -2.08492651581764221191e-01) (72, -9.14652645587921142578e-02) (73, -7.51544982194900512695e-02) (74, -1.44581988453865051270e-01) (75, -9.50880348682403564453e-02) (76, -9.09984707832336425781e-02) (77, -1.69252842664718627930e-01) (78, -5.12514971196651458740e-02) (79, -1.93943791091442108154e-02) (80, -1.33704736828804016113e-01) (81, -2.07906797528266906738e-01) (82, -3.21685709059238433838e-02) (83, -2.52507291734218597412e-02) (84, -1.06269404292106628418e-01) (85, -1.20750904083251953125e-01) (86, -6.95268344879150390625e+00) (87, -5.48381388187408447266e-01) (88, 3.47828269004821777344e+00) (89, 2.14697763323783874512e-01) (90, -2.39612650871276855469e+00) (91, 5.68098664283752441406e-01) (92, -2.13387355208396911621e-01) (93, -6.21516287326812744141e-01) (94, 1.50000000000000000000e+03) (95, 1.50000000000000000000e+03) (96, 1.50000000000000000000e+03) (97, 1.50000000000000000000e+03) (98, 1.50000000000000000000e+03) (99, 1.50000000000000000000e+03) (100, 1.50000000000000000000e+03) (101, 1.50000000000000000000e+03) (102, 1.50000000000000000000e+03) (103, 1.50000000000000000000e+03) (104, 1.50000000000000000000e+03) (105, 1.50000000000000000000e+03) (106, 1.50000000000000000000e+03) (107, -4.62807506322860717773e-01) (108, 2.25022959709167480469e+00) (109, -7.01770782470703125000e-01) (110, 2.12204837799072265625e+00) (111, -1.16818103790283203125e+01) (112, 2.93651878833770751953e-01) (113, 1.35542497038841247559e-01) (114, 1.05002713203430175781e+00) (115, 2.46784359216690063477e-01) (116, -3.55934381484985351562e+00) (117, -1.60641670227050781250e+00) (118, 9.05612826347351074219e-01) (119, -1.92569941282272338867e-01) (120, -1.75031200051307678223e-01) (121, -1.60222992300987243652e-01) (122, 2.92941272258758544922e-01) (123, -2.27439373731613159180e-01) (124, -3.95750939846038818359e-01) (125, -5.94429597258567810059e-02) (126, 3.95739346742630004883e-01) (127, 4.36832994222640991211e-01) (128, 6.60524964332580566406e-01) (129, 3.92802238464355468750e-01) (130, 5.17796158790588378906e-01) (131, 5.72242319583892822266e-01) (132, -2.93876826763153076172e-01) (133, -2.74270081520080566406e+00) (134, 5.38723282516002655029e-02) (135, 3.79094457626342773438e+00) (136, -9.81787264347076416016e-01) (137, 9.11678135395050048828e-01) (138, -1.13448369503021240234e+00) (139, -5.30543422698974609375e+00) (140, -1.35528218746185302734e+00) (141, 1.50000000000000000000e+03) (142, 1.50000000000000000000e+03) (143, 1.50000000000000000000e+03) (144, 1.50000000000000000000e+03) (145, 1.50000000000000000000e+03) (146, 1.50000000000000000000e+03) (147, 1.50000000000000000000e+03) (148, 1.50000000000000000000e+03) (149, 1.50000000000000000000e+03) (150, 1.50000000000000000000e+03) (151, 1.50000000000000000000e+03) (152, 1.50000000000000000000e+03) (153, 1.50000000000000000000e+03) (154, 6.48728132247924804688e-01) (155, 5.04245519638061523438e-01) (156, 7.25011574104428291321e-03) (157, -1.88842266798019409180e-01) (158, -6.52248635888099670410e-02) (159, 2.53866054117679595947e-02) (160, 6.15443050861358642578e-01) (161, 1.88077285885810852051e-01) (162, -1.90456241369247436523e-01) (163, -7.80744105577468872070e-02) (164, 5.80275803804397583008e-02) (165, -5.42319595813751220703e-01) (166, 7.24112689495086669922e-01) (167, 6.09290957450866699219e-01) (168, 7.07429826259613037109e-01) (169, 1.98969822376966476440e-02) (170, 6.66518867015838623047e-01) (171, 6.64999723434448242188e-01) (172, 1.06236450374126434326e-01) (173, 3.69285047054290771484e-01) (174, -1.85009464621543884277e-02) (175, -2.21024543046951293945e-01) (176, 4.96795885264873504639e-02) (177, 1.62160560488700866699e-01) (178, -2.31308758258819580078e-01) (179, 7.05308318138122558594e-01) (180, 5.62569797039031982422e-01) (181, -3.48564958572387695312e+00) (182, 6.67445302009582519531e-01) (183, 1.28096199035644531250e+00) (184, 5.87511956691741943359e-01) (185, 1.25406026840209960938e+00) (186, 3.06091338396072387695e-01) (187, -7.68571853637695312500e-01) (188, 3.83420991897583007812e+00) (189, 7.24620008468627929688e+00) (190, 9.59810495376586914062e-01) (191, 4.06503534317016601562e+00) (192, 1.30045294761657714844e-01) (193, 7.57670581340789794922e-01) (0, 3.81961202621459960938e+00) (1, -1.20555067062377929688e+00) (2, 1.45097076892852783203e+00) (3, 2.72092151641845703125e+00) (4, -1.29811441898345947266e+00) (5, 1.01269760131835937500e+01) (6, 4.34345769882202148438e+00) (7, -2.99059724807739257812e+00) (8, -3.09411954879760742188e+00) (9, 4.38254022598266601562e+00) (10, -2.97272605895996093750e+01) (11, 2.14805555343627929688e+00) (12, 1.98797476291656494141e+00) (13, 3.01205425262451171875e+01) (14, 4.04883265495300292969e-01) (15, 2.39552855491638183594e+00) (16, 1.50480957031250000000e+01) (17, 6.34493303298950195312e+00) (18, -1.72156369686126708984e+00) (19, 8.25118184089660644531e-01) (20, 3.81079649925231933594e+00) (21, -7.97712326049804687500e+00) (22, 2.10756564140319824219e+00) (23, 1.11765289306640625000e+00) (24, 1.14300227165222167969e+00) (25, -1.32025969028472900391e+00) (26, 1.96546802520751953125e+01) (27, -3.99517297744750976562e+00) (28, -4.22090470790863037109e-01) (29, -3.98772716522216796875e+00) (30, -2.01070189476013183594e+00) (31, -4.89599275588989257812e+00) (32, 4.48800134658813476562e+00) (33, 3.49847888946533203125e+00) (34, 6.10354042053222656250e+00) (35, 3.61944627761840820312e+00) (36, 1.80346145629882812500e+01) (37, 3.34195286035537719727e-01) (38, 4.54604816436767578125e+00) (39, -2.21840798854827880859e-01) (40, 3.08448457717895507812e+00) (41, 5.06056964397430419922e-01) (42, 9.78465616703033447266e-01) (43, 9.00171279907226562500e-01) (44, 6.03145062923431396484e-01) (45, 2.49099445343017578125e+00) (46, -5.47515583038330078125e+00) (47, 1.50000000000000000000e+03) (48, 1.50000000000000000000e+03) (49, 1.50000000000000000000e+03) (50, 1.50000000000000000000e+03) (51, 1.50000000000000000000e+03) (52, 1.50000000000000000000e+03) (53, 1.50000000000000000000e+03) (54, 1.50000000000000000000e+03) (55, 1.50000000000000000000e+03) (56, 1.50000000000000000000e+03) (57, 1.50000000000000000000e+03) (58, 1.50000000000000000000e+03) (59, 1.50000000000000000000e+03) (60, 7.28437244892120361328e-01) (61, 7.20096170902252197266e-01) (62, 4.45519089698791503906e-01) (63, 4.72211390733718872070e-01) (64, 5.64860224723815917969e-01) (65, 4.31576013565063476562e-01) (66, 8.39017391204833984375e-01) (67, 9.24121379852294921875e-01) (68, 6.14083051681518554688e-01) (69, 4.71321851015090942383e-01) (70, 5.17372369766235351562e-01) (71, 5.32312452793121337891e-01) (72, 1.00551831722259521484e+00) (73, 6.07940137386322021484e-01) (74, 8.55515062808990478516e-01) (75, 4.54805016517639160156e-01) (76, 8.59815537929534912109e-01) (77, 6.97733402252197265625e-01) (78, 4.30350899696350097656e-01) (79, 7.29021310806274414062e-01) (80, 9.76546585559844970703e-01) (81, 4.55211460590362548828e-01) (82, 4.27560299634933471680e-01) (83, 5.87626457214355468750e-01) (84, 5.35818099975585937500e-01) (85, 9.54424679279327392578e-01) (86, 4.30278253555297851562e+00) (87, -4.34546756744384765625e+00) (88, -3.57247018814086914062e+00) (89, -1.86850357055664062500e+01) (90, -2.17224168777465820312e+00) (91, 2.27722287178039550781e+00) (92, 2.37260770797729492188e+00) (93, -3.72408807277679443359e-01) (94, 1.50000000000000000000e+03) (95, 1.50000000000000000000e+03) (96, 1.50000000000000000000e+03) (97, 1.50000000000000000000e+03) (98, 1.50000000000000000000e+03) (99, 1.50000000000000000000e+03) (100, 1.50000000000000000000e+03) (101, 1.50000000000000000000e+03) (102, 1.50000000000000000000e+03) (103, 1.50000000000000000000e+03) (104, 1.50000000000000000000e+03) (105, 1.50000000000000000000e+03) (106, 1.50000000000000000000e+03) (107, -2.40778656005859375000e+01) (108, 2.75313305854797363281e+00) (109, 2.07805871963500976562e+00) (110, 3.43056321144104003906e+00) (111, 5.53254723548889160156e-01) (112, 3.19332242012023925781e+00) (113, -9.80641484260559082031e-01) (114, -2.35614567995071411133e-01) (115, -3.21888267993927001953e-01) (116, -1.19862413406372070312e+00) (117, 2.19556021690368652344e+00) (118, 5.71933412551879882812e+00) (119, -2.31875634193420410156e+00) (120, 2.29145854711532592773e-01) (121, 3.56991887092590332031e-01) (122, 3.95030051469802856445e-01) (123, 1.21728889644145965576e-01) (124, 2.23664075136184692383e-01) (125, 3.00606918334960937500e+00) (126, 9.17267724871635437012e-02) (127, 3.40007692575454711914e-01) (128, -1.75184249877929687500e+00) (129, 1.11037015914916992188e-01) (130, 2.74392366409301757812e-01) (131, 4.00101363658905029297e-01) (132, 3.44479203224182128906e-01) (133, 1.44787156581878662109e+00) (134, -3.50356072187423706055e-01) (135, 1.32288575172424316406e+00) (136, 7.11657822132110595703e-01) (137, 1.62462306022644042969e+00) (138, -4.66603845357894897461e-01) (139, -1.60700786113739013672e+00) (140, -8.18407654762268066406e-01) (141, 1.50000000000000000000e+03) (142, 1.50000000000000000000e+03) (143, 1.50000000000000000000e+03) (144, 1.50000000000000000000e+03) (145, 1.50000000000000000000e+03) (146, 1.50000000000000000000e+03) (147, 1.50000000000000000000e+03) (148, 1.50000000000000000000e+03) (149, 1.50000000000000000000e+03) (150, 1.50000000000000000000e+03) (151, 1.50000000000000000000e+03) (152, 1.50000000000000000000e+03) (153, 1.50000000000000000000e+03) (154, 6.66198432445526123047e-02) (155, 1.97516784071922302246e-01) (156, -9.66260954737663269043e-03) (157, 1.97766870260238647461e-01) (158, 2.52148956060409545898e-01) (159, -1.25494694709777832031e+00) (160, 3.48676294088363647461e-01) (161, -4.17192652821540832520e-02) (162, 3.41370522975921630859e-01) (163, 5.96351146697998046875e-01) (164, 3.02052170038223266602e-01) (165, 1.08281098306179046631e-01) (166, 1.70348912477493286133e-01) (167, 7.23478347063064575195e-02) (168, 2.54886835813522338867e-01) (169, 8.40281620621681213379e-02) (170, 3.52872759103775024414e-01) (171, 3.36178451776504516602e-01) (172, -7.45919346809387207031e-01) (173, 2.20573350787162780762e-01) (174, -3.63512039184570312500e-01) (175, 3.02434295415878295898e-01) (176, 5.07463574409484863281e-01) (177, 2.90631860494613647461e-01) (178, 2.09523171186447143555e-01) (179, 1.73712208867073059082e-01) (180, 5.25482511520385742188e+00) (181, 2.10579156875610351562e+00) (182, -7.07027196884155273438e-01) (183, -9.80457210540771484375e+00) (184, 1.57057917118072509766e+00) (185, -1.76207637786865234375e+01) (186, -1.83441066741943359375e+00) (187, 2.33065676689147949219e+00) (188, 7.46856451034545898438e+00) (189, -6.53987503051757812500e+00) (190, 4.77616691589355468750e+00) (191, 7.55083441734313964844e-01) (192, 3.26958388090133666992e-01) (193, -2.27022707462310791016e-01) (0, 2.47561597824096679688e+00) (1, 5.05655527114868164062e-01) (2, -7.14892745018005371094e-01) (3, -7.38084435462951660156e-01) (4, 1.18803238868713378906e+00) (5, 2.01451301574707031250e+00) (6, 4.31702089309692382812e+00) (7, -3.64500093460083007812e+00) (8, 5.25730752944946289062e+00) (9, 5.25261461734771728516e-01) (10, -4.24059724807739257812e+00) (11, 3.12402725219726562500e-01) (12, 3.07253503799438476562e+00) (13, 5.46617031097412109375e-01) (14, 2.09927701950073242188e+00) (15, 2.61708736419677734375e+00) (16, -1.69704926013946533203e+00) (17, 1.89639961719512939453e+00) (18, -6.64397478103637695312e-01) (19, 9.29192379117012023926e-02) (20, 5.59635818004608154297e-01) (21, 1.08825695514678955078e+00) (22, 2.04654514789581298828e-01) (23, 2.13299536705017089844e+00) (24, -1.09024453163146972656e+00) (25, 5.68912684917449951172e-01) (26, -9.16945457458496093750e-01) (27, -1.55656605958938598633e-01) (28, 6.19881749153137207031e-01) (29, 8.39476168155670166016e-01) (30, 2.39412218332290649414e-01) (31, -4.15929126739501953125e+00) (32, 5.04678428173065185547e-01) (33, -2.87273883819580078125e+00) (34, 1.10671177506446838379e-01) (35, -1.96954023838043212891e+00) (36, 1.45022189617156982422e+00) (37, -1.33355545997619628906e+00) (38, 3.34846949577331542969e+00) (39, -1.18394136428833007812e+00) (40, -3.78795099258422851562e+00) (41, -6.06695592403411865234e-01) (42, 1.04108266532421112061e-01) (43, 2.05063864588737487793e-01) (44, -1.34503962472081184387e-02) (45, 8.89616012573242187500e-02) (46, -7.19100117683410644531e-01) (47, 1.50000000000000000000e+03) (48, 1.50000000000000000000e+03) (49, 1.50000000000000000000e+03) (50, 1.50000000000000000000e+03) (51, 1.50000000000000000000e+03) (52, 1.50000000000000000000e+03) (53, 1.50000000000000000000e+03) (54, 1.50000000000000000000e+03) (55, 1.50000000000000000000e+03) (56, 1.50000000000000000000e+03) (57, 1.50000000000000000000e+03) (58, 1.50000000000000000000e+03) (59, 1.50000000000000000000e+03) (60, 1.01753272116184234619e-01) (61, 3.66356313228607177734e-01) (62, 1.39482066035270690918e-01) (63, 6.66954368352890014648e-02) (64, 1.77030965685844421387e-01) (65, 1.47038340568542480469e-01) (66, 1.01542674005031585693e-01) (67, 5.46699129045009613037e-02) (68, 2.54253149032592773438e-01) (69, 3.65786433219909667969e-01) (70, 8.23327824473381042480e-02) (71, 1.32302045822143554688e-01) (72, 1.55790686607360839844e-01) (73, 3.21444332599639892578e-01) (74, 2.27225571870803833008e-01) (75, 1.50322973728179931641e-01) (76, 3.56358848512172698975e-02) (77, 2.19065204262733459473e-01) (78, 7.24547505378723144531e-02) (79, 1.34325087070465087891e-01) (80, 1.40878915786743164062e-01) (81, 2.95409828424453735352e-01) (82, 2.25135013461112976074e-01) (83, 1.88932850956916809082e-01) (84, 9.48562324047088623047e-02) (85, 7.85245969891548156738e-02) (86, 1.51766562461853027344e+00) (87, -1.18120718002319335938e+00) (88, -6.89380109310150146484e-01) (89, 2.98097804188728332520e-02) (90, 1.51498556137084960938e-01) (91, 7.19560384750366210938e-01) (92, 1.65706604719161987305e-01) (93, 1.09890520572662353516e+00) (94, 1.50000000000000000000e+03) (95, 1.50000000000000000000e+03) (96, 1.50000000000000000000e+03) (97, 1.50000000000000000000e+03) (98, 1.50000000000000000000e+03) (99, 1.50000000000000000000e+03) (100, 1.50000000000000000000e+03) (101, 1.50000000000000000000e+03) (102, 1.50000000000000000000e+03) (103, 1.50000000000000000000e+03) (104, 1.50000000000000000000e+03) (105, 1.50000000000000000000e+03) (106, 1.50000000000000000000e+03) (107, -7.77263641357421875000e-01) (108, 3.12441205978393554688e+00) (109, 3.59423613548278808594e+00) (110, -2.40629792213439941406e+00) (111, 1.64044880867004394531e+00) (112, 8.03155303001403808594e-01) (113, -9.04662549495697021484e-01) (114, 1.19484150409698486328e+00) (115, 4.91826438903808593750e+00) (116, 3.34236550331115722656e+00) (117, 9.27154600620269775391e-01) (118, 4.87521365284919738770e-02) (119, -2.00500798225402832031e+00) (120, -3.77491861581802368164e-02) (121, 3.82119089365005493164e-01) (122, 2.22218289971351623535e-01) (123, 1.14774413406848907471e-01) (124, 1.25839605927467346191e-01) (125, 1.42766579985618591309e-01) (126, 2.04345546662807464600e-02) (127, 1.16507761180400848389e-01) (128, 2.11042910814285278320e-01) (129, 3.07286024093627929688e-01) (130, 1.09965614974498748779e-01) (131, 2.73288846015930175781e-01) (132, 1.20245657861232757568e-01) (133, 4.62279224395751953125e+00) (134, 2.63161897659301757812e+00) (135, 2.84690737724304199219e+00) (136, -2.61389207839965820312e+00) (137, -1.04805219173431396484e+00) (138, -5.20198978483676910400e-02) (139, -3.30512434244155883789e-01) (140, 2.59843945503234863281e-01) (141, 1.50000000000000000000e+03) (142, 1.50000000000000000000e+03) (143, 1.50000000000000000000e+03) (144, 1.50000000000000000000e+03) (145, 1.50000000000000000000e+03) (146, 1.50000000000000000000e+03) (147, 1.50000000000000000000e+03) (148, 1.50000000000000000000e+03) (149, 1.50000000000000000000e+03) (150, 1.50000000000000000000e+03) (151, 1.50000000000000000000e+03) (152, 1.50000000000000000000e+03) (153, 1.50000000000000000000e+03) (154, 4.36677634716033935547e-01) (155, 7.61331170797348022461e-02) (156, 3.19018483161926269531e-01) (157, 4.79536920785903930664e-01) (158, 3.12110185623168945312e-01) (159, 5.88991463184356689453e-01) (160, 1.37851908802986145020e-01) (161, 5.18155992031097412109e-01) (162, 3.44458371400833129883e-01) (163, 8.63925293087959289551e-02) (164, 2.32883423566818237305e-01) (165, 3.96293222904205322266e-01) (166, 1.34809777140617370605e-01) (167, 4.24864202737808227539e-01) (168, 2.73150298744440078735e-02) (169, 1.96856275200843811035e-01) (170, 4.60961312055587768555e-01) (171, 2.09438636898994445801e-01) (172, 4.40359860658645629883e-01) (173, 6.43960461020469665527e-02) (174, 5.32883524894714355469e-01) (175, 2.93605685234069824219e-01) (176, 2.20177903771400451660e-01) (177, 2.98172205686569213867e-01) (178, 2.37919032573699951172e-01) (179, 1.71775788068771362305e-01) (180, 2.72494316101074218750e+00) (181, 3.46001338958740234375e+00) (182, 3.57600498199462890625e+00) (183, 5.13202846050262451172e-01) (184, 2.40226244926452636719e+00) (185, -1.69269949197769165039e-01) (186, -6.92356899380683898926e-02) (187, -1.30285215377807617188e+00) (188, 2.68453168869018554688e+00) (189, 4.80872392654418945312e+00) (190, 7.49194443225860595703e-01) (191, 6.69368934631347656250e+00) (192, -1.66284847259521484375e+00) (193, 5.10387837886810302734e-01) (0, -8.34968149662017822266e-01) (1, -1.09045755863189697266e+00) (2, -4.82431322336196899414e-01) (3, 1.60836443305015563965e-01) (4, -2.42256093025207519531e+00) (5, -2.63224458694458007812e+00) (6, 1.23425781726837158203e-01) (7, -1.01547837257385253906e+00) (8, 5.03405749797821044922e-01) (9, 2.03714179992675781250e+00) (10, -1.64941835403442382812e+00) (11, -7.55342006683349609375e-01) (12, 3.45395565032958984375e+00) (13, 1.16522073745727539062e+00) (14, 1.92104899883270263672e+00) (15, 9.28512871265411376953e-01) (16, 2.10042536258697509766e-01) (17, 1.51130259037017822266e+00) (18, -1.02788674831390380859e+00) (19, 1.80413380265235900879e-01) (20, -4.50181305408477783203e-01) (21, 2.18977421522140502930e-01) (22, 6.72929346561431884766e-01) (23, 3.06671786308288574219e+00) (24, -4.01302287355065345764e-03) (25, 2.15688467025756835938e-01) (26, 1.98938596248626708984e+00) (27, -3.66953462362289428711e-02) (28, -5.01412689685821533203e-01) (29, 7.03366994857788085938e-01) (30, -2.03169846534729003906e+00) (31, 1.72123229503631591797e+00) (32, 2.57849395275115966797e-02) (33, -4.06688332557678222656e-01) (34, -1.78371310234069824219e-01) (35, -2.17024326324462890625e-01) (36, 4.91658926010131835938e-01) (37, -1.01080298423767089844e+00) (38, 2.17577740550041198730e-02) (39, 1.45831370353698730469e+00) (40, -1.50159925222396850586e-01) (41, -1.68597662448883056641e+00) (42, -7.51093477010726928711e-02) (43, 9.98588353395462036133e-02) (44, -9.66960966587066650391e-01) (45, -7.74205327033996582031e-01) (46, -5.30344128608703613281e-01) (47, 1.50000000000000000000e+03) (48, 1.50000000000000000000e+03) (49, 1.50000000000000000000e+03) (50, 1.50000000000000000000e+03) (51, 1.50000000000000000000e+03) (52, 1.50000000000000000000e+03) (53, 1.50000000000000000000e+03) (54, 1.50000000000000000000e+03) (55, 1.50000000000000000000e+03) (56, 1.50000000000000000000e+03) (57, 1.50000000000000000000e+03) (58, 1.50000000000000000000e+03) (59, 1.50000000000000000000e+03) (60, 1.47165536880493164062e-01) (61, -4.53254906460642814636e-03) (62, 2.09395587444305419922e-01) (63, 7.71147236227989196777e-02) (64, 2.32091739773750305176e-01) (65, 1.41081929206848144531e-01) (66, 1.97505578398704528809e-02) (67, 1.93327128887176513672e-01) (68, 1.37375324964523315430e-01) (69, 1.22128657996654510498e-01) (70, 2.17364117503166198730e-01) (71, 1.01948380470275878906e-01) (72, 1.64879575371742248535e-01) (73, 8.35810005664825439453e-02) (74, 8.84261652827262878418e-02) (75, 1.32758319377899169922e-01) (76, 9.63687524199485778809e-02) (77, 2.44666561484336853027e-01) (78, 1.20968289673328399658e-01) (79, 3.12824808061122894287e-02) (80, 1.20427474379539489746e-01) (81, 1.11386775970458984375e-01) (82, 5.96915818750858306885e-02) (83, 2.22234696149826049805e-01) (84, 6.24276623129844665527e-02) (85, 1.47869169712066650391e-01) (86, 4.49803203344345092773e-01) (87, 4.81384992599487304688e-01) (88, -1.22186827659606933594e+00) (89, 4.54843938350677490234e-01) (90, 5.50172254443168640137e-02) (91, 3.72387677431106567383e-01) (92, 6.44155323505401611328e-01) (93, 1.50825113058090209961e-01) (94, 1.50000000000000000000e+03) (95, 1.50000000000000000000e+03) (96, 1.50000000000000000000e+03) (97, 1.50000000000000000000e+03) (98, 1.50000000000000000000e+03) (99, 1.50000000000000000000e+03) (100, 1.50000000000000000000e+03) (101, 1.50000000000000000000e+03) (102, 1.50000000000000000000e+03) (103, 1.50000000000000000000e+03) (104, 1.50000000000000000000e+03) (105, 1.50000000000000000000e+03) (106, 1.50000000000000000000e+03) (107, 3.01512070000171661377e-02) (108, 5.12264296412467956543e-02) (109, 1.06468975543975830078e+00) (110, -2.13012620806694030762e-01) (111, 2.82475531101226806641e-01) (112, -1.42772340774536132812e+00) (113, -2.53107905387878417969e+00) (114, 3.90093743801116943359e-01) (115, 1.71310544013977050781e+00) (116, -5.17740190029144287109e-01) (117, -4.45247173309326171875e-01) (118, 6.18492960929870605469e-01) (119, 3.57749164104461669922e-01) (120, 4.44658488035202026367e-01) (121, 4.86866891384124755859e-01) (122, 2.80843108892440795898e-01) (123, 3.33965033292770385742e-01) (124, -2.24525243043899536133e-01) (125, -2.78465390205383300781e-01) (126, 5.78174352645874023438e-01) (127, -1.65371224284172058105e-01) (128, 3.41950505971908569336e-01) (129, 5.82624733448028564453e-01) (130, 2.15813919901847839355e-01) (131, 5.91996848583221435547e-01) (132, -3.11384916305541992188e-01) (133, 3.03359341621398925781e+00) (134, -1.40417230129241943359e+00) (135, 2.52225565910339355469e+00) (136, -2.29841184616088867188e+00) (137, -2.60647416114807128906e+00) (138, 1.09372413158416748047e+00) (139, -1.06059461832046508789e-01) (140, 2.63133347034454345703e-01) (141, 1.50000000000000000000e+03) (142, 1.50000000000000000000e+03) (143, 1.50000000000000000000e+03) (144, 1.50000000000000000000e+03) (145, 1.50000000000000000000e+03) (146, 1.50000000000000000000e+03) (147, 1.50000000000000000000e+03) (148, 1.50000000000000000000e+03) (149, 1.50000000000000000000e+03) (150, 1.50000000000000000000e+03) (151, 1.50000000000000000000e+03) (152, 1.50000000000000000000e+03) (153, 1.50000000000000000000e+03) (154, -6.33225217461585998535e-02) (155, -1.30449026823043823242e-01) (156, 2.49766200780868530273e-01) (157, -1.69441059231758117676e-01) (158, 1.30977004766464233398e-01) (159, 1.18596376851201057434e-02) (160, -2.07575201988220214844e-01) (161, 1.88153040409088134766e+00) (162, 1.65179997682571411133e-01) (163, -1.74491703510284423828e-01) (164, 2.64577567577362060547e-01) (165, -1.44248008728027343750e-01) (166, 2.90515601634979248047e-01) (167, 5.74139505624771118164e-02) (168, -1.46413877606391906738e-01) (169, 1.84547603130340576172e-01) (170, -1.39047965407371520996e-01) (171, 2.06036239862442016602e-01) (172, 1.17706030607223510742e-01) (173, -1.74998700618743896484e-01) (174, 1.12203145027160644531e+00) (175, 1.55803218483924865723e-01) (176, -1.71673908829689025879e-01) (177, 2.43506148457527160645e-01) (178, -1.47261202335357666016e-01) (179, 1.52135208249092102051e-01) (180, 7.28428423404693603516e-01) (181, 4.69957208633422851562e+00) (182, 2.21855923533439636230e-01) (183, 3.75442862510681152344e+00) (184, -2.07756355404853820801e-01) (185, -3.68170452117919921875e+00) (186, -3.26831746101379394531e+00) (187, 3.95622348785400390625e+00) (188, -1.27591192722320556641e+00) (189, 6.41891539096832275391e-01) (190, 8.62388312816619873047e-01) (191, 5.16734027862548828125e+00) (192, 7.18129932880401611328e-01) (193, -2.88466066122055053711e-01) (0, 3.87844467163085937500e+00) (1, -1.76936030387878417969e-01) (2, 2.11789608001708984375e+00) (3, 3.98330259323120117188e+00) (4, 3.24692130088806152344e+00) (5, -1.73846995830535888672e+00) (6, -1.13802206516265869141e+00) (7, -5.36655008792877197266e-01) (8, -3.71203422546386718750e+00) (9, -1.58853268623352050781e+00) (10, -8.27528238296508789062e-02) (11, -4.14300888776779174805e-01) (12, 3.11502361297607421875e+00) (13, 1.58586394786834716797e+00) (14, 5.86574602127075195312e+00) (15, -2.06349539756774902344e+00) (16, -7.75419414043426513672e-01) (17, -2.61788773536682128906e+00) (18, -1.94097280502319335938e+00) (19, 8.94204020500183105469e-01) (20, -4.14872229099273681641e-01) (21, 5.66230654716491699219e-01) (22, 2.89365196228027343750e+00) (23, -2.79977113008499145508e-01) (24, -1.49966132640838623047e+00) (25, 3.41425466537475585938e+00) (26, -4.87092316150665283203e-01) (27, 5.20190000534057617188e-01) (28, -3.91444683074951171875e-01) (29, 2.36682224273681640625e+00) (30, 1.91094279289245605469e-01) (31, -3.35290622711181640625e+00) (32, -4.43474411964416503906e-01) (33, -1.42473721504211425781e+00) (34, -1.04720616340637207031e+00) (35, -1.11830556392669677734e+00) (36, 2.13045382499694824219e+00) (37, -9.39377963542938232422e-01) (38, -8.37393093109130859375e+00) (39, 7.40170836448669433594e-01) (40, 6.18549585342407226562e-01) (41, -3.07276070117950439453e-01) (42, 2.19559058547019958496e-01) (43, 3.29537510871887207031e-01) (44, 5.67346096038818359375e-01) (45, 5.01214623451232910156e-01) (46, 5.00435903668403625488e-02) (47, 1.50000000000000000000e+03) (48, 1.50000000000000000000e+03) (49, 1.50000000000000000000e+03) (50, 1.50000000000000000000e+03) (51, 1.50000000000000000000e+03) (52, 1.50000000000000000000e+03) (53, 1.50000000000000000000e+03) (54, 1.50000000000000000000e+03) (55, 1.50000000000000000000e+03) (56, 1.50000000000000000000e+03) (57, 1.50000000000000000000e+03) (58, 1.50000000000000000000e+03) (59, 1.50000000000000000000e+03) (60, 5.57786464691162109375e-01) (61, 5.10973513126373291016e-01) (62, 3.56874376535415649414e-01) (63, 3.83987456560134887695e-01) (64, 3.12744736671447753906e-01) (65, 3.53478521108627319336e-01) (66, 4.39100801944732666016e-01) (67, 4.34792876243591308594e-01) (68, 4.08274352550506591797e-01) (69, 4.90515112876892089844e-01) (70, 4.82445359230041503906e-01) (71, 3.88399273157119750977e-01) (72, 3.80218148231506347656e-01) (73, 5.07524490356445312500e-01) (74, 4.40478682518005371094e-01) (75, 5.39976894855499267578e-01) (76, 4.22356873750686645508e-01) (77, 3.60424846410751342773e-01) (78, 4.52539265155792236328e-01) (79, 3.88431042432785034180e-01) (80, 3.84171962738037109375e-01) (81, 4.05767828226089477539e-01) (82, 3.61942738294601440430e-01) (83, 3.92385214567184448242e-01) (84, 4.74812030792236328125e-01) (85, 4.31416898965835571289e-01) (86, -9.58222895860671997070e-02) (87, 1.55691280961036682129e-01) (88, -9.18998539447784423828e-01) (89, -2.31301045417785644531e+00) (90, 9.63333249092102050781e-01) (91, 4.80277109146118164062e+00) (92, 1.06463336944580078125e+00) (93, -5.22943079471588134766e-01) (94, 1.50000000000000000000e+03) (95, 1.50000000000000000000e+03) (96, 1.50000000000000000000e+03) (97, 1.50000000000000000000e+03) (98, 1.50000000000000000000e+03) (99, 1.50000000000000000000e+03) (100, 1.50000000000000000000e+03) (101, 1.50000000000000000000e+03) (102, 1.50000000000000000000e+03) (103, 1.50000000000000000000e+03) (104, 1.50000000000000000000e+03) (105, 1.50000000000000000000e+03) (106, 1.50000000000000000000e+03) (107, -3.56082916259765625000e+00) (108, 5.16554307937622070312e+00) (109, -3.04221689701080322266e-01) (110, 3.07514369487762451172e-02) (111, 6.84896469116210937500e-01) (112, 1.88713476061820983887e-01) (113, 2.33262705802917480469e+00) (114, 2.71956491470336914062e+00) (115, 4.46328759193420410156e-01) (116, 2.04457426071166992188e+00) (117, -8.53710293769836425781e-01) (118, -5.40414869785308837891e-01) (119, 5.50241136550903320312e+00) (120, -5.04289455711841583252e-02) (121, 1.18618309497833251953e+00) (122, 2.18815281987190246582e-01) (123, 1.32467478513717651367e-01) (124, 2.03087568283081054688e+00) (125, 1.70283894985914230347e-02) (126, 1.19945816695690155029e-01) (127, 8.37527453899383544922e-01) (128, -7.80709758400917053223e-02) (129, 1.65336325764656066895e-01) (130, 6.27827420830726623535e-02) (131, -5.88587224483489990234e-02) (132, 1.09410667419433593750e+00) (133, -6.71734690666198730469e-01) (134, -2.38489723205566406250e+00) (135, 1.19330012798309326172e+00) (136, 1.79618000984191894531e+00) (137, -4.64493751525878906250e-01) (138, -2.37603712081909179688e+00) (139, 3.80243897438049316406e-01) (140, -1.98349630832672119141e+00) (141, 1.50000000000000000000e+03) (142, 1.50000000000000000000e+03) (143, 1.50000000000000000000e+03) (144, 1.50000000000000000000e+03) (145, 1.50000000000000000000e+03) (146, 1.50000000000000000000e+03) (147, 1.50000000000000000000e+03) (148, 1.50000000000000000000e+03) (149, 1.50000000000000000000e+03) (150, 1.50000000000000000000e+03) (151, 1.50000000000000000000e+03) (152, 1.50000000000000000000e+03) (153, 1.50000000000000000000e+03) (154, 8.10989066958427429199e-02) (155, 1.61897704005241394043e-01) (156, -9.16994959115982055664e-02) (157, 5.64090967178344726562e-01) (158, 1.90327808260917663574e-01) (159, 3.29951465129852294922e-01) (160, 4.03741300106048583984e-01) (161, -2.83128082752227783203e-01) (162, 6.91788375377655029297e-01) (163, 5.18702268600463867188e-01) (164, 4.83265846967697143555e-01) (165, 1.87147200107574462891e-01) (166, -2.13524103164672851562e-01) (167, 1.46893590688705444336e-01) (168, 3.12390565872192382812e-01) (169, 9.42948684096336364746e-02) (170, 4.62703049182891845703e-01) (171, 2.42001652717590332031e-01) (172, 7.80763030052185058594e-02) (173, 9.88439470529556274414e-02) (174, -3.55836987495422363281e-01) (175, 5.53873836994171142578e-01) (176, 5.12887299060821533203e-01) (177, 4.24731820821762084961e-01) (178, 4.35098618268966674805e-01) (179, -4.05634164810180664062e-01) (180, 1.34417939186096191406e+00) (181, -3.42762768268585205078e-01) (182, 1.78701233863830566406e+00) (183, 8.19688200950622558594e-01) (184, 3.70572686195373535156e-01) (185, -4.65278357267379760742e-01) (186, -8.19565832614898681641e-01) (187, 2.01834034919738769531e+00) (188, -1.21938598155975341797e+00) (189, 1.28618550300598144531e+00) (190, -1.06972312927246093750e+00) (191, 8.96364510059356689453e-01) (192, -1.48002445697784423828e+00) (193, 8.45205932855606079102e-02) (0, 4.69463205337524414062e+00) (1, 5.19739747047424316406e-01) (2, 3.29351854324340820312e+00) (3, -3.27632814645767211914e-01) (4, 2.18068456649780273438e+00) (5, 1.02034294605255126953e+00) (6, 2.87074446678161621094e+00) (7, 9.57397162914276123047e-01) (8, -1.10133573412895202637e-01) (9, 3.25842857360839843750e+00) (10, -8.33797276020050048828e-01) (11, -1.17259263992309570312e+00) (12, 8.40514838695526123047e-01) (13, -3.84851574897766113281e-01) (14, -9.99626696109771728516e-01) (15, 8.26537549495697021484e-01) (16, 8.85715067386627197266e-01) (17, 1.19111752510070800781e+00) (18, -2.59086537361145019531e+00) (19, -1.32070720195770263672e+00) (20, -5.22832345962524414062e+00) (21, -1.36568248271942138672e+00) (22, 1.12240910530090332031e+00) (23, 7.90001773834228515625e+00) (24, -5.52203118801116943359e-01) (25, -2.22586417198181152344e+00) (26, 2.91242033243179321289e-01) (27, -6.90686643123626708984e-01) (28, -2.79665899276733398438e+00) (29, 3.79618310928344726562e+00) (30, 7.11814939975738525391e-01) (31, 1.03254878520965576172e+00) (32, -8.87453436851501464844e-01) (33, -2.89537101984024047852e-01) (34, -5.43044656515121459961e-02) (35, 1.26282238960266113281e+00) (36, 2.69842720031738281250e+00) (37, -1.17397081851959228516e+00) (38, 1.38834929466247558594e+00) (39, 3.79102253913879394531e+00) (40, -2.06345081329345703125e+00) (41, 3.39172220230102539062e+00) (42, -9.69243124127388000488e-02) (43, 1.77130773663520812988e-02) (44, -1.57860472798347473145e-01) (45, -3.05629104375839233398e-01) (46, -1.97571635246276855469e+00) (47, 1.50000000000000000000e+03) (48, 1.50000000000000000000e+03) (49, 1.50000000000000000000e+03) (50, 1.50000000000000000000e+03) (51, 1.50000000000000000000e+03) (52, 1.50000000000000000000e+03) (53, 1.50000000000000000000e+03) (54, 1.50000000000000000000e+03) (55, 1.50000000000000000000e+03) (56, 1.50000000000000000000e+03) (57, 1.50000000000000000000e+03) (58, 1.50000000000000000000e+03) (59, 1.50000000000000000000e+03) (60, 1.92859321832656860352e-02) (61, 1.13914206624031066895e-01) (62, 9.38117727637290954590e-02) (63, 9.94000881910324096680e-02) (64, 5.26288524270057678223e-03) (65, 1.67768642306327819824e-01) (66, 1.78118452429771423340e-01) (67, 1.26277402043342590332e-01) (68, 1.86490844935178756714e-02) (69, 1.01380117237567901611e-01) (70, 6.12488947808742523193e-02) (71, 3.45680266618728637695e-02) (72, -2.50643992330878973007e-04) (73, 7.31830894947052001953e-02) (74, 5.06330914795398712158e-02) (75, 1.32754771038889884949e-02) (76, 7.64446780085563659668e-02) (77, 1.58345967531204223633e-01) (78, 1.38146668672561645508e-01) (79, 8.02579596638679504395e-02) (80, 1.77968204021453857422e-01) (81, 1.68672442436218261719e-01) (82, 1.22614771127700805664e-01) (83, 1.06388159096240997314e-01) (84, 4.53695133328437805176e-02) (85, 4.13097217679023742676e-02) (86, -2.98572748899459838867e-01) (87, 3.28667193651199340820e-01) (88, 9.13736522197723388672e-01) (89, 4.06016260385513305664e-01) (90, -1.19653618335723876953e+00) (91, 5.63743487000465393066e-02) (92, 4.22867834568023681641e-01) (93, 1.38118386268615722656e+00) (94, 1.50000000000000000000e+03) (95, 1.50000000000000000000e+03) (96, 1.50000000000000000000e+03) (97, 1.50000000000000000000e+03) (98, 1.50000000000000000000e+03) (99, 1.50000000000000000000e+03) (100, 1.50000000000000000000e+03) (101, 1.50000000000000000000e+03) (102, 1.50000000000000000000e+03) (103, 1.50000000000000000000e+03) (104, 1.50000000000000000000e+03) (105, 1.50000000000000000000e+03) (106, 1.50000000000000000000e+03) (107, -1.07744596898555755615e-01) (108, 4.49987792968750000000e+00) (109, -1.54011178016662597656e+00) (110, -9.94720399379730224609e-01) (111, -1.20311236381530761719e+00) (112, -2.22204875946044921875e+00) (113, -8.69891166687011718750e+00) (114, 1.74205708503723144531e+00) (115, -1.72541511058807373047e+00) (116, 3.00106334686279296875e+00) (117, 3.48421543836593627930e-01) (118, 2.02462816238403320312e+00) (119, 9.73621383309364318848e-04) (120, 3.64136785268783569336e-01) (121, 5.18693447113037109375e-01) (122, 1.67502358555793762207e-01) (123, 3.53062093257904052734e-01) (124, -9.96765911579132080078e-01) (125, -1.77162611484527587891e+00) (126, -7.96390846371650695801e-02) (127, -9.37436819076538085938e-01) (128, 2.78418809175491333008e-01) (129, 5.21458029747009277344e-01) (130, -8.89481008052825927734e-01) (131, 4.24995064735412597656e-01) (132, -4.38917875289916992188e-01) (133, -1.50722071528434753418e-01) (134, 2.14294075965881347656e+00) (135, 4.13745164871215820312e+00) (136, -1.53048694133758544922e+00) (137, 2.07830946892499923706e-02) (138, -4.75757449865341186523e-01) (139, -5.49297213554382324219e-01) (140, -9.21517670154571533203e-01) (141, 1.50000000000000000000e+03) (142, 1.50000000000000000000e+03) (143, 1.50000000000000000000e+03) (144, 1.50000000000000000000e+03) (145, 1.50000000000000000000e+03) (146, 1.50000000000000000000e+03) (147, 1.50000000000000000000e+03) (148, 1.50000000000000000000e+03) (149, 1.50000000000000000000e+03) (150, 1.50000000000000000000e+03) (151, 1.50000000000000000000e+03) (152, 1.50000000000000000000e+03) (153, 1.50000000000000000000e+03) (154, 1.99504554271697998047e-01) (155, 1.67263582348823547363e-01) (156, 1.53229594230651855469e-01) (157, -5.89600540697574615479e-02) (158, 4.16018486022949218750e-01) (159, 9.84947443008422851562e-01) (160, -2.64884792268276214600e-02) (161, 7.03368127346038818359e-01) (162, -7.28738754987716674805e-02) (163, -2.24051922559738159180e-02) (164, 7.05205261707305908203e-01) (165, -7.64920562505722045898e-02) (166, 1.18592309951782226562e+00) (167, 3.62767308950424194336e-01) (168, 4.32739257812500000000e-02) (169, 1.88423410058021545410e-01) (170, -7.05500226467847824097e-03) (171, 4.03462022542953491211e-01) (172, 4.85715836286544799805e-01) (173, 2.53815203905105590820e-01) (174, 1.06520128250122070312e+00) (175, 1.26470714807510375977e-01) (176, 4.85069990158081054688e-01) (177, 9.79119777679443359375e-01) (178, -1.02534234523773193359e-01) (179, 1.16263020038604736328e+00) (180, 4.80204629898071289062e+00) (181, 3.38918256759643554688e+00) (182, -1.86225342750549316406e+00) (183, 3.07879671454429626465e-02) (184, -1.77415192127227783203e-01) (185, 1.01257860660552978516e-01) (186, -7.52098321914672851562e-01) (187, 2.86268043518066406250e+00) (188, 3.59344267845153808594e+00) (189, 1.58142530918121337891e+00) (190, -5.19234418869018554688e-01) (191, 4.43572092056274414062e+00) (192, 1.90883576869964599609e-01) (193, 4.07238930463790893555e-01) (0, -3.03450286388397216797e-01) (1, 3.10973358154296875000e+00) (2, 7.35492885112762451172e-01) (3, 7.86207675933837890625e-01) (4, 6.90530776977539062500e-01) (5, 6.03919327259063720703e-01) (6, 7.67405605316162109375e+00) (7, -7.10880899429321289062e+00) (8, 1.99806436896324157715e-01) (9, 1.65894222259521484375e+00) (10, 8.90025869011878967285e-02) (11, 8.26003968715667724609e-01) (12, 2.81977915763854980469e+00) (13, -1.26512002944946289062e+00) (14, -1.62456309795379638672e+00) (15, -6.24286830425262451172e-01) (16, -5.07164075970649719238e-02) (17, 2.60804086923599243164e-01) (18, 1.60903561115264892578e+00) (19, -1.27540081739425659180e-01) (20, 9.83690842986106872559e-02) (21, 1.84001803398132324219e-01) (22, -7.93394353240728378296e-03) (23, 2.49550342559814453125e+00) (24, 1.89377975463867187500e+00) (25, 5.22003807127475738525e-02) (26, 2.76533454656600952148e-01) (27, 6.20885729789733886719e-01) (28, -1.47865848541259765625e+01) (29, 9.57474768161773681641e-01) (30, 3.54738187789916992188e+00) (31, 2.09038972854614257812e+00) (32, 2.29311394691467285156e+00) (33, 6.68005645275115966797e-01) (34, -8.92947912216186523438e-01) (35, -1.01881122589111328125e+00) (36, 1.52334928512573242188e+00) (37, 8.94124448299407958984e-01) (38, -1.71114444732666015625e+00) (39, 2.48590692877769470215e-01) (40, 4.11092329025268554688e+00) (41, -1.32561877369880676270e-01) (42, -1.17109879851341247559e-01) (43, -1.75826072692871093750e-01) (44, 1.73982512205839157104e-02) (45, -3.58577996492385864258e-01) (46, -4.62233018875122070312e+00) (47, 1.50000000000000000000e+03) (48, 1.50000000000000000000e+03) (49, 1.50000000000000000000e+03) (50, 1.50000000000000000000e+03) (51, 1.50000000000000000000e+03) (52, 1.50000000000000000000e+03) (53, 1.50000000000000000000e+03) (54, 1.50000000000000000000e+03) (55, 1.50000000000000000000e+03) (56, 1.50000000000000000000e+03) (57, 1.50000000000000000000e+03) (58, 1.50000000000000000000e+03) (59, 1.50000000000000000000e+03) (60, -1.96913912892341613770e-01) (61, -1.87545701861381530762e-01) (62, -6.19330666959285736084e-02) (63, -7.64187723398208618164e-02) (64, -7.07149803638458251953e-02) (65, -1.89246207475662231445e-01) (66, -1.78327098488807678223e-01) (67, -3.98513376712799072266e-02) (68, -1.40023782849311828613e-01) (69, -9.24458205699920654297e-02) (70, -6.35137856006622314453e-02) (71, 1.63251738995313644409e-02) (72, -1.59489214420318603516e-01) (73, -4.72289063036441802979e-02) (74, -1.35433925315737724304e-02) (75, -6.52426853775978088379e-02) (76, -7.18520656228065490723e-02) (77, -7.09010139107704162598e-02) (78, -2.04762756824493408203e-01) (79, -1.19005359709262847900e-01) (80, -1.53874471783638000488e-01) (81, -4.10297252237796783447e-02) (82, -4.15720865130424499512e-02) (83, -1.30286991596221923828e-01) (84, -1.07326321303844451904e-01) (85, -4.12590727210044860840e-02) (86, 5.72636175155639648438e+00) (87, 5.62592077255249023438e+00) (88, 3.78839671611785888672e-02) (89, 1.02526098489761352539e-01) (90, 1.45715683698654174805e-01) (91, -1.24624276161193847656e+00) (92, -1.72179949283599853516e+00) (93, 9.13404166698455810547e-01) (94, 1.50000000000000000000e+03) (95, 1.50000000000000000000e+03) (96, 1.50000000000000000000e+03) (97, 1.50000000000000000000e+03) (98, 1.50000000000000000000e+03) (99, 1.50000000000000000000e+03) (100, 1.50000000000000000000e+03) (101, 1.50000000000000000000e+03) (102, 1.50000000000000000000e+03) (103, 1.50000000000000000000e+03) (104, 1.50000000000000000000e+03) (105, 1.50000000000000000000e+03) (106, 1.50000000000000000000e+03) (107, 5.97650575637817382812e+00) (108, 3.63383364677429199219e+00) (109, 6.73368036746978759766e-01) (110, -1.71061146259307861328e+00) (111, 6.02107107639312744141e-01) (112, 2.08009034395217895508e-01) (113, 1.36391913890838623047e+00) (114, 1.67013812065124511719e+00) (115, 2.70840764045715332031e+00) (116, 6.70527219772338867188e-01) (117, 5.80740547180175781250e+00) (118, 3.92205715179443359375e-01) (119, 6.84186756610870361328e-01) (120, 3.33471968770027160645e-02) (121, 8.37206006050109863281e-01) (122, 7.77844488620758056641e-01) (123, 9.55125510692596435547e-01) (124, 6.81766510009765625000e-01) (125, 1.88214220106601715088e-02) (126, 9.21562835574150085449e-02) (127, 7.56707251071929931641e-01) (128, 1.83420479297637939453e-01) (129, 7.59512841701507568359e-01) (130, 9.25632357597351074219e-01) (131, 1.08838808536529541016e+00) (132, 7.47077524662017822266e-01) (133, 2.11632061004638671875e+00) (134, 1.31014943122863769531e+00) (135, 4.51495349407196044922e-01) (136, -3.59916746616363525391e-01) (137, 1.26643466949462890625e+00) (138, 1.51473307609558105469e+00) (139, -5.57513356208801269531e-01) (140, 9.80546414852142333984e-01) (141, 1.50000000000000000000e+03) (142, 1.50000000000000000000e+03) (143, 1.50000000000000000000e+03) (144, 1.50000000000000000000e+03) (145, 1.50000000000000000000e+03) (146, 1.50000000000000000000e+03) (147, 1.50000000000000000000e+03) (148, 1.50000000000000000000e+03) (149, 1.50000000000000000000e+03) (150, 1.50000000000000000000e+03) (151, 1.50000000000000000000e+03) (152, 1.50000000000000000000e+03) (153, 1.50000000000000000000e+03) (154, -2.62563169002532958984e-01) (155, 3.52978259325027465820e-01) (156, -2.78044968843460083008e-01) (157, 9.40200388431549072266e-02) (158, 3.54673355817794799805e-01) (159, -3.59042137861251831055e-01) (160, -5.08412420749664306641e-01) (161, -3.39144140481948852539e-01) (162, -1.05512604117393493652e-01) (163, 2.24870648235082626343e-02) (164, 2.51699447631835937500e-01) (165, -5.33511936664581298828e-01) (166, -6.36287592351436614990e-03) (167, -1.14468419924378395081e-02) (168, -5.04151321947574615479e-02) (169, -2.03674614429473876953e-01) (170, -1.19280256330966949463e-01) (171, 2.19123467803001403809e-01) (172, -1.80558785796165466309e-01) (173, -6.52826309204101562500e-01) (174, -1.09426401555538177490e-01) (175, -4.37026053667068481445e-01) (176, -2.38827597349882125854e-02) (177, -4.94103282690048217773e-02) (178, -5.55196046829223632812e-01) (179, -3.08220982551574707031e-01) (180, -5.18660008907318115234e-01) (181, -1.28747940063476562500e+00) (182, -1.57794404029846191406e+00) (183, 3.40378451347351074219e+00) (184, -3.45930814743041992188e+00) (185, -1.55230391025543212891e+00) (186, -1.12185680866241455078e+00) (187, -1.26788532733917236328e+00) (188, 3.84027910232543945312e+00) (189, 1.41482937335968017578e+00) (190, 4.53756809234619140625e+00) (191, 3.20232343673706054688e+00) (192, -9.99085754156112670898e-02) (193, 4.15971755981445312500e-01) (0, 5.09223103523254394531e-01) (1, -5.83122223615646362305e-02) (2, -4.57341045141220092773e-01) (3, 2.82082021236419677734e-01) (4, -9.09627452492713928223e-02) (5, -1.53485000133514404297e+00) (6, 5.96103429794311523438e-01) (7, -2.24003744125366210938e+00) (8, 2.40798011422157287598e-01) (9, 2.50216031074523925781e+00) (10, 1.69229412078857421875e+00) (11, 2.40708327293395996094e+00) (12, 4.15170621871948242188e+00) (13, 1.64981567859649658203e+00) (14, 2.65931797027587890625e+00) (15, 8.63319575786590576172e-01) (16, 2.56836056709289550781e-01) (17, -2.32740819454193115234e-01) (18, 9.00586992502212524414e-02) (19, -8.52591097354888916016e-01) (20, -6.40928566455841064453e-01) (21, 3.47447776794433593750e+00) (22, 1.83115506172180175781e+00) (23, 2.58271169662475585938e+00) (24, 9.31736230850219726562e-01) (25, 3.03769737482070922852e-01) (26, -1.19336858391761779785e-01) (27, 5.07493317127227783203e-01) (28, 3.86439990997314453125e+00) (29, 4.65730637311935424805e-01) (30, -8.47942158579826354980e-02) (31, 1.57559585571289062500e+00) (32, 4.72456574440002441406e-01) (33, -2.75876969099044799805e-01) (34, -7.99354165792465209961e-02) (35, 2.11008593440055847168e-01) (36, 1.02273535728454589844e+00) (37, 1.44935250282287597656e+00) (38, 2.89737790822982788086e-01) (39, 1.02209579944610595703e+00) (40, -6.51027381420135498047e-01) (41, -4.85189199447631835938e-01) (42, -5.02904057502746582031e-02) (43, 1.41796380281448364258e-01) (44, 3.05789321660995483398e-01) (45, -3.99031430482864379883e-01) (46, -3.71162623167037963867e-01) (47, 1.50000000000000000000e+03) (48, 1.50000000000000000000e+03) (49, 1.50000000000000000000e+03) (50, 1.50000000000000000000e+03) (51, 1.50000000000000000000e+03) (52, 1.50000000000000000000e+03) (53, 1.50000000000000000000e+03) (54, 1.50000000000000000000e+03) (55, 1.50000000000000000000e+03) (56, 1.50000000000000000000e+03) (57, 1.50000000000000000000e+03) (58, 1.50000000000000000000e+03) (59, 1.50000000000000000000e+03) (60, 5.51013112068176269531e-01) (61, 2.61212766170501708984e-01) (62, 1.74388334155082702637e-01) (63, 2.37272381782531738281e-01) (64, 3.01454644650220870972e-02) (65, 5.23931443691253662109e-01) (66, -1.75507981330156326294e-02) (67, 1.03487029671669006348e-01) (68, 4.24268364906311035156e-01) (69, 1.35092556476593017578e-01) (70, 2.79910773038864135742e-01) (71, 2.47623771429061889648e-01) (72, 2.57402583956718444824e-02) (73, 3.92194509506225585938e-01) (74, 3.48563194274902343750e-01) (75, 2.03474536538124084473e-01) (76, 3.76170217990875244141e-01) (77, 7.74881467223167419434e-02) (78, 6.09407961368560791016e-01) (79, 2.14770451188087463379e-01) (80, 4.62690182030200958252e-02) (81, 4.30335819721221923828e-01) (82, 1.43942281603813171387e-01) (83, 2.68968552350997924805e-01) (84, 2.01601907610893249512e-01) (85, 4.48970310389995574951e-02) (86, -2.94726967811584472656e-01) (87, -1.20814383029937744141e+00) (88, 1.41755849123001098633e-01) (89, 3.17512869834899902344e-01) (90, 2.12335903197526931763e-02) (91, 8.41204524040222167969e-01) (92, -1.80501282215118408203e-01) (93, 1.23297721147537231445e-01) (94, 1.50000000000000000000e+03) (95, 1.50000000000000000000e+03) (96, 1.50000000000000000000e+03) (97, 1.50000000000000000000e+03) (98, 1.50000000000000000000e+03) (99, 1.50000000000000000000e+03) (100, 1.50000000000000000000e+03) (101, 1.50000000000000000000e+03) (102, 1.50000000000000000000e+03) (103, 1.50000000000000000000e+03) (104, 1.50000000000000000000e+03) (105, 1.50000000000000000000e+03) (106, 1.50000000000000000000e+03) (107, -1.73576891422271728516e+00) (108, 8.52586925029754638672e-02) (109, 2.15727925300598144531e+00) (110, -2.33257913589477539062e+00) (111, -1.05117559432983398438e-02) (112, 9.29941475391387939453e-01) (113, -9.07941937446594238281e-01) (114, -1.31773099303245544434e-01) (115, 8.70333433151245117188e-01) (116, 1.78590726852416992188e+00) (117, -2.66217797994613647461e-01) (118, 9.93717312812805175781e-01) (119, 5.76850235462188720703e-01) (120, 4.39758062362670898438e-01) (121, 6.44823372364044189453e-01) (122, 5.33101797103881835938e-01) (123, 4.59615409374237060547e-01) (124, 3.67530137300491333008e-01) (125, 4.82854068279266357422e-01) (126, 4.33791071176528930664e-01) (127, 4.57468852400779724121e-02) (128, 2.28889867663383483887e-01) (129, 5.15322089195251464844e-01) (130, 6.54661357402801513672e-01) (131, 1.58067852258682250977e-01) (132, 7.54118144512176513672e-01) (133, -1.81797683238983154297e+00) (134, 6.97453558444976806641e-01) (135, 8.64422738552093505859e-01) (136, -5.44590055942535400391e-01) (137, 1.26162648200988769531e+00) (138, -7.38999068737030029297e-01) (139, 8.20798054337501525879e-02) (140, 3.47569108009338378906e+00) (141, 1.50000000000000000000e+03) (142, 1.50000000000000000000e+03) (143, 1.50000000000000000000e+03) (144, 1.50000000000000000000e+03) (145, 1.50000000000000000000e+03) (146, 1.50000000000000000000e+03) (147, 1.50000000000000000000e+03) (148, 1.50000000000000000000e+03) (149, 1.50000000000000000000e+03) (150, 1.50000000000000000000e+03) (151, 1.50000000000000000000e+03) (152, 1.50000000000000000000e+03) (153, 1.50000000000000000000e+03) (154, 8.62217918038368225098e-02) (155, -7.59371146559715270996e-02) (156, -3.10311410576105117798e-02) (157, 4.31426148861646652222e-03) (158, -6.86844289302825927734e-02) (159, -1.44510075449943542480e-01) (160, -5.83821758627891540527e-02) (161, 3.24139624834060668945e-01) (162, -1.82948890142142772675e-03) (163, 1.08404204249382019043e-01) (164, -1.14787193015217781067e-02) (165, -5.37450239062309265137e-02) (166, -1.86250314116477966309e-01) (167, 1.10716819763183593750e-01) (168, -2.08230525255203247070e-01) (169, -2.15627923607826232910e-02) (170, 2.21838634461164474487e-02) (171, -2.23394572734832763672e-01) (172, -2.36210203729569911957e-03) (173, -3.92258353531360626221e-02) (174, 5.15879869461059570312e-01) (175, 9.46881994605064392090e-02) (176, 6.62000328302383422852e-02) (177, 1.83018986135721206665e-02) (178, 8.65048393607139587402e-02) (179, -2.03280448913574218750e-01) (180, 3.38351631164550781250e+00) (181, 3.39085102081298828125e+00) (182, 2.34839391708374023438e+00) (183, 6.77923619747161865234e-01) (184, 6.06554262340068817139e-02) (185, 1.58230233937501907349e-02) (186, 8.94865319132804870605e-02) (187, 4.67748612165451049805e-01) (188, 6.95463478565216064453e-01) (189, 1.19944858551025390625e+00) (190, 4.44036215543746948242e-01) (191, 1.43172085285186767578e+00) (192, -1.77108442783355712891e+00) (193, 1.74184346199035644531e+00) (0, -5.07277131080627441406e-01) (1, -8.58418083190917968750e+00) (2, 1.91366112232208251953e+00) (3, 1.22035145759582519531e+00) (4, -4.38916943967342376709e-02) (5, -4.04544687271118164062e+00) (6, 1.09534549713134765625e+00) (7, 2.57904720306396484375e+00) (8, -2.76363790035247802734e-01) (9, 1.64583861827850341797e+00) (10, 8.02014231681823730469e-01) (11, -1.59672391414642333984e+00) (12, -3.21403235197067260742e-01) (13, 9.89078581333160400391e-02) (14, -2.40969248116016387939e-02) (15, -3.75182926654815673828e-01) (16, -3.49899649620056152344e+00) (17, -1.01782262325286865234e+00) (18, 2.79330205917358398438e+00) (19, -1.04673290252685546875e+00) (20, 1.23756384849548339844e+00) (21, 9.68639731407165527344e-01) (22, 7.38861620426177978516e-01) (23, -4.84687089920043945312e-01) (24, -4.80201125144958496094e-01) (25, 1.57182621955871582031e+00) (26, -6.32968962192535400391e-01) (27, 1.48039966821670532227e-01) (28, -5.34471869468688964844e-01) (29, -4.48398917913436889648e-01) (30, -2.40362554788589477539e-01) (31, 6.10556602478027343750e-01) (32, -4.17940378189086914062e+00) (33, -1.22663700580596923828e+00) (34, -2.97629213333129882812e+00) (35, 9.74561572074890136719e-01) (36, 2.71174025535583496094e+00) (37, -2.30412006378173828125e+00) (38, 2.12476223707199096680e-01) (39, -7.75173008441925048828e-01) (40, 1.18187403678894042969e+00) (41, 1.92516922950744628906e+00) (42, 3.38802635669708251953e-01) (43, -1.02697849273681640625e-01) (44, -3.54064404964447021484e-01) (45, 7.61583864688873291016e-01) (46, -1.22880332171916961670e-01) (47, 1.50000000000000000000e+03) (48, 1.50000000000000000000e+03) (49, 1.50000000000000000000e+03) (50, 1.50000000000000000000e+03) (51, 1.50000000000000000000e+03) (52, 1.50000000000000000000e+03) (53, 1.50000000000000000000e+03) (54, 1.50000000000000000000e+03) (55, 1.50000000000000000000e+03) (56, 1.50000000000000000000e+03) (57, 1.50000000000000000000e+03) (58, 1.50000000000000000000e+03) (59, 1.50000000000000000000e+03) (60, 1.97327714413404464722e-02) (61, 1.42114028334617614746e-01) (62, 1.40234917402267456055e-01) (63, 7.83008709549903869629e-02) (64, 4.40017953515052795410e-02) (65, 4.98850792646408081055e-02) (66, 4.69970330595970153809e-02) (67, 5.20863803103566169739e-03) (68, 1.63502439856529235840e-01) (69, 1.83532759547233581543e-01) (70, 7.93379768729209899902e-02) (71, 9.93565171957015991211e-02) (72, 1.04415174573659896851e-02) (73, 1.92685171961784362793e-01) (74, 1.14264547824859619141e-01) (75, -2.38882756093516945839e-04) (76, 1.24441139400005340576e-01) (77, 4.14829514920711517334e-03) (78, -1.24966958537697792053e-02) (79, 1.63829386234283447266e-01) (80, -2.50837877392768859863e-02) (81, 1.80623888969421386719e-01) (82, 4.01566550135612487793e-02) (83, 1.18797242641448974609e-01) (84, 1.60656973719596862793e-01) (85, 3.30796875059604644775e-02) (86, -1.87067127227783203125e+00) (87, -1.70849815011024475098e-01) (88, -1.60971879959106445312e+00) (89, -3.47013771533966064453e-01) (90, 2.52705276012420654297e-01) (91, 1.84932425618171691895e-01) (92, 2.51027703285217285156e+00) (93, 4.68817859888076782227e-01) (94, 1.50000000000000000000e+03) (95, 1.50000000000000000000e+03) (96, 1.50000000000000000000e+03) (97, 1.50000000000000000000e+03) (98, 1.50000000000000000000e+03) (99, 1.50000000000000000000e+03) (100, 1.50000000000000000000e+03) (101, 1.50000000000000000000e+03) (102, 1.50000000000000000000e+03) (103, 1.50000000000000000000e+03) (104, 1.50000000000000000000e+03) (105, 1.50000000000000000000e+03) (106, 1.50000000000000000000e+03) (107, -5.36987297236919403076e-02) (108, -2.46943902969360351562e+00) (109, -6.31391629576683044434e-02) (110, 2.08915472030639648438e+00) (111, 1.30313241481781005859e+00) (112, -9.82403755187988281250e-01) (113, 1.94015276432037353516e+00) (114, 4.21656513214111328125e+00) (115, -3.23975467681884765625e+00) (116, 1.87753453850746154785e-01) (117, 4.09226566553115844727e-01) (118, 1.98421311378479003906e+00) (119, 4.71692055463790893555e-01) (120, 3.80796015262603759766e-01) (121, 4.78057920932769775391e-01) (122, 3.01067441701889038086e-01) (123, -1.18650704622268676758e-01) (124, 4.59253877401351928711e-01) (125, 1.08207590878009796143e-01) (126, 8.71034681797027587891e-01) (127, 1.82924222946166992188e+00) (128, 7.25927710533142089844e-01) (129, -2.70741879940032958984e-01) (130, 1.14088118076324462891e-01) (131, 2.38199681043624877930e-01) (132, 4.84706908464431762695e-01) (133, 4.77912044525146484375e+00) (134, -9.61206257343292236328e-01) (135, 1.28431618213653564453e+00) (136, -1.64642095565795898438e+00) (137, 6.04888737201690673828e-01) (138, 8.87655436992645263672e-01) (139, 5.38137257099151611328e-01) (140, 8.33811092376708984375e+00) (141, 1.50000000000000000000e+03) (142, 1.50000000000000000000e+03) (143, 1.50000000000000000000e+03) (144, 1.50000000000000000000e+03) (145, 1.50000000000000000000e+03) (146, 1.50000000000000000000e+03) (147, 1.50000000000000000000e+03) (148, 1.50000000000000000000e+03) (149, 1.50000000000000000000e+03) (150, 1.50000000000000000000e+03) (151, 1.50000000000000000000e+03) (152, 1.50000000000000000000e+03) (153, 1.50000000000000000000e+03) (154, 4.30058538913726806641e-01) (155, -9.75755453109741210938e-02) (156, 8.08123946189880371094e-02) (157, 7.92965650558471679688e-01) (158, 3.24186772108078002930e-01) (159, 1.92817300558090209961e-02) (160, -5.32928466796875000000e-01) (161, -7.94714093208312988281e-01) (162, -5.50501704216003417969e-01) (163, 4.47918986901640892029e-03) (164, 1.16976432502269744873e-01) (165, 2.47016042470932006836e-01) (166, 2.53438740968704223633e-01) (167, 3.97980868816375732422e-01) (168, -6.03523015975952148438e-01) (169, -2.46446654200553894043e-01) (170, 6.47257983684539794922e-01) (171, 2.80941337347030639648e-01) (172, 7.70081400871276855469e-01) (173, -3.22074323892593383789e-01) (174, -8.22197735309600830078e-01) (175, -6.73538863658905029297e-01) (176, 1.13751113414764404297e-01) (177, 4.40399557352066040039e-01) (178, -4.36470657587051391602e-01) (179, 2.73842751979827880859e-01) (180, -2.11223840713500976562e+00) (181, -1.76006209850311279297e+00) (182, -4.59902584552764892578e-01) (183, -1.42909824848175048828e+00) (184, -4.34701776504516601562e+00) (185, 2.29162812232971191406e+00) (186, 1.39616119861602783203e+00) (187, 1.85881435871124267578e+00) (188, -2.11048185825347900391e-01) (189, 1.31854772567749023438e+00) (190, -4.51725929975509643555e-01) (191, 3.24782729148864746094e+00) (192, 3.31862270832061767578e-01) (193, -8.60195532441139221191e-02) (0, -1.45287215709686279297e+00) (1, 1.43436968326568603516e+00) (2, -9.58963215351104736328e-01) (3, -3.33041757345199584961e-01) (4, -2.23662996292114257812e+00) (5, 6.30929470062255859375e-01) (6, -2.84070879220962524414e-01) (7, -1.85795396566390991211e-01) (8, 1.24863052368164062500e+00) (9, 2.60949301719665527344e+00) (10, 1.97516000270843505859e+00) (11, -3.38528919219970703125e+00) (12, 3.57342839241027832031e+00) (13, 9.60877776145935058594e-01) (14, 1.45053911209106445312e+00) (15, 2.18591022491455078125e+00) (16, 1.68169033527374267578e+00) (17, 1.92236852645874023438e+00) (18, 4.16709274053573608398e-01) (19, -1.88123738765716552734e+00) (20, -2.00603127479553222656e+00) (21, -1.04771983623504638672e+00) (22, 8.41735243797302246094e-01) (23, 6.60422468185424804688e+00) (24, 3.27686995267868041992e-01) (25, -9.33173820376396179199e-02) (26, 1.29718101024627685547e+00) (27, 2.27031409740447998047e-01) (28, 4.94153201580047607422e-01) (29, 2.84405082464218139648e-01) (30, 2.69102841615676879883e-01) (31, 1.25672817230224609375e+00) (32, 1.27552795410156250000e+00) (33, 2.14102935791015625000e+00) (34, 3.22570681571960449219e+00) (35, 8.38927090167999267578e-01) (36, -5.74563312530517578125e+00) (37, -3.66855770349502563477e-01) (38, 2.31645011901855468750e+00) (39, -2.33852848410606384277e-01) (40, 7.70390639081597328186e-03) (41, 1.35538268089294433594e+00) (42, 2.45020315051078796387e-02) (43, -9.76784061640501022339e-03) (44, 3.71083408594131469727e-01) (45, 3.00215601921081542969e-01) (46, -1.47750830650329589844e+00) (47, 1.50000000000000000000e+03) (48, 1.50000000000000000000e+03) (49, 1.50000000000000000000e+03) (50, 1.50000000000000000000e+03) (51, 1.50000000000000000000e+03) (52, 1.50000000000000000000e+03) (53, 1.50000000000000000000e+03) (54, 1.50000000000000000000e+03) (55, 1.50000000000000000000e+03) (56, 1.50000000000000000000e+03) (57, 1.50000000000000000000e+03) (58, 1.50000000000000000000e+03) (59, 1.50000000000000000000e+03) (60, 2.07759812474250793457e-02) (61, -2.79421964660286903381e-03) (62, -1.53126185759902000427e-02) (63, -4.84804399311542510986e-02) (64, -3.91632958780974149704e-04) (65, 3.79557050764560699463e-02) (66, -8.40491354465484619141e-02) (67, -4.02439273893833160400e-02) (68, 6.05417415499687194824e-02) (69, 4.06020879745483398438e-03) (70, 1.64269105880521237850e-04) (71, 8.75883549451828002930e-02) (72, -3.70507650077342987061e-02) (73, 4.35657016932964324951e-02) (74, -4.40363660454750061035e-02) (75, 1.73360090702772140503e-02) (76, 1.79024949669837951660e-01) (77, -1.01670712232589721680e-01) (78, -8.33057388663291931152e-02) (79, -1.03438459336757659912e-01) (80, -1.08439810574054718018e-01) (81, 2.11079381406307220459e-02) (82, -1.04919508099555969238e-01) (83, -3.10983117669820785522e-02) (84, -3.77477370202541351318e-02) (85, 2.33301632106304168701e-02) (86, 2.10231125354766845703e-01) (87, -3.62831711769104003906e+00) (88, 1.02138340473175048828e+00) (89, -3.85617315769195556641e-01) (90, -2.14293852448463439941e-01) (91, -9.20749187469482421875e-01) (92, -7.29093179106712341309e-02) (93, -1.74481415748596191406e+00) (94, 1.50000000000000000000e+03) (95, 1.50000000000000000000e+03) (96, 1.50000000000000000000e+03) (97, 1.50000000000000000000e+03) (98, 1.50000000000000000000e+03) (99, 1.50000000000000000000e+03) (100, 1.50000000000000000000e+03) (101, 1.50000000000000000000e+03) (102, 1.50000000000000000000e+03) (103, 1.50000000000000000000e+03) (104, 1.50000000000000000000e+03) (105, 1.50000000000000000000e+03) (106, 1.50000000000000000000e+03) (107, 7.06406295299530029297e-01) (108, 3.17080616950988769531e-01) (109, -8.81516754627227783203e-01) (110, -3.19275522232055664062e+00) (111, 4.59107309579849243164e-01) (112, -3.78505527973175048828e-01) (113, 3.63067626953125000000e-01) (114, 2.87510633468627929688e-01) (115, 9.14419293403625488281e-01) (116, 4.35374796390533447266e-01) (117, -7.11474418640136718750e-01) (118, 8.08529913425445556641e-01) (119, 9.80945765972137451172e-01) (120, 3.27024698257446289062e-01) (121, 2.30794024467468261719e+00) (122, 6.45725190639495849609e-01) (123, 3.43014687299728393555e-01) (124, 1.37508571147918701172e-01) (125, 2.32962384819984436035e-01) (126, 2.61200457811355590820e-01) (127, 6.82283043861389160156e-01) (128, 3.46363425254821777344e-01) (129, 8.02752912044525146484e-01) (130, 4.10965532064437866211e-01) (131, 3.84695529937744140625e-01) (132, 2.70092725753784179688e-01) (133, 7.61372447013854980469e-02) (134, 1.58184349536895751953e+00) (135, 3.77012038230895996094e+00) (136, -1.16060531139373779297e+00) (137, 1.10174894332885742188e+00) (138, -8.46977412700653076172e-01) (139, -3.24883103370666503906e-01) (140, 1.55187594890594482422e+00) (141, 1.50000000000000000000e+03) (142, 1.50000000000000000000e+03) (143, 1.50000000000000000000e+03) (144, 1.50000000000000000000e+03) (145, 1.50000000000000000000e+03) (146, 1.50000000000000000000e+03) (147, 1.50000000000000000000e+03) (148, 1.50000000000000000000e+03) (149, 1.50000000000000000000e+03) (150, 1.50000000000000000000e+03) (151, 1.50000000000000000000e+03) (152, 1.50000000000000000000e+03) (153, 1.50000000000000000000e+03) (154, 9.04334262013435363770e-02) (155, -1.58800184726715087891e-01) (156, 1.40024706721305847168e-01) (157, 1.13719262182712554932e-01) (158, 2.00692728161811828613e-01) (159, 2.35983133316040039062e-01) (160, 6.39770105481147766113e-02) (161, 6.97027593851089477539e-02) (162, 1.68494269018992781639e-04) (163, -8.25411006808280944824e-02) (164, 1.00877448916435241699e-01) (165, 4.12126965820789337158e-02) (166, 1.27408012747764587402e-01) (167, 6.25435933470726013184e-02) (168, -2.13978603482246398926e-01) (169, 7.41072148084640502930e-02) (170, 2.89047896862030029297e-01) (171, 3.20341616868972778320e-01) (172, 2.77436017990112304688e-01) (173, 5.25131914764642715454e-03) (174, 2.06107497215270996094e-01) (175, 1.05606369674205780029e-01) (176, -3.72674688696861267090e-02) (177, 8.77146944403648376465e-02) (178, 9.27119627594947814941e-02) (179, 6.95767775177955627441e-02) (180, 1.22447860240936279297e+00) (181, 2.29062891006469726562e+00) (182, -2.19912838935852050781e+00) (183, 3.43230915069580078125e+00) (184, 5.26003122329711914062e-01) (185, -2.81525611877441406250e-01) (186, -2.70081949234008789062e+00) (187, 4.11768054962158203125e+00) (188, 6.93726956844329833984e-01) (189, -8.53002250194549560547e-01) (190, 1.05959153175354003906e+00) (191, 5.39175796508789062500e+00) (192, 1.40068483352661132812e+00) (193, -8.33498179912567138672e-01) (0, 3.68002343177795410156e+00) (1, -3.11443233489990234375e+00) (2, 4.67240476608276367188e+00) (3, 2.21896219253540039062e+00) (4, 1.90253317356109619141e+00) (5, 2.63277292251586914062e+00) (6, -6.46417662501335144043e-02) (7, 4.82939124107360839844e-01) (8, 1.33747291564941406250e+00) (9, 3.09759783744812011719e+00) (10, -1.72286868095397949219e+00) (11, -1.56113111972808837891e+00) (12, 2.41622757911682128906e+00) (13, -1.24726581573486328125e+00) (14, 8.42329442501068115234e-01) (15, -1.19001138210296630859e+00) (16, -8.02247941493988037109e-01) (17, -1.49279654026031494141e+00) (18, -6.48382306098937988281e-01) (19, -1.23069651424884796143e-01) (20, 2.59851717948913574219e+00) (21, -7.62017667293548583984e-02) (22, 1.64343023300170898438e+00) (23, -7.02656149864196777344e-01) (24, 8.28168690204620361328e-01) (25, 4.21333265304565429688e+00) (26, 8.22959840297698974609e-01) (27, -5.34033060073852539062e-01) (28, 7.17331469058990478516e-03) (29, -3.79135084152221679688e+00) (30, 3.28406184911727905273e-01) (31, -1.48394632339477539062e+00) (32, -7.19574785232543945312e+00) (33, -4.67812895774841308594e-01) (34, -5.97543478012084960938e-01) (35, 1.12048900127410888672e+00) (36, 6.04644477367401123047e-01) (37, 1.54548251628875732422e+00) (38, 2.83347427845001220703e-01) (39, 9.94826555252075195312e-01) (40, 2.44331598281860351562e+00) (41, -9.97391581535339355469e-01) (42, -1.45552873611450195312e-01) (43, -3.32269556820392608643e-02) (44, -8.85644853115081787109e-01) (45, 9.47053208947181701660e-02) (46, 1.22317790985107421875e+00) (47, 1.50000000000000000000e+03) (48, 1.50000000000000000000e+03) (49, 1.50000000000000000000e+03) (50, 1.50000000000000000000e+03) (51, 1.50000000000000000000e+03) (52, 1.50000000000000000000e+03) (53, 1.50000000000000000000e+03) (54, 1.50000000000000000000e+03) (55, 1.50000000000000000000e+03) (56, 1.50000000000000000000e+03) (57, 1.50000000000000000000e+03) (58, 1.50000000000000000000e+03) (59, 1.50000000000000000000e+03) (60, 4.37855064868927001953e-01) (61, 8.34933295845985412598e-03) (62, 3.54317389428615570068e-02) (63, -4.95965480804443359375e-02) (64, -5.84178306162357330322e-02) (65, -2.67659462988376617432e-02) (66, 4.76791769266128540039e-01) (67, -1.45766437053680419922e-01) (68, -7.38194361329078674316e-02) (69, -8.35652947425842285156e-02) (70, -8.06023329496383666992e-02) (71, 5.37603497505187988281e-01) (72, -1.43178552389144897461e-01) (73, 4.00047540664672851562e-01) (74, 1.94288603961467742920e-02) (75, -1.06589652597904205322e-01) (76, 4.64015334844589233398e-01) (77, -2.67295204102993011475e-02) (78, -1.47328034043312072754e-01) (79, 4.03751075267791748047e-01) (80, 1.79652739316225051880e-02) (81, -9.53033789992332458496e-02) (82, -1.36800020933151245117e-01) (83, -1.21161773800849914551e-01) (84, 4.21635478734970092773e-01) (85, -1.26677885651588439941e-01) (86, 6.98497891426086425781e-01) (87, -7.91655406355857849121e-02) (88, 8.98044288158416748047e-01) (89, 6.23388051986694335938e-01) (90, 1.97936773300170898438e+00) (91, -2.03943538665771484375e+00) (92, -2.53345727920532226562e-01) (93, 9.78806436061859130859e-01) (94, 1.50000000000000000000e+03) (95, 1.50000000000000000000e+03) (96, 1.50000000000000000000e+03) (97, 1.50000000000000000000e+03) (98, 1.50000000000000000000e+03) (99, 1.50000000000000000000e+03) (100, 1.50000000000000000000e+03) (101, 1.50000000000000000000e+03) (102, 1.50000000000000000000e+03) (103, 1.50000000000000000000e+03) (104, 1.50000000000000000000e+03) (105, 1.50000000000000000000e+03) (106, 1.50000000000000000000e+03) (107, 5.11829316616058349609e-01) (108, 3.64747309684753417969e+00) (109, 2.40553379058837890625e+00) (110, 1.20372569561004638672e+00) (111, 2.10536527633666992188e+00) (112, 1.59804081916809082031e+00) (113, 9.45509731769561767578e-01) (114, 6.85208618640899658203e-01) (115, -3.49666684865951538086e-01) (116, 1.37200045585632324219e+00) (117, 6.76438678056001663208e-03) (118, -2.26628947257995605469e+00) (119, 6.50219202041625976562e-01) (120, 2.15617939829826354980e-01) (121, -6.42817795276641845703e-01) (122, -5.04100978374481201172e-01) (123, 7.54101499915122985840e-02) (124, 2.08170577883720397949e-01) (125, 3.08692383766174316406e+00) (126, 2.70105674862861633301e-02) (127, 6.12915158271789550781e-01) (128, 2.27853983640670776367e-01) (129, -2.67076864838600158691e-02) (130, -2.37927228212356567383e-01) (131, 1.84567511081695556641e-01) (132, 2.64886647462844848633e-01) (133, 1.15989126265048980713e-01) (134, 6.12038552761077880859e-01) (135, 1.10924088954925537109e+00) (136, 3.12766098976135253906e+00) (137, 5.73932468891143798828e-01) (138, -2.79295584186911582947e-03) (139, 2.72868154570460319519e-03) (140, 5.67708194255828857422e-01) (141, 1.50000000000000000000e+03) (142, 1.50000000000000000000e+03) (143, 1.50000000000000000000e+03) (144, 1.50000000000000000000e+03) (145, 1.50000000000000000000e+03) (146, 1.50000000000000000000e+03) (147, 1.50000000000000000000e+03) (148, 1.50000000000000000000e+03) (149, 1.50000000000000000000e+03) (150, 1.50000000000000000000e+03) (151, 1.50000000000000000000e+03) (152, 1.50000000000000000000e+03) (153, 1.50000000000000000000e+03) (154, 3.59145820140838623047e-01) (155, 4.66806918382644653320e-01) (156, 4.31128531694412231445e-01) (157, 3.39854598045349121094e-01) (158, 4.14255797863006591797e-01) (159, -7.14967548847198486328e-01) (160, 6.47509455680847167969e-01) (161, -3.32937151193618774414e-01) (162, 4.82566624879837036133e-01) (163, 3.80778163671493530273e-01) (164, 9.66361939907073974609e-01) (165, 2.97486126422882080078e-01) (166, 1.48455724120140075684e-01) (167, 2.06777676939964294434e-01) (168, 4.80260699987411499023e-01) (169, 4.71948891878128051758e-01) (170, 4.64426457881927490234e-01) (171, 5.65337300300598144531e-01) (172, -1.08499646186828613281e+00) (173, 4.79565411806106567383e-01) (174, -1.03713715076446533203e+00) (175, 3.57997626066207885742e-01) (176, 4.61142390966415405273e-01) (177, 9.59998369216918945312e-01) (178, 4.33650016784667968750e-01) (179, 3.21186542510986328125e-01) (180, -7.83243626356124877930e-02) (181, -1.42124545574188232422e+00) (182, -1.88633769750595092773e-01) (183, 6.97461307048797607422e-01) (184, -1.55591666698455810547e+00) (185, 1.80129003524780273438e+00) (186, 8.01480591297149658203e-01) (187, -1.50230455398559570312e+00) (188, 3.18322628736495971680e-01) (189, -2.43457365036010742188e+00) (190, -7.10119679570198059082e-02) (191, 9.46285605430603027344e-01) (192, 6.97037220001220703125e-01) (193, -1.48651540279388427734e+00) (0, 8.37443923950195312500e+00) (1, -1.47255611419677734375e+00) (2, 9.96405601501464843750e-01) (3, 5.95579266548156738281e-01) (4, 1.87269473075866699219e+00) (5, 4.38783645629882812500e+00) (6, 1.71475648880004882812e+00) (7, 4.55304309725761413574e-02) (8, 2.91134023666381835938e+00) (9, -1.02547943592071533203e+00) (10, -4.29092675447463989258e-01) (11, 1.77890706062316894531e+00) (12, -9.10031735897064208984e-01) (13, -2.94224619865417480469e-01) (14, -3.43670040369033813477e-01) (15, -4.05306331813335418701e-02) (16, -5.49888074398040771484e-01) (17, -4.82106447219848632812e+00) (18, -1.14983570575714111328e+00) (19, -1.31268784403800964355e-01) (20, 1.55969297885894775391e+00) (21, 2.21590590476989746094e+00) (22, 3.56361627578735351562e+00) (23, 8.68705928325653076172e-01) (24, -1.98447823524475097656e+00) (25, 7.93246388435363769531e-01) (26, -2.27168989181518554688e+00) (27, -4.67061376571655273438e+00) (28, 4.10856151580810546875e+00) (29, -8.40218722820281982422e-01) (30, 4.22295951843261718750e+00) (31, -1.59362578392028808594e+00) (32, -4.22127676010131835938e+00) (33, 1.12529885768890380859e+00) (34, -1.42678821086883544922e+00) (35, -4.08965349197387695312e+00) (36, 7.88862347602844238281e-01) (37, -2.79787158966064453125e+00) (38, -4.67567205429077148438e+00) (39, 2.00830817222595214844e+00) (40, -3.69090104103088378906e+00) (41, -2.98156023025512695312e+00) (42, 5.97712397575378417969e-01) (43, 7.25347578525543212891e-01) (44, 5.73307037353515625000e-01) (45, 1.31516087055206298828e+00) (46, 5.33867645263671875000e+00) (47, 1.50000000000000000000e+03) (48, 1.50000000000000000000e+03) (49, 1.50000000000000000000e+03) (50, 1.50000000000000000000e+03) (51, 1.50000000000000000000e+03) (52, 1.50000000000000000000e+03) (53, 1.50000000000000000000e+03) (54, 1.50000000000000000000e+03) (55, 1.50000000000000000000e+03) (56, 1.50000000000000000000e+03) (57, 1.50000000000000000000e+03) (58, 1.50000000000000000000e+03) (59, 1.50000000000000000000e+03) (60, 8.68247747421264648438e-01) (61, 7.34242796897888183594e-01) (62, 7.20738291740417480469e-01) (63, 8.01586031913757324219e-01) (64, 6.25387609004974365234e-01) (65, 6.87142908573150634766e-01) (66, 8.61884534358978271484e-01) (67, 8.44741404056549072266e-01) (68, 8.60693156719207763672e-01) (69, 7.76483476161956787109e-01) (70, 6.41578078269958496094e-01) (71, 8.75569880008697509766e-01) (72, 7.44711518287658691406e-01) (73, 8.60492706298828125000e-01) (74, 8.74134957790374755859e-01) (75, 6.96457326412200927734e-01) (76, 8.27778637409210205078e-01) (77, 6.86548531055450439453e-01) (78, 7.26108729839324951172e-01) (79, 8.73463749885559082031e-01) (80, 7.07203209400177001953e-01) (81, 7.94151425361633300781e-01) (82, 8.62650394439697265625e-01) (83, 6.40658676624298095703e-01) (84, 7.82364428043365478516e-01) (85, 7.14930474758148193359e-01) (86, -4.33243179321289062500e+00) (87, 6.66809415817260742188e+00) (88, -8.35022106766700744629e-02) (89, -6.60377740859985351562e-01) (90, 4.11319702863693237305e-01) (91, 1.10320246219635009766e+00) (92, -3.71066540479660034180e-01) (93, 1.08068227767944335938e+00) (94, 1.50000000000000000000e+03) (95, 1.50000000000000000000e+03) (96, 1.50000000000000000000e+03) (97, 1.50000000000000000000e+03) (98, 1.50000000000000000000e+03) (99, 1.50000000000000000000e+03) (100, 1.50000000000000000000e+03) (101, 1.50000000000000000000e+03) (102, 1.50000000000000000000e+03) (103, 1.50000000000000000000e+03) (104, 1.50000000000000000000e+03) (105, 1.50000000000000000000e+03) (106, 1.50000000000000000000e+03) (107, -8.44688296318054199219e-01) (108, -3.80049276351928710938e+00) (109, -3.91568727791309356689e-02) (110, -7.25968241691589355469e-01) (111, -6.18371129035949707031e-01) (112, -3.24781250953674316406e+00) (113, 2.08060884475708007812e+00) (114, -1.01858246326446533203e+00) (115, -1.11932306289672851562e+01) (116, -4.47072267532348632812e+00) (117, -4.99279356002807617188e+00) (118, 2.96908593177795410156e+00) (119, 8.32884669303894042969e-01) (120, -2.61215627193450927734e-01) (121, 5.68691939115524291992e-02) (122, 2.94146597385406494141e-01) (123, -3.38649973273277282715e-02) (124, 4.64381361007690429688e+00) (125, 2.21507740020751953125e+00) (126, 9.00273993611335754395e-02) (127, 2.60178476572036743164e-01) (128, -6.79517567157745361328e-01) (129, -1.44131273031234741211e-01) (130, -2.67307590693235397339e-02) (131, 4.53455954790115356445e-01) (132, 2.61176168918609619141e-01) (133, 1.36982858180999755859e+00) (134, 2.38821363449096679688e+00) (135, 3.27864122390747070312e+00) (136, -1.43813836574554443359e+00) (137, 1.29519903659820556641e+00) (138, 3.41656595468521118164e-01) (139, -1.88511300086975097656e+00) (140, 4.01472473144531250000e+00) (141, 1.50000000000000000000e+03) (142, 1.50000000000000000000e+03) (143, 1.50000000000000000000e+03) (144, 1.50000000000000000000e+03) (145, 1.50000000000000000000e+03) (146, 1.50000000000000000000e+03) (147, 1.50000000000000000000e+03) (148, 1.50000000000000000000e+03) (149, 1.50000000000000000000e+03) (150, 1.50000000000000000000e+03) (151, 1.50000000000000000000e+03) (152, 1.50000000000000000000e+03) (153, 1.50000000000000000000e+03) (154, 5.66192746162414550781e-01) (155, 4.66366589069366455078e-01) (156, 3.64625871181488037109e-01) (157, 8.07547748088836669922e-01) (158, 2.38847327232360839844e+00) (159, 2.10770294070243835449e-01) (160, 4.31541711091995239258e-01) (161, 1.30468353629112243652e-01) (162, 5.71067750453948974609e-01) (163, 6.13544702529907226562e-01) (164, 3.49589049816131591797e-01) (165, 7.04215943813323974609e-01) (166, 4.85171884298324584961e-01) (167, 5.36103010177612304688e-01) (168, 5.96151053905487060547e-01) (169, 4.36590522527694702148e-01) (170, 5.16315639019012451172e-01) (171, 7.36525952816009521484e-01) (172, 2.57695406675338745117e-01) (173, 5.10547041893005371094e-01) (174, 3.07858079671859741211e-01) (175, 5.76308965682983398438e-01) (176, 5.28233587741851806641e-01) (177, 4.35217618942260742188e-01) (178, 6.46318554878234863281e-01) (179, 2.58760780096054077148e-01) (180, -2.87748026847839355469e+00) (181, 8.22162437438964843750e+00) (182, -3.12270331382751464844e+00) (183, 2.71024763584136962891e-01) (184, 1.04485285282135009766e+00) (185, 8.05095434188842773438e-01) (186, 1.16593790054321289062e+00) (187, 1.79494171142578125000e+01) (188, 3.93089723587036132812e+00) (189, -1.96175646781921386719e+00) (190, 2.91810989379882812500e+00) (191, 2.18611642718315124512e-01) (192, 1.18648457527160644531e+00) (193, 1.34424805641174316406e-01) (0, -2.05672478675842285156e+00) (1, 8.96615684032440185547e-01) (2, 3.28084081411361694336e-01) (3, 5.59831321239471435547e-01) (4, -2.03573393821716308594e+00) (5, 3.44592988491058349609e-01) (6, 2.04601454734802246094e+00) (7, -1.43998312950134277344e+00) (8, 3.23725795745849609375e+00) (9, 4.15374708175659179688e+00) (10, -6.33480310440063476562e-01) (11, -4.30406808853149414062e+00) (12, 3.52993178367614746094e+00) (13, -3.34233224391937255859e-01) (14, -2.94975131750106811523e-01) (15, -1.82499229907989501953e-01) (16, -3.04413723945617675781e+00) (17, -1.29497110843658447266e+00) (18, -4.94125318527221679688e+00) (19, -9.59228277206420898438e-01) (20, -5.40812313556671142578e-01) (21, 3.16959547996520996094e+00) (22, 3.00695765763521194458e-02) (23, 2.52183246612548828125e+00) (24, -1.13251350820064544678e-01) (25, -3.48953962326049804688e+00) (26, 4.64462757110595703125e-01) (27, 8.11914503574371337891e-02) (28, 2.42146939039230346680e-01) (29, 1.87847778201103210449e-01) (30, 7.54143968224525451660e-02) (31, -9.17774260044097900391e-01) (32, 5.20249962806701660156e-01) (33, -2.89071977138519287109e-01) (34, -1.29515007138252258301e-01) (35, -6.69431746006011962891e-01) (36, 2.87259745597839355469e+00) (37, 1.82804450392723083496e-01) (38, -2.01569169759750366211e-01) (39, 1.30317544937133789062e+00) (40, -4.40329074859619140625e-01) (41, -1.31430971622467041016e+00) (42, -4.63270694017410278320e-01) (43, 3.01943533122539520264e-02) (44, -1.45787168294191360474e-02) (45, -7.29167684912681579590e-02) (46, -1.82995808124542236328e+00) (47, 1.50000000000000000000e+03) (48, 1.50000000000000000000e+03) (49, 1.50000000000000000000e+03) (50, 1.50000000000000000000e+03) (51, 1.50000000000000000000e+03) (52, 1.50000000000000000000e+03) (53, 1.50000000000000000000e+03) (54, 1.50000000000000000000e+03) (55, 1.50000000000000000000e+03) (56, 1.50000000000000000000e+03) (57, 1.50000000000000000000e+03) (58, 1.50000000000000000000e+03) (59, 1.50000000000000000000e+03) (60, -6.68283402919769287109e-02) (61, 8.12482461333274841309e-02) (62, 6.09011985361576080322e-02) (63, -3.57095077633857727051e-02) (64, 5.67758083343505859375e-03) (65, 1.15018092095851898193e-01) (66, -2.76799835264682769775e-02) (67, -7.97790214419364929199e-02) (68, 1.82301327586174011230e-02) (69, 5.12870475649833679199e-02) (70, -6.35318532586097717285e-02) (71, -5.15012070536613464355e-02) (72, 3.03313769400119781494e-02) (73, 1.86805501580238342285e-02) (74, 6.82488456368446350098e-02) (75, 2.41234544664621353149e-02) (76, -5.79981803894042968750e-02) (77, 5.89730292558670043945e-02) (78, -3.26779810711741447449e-03) (79, -7.76036754250526428223e-02) (80, 1.02026894688606262207e-01) (81, -1.31137464195489883423e-02) (82, -6.58675581216812133789e-02) (83, -8.34743212908506393433e-03) (84, -4.70824539661407470703e-02) (85, 6.74597099423408508301e-02) (86, -3.55084538459777832031e-01) (87, -7.81535148620605468750e-01) (88, 2.98253387212753295898e-01) (89, 5.03307998180389404297e-01) (90, 8.51742148399353027344e-01) (91, -5.98793268203735351562e-01) (92, -4.77592386305332183838e-02) (93, -1.25558689236640930176e-01) (94, 1.50000000000000000000e+03) (95, 1.50000000000000000000e+03) (96, 1.50000000000000000000e+03) (97, 1.50000000000000000000e+03) (98, 1.50000000000000000000e+03) (99, 1.50000000000000000000e+03) (100, 1.50000000000000000000e+03) (101, 1.50000000000000000000e+03) (102, 1.50000000000000000000e+03) (103, 1.50000000000000000000e+03) (104, 1.50000000000000000000e+03) (105, 1.50000000000000000000e+03) (106, 1.50000000000000000000e+03) (107, -6.35575771331787109375e-01) (108, 2.36399269104003906250e+00) (109, 1.34963095188140869141e+00) (110, -2.28666400909423828125e+00) (111, 5.07232010364532470703e-01) (112, -1.36718451976776123047e+00) (113, 9.46891903877258300781e-01) (114, 2.64308834075927734375e+00) (115, 2.51044893264770507812e+00) (116, -9.31205570697784423828e-01) (117, 1.28622841835021972656e+00) (118, 2.82577657699584960938e+00) (119, -2.79088854789733886719e+00) (120, 2.71678388118743896484e-01) (121, 6.97349607944488525391e-01) (122, 3.89517188072204589844e-01) (123, 4.24173027276992797852e-01) (124, 1.03731498122215270996e-01) (125, 1.63657218217849731445e-01) (126, 2.52607494592666625977e-01) (127, 6.28621429204940795898e-02) (128, 4.90206062793731689453e-01) (129, 1.00429522991180419922e+00) (130, 4.23760563135147094727e-01) (131, 5.98131120204925537109e-01) (132, 1.60939127206802368164e-01) (133, 4.73404216766357421875e+00) (134, 9.52869594097137451172e-01) (135, 4.71282386779785156250e+00) (136, -2.65381217002868652344e+00) (137, -8.39416503906250000000e-01) (138, -1.09738719463348388672e+00) (139, 5.10551631450653076172e-01) (140, 5.27710258960723876953e-01) (141, 1.50000000000000000000e+03) (142, 1.50000000000000000000e+03) (143, 1.50000000000000000000e+03) (144, 1.50000000000000000000e+03) (145, 1.50000000000000000000e+03) (146, 1.50000000000000000000e+03) (147, 1.50000000000000000000e+03) (148, 1.50000000000000000000e+03) (149, 1.50000000000000000000e+03) (150, 1.50000000000000000000e+03) (151, 1.50000000000000000000e+03) (152, 1.50000000000000000000e+03) (153, 1.50000000000000000000e+03) (154, 1.24312900006771087646e-01) (155, 