FANN_FLO_2.1
num_layers=4
learning_rate=0.000500
connection_rate=1.000000
network_type=0
learning_momentum=0.000000
training_algorithm=2
train_error_function=1
train_stop_function=0
cascade_output_change_fraction=0.010000
quickprop_decay=-0.000100
quickprop_mu=1.750000
rprop_increase_factor=1.200000
rprop_decrease_factor=0.500000
rprop_delta_min=0.000000
rprop_delta_max=50.000000
rprop_delta_zero=0.100000
cascade_output_stagnation_epochs=12
cascade_candidate_change_fraction=0.010000
cascade_candidate_stagnation_epochs=12
cascade_max_out_epochs=150
cascade_min_out_epochs=50
cascade_max_cand_epochs=150
cascade_min_cand_epochs=50
cascade_num_candidate_groups=2
bit_fail_limit=3.49999994039535522461e-01
cascade_candidate_limit=1.00000000000000000000e+03
cascade_weight_multiplier=4.00000005960464477539e-01
cascade_activation_functions_count=10
cascade_activation_functions=3 5 7 8 10 11 14 15 16 17 
cascade_activation_steepnesses_count=4
cascade_activation_steepnesses=2.50000000000000000000e-01 5.00000000000000000000e-01 7.50000000000000000000e-01 1.00000000000000000000e+00 
layer_sizes=194 33 9 5 
scale_included=0
neurons (num_inputs, activation_function, activation_steepness)=(0, 0, 0.00000000000000000000e+00) (0, 0, 0.00000000000000000000e+00) (0, 0, 0.00000000000000000000e+00) (0, 0, 0.00000000000000000000e+00) (0, 0, 0.00000000000000000000e+00) (0, 0, 0.00000000000000000000e+00) (0, 0, 0.00000000000000000000e+00) (0, 0, 0.00000000000000000000e+00) (0, 0, 0.00000000000000000000e+00) (0, 0, 0.00000000000000000000e+00) (0, 0, 0.00000000000000000000e+00) (0, 0, 0.00000000000000000000e+00) (0, 0, 0.00000000000000000000e+00) (0, 0, 0.00000000000000000000e+00) (0, 0, 0.00000000000000000000e+00) (0, 0, 0.00000000000000000000e+00) (0, 0, 0.00000000000000000000e+00) (0, 0, 0.00000000000000000000e+00) (0, 0, 0.00000000000000000000e+00) (0, 0, 0.00000000000000000000e+00) (0, 0, 0.00000000000000000000e+00) (0, 0, 0.00000000000000000000e+00) (0, 0, 0.00000000000000000000e+00) (0, 0, 0.00000000000000000000e+00) (0, 0, 0.00000000000000000000e+00) (0, 0, 0.00000000000000000000e+00) (0, 0, 0.00000000000000000000e+00) (0, 0, 0.00000000000000000000e+00) (0, 0, 0.00000000000000000000e+00) (0, 0, 0.00000000000000000000e+00) (0, 0, 0.00000000000000000000e+00) (0, 0, 0.00000000000000000000e+00) (0, 0, 0.00000000000000000000e+00) (0, 0, 0.00000000000000000000e+00) (0, 0, 0.00000000000000000000e+00) (0, 0, 0.00000000000000000000e+00) (0, 0, 0.00000000000000000000e+00) (0, 0, 0.00000000000000000000e+00) (0, 0, 0.00000000000000000000e+00) (0, 0, 0.00000000000000000000e+00) (0, 0, 0.00000000000000000000e+00) (0, 0, 0.00000000000000000000e+00) (0, 0, 0.00000000000000000000e+00) (0, 0, 0.00000000000000000000e+00) (0, 0, 0.00000000000000000000e+00) (0, 0, 0.00000000000000000000e+00) (0, 0, 0.00000000000000000000e+00) (0, 0, 0.00000000000000000000e+00) (0, 0, 0.00000000000000000000e+00) (0, 0, 0.00000000000000000000e+00) (0, 0, 0.00000000000000000000e+00) (0, 0, 0.00000000000000000000e+00) (0, 0, 0.00000000000000000000e+00) (0, 0, 0.00000000000000000000e+00) (0, 0, 0.00000000000000000000e+00) (0, 0, 0.00000000000000000000e+00) (0, 0, 0.00000000000000000000e+00) (0, 0, 0.00000000000000000000e+00) (0, 0, 0.00000000000000000000e+00) (0, 0, 0.00000000000000000000e+00) (0, 0, 0.00000000000000000000e+00) (0, 0, 0.00000000000000000000e+00) (0, 0, 0.00000000000000000000e+00) (0, 0, 0.00000000000000000000e+00) (0, 0, 0.00000000000000000000e+00) (0, 0, 0.00000000000000000000e+00) (0, 0, 0.00000000000000000000e+00) (0, 0, 0.00000000000000000000e+00) (0, 0, 0.00000000000000000000e+00) (0, 0, 0.00000000000000000000e+00) (0, 0, 0.00000000000000000000e+00) (0, 0, 0.00000000000000000000e+00) (0, 0, 0.00000000000000000000e+00) (0, 0, 0.00000000000000000000e+00) (0, 0, 0.00000000000000000000e+00) (0, 0, 0.00000000000000000000e+00) (0, 0, 0.00000000000000000000e+00) (0, 0, 0.00000000000000000000e+00) (0, 0, 0.00000000000000000000e+00) (0, 0, 0.00000000000000000000e+00) (0, 0, 0.00000000000000000000e+00) (0, 0, 0.00000000000000000000e+00) (0, 0, 0.00000000000000000000e+00) (0, 0, 0.00000000000000000000e+00) (0, 0, 0.00000000000000000000e+00) (0, 0, 0.00000000000000000000e+00) (0, 0, 0.00000000000000000000e+00) (0, 0, 0.00000000000000000000e+00) (0, 0, 0.00000000000000000000e+00) (0, 0, 0.00000000000000000000e+00) (0, 0, 0.00000000000000000000e+00) (0, 0, 0.00000000000000000000e+00) (0, 0, 0.00000000000000000000e+00) (0, 0, 0.00000000000000000000e+00) (0, 0, 0.00000000000000000000e+00) (0, 0, 0.00000000000000000000e+00) (0, 0, 0.00000000000000000000e+00) (0, 0, 0.00000000000000000000e+00) (0, 0, 0.00000000000000000000e+00) (0, 0, 0.00000000000000000000e+00) (0, 0, 0.00000000000000000000e+00) (0, 0, 0.00000000000000000000e+00) (0, 0, 0.00000000000000000000e+00) (0, 0, 0.00000000000000000000e+00) (0, 0, 0.00000000000000000000e+00) (0, 0, 0.00000000000000000000e+00) (0, 0, 0.00000000000000000000e+00) (0, 0, 0.00000000000000000000e+00) (0, 0, 0.00000000000000000000e+00) (0, 0, 0.00000000000000000000e+00) (0, 0, 0.00000000000000000000e+00) (0, 0, 0.00000000000000000000e+00) (0, 0, 0.00000000000000000000e+00) (0, 0, 0.00000000000000000000e+00) (0, 0, 0.00000000000000000000e+00) (0, 0, 0.00000000000000000000e+00) (0, 0, 0.00000000000000000000e+00) (0, 0, 0.00000000000000000000e+00) (0, 0, 0.00000000000000000000e+00) (0, 0, 0.00000000000000000000e+00) (0, 0, 0.00000000000000000000e+00) (0, 0, 0.00000000000000000000e+00) (0, 0, 0.00000000000000000000e+00) (0, 0, 0.00000000000000000000e+00) (0, 0, 0.00000000000000000000e+00) (0, 0, 0.00000000000000000000e+00) (0, 0, 0.00000000000000000000e+00) (0, 0, 0.00000000000000000000e+00) (0, 0, 0.00000000000000000000e+00) (0, 0, 0.00000000000000000000e+00) (0, 0, 0.00000000000000000000e+00) (0, 0, 0.00000000000000000000e+00) (0, 0, 0.00000000000000000000e+00) (0, 0, 0.00000000000000000000e+00) (0, 0, 0.00000000000000000000e+00) (0, 0, 0.00000000000000000000e+00) (0, 0, 0.00000000000000000000e+00) (0, 0, 0.00000000000000000000e+00) (0, 0, 0.00000000000000000000e+00) (0, 0, 0.00000000000000000000e+00) (0, 0, 0.00000000000000000000e+00) (0, 0, 0.00000000000000000000e+00) (0, 0, 0.00000000000000000000e+00) (0, 0, 0.00000000000000000000e+00) (0, 0, 0.00000000000000000000e+00) (0, 0, 0.00000000000000000000e+00) (0, 0, 0.00000000000000000000e+00) (0, 0, 0.00000000000000000000e+00) (0, 0, 0.00000000000000000000e+00) (0, 0, 0.00000000000000000000e+00) (0, 0, 0.00000000000000000000e+00) (0, 0, 0.00000000000000000000e+00) (0, 0, 0.00000000000000000000e+00) (0, 0, 0.00000000000000000000e+00) (0, 0, 0.00000000000000000000e+00) (0, 0, 0.00000000000000000000e+00) (0, 0, 0.00000000000000000000e+00) (0, 0, 0.00000000000000000000e+00) (0, 0, 0.00000000000000000000e+00) (0, 0, 0.00000000000000000000e+00) (0, 0, 0.00000000000000000000e+00) (0, 0, 0.00000000000000000000e+00) (0, 0, 0.00000000000000000000e+00) (0, 0, 0.00000000000000000000e+00) (0, 0, 0.00000000000000000000e+00) (0, 0, 0.00000000000000000000e+00) (0, 0, 0.00000000000000000000e+00) (0, 0, 0.00000000000000000000e+00) (0, 0, 0.00000000000000000000e+00) (0, 0, 0.00000000000000000000e+00) (0, 0, 0.00000000000000000000e+00) (0, 0, 0.00000000000000000000e+00) (0, 0, 0.00000000000000000000e+00) (0, 0, 0.00000000000000000000e+00) (0, 0, 0.00000000000000000000e+00) (0, 0, 0.00000000000000000000e+00) (0, 0, 0.00000000000000000000e+00) (0, 0, 0.00000000000000000000e+00) (0, 0, 0.00000000000000000000e+00) (0, 0, 0.00000000000000000000e+00) (0, 0, 0.00000000000000000000e+00) (0, 0, 0.00000000000000000000e+00) (0, 0, 0.00000000000000000000e+00) (0, 0, 0.00000000000000000000e+00) (0, 0, 0.00000000000000000000e+00) (0, 0, 0.00000000000000000000e+00) (0, 0, 0.00000000000000000000e+00) (0, 0, 0.00000000000000000000e+00) (0, 0, 0.00000000000000000000e+00) (0, 0, 0.00000000000000000000e+00) (0, 0, 0.00000000000000000000e+00) (0, 0, 0.00000000000000000000e+00) (0, 0, 0.00000000000000000000e+00) (0, 0, 0.00000000000000000000e+00) (194, 3, 5.00000000000000000000e-01) (194, 3, 5.00000000000000000000e-01) (194, 3, 5.00000000000000000000e-01) (194, 3, 5.00000000000000000000e-01) (194, 3, 5.00000000000000000000e-01) (194, 3, 5.00000000000000000000e-01) (194, 3, 5.00000000000000000000e-01) (194, 3, 5.00000000000000000000e-01) (194, 3, 5.00000000000000000000e-01) (194, 3, 5.00000000000000000000e-01) (194, 3, 5.00000000000000000000e-01) (194, 3, 5.00000000000000000000e-01) (194, 3, 5.00000000000000000000e-01) (194, 3, 5.00000000000000000000e-01) (194, 3, 5.00000000000000000000e-01) (194, 3, 5.00000000000000000000e-01) (194, 3, 5.00000000000000000000e-01) (194, 3, 5.00000000000000000000e-01) (194, 3, 5.00000000000000000000e-01) (194, 3, 5.00000000000000000000e-01) (194, 3, 5.00000000000000000000e-01) (194, 3, 5.00000000000000000000e-01) (194, 3, 5.00000000000000000000e-01) (194, 3, 5.00000000000000000000e-01) (194, 3, 5.00000000000000000000e-01) (194, 3, 5.00000000000000000000e-01) (194, 3, 5.00000000000000000000e-01) (194, 3, 5.00000000000000000000e-01) (194, 3, 5.00000000000000000000e-01) (194, 3, 5.00000000000000000000e-01) (194, 3, 5.00000000000000000000e-01) (194, 3, 5.00000000000000000000e-01) (0, 3, 0.00000000000000000000e+00) (33, 3, 5.00000000000000000000e-01) (33, 3, 5.00000000000000000000e-01) (33, 3, 5.00000000000000000000e-01) (33, 3, 5.00000000000000000000e-01) (33, 3, 5.00000000000000000000e-01) (33, 3, 5.00000000000000000000e-01) (33, 3, 5.00000000000000000000e-01) (33, 3, 5.00000000000000000000e-01) (0, 3, 0.00000000000000000000e+00) (9, 3, 5.00000000000000000000e-01) (9, 3, 5.00000000000000000000e-01) (9, 3, 5.00000000000000000000e-01) (9, 3, 5.00000000000000000000e-01) (0, 3, 0.00000000000000000000e+00) 
connections (connected_to_neuron, weight)=(0, -1.50000000000000000000e+03) (1, 4.08480102539062500000e+02) (2, -3.05230285644531250000e+02) (3, -1.05319458007812500000e+03) (4, 3.72130523681640625000e+02) (5, 3.05687225341796875000e+02) (6, 1.23313674926757812500e+01) (7, -8.46549865722656250000e+02) (8, -3.77309448242187500000e+02) (9, 1.30095629882812500000e+03) (10, 1.76914043426513671875e+01) (11, -1.32863623046875000000e+03) (12, 1.91489166259765625000e+02) (13, 5.92035484313964843750e+01) (14, -1.04441479492187500000e+03) (15, -6.72385742187500000000e+02) (16, -3.94994132220745086670e-02) (17, 1.50000000000000000000e+03) (18, 1.37921337890625000000e+03) (19, -6.70002563476562500000e+02) (20, 1.29415130615234375000e+02) (21, 1.66020584106445312500e+01) (22, 1.45089013671875000000e+03) (23, 2.03960151672363281250e+01) (24, -6.28177464008331298828e-01) (25, -3.38607177734375000000e+02) (26, 6.81217422485351562500e+01) (27, -1.50000000000000000000e+03) (28, -6.71788208007812500000e+02) (29, -1.62550553679466247559e-01) (30, 9.89284574985504150391e-01) (31, -1.50000000000000000000e+03) (32, -1.50000000000000000000e+03) (33, 9.76625610351562500000e+02) (34, 1.34909118652343750000e+03) (35, 7.34710311889648437500e+01) (36, 5.88355302810668945312e-01) (37, -5.70409423828125000000e+02) (38, -5.78538635253906250000e+02) (39, -2.03260669708251953125e+01) (40, 8.93682708740234375000e+01) (41, 3.13492864370346069336e-02) (42, 1.07967517089843750000e+03) (43, 2.98390426635742187500e+01) (44, 8.54506988525390625000e+01) (45, 6.40773376464843750000e+02) (46, -1.83599746227264404297e+00) (47, 1.50000000000000000000e+03) (48, 1.50000000000000000000e+03) (49, 1.50000000000000000000e+03) (50, 1.50000000000000000000e+03) (51, 1.50000000000000000000e+03) (52, 1.50000000000000000000e+03) (53, 1.50000000000000000000e+03) (54, 1.50000000000000000000e+03) (55, 1.50000000000000000000e+03) (56, 1.50000000000000000000e+03) (57, 1.50000000000000000000e+03) (58, 1.50000000000000000000e+03) (59, 1.50000000000000000000e+03) (60, 8.60785140991210937500e+01) (61, 8.55468521118164062500e+01) (62, 1.44049987792968750000e+01) (63, 1.11206451416015625000e+02) (64, 1.07593002319335937500e+01) (65, 5.18813991546630859375e+00) (66, 4.63305587768554687500e+01) (67, 2.76584744453430175781e+00) (68, 1.11315849304199218750e+02) (69, 2.31514244079589843750e+01) (70, 5.82358779907226562500e+01) (71, 1.86576271057128906250e+01) (72, 2.54620075225830078125e+00) (73, 1.11829772949218750000e+02) (74, 1.11293441772460937500e+02) (75, 3.29710807800292968750e+01) (76, 1.11335105895996093750e+02) (77, 2.62568187713623046875e+00) (78, 1.72212619781494140625e+01) (79, 4.61899032592773437500e+01) (80, 2.84051918983459472656e+00) (81, 7.61384277343750000000e+01) (82, 2.31922721862792968750e+01) (83, 2.36115722656250000000e+01) (84, 1.85973567962646484375e+01) (85, 2.65061855316162109375e+00) (86, 1.50000000000000000000e+03) (87, 4.09297485351562500000e+01) (88, 5.25361877441406250000e+02) (89, 1.30591537475585937500e+02) (90, 5.62210619449615478516e-01) (91, 6.26336669921875000000e+02) (92, 1.50000000000000000000e+03) (93, -2.65262544155120849609e-01) (94, 1.50000000000000000000e+03) (95, 1.50000000000000000000e+03) (96, 1.50000000000000000000e+03) (97, 1.50000000000000000000e+03) (98, 1.50000000000000000000e+03) (99, 1.50000000000000000000e+03) (100, 1.50000000000000000000e+03) (101, 1.50000000000000000000e+03) (102, 1.50000000000000000000e+03) (103, 1.50000000000000000000e+03) (104, 1.50000000000000000000e+03) (105, 1.50000000000000000000e+03) (106, 1.50000000000000000000e+03) (107, -1.84705927968025207520e-01) (108, 1.50000000000000000000e+03) (109, -5.94697021484375000000e+02) (110, 1.58937473297119140625e+01) (111, 2.64763526916503906250e+01) (112, -1.32402286529541015625e+01) (113, -1.50000000000000000000e+03) (114, 9.49383605957031250000e+02) (115, 1.75231658935546875000e+02) (116, 1.67625228881835937500e+02) (117, 7.33796157836914062500e+01) (118, -4.27525568008422851562e+00) (119, 1.63642044067382812500e+01) (120, -1.50575137138366699219e+00) (121, -1.38639599084854125977e-01) (122, 2.21483230590820312500e+00) (123, 8.30493628978729248047e-01) (124, 1.08364288330078125000e+02) (125, 2.14027833938598632812e+00) (126, 5.40069937705993652344e-01) (127, 1.26873624324798583984e+00) (128, 7.07654833793640136719e-01) (129, -2.12416534423828125000e+02) (130, -1.07599487304687500000e+01) (131, 4.06386423110961914062e+00) (132, -2.44004611968994140625e+01) (133, 1.50000000000000000000e+03) (134, 5.26833438873291015625e+00) (135, 1.35302917480468750000e+03) (136, 2.13907212018966674805e-01) (137, -7.62858352661132812500e+01) (138, -7.85198569297790527344e-01) (139, -3.69935569763183593750e+01) (140, 1.50000000000000000000e+03) (141, 1.50000000000000000000e+03) (142, 1.50000000000000000000e+03) (143, 1.50000000000000000000e+03) (144, 1.50000000000000000000e+03) (145, 1.50000000000000000000e+03) (146, 1.50000000000000000000e+03) (147, 1.50000000000000000000e+03) (148, 1.50000000000000000000e+03) (149, 1.50000000000000000000e+03) (150, 1.50000000000000000000e+03) (151, 1.50000000000000000000e+03) (152, 1.50000000000000000000e+03) (153, 1.50000000000000000000e+03) (154, 5.70636558532714843750e+01) (155, 1.15483388304710388184e-01) (156, 5.64331102371215820312e+00) (157, 4.85835170745849609375e+00) (158, 1.98209136962890625000e+02) (159, -2.43666991591453552246e-01) (160, -1.31553530693054199219e-01) (161, -8.97087574005126953125e-01) (162, 1.90844178199768066406e+00) (163, -1.70576885342597961426e-01) (164, 1.45483779907226562500e+02) (165, -2.74537861347198486328e-01) (166, 5.26928901672363281250e-02) (167, 1.20753393173217773438e+01) (168, 2.19552087783813476562e+00) (169, 1.12684412002563476562e+01) (170, -5.39700627326965332031e-01) (171, 1.02204284667968750000e+01) (172, -5.87160825729370117188e-01) (173, 2.95165907591581344604e-02) (174, 1.67223215103149414062e-01) (175, 1.73027396202087402344e+00) (176, 2.46000170707702636719e-01) (177, 1.45542495727539062500e+02) (178, -4.28989857435226440430e-01) (179, 1.14757595062255859375e+01) (180, 1.50000000000000000000e+03) (181, -3.33247208595275878906e+00) (182, 2.34600329399108886719e+00) (183, -7.79024314880371093750e+00) (184, -1.24964637756347656250e+02) (185, -3.77378906250000000000e+02) (186, -7.14975547790527343750e+00) (187, 1.50000000000000000000e+03) (188, -1.42120942473411560059e-01) (189, 5.55824127197265625000e+01) (190, 2.06210446357727050781e+00) (191, 7.10330886840820312500e+01) (192, -1.98955505371093750000e+02) (193, 2.82561123371124267578e-01) (0, 2.10927295684814453125e+01) (1, 6.36196851730346679688e-01) (2, 2.46749544143676757812e+00) (3, 3.57396745681762695312e+00) (4, 2.86964035034179687500e+00) (5, 3.24224531650543212891e-01) (6, 8.39571952819824218750e-01) (7, 8.59073460102081298828e-01) (8, -2.20516705513000488281e+00) (9, -6.46854877471923828125e+00) (10, 1.25830755233764648438e+01) (11, -6.99681377410888671875e+00) (12, -1.36144161224365234375e-01) (13, 5.77770423889160156250e+00) (14, -2.25644254684448242188e+00) (15, -1.46756827831268310547e+00) (16, 9.67072427272796630859e-01) (17, 2.15015220642089843750e+00) (18, 9.14307177066802978516e-01) (19, 1.75528373718261718750e+01) (20, 2.17627143859863281250e+01) (21, 6.64844885468482971191e-02) (22, -2.75060105323791503906e+00) (23, -1.03876337409019470215e-01) (24, 2.75683492422103881836e-01) (25, -1.16976051330566406250e+01) (26, 5.44179534912109375000e+00) (27, 3.82635831832885742188e+00) (28, -4.89337968826293945312e+00) (29, 1.88165998458862304688e+00) (30, 9.46085512638092041016e-01) (31, 1.68367639183998107910e-01) (32, -4.09420824050903320312e+00) (33, 1.03325712680816650391e+00) (34, 4.84004831314086914062e+00) (35, 3.23072528839111328125e+00) (36, -7.10339164733886718750e+00) (37, -2.22348675131797790527e-01) (38, 3.05246305465698242188e+00) (39, 4.73660647869110107422e-01) (40, 6.71336054801940917969e-01) (41, 1.32862236350774765015e-02) (42, -3.38659501075744628906e+00) (43, 3.17205816507339477539e-01) (44, 2.26292535662651062012e-01) (45, 9.09906327724456787109e-01) (46, 3.77366375923156738281e+00) (47, 1.50000000000000000000e+03) (48, 1.50000000000000000000e+03) (49, 1.50000000000000000000e+03) (50, 1.50000000000000000000e+03) (51, 1.50000000000000000000e+03) (52, 1.50000000000000000000e+03) (53, 1.50000000000000000000e+03) (54, 1.50000000000000000000e+03) (55, 1.50000000000000000000e+03) (56, 1.50000000000000000000e+03) (57, 1.50000000000000000000e+03) (58, 1.50000000000000000000e+03) (59, 1.50000000000000000000e+03) (60, -1.53177350759506225586e-01) (61, 1.81427165865898132324e-01) (62, 2.06941604614257812500e-01) (63, -4.58306491374969482422e-01) (64, -2.38354891538619995117e-01) (65, -1.98551625013351440430e-01) (66, -1.87031731009483337402e-01) (67, -6.00993573665618896484e-01) (68, -5.29300212860107421875e-01) (69, -2.46218383312225341797e-01) (70, 8.46982225775718688965e-02) (71, -2.58103996515274047852e-01) (72, -3.54678243398666381836e-01) (73, 3.40356379747390747070e-02) (74, 2.04808965325355529785e-01) (75, 5.37316277623176574707e-02) (76, -4.25977379083633422852e-01) (77, -2.43770241737365722656e-01) (78, -2.58191615343093872070e-01) (79, -2.30104222893714904785e-01) (80, -6.28007411956787109375e-01) (81, -6.13874316215515136719e-01) (82, -1.30912467837333679199e-01) (83, 1.62790089845657348633e-01) (84, -2.28426545858383178711e-01) (85, -3.03032934665679931641e-01) (86, -1.64931869506835937500e+01) (87, 2.03801083564758300781e+00) (88, -2.39637780189514160156e+00) (89, -2.97361463308334350586e-01) (90, 1.10527491569519042969e+00) (91, 7.74108916521072387695e-02) (92, -1.37659561634063720703e+00) (93, 5.08757889270782470703e-01) (94, 1.50000000000000000000e+03) (95, 1.50000000000000000000e+03) (96, 1.50000000000000000000e+03) (97, 1.50000000000000000000e+03) (98, 1.50000000000000000000e+03) (99, 1.50000000000000000000e+03) (100, 1.50000000000000000000e+03) (101, 1.50000000000000000000e+03) (102, 1.50000000000000000000e+03) (103, 1.50000000000000000000e+03) (104, 1.50000000000000000000e+03) (105, 1.50000000000000000000e+03) (106, 1.50000000000000000000e+03) (107, -4.17163276672363281250e+00) (108, 3.53180050849914550781e+00) (109, -6.85766696929931640625e+00) (110, 3.60131263732910156250e+00) (111, 1.23738849163055419922e+00) (112, 3.13079690933227539062e+00) (113, 2.11507844924926757812e+00) (114, 5.91299581527709960938e+00) (115, 3.14760756492614746094e+00) (116, -1.10819423198699951172e+00) (117, 5.34756708145141601562e+00) (118, -2.21813988685607910156e+00) (119, 6.78830957412719726562e+00) (120, -2.89907503128051757812e+00) (121, 8.48573625087738037109e-01) (122, 9.33023393154144287109e-01) (123, 7.51623988151550292969e-01) (124, 3.31391990184783935547e-01) (125, 4.89757806062698364258e-01) (126, 4.90350812673568725586e-01) (127, 4.76342707872390747070e-01) (128, 9.45945262908935546875e-01) (129, 6.61409080028533935547e-01) (130, 6.66734635829925537109e-01) (131, 5.99147140979766845703e-01) (132, 4.24333035945892333984e-01) (133, 3.63099122047424316406e+00) (134, 5.60904788970947265625e+00) (135, 8.06791114807128906250e+00) (136, 1.87506997585296630859e+00) (137, -5.65832376480102539062e+00) (138, 1.39609384536743164062e+00) (139, -8.95873355865478515625e+00) (140, -6.50663232803344726562e+00) (141, 1.50000000000000000000e+03) (142, 1.50000000000000000000e+03) (143, 1.50000000000000000000e+03) (144, 1.50000000000000000000e+03) (145, 1.50000000000000000000e+03) (146, 1.50000000000000000000e+03) (147, 1.50000000000000000000e+03) (148, 1.50000000000000000000e+03) (149, 1.50000000000000000000e+03) (150, 1.50000000000000000000e+03) (151, 1.50000000000000000000e+03) (152, 1.50000000000000000000e+03) (153, 1.50000000000000000000e+03) (154, 1.57314747571945190430e-01) (155, -1.65462985634803771973e-01) (156, -7.63925164937973022461e-02) (157, 1.34711144492030143738e-02) (158, -3.38438332080841064453e-01) (159, -4.95373569428920745850e-02) (160, -6.43347725272178649902e-02) (161, -5.20244091749191284180e-02) (162, 8.22719857096672058105e-02) (163, -2.05455169081687927246e-01) (164, -3.75099480152130126953e-01) (165, -2.77343578636646270752e-02) (166, 7.18945637345314025879e-02) (167, 2.67145991325378417969e+00) (168, -1.18457235395908355713e-01) (169, -2.31323856860399246216e-02) (170, -1.14768967032432556152e-01) (171, -3.81050184369087219238e-02) (172, -1.18346646428108215332e-01) (173, -1.00726317614316940308e-02) (174, -1.27042576670646667480e-01) (175, 6.35165199637413024902e-02) (176, 2.08949316293001174927e-02) (177, -1.55599623918533325195e-01) (178, 5.05198873579502105713e-02) (179, 3.36606986820697784424e-02) (180, 3.52130818367004394531e+00) (181, 3.37291860580444335938e+00) (182, 9.29819941520690917969e-01) (183, 1.33676409721374511719e+00) (184, -9.38605308532714843750e+00) (185, -1.89972913265228271484e+00) (186, 6.54520368576049804688e+00) (187, 7.75635063648223876953e-01) (188, 2.54657006263732910156e+00) (189, -1.00778825581073760986e-01) (190, 8.92269372940063476562e-01) (191, 2.89264369010925292969e+00) (192, -2.03312349319458007812e+00) (193, -9.28970932960510253906e-01) (0, 3.24746310710906982422e-01) (1, 1.29403400421142578125e+00) (2, 7.65571737289428710938e+00) (3, 5.74986648559570312500e+00) (4, 4.28971576690673828125e+00) (5, -6.18748724460601806641e-01) (6, -4.54979610443115234375e+00) (7, -8.14793527126312255859e-01) (8, -1.71188223361968994141e+00) (9, 3.44213753938674926758e-01) (10, 1.90051352977752685547e+00) (11, 7.66890048980712890625e-02) (12, -2.10913252830505371094e+00) (13, 7.46624040603637695312e+00) (14, 4.89950084686279296875e+00) (15, -1.95683708190917968750e+01) (16, 3.83604145050048828125e+00) (17, 1.24485073089599609375e+01) (18, 6.05183839797973632812e+00) (19, 7.39437818527221679688e+00) (20, 9.04286193847656250000e+00) (21, -4.73104119300842285156e-01) (22, 4.10282373428344726562e-01) (23, -1.50681602954864501953e+00) (24, 2.96225833892822265625e+00) (25, 7.88429450988769531250e+00) (26, 2.58556747436523437500e+00) (27, -3.18391656875610351562e+00) (28, 2.09157109260559082031e+00) (29, 8.32330226898193359375e-01) (30, 1.05809879302978515625e+00) (31, 7.00995266437530517578e-01) (32, -7.18254613876342773438e+00) (33, 3.06603598594665527344e+00) (34, 9.10290431976318359375e+00) (35, 1.57123506069183349609e+00) (36, -3.39897537231445312500e+00) (37, 2.10191369056701660156e+00) (38, -4.46419477462768554688e+00) (39, 3.89945209026336669922e-02) (40, 3.32113313674926757812e+00) (41, 5.31504690647125244141e-01) (42, -2.36592486500740051270e-01) (43, 1.33184516429901123047e+00) (44, 1.24370086193084716797e+00) (45, 2.50129055976867675781e+00) (46, 1.63934516906738281250e+00) (47, 1.50000000000000000000e+03) (48, 1.50000000000000000000e+03) (49, 1.50000000000000000000e+03) (50, 1.50000000000000000000e+03) (51, 1.50000000000000000000e+03) (52, 1.50000000000000000000e+03) (53, 1.50000000000000000000e+03) (54, 1.50000000000000000000e+03) (55, 1.50000000000000000000e+03) (56, 1.50000000000000000000e+03) (57, 1.50000000000000000000e+03) (58, 1.50000000000000000000e+03) (59, 1.50000000000000000000e+03) (60, 4.90310430526733398438e-01) (61, 6.18774116039276123047e-01) (62, 2.98035323619842529297e-01) (63, 5.41638612747192382812e-01) (64, 3.27826619148254394531e-01) (65, 4.26360070705413818359e-01) (66, 6.80908739566802978516e-01) (67, 2.32927933335304260254e-01) (68, 6.50588989257812500000e-01) (69, 4.93182271718978881836e-01) (70, 3.39103579521179199219e-01) (71, 4.62222933769226074219e-01) (72, 3.16069930791854858398e-01) (73, 4.80168104171752929688e-01) (74, 6.24886095523834228516e-01) (75, 4.12655949592590332031e-01) (76, 6.33573234081268310547e-01) (77, 3.24110150337219238281e-01) (78, 3.17184835672378540039e-01) (79, 3.53822469711303710938e-01) (80, 3.93136084079742431641e-01) (81, 5.50262272357940673828e-01) (82, 5.18139958381652832031e-01) (83, 3.70945781469345092773e-01) (84, 6.51529371738433837891e-01) (85, 2.89482533931732177734e-01) (86, -3.38009190559387207031e+00) (87, 5.58391714096069335938e+00) (88, 1.17230844497680664062e+00) (89, 1.14290857315063476562e+00) (90, 2.08973407745361328125e+00) (91, -5.48647117614746093750e+00) (92, 8.30560779571533203125e+00) (93, 1.08995449542999267578e+00) (94, 1.50000000000000000000e+03) (95, 1.50000000000000000000e+03) (96, 1.50000000000000000000e+03) (97, 1.50000000000000000000e+03) (98, 1.50000000000000000000e+03) (99, 1.50000000000000000000e+03) (100, 1.50000000000000000000e+03) (101, 1.50000000000000000000e+03) (102, 1.50000000000000000000e+03) (103, 1.50000000000000000000e+03) (104, 1.50000000000000000000e+03) (105, 1.50000000000000000000e+03) (106, 1.50000000000000000000e+03) (107, 3.60242195129394531250e+01) (108, 1.87065544128417968750e+01) (109, -7.97330760955810546875e+00) (110, -6.68997144699096679688e+00) (111, 1.66626091003417968750e+01) (112, 3.20876979827880859375e+00) (113, -7.92209720611572265625e+00) (114, 1.01655445098876953125e+01) (115, 4.42641592025756835938e+00) (116, -6.91610515117645263672e-01) (117, 9.13107872009277343750e+00) (118, 4.88934326171875000000e+00) (119, 6.99612283706665039062e+00) (120, -3.51465916633605957031e+00) (121, 2.24330216646194458008e-01) (122, 1.03634357452392578125e-01) (123, 2.59334236383438110352e-01) (124, 1.85412275791168212891e+00) (125, 2.71810859441757202148e-01) (126, 8.77895057201385498047e-02) (127, 2.18640826642513275146e-02) (128, 9.62499603629112243652e-02) (129, 1.38943493366241455078e-02) (130, 3.79144549369812011719e-01) (131, 2.14882776141166687012e-01) (132, 3.29376012086868286133e-01) (133, -2.31687664985656738281e+00) (134, 9.02385520935058593750e+00) (135, 3.35093688964843750000e+00) (136, 4.98501777648925781250e+00) (137, -3.15837001800537109375e+00) (138, -1.57078158855438232422e+00) (139, -2.13410317897796630859e-01) (140, -1.51752519607543945312e+00) (141, 1.50000000000000000000e+03) (142, 1.50000000000000000000e+03) (143, 1.50000000000000000000e+03) (144, 1.50000000000000000000e+03) (145, 1.50000000000000000000e+03) (146, 1.50000000000000000000e+03) (147, 1.50000000000000000000e+03) (148, 1.50000000000000000000e+03) (149, 1.50000000000000000000e+03) (150, 1.50000000000000000000e+03) (151, 1.50000000000000000000e+03) (152, 1.50000000000000000000e+03) (153, 1.50000000000000000000e+03) (154, 2.96027994155883789062e+00) (155, 2.91085481643676757812e-01) (156, 8.24126154184341430664e-02) (157, 1.63775742053985595703e-01) (158, 2.30726420879364013672e-01) (159, 6.37146711349487304688e-01) (160, 2.83405631780624389648e-01) (161, 3.99613410234451293945e-01) (162, 4.28798973560333251953e-01) (163, 2.91896283626556396484e-01) (164, 3.61226111650466918945e-01) (165, 2.52827465534210205078e-01) (166, 3.58061224222183227539e-01) (167, 2.15114140510559082031e+00) (168, 3.60720485448837280273e-01) (169, 4.43416610360145568848e-02) (170, 3.07019561529159545898e-01) (171, 3.16823929548263549805e-01) (172, 3.85227084159851074219e-01) (173, 3.96957218647003173828e-01) (174, 5.63834667205810546875e-01) (175, 3.50837588310241699219e-01) (176, 1.47029533982276916504e-01) (177, 2.42861524224281311035e-01) (178, 2.16350391507148742676e-01) (179, 2.46098458766937255859e-01) (180, 2.10217618942260742188e+00) (181, 4.75786209106445312500e+00) (182, 9.15154218673706054688e-01) (183, -1.11278092861175537109e+00) (184, 3.18870258331298828125e+00) (185, 2.61603331565856933594e+00) (186, -1.28721654415130615234e+00) (187, 2.11077141761779785156e+00) (188, -1.52601853013038635254e-01) (189, 3.16535782814025878906e+00) (190, -1.19013249874114990234e+00) (191, 8.72366428375244140625e+00) (192, -2.06509661674499511719e+00) (193, -2.70738959312438964844e-01) (0, 8.94750881195068359375e+00) (1, 6.26800537109375000000e-01) (2, -3.59195351600646972656e-01) (3, -8.40165279805660247803e-03) (4, 2.39705038070678710938e+00) (5, -2.58134722709655761719e-01) (6, 1.13861076533794403076e-02) (7, 6.47750139236450195312e+00) (8, -4.12584638595581054688e+00) (9, -1.51362686157226562500e+01) (10, 7.32869625091552734375e+00) (11, 5.21878242492675781250e+00) (12, 8.15973162651062011719e-01) (13, 7.01321363449096679688e+00) (14, 2.10989966988563537598e-01) (15, -9.80563640594482421875e-01) (16, 2.51427322626113891602e-01) (17, 2.84334278106689453125e+00) (18, 5.56081438064575195312e+00) (19, 3.54557533264160156250e+01) (20, 9.89951896667480468750e+00) (21, -9.88568007946014404297e-01) (22, 1.59721112251281738281e+00) (23, -1.01519811153411865234e+00) (24, -3.12350559234619140625e+00) (25, 3.24007058143615722656e+00) (26, 5.64954161643981933594e-01) (27, 5.09124286472797393799e-02) (28, 1.39247089624404907227e-01) (29, 5.72418975830078125000e+00) (30, 7.08082258701324462891e-01) (31, -3.43138146400451660156e+00) (32, -4.81744021177291870117e-01) (33, 1.28438150882720947266e+00) (34, -2.90928035974502563477e-01) (35, 4.22109127044677734375e+00) (36, 1.83655512332916259766e+00) (37, 8.88607311248779296875e+00) (38, 6.86191415786743164062e+00) (39, 5.61065077781677246094e-01) (40, 1.41365694999694824219e+00) (41, 8.18167746067047119141e-01) (42, -8.14195036888122558594e-01) (43, -3.31227809190750122070e-01) (44, -3.57252359390258789062e-01) (45, 1.07209911346435546875e+01) (46, 2.49826025962829589844e+00) (47, 1.50000000000000000000e+03) (48, 1.50000000000000000000e+03) (49, 1.50000000000000000000e+03) (50, 1.50000000000000000000e+03) (51, 1.50000000000000000000e+03) (52, 1.50000000000000000000e+03) (53, 1.50000000000000000000e+03) (54, 1.50000000000000000000e+03) (55, 1.50000000000000000000e+03) (56, 1.50000000000000000000e+03) (57, 1.50000000000000000000e+03) (58, 1.50000000000000000000e+03) (59, 1.50000000000000000000e+03) (60, -2.12157145142555236816e-01) (61, -2.83583074808120727539e-01) (62, -1.83213815093040466309e-01) (63, -5.21815195679664611816e-02) (64, -2.44172841310501098633e-01) (65, -2.83043891191482543945e-01) (66, -1.64081990718841552734e-01) (67, -1.33414298295974731445e-01) (68, -2.13669359683990478516e-01) (69, -1.92984223365783691406e-01) (70, -2.62903600931167602539e-01) (71, -5.12418448925018310547e-02) (72, -1.87802746891975402832e-01) (73, -2.42509499192237854004e-01) (74, -2.09375277161598205566e-01) (75, -1.62273600697517395020e-01) (76, -1.84714451432228088379e-01) (77, -1.46566778421401977539e-01) (78, -2.20581695437431335449e-01) (79, -6.31643757224082946777e-02) (80, -2.02462986111640930176e-01) (81, -7.44062960147857666016e-02) (82, -1.96633905172348022461e-01) (83, -1.39775469899177551270e-01) (84, -1.15491077303886413574e-01) (85, -2.15902313590049743652e-01) (86, -1.24986896514892578125e+01) (87, 5.70796012878417968750e+00) (88, 4.17920261621475219727e-01) (89, -1.25294721126556396484e+00) (90, -9.64536547660827636719e-01) (91, -1.79029750823974609375e+00) (92, 5.67902326583862304688e-01) (93, 2.34332275390625000000e+00) (94, 1.50000000000000000000e+03) (95, 1.50000000000000000000e+03) (96, 1.50000000000000000000e+03) (97, 1.50000000000000000000e+03) (98, 1.50000000000000000000e+03) (99, 1.50000000000000000000e+03) (100, 1.50000000000000000000e+03) (101, 1.50000000000000000000e+03) (102, 1.50000000000000000000e+03) (103, 1.50000000000000000000e+03) (104, 1.50000000000000000000e+03) (105, 1.50000000000000000000e+03) (106, 1.50000000000000000000e+03) (107, 1.63105659484863281250e+01) (108, -3.36518836021423339844e+00) (109, -3.01449686288833618164e-01) (110, 2.24006581306457519531e+00) (111, -3.19488024711608886719e+00) (112, 1.14852595329284667969e+00) (113, -6.84946584701538085938e+00) (114, -9.53276634216308593750e+00) (115, -2.66189789772033691406e+00) (116, 6.45671427249908447266e-01) (117, 1.35112062096595764160e-01) (118, -4.68616783618927001953e-01) (119, 2.15003929138183593750e+01) (120, -1.18657159805297851562e+00) (121, -4.71092909574508666992e-01) (122, -2.24672928452491760254e-01) (123, -1.83339431881904602051e-01) (124, 2.32948112487792968750e+00) (125, 4.83892023563385009766e-01) (126, -2.34656587243080139160e-01) (127, 1.83827352523803710938e+00) (128, -4.91105556488037109375e+00) (129, -7.21006929874420166016e-01) (130, -2.89024144411087036133e-01) (131, 2.70049691200256347656e-01) (132, 4.85215216875076293945e-01) (133, 2.07232689857482910156e+00) (134, 2.16319489479064941406e+00) (135, 4.31976938247680664062e+00) (136, 6.66854381561279296875e-01) (137, 3.22305887937545776367e-01) (138, -4.20561403036117553711e-01) (139, -7.43918943405151367188e+00) (140, -4.00989115238189697266e-01) (141, 1.50000000000000000000e+03) (142, 1.50000000000000000000e+03) (143, 1.50000000000000000000e+03) (144, 1.50000000000000000000e+03) (145, 1.50000000000000000000e+03) (146, 1.50000000000000000000e+03) (147, 1.50000000000000000000e+03) (148, 1.50000000000000000000e+03) (149, 1.50000000000000000000e+03) (150, 1.50000000000000000000e+03) (151, 1.50000000000000000000e+03) (152, 1.50000000000000000000e+03) (153, 1.50000000000000000000e+03) (154, 1.26729547977447509766e+00) (155, 1.19470095634460449219e+00) (156, 3.31979811191558837891e-01) (157, 1.70187816023826599121e-01) (158, 3.20276208221912384033e-02) (159, 1.53130143880844116211e-01) (160, 1.53075242042541503906e+00) (161, 4.48053032159805297852e-02) (162, 2.99287170171737670898e-01) (163, 8.72326433658599853516e-01) (164, 2.52036541700363159180e-01) (165, 9.14908468723297119141e-01) (166, -2.13143184781074523926e-01) (167, 1.01592755317687988281e+00) (168, 7.96031892299652099609e-01) (169, 2.66932100057601928711e-01) (170, 1.83597087860107421875e-01) (171, -5.30073046684265136719e-02) (172, 9.40331965684890747070e-02) (173, 1.51309621334075927734e+00) (174, -1.06331817805767059326e-01) (175, 4.31206017732620239258e-01) (176, 9.20225918292999267578e-01) (177, -1.08507238328456878662e-01) (178, 1.01384997367858886719e+00) (179, -3.82116764783859252930e-01) (180, 3.02681040763854980469e+00) (181, 1.33319211006164550781e+00) (182, -1.79313611984252929688e+00) (183, -1.30395621061325073242e-01) (184, -7.42890000343322753906e-01) (185, 2.78207540512084960938e+00) (186, 2.58711028099060058594e+00) (187, -3.60390877723693847656e+00) (188, 4.06074583530426025391e-01) (189, -5.02145767211914062500e-01) (190, -4.02873229980468750000e+00) (191, -1.41782820224761962891e-01) (192, 2.25380921363830566406e+00) (193, 4.71194297075271606445e-01) (0, -1.42609548568725585938e+00) (1, 2.11884155869483947754e-01) (2, -4.39923197031021118164e-01) (3, 2.04716730117797851562e+00) (4, 4.81154084205627441406e-01) (5, 1.31358933448791503906e+00) (6, -1.04137229919433593750e+00) (7, 4.75410270690917968750e+00) (8, -4.02554303407669067383e-01) (9, -4.07700687646865844727e-01) (10, 4.04580688476562500000e+00) (11, -4.37653636932373046875e+00) (12, 2.80843853950500488281e+00) (13, -1.36642408370971679688e+00) (14, -2.27969121932983398438e+00) (15, 3.80020767450332641602e-01) (16, 6.10235869884490966797e-01) (17, 6.80802702903747558594e-01) (18, -3.83039093017578125000e+00) (19, -1.10169661045074462891e+00) (20, -6.82465791702270507812e-01) (21, 1.89114761352539062500e+00) (22, 9.76995006203651428223e-03) (23, 7.40490317344665527344e-01) (24, -1.02452826499938964844e+00) (25, 6.56731903553009033203e-01) (26, -1.02740041911602020264e-02) (27, -1.24207878112792968750e+00) (28, 2.48318329453468322754e-01) (29, 1.24660503864288330078e+00) (30, 5.33266067504882812500e-01) (31, 3.30877602100372314453e-01) (32, 3.52269649505615234375e+00) (33, -1.19856691360473632812e+00) (34, 3.61001998186111450195e-01) (35, -2.61309194564819335938e+00) (36, 5.93403995037078857422e-01) (37, -5.19381809234619140625e+00) (38, 8.78951549530029296875e-01) (39, 1.48238050937652587891e+00) (40, -3.77582478523254394531e+00) (41, 2.53903055191040039062e+00) (42, -3.39532554149627685547e-01) (43, -5.58631010353565216064e-02) (44, -2.66936957836151123047e-01) (45, 1.47626072168350219727e-01) (46, -8.79451557993888854980e-02) (47, 1.50000000000000000000e+03) (48, 1.50000000000000000000e+03) (49, 1.50000000000000000000e+03) (50, 1.50000000000000000000e+03) (51, 1.50000000000000000000e+03) (52, 1.50000000000000000000e+03) (53, 1.50000000000000000000e+03) (54, 1.50000000000000000000e+03) (55, 1.50000000000000000000e+03) (56, 1.50000000000000000000e+03) (57, 1.50000000000000000000e+03) (58, 1.50000000000000000000e+03) (59, 1.50000000000000000000e+03) (60, -2.55956202745437622070e-01) (61, -3.00393700599670410156e-01) (62, -3.24578225612640380859e-01) (63, -2.98350542783737182617e-01) (64, -3.35757195949554443359e-01) (65, -3.27252626419067382812e-01) (66, -3.07083100080490112305e-01) (67, -3.47774237394332885742e-01) (68, -3.36558520793914794922e-01) (69, -4.51222836971282958984e-01) (70, -2.00736567378044128418e-01) (71, -3.98725986480712890625e-01) (72, -1.79110512137413024902e-01) (73, -2.51744627952575683594e-01) (74, -2.57605671882629394531e-01) (75, -2.80908912420272827148e-01) (76, -3.70823562145233154297e-01) (77, -2.39961385726928710938e-01) (78, -2.63101398944854736328e-01) (79, -3.98172736167907714844e-01) (80, -3.74503880739212036133e-01) (81, -2.71210640668869018555e-01) (82, -4.49350714683532714844e-01) (83, -4.19484764337539672852e-01) (84, -3.68632942438125610352e-01) (85, -2.78124481439590454102e-01) (86, 3.22430562973022460938e+00) (87, -1.07892382144927978516e+00) (88, -1.78604698181152343750e+00) (89, 1.65270566940307617188e-01) (90, -8.09267759323120117188e-02) (91, 2.02859473228454589844e+00) (92, 2.87673044204711914062e+00) (93, -8.15643489360809326172e-01) (94, 1.50000000000000000000e+03) (95, 1.50000000000000000000e+03) (96, 1.50000000000000000000e+03) (97, 1.50000000000000000000e+03) (98, 1.50000000000000000000e+03) (99, 1.50000000000000000000e+03) (100, 1.50000000000000000000e+03) (101, 1.50000000000000000000e+03) (102, 1.50000000000000000000e+03) (103, 1.50000000000000000000e+03) (104, 1.50000000000000000000e+03) (105, 1.50000000000000000000e+03) (106, 1.50000000000000000000e+03) (107, -2.98324275016784667969e+00) (108, 2.51973956823348999023e-01) (109, 9.24527764320373535156e-01) (110, 1.03307294845581054688e+00) (111, 4.27474546432495117188e+00) (112, 1.92490243911743164062e+00) (113, 1.13329863548278808594e+00) (114, 2.17553114891052246094e+00) (115, 7.81174838542938232422e-01) (116, -1.63531672954559326172e+00) (117, -1.91145956516265869141e+00) (118, -1.36558651924133300781e+00) (119, -1.38431143760681152344e+00) (120, 2.13491439819335937500e+00) (121, 4.97121483087539672852e-01) (122, 4.69656169414520263672e-01) (123, 5.69953083992004394531e-01) (124, -1.36273169517517089844e+00) (125, 1.15329313278198242188e+00) (126, 5.71730077266693115234e-01) (127, 3.35410743951797485352e-01) (128, 1.34285640716552734375e+00) (129, 3.62071084976196289062e+00) (130, 1.02764201164245605469e+00) (131, 8.56277167797088623047e-01) (132, -4.51067388057708740234e-01) (133, 4.43187713623046875000e+00) (134, -1.17977929115295410156e+00) (135, 1.32067489624023437500e+00) (136, 2.69068861007690429688e+00) (137, -5.61288058757781982422e-01) (138, 5.65309286117553710938e-01) (139, 2.33954596519470214844e+00) (140, 2.20286250114440917969e+00) (141, 1.50000000000000000000e+03) (142, 1.50000000000000000000e+03) (143, 1.50000000000000000000e+03) (144, 1.50000000000000000000e+03) (145, 1.50000000000000000000e+03) (146, 1.50000000000000000000e+03) (147, 1.50000000000000000000e+03) (148, 1.50000000000000000000e+03) (149, 1.50000000000000000000e+03) (150, 1.50000000000000000000e+03) (151, 1.50000000000000000000e+03) (152, 1.50000000000000000000e+03) (153, 1.50000000000000000000e+03) (154, -6.74856305122375488281e-02) (155, 2.70750671625137329102e-01) (156, 4.37817633152008056641e-01) (157, 1.45204499363899230957e-01) (158, 5.35411536693572998047e-01) (159, 1.34478539228439331055e-01) (160, 2.57064551115036010742e-02) (161, 3.10851752758026123047e-01) (162, -3.97615283727645874023e-01) (163, -6.72683566808700561523e-02) (164, -6.44003972411155700684e-02) (165, -3.24492394924163818359e-01) (166, 1.21104106307029724121e-01) (167, -3.39751034975051879883e-01) (168, 5.31513951718807220459e-02) (169, 4.01984333992004394531e-01) (170, 2.17223301529884338379e-01) (171, 9.17824745178222656250e-01) (172, 3.28055769205093383789e-02) (173, 1.85053981840610504150e-02) (174, 1.63650467991828918457e-01) (175, -4.55509752035140991211e-01) (176, -2.35782787203788757324e-01) (177, 1.92285880446434020996e-01) (178, -4.11312550306320190430e-01) (179, 2.06946521997451782227e-01) (180, 2.24474206566810607910e-01) (181, 3.07172703742980957031e+00) (182, -3.42497408390045166016e-01) (183, 4.47276735305786132812e+00) (184, 1.45851957798004150391e+00) (185, -1.34751379489898681641e+00) (186, -1.39124250411987304688e+00) (187, 1.70858943462371826172e+00) (188, 1.96695494651794433594e+00) (189, 1.50525021553039550781e+00) (190, 3.44615602493286132812e+00) (191, 1.29552717208862304688e+01) (192, -5.26747465133666992188e+00) (193, 1.00272762775421142578e+00) (0, 3.70012545585632324219e+00) (1, 5.38863658905029296875e-01) (2, -2.22405719757080078125e+00) (3, -3.87966744601726531982e-02) (4, 2.28719758987426757812e+00) (5, 2.09352302551269531250e+00) (6, 1.21348011493682861328e+00) (7, -2.56719231605529785156e+00) (8, -5.20317375659942626953e-01) (9, 5.49150943756103515625e-01) (10, 1.03910171985626220703e+00) (11, 1.57199072837829589844e+00) (12, 6.82815909385681152344e-01) (13, -7.07260704040527343750e+00) (14, 7.35532879829406738281e-01) (15, 2.70957636833190917969e+00) (16, 4.66425418853759765625e+00) (17, 1.28969156742095947266e+00) (18, 1.94143459200859069824e-01) (19, -6.89225018024444580078e-01) (20, 1.80703878402709960938e-01) (21, -6.46765828132629394531e-01) (22, 7.15936779975891113281e-01) (23, 1.19107174873352050781e+00) (24, -3.43222355842590332031e+00) (25, -1.15269052982330322266e+00) (26, -1.02554925251752138138e-03) (27, -1.48562744259834289551e-01) (28, 2.52992976456880569458e-02) (29, 4.90839672088623046875e+00) (30, 1.29438376426696777344e+00) (31, 1.97331523895263671875e+00) (32, -5.97899615764617919922e-01) (33, -8.37200507521629333496e-02) (34, -2.79633975028991699219e+00) (35, -1.12285482883453369141e+00) (36, -7.61286735534667968750e-01) (37, -2.77008771896362304688e-01) (38, 6.88586997985839843750e+00) (39, 7.00633049011230468750e+00) (40, -7.59571743011474609375e+00) (41, 3.49329471588134765625e+00) (42, -3.89343887567520141602e-01) (43, -3.67550820112228393555e-01) (44, 1.16323208808898925781e+00) (45, -4.93675798177719116211e-01) (46, 8.20542335510253906250e+00) (47, 1.50000000000000000000e+03) (48, 1.50000000000000000000e+03) (49, 1.50000000000000000000e+03) (50, 1.50000000000000000000e+03) (51, 1.50000000000000000000e+03) (52, 1.50000000000000000000e+03) (53, 1.50000000000000000000e+03) (54, 1.50000000000000000000e+03) (55, 1.50000000000000000000e+03) (56, 1.50000000000000000000e+03) (57, 1.50000000000000000000e+03) (58, 1.50000000000000000000e+03) (59, 1.50000000000000000000e+03) (60, -3.29066187143325805664e-01) (61, 3.80878262221813201904e-02) (62, -3.16968530416488647461e-01) (63, -3.14943790435791015625e-01) (64, -3.30151021480560302734e-01) (65, -1.89567700028419494629e-01) (66, -3.27609002590179443359e-01) (67, -2.26639404892921447754e-01) (68, -2.58306801319122314453e-01) (69, -3.27738195657730102539e-01) (70, -2.33945578336715698242e-01) (71, -3.05571138858795166016e-01) (72, -2.47059866786003112793e-01) (73, -2.03594163060188293457e-01) (74, -2.35350385308265686035e-01) (75, -2.51543194055557250977e-01) (76, -3.17637771368026733398e-01) (77, -2.53606736660003662109e-01) (78, -2.66083419322967529297e-01) (79, -1.66498288512229919434e-01) (80, -2.24705725908279418945e-01) (81, -2.71812617778778076172e-01) (82, -2.47577562928199768066e-01) (83, -1.79184764623641967773e-01) (84, -2.47420519590377807617e-01) (85, -3.01807373762130737305e-01) (86, 2.04184323549270629883e-01) (87, 1.86210811138153076172e+00) (88, -8.54716491699218750000e+00) (89, 5.27726531028747558594e-01) (90, 8.77630531787872314453e-01) (91, 1.06585633754730224609e+00) (92, 2.65415358543395996094e+00) (93, 4.92676526308059692383e-01) (94, 1.50000000000000000000e+03) (95, 1.50000000000000000000e+03) (96, 1.50000000000000000000e+03) (97, 1.50000000000000000000e+03) (98, 1.50000000000000000000e+03) (99, 1.50000000000000000000e+03) (100, 1.50000000000000000000e+03) (101, 1.50000000000000000000e+03) (102, 1.50000000000000000000e+03) (103, 1.50000000000000000000e+03) (104, 1.50000000000000000000e+03) (105, 1.50000000000000000000e+03) (106, 1.50000000000000000000e+03) (107, -5.65823554992675781250e+00) (108, 1.67647433280944824219e+00) (109, -1.03875005245208740234e+00) (110, -4.67195129394531250000e+00) (111, 1.63839340209960937500e+00) (112, -2.76972532272338867188e+00) (113, -1.38276779651641845703e+00) (114, 1.30946472287178039551e-01) (115, 6.50641858577728271484e-01) (116, -7.67588734626770019531e-01) (117, 7.76280641555786132812e-01) (118, -3.88681180775165557861e-02) (119, -1.55876672267913818359e+00) (120, -1.98740020394325256348e-01) (121, 4.16846305131912231445e-01) (122, 4.37123775482177734375e-01) (123, 6.13686561584472656250e-01) (124, -2.28693056851625442505e-03) (125, 4.12771612405776977539e-01) (126, 2.95995891094207763672e-01) (127, 6.94659411907196044922e-01) (128, 1.11903452873229980469e+00) (129, 5.52995204925537109375e-01) (130, 2.45450913906097412109e-01) (131, 4.67316091060638427734e-01) (132, -1.00378617644309997559e-01) (133, -1.22899949550628662109e+00) (134, 8.70711982250213623047e-01) (135, -3.35453033447265625000e+00) (136, 4.76137660443782806396e-02) (137, -5.77569544315338134766e-01) (138, 1.77955001592636108398e-01) (139, -3.54122757911682128906e-01) (140, 3.46533566713333129883e-01) (141, 1.50000000000000000000e+03) (142, 1.50000000000000000000e+03) (143, 1.50000000000000000000e+03) (144, 1.50000000000000000000e+03) (145, 1.50000000000000000000e+03) (146, 1.50000000000000000000e+03) (147, 1.50000000000000000000e+03) (148, 1.50000000000000000000e+03) (149, 1.50000000000000000000e+03) (150, 1.50000000000000000000e+03) (151, 1.50000000000000000000e+03) (152, 1.50000000000000000000e+03) (153, 1.50000000000000000000e+03) (154, 3.89995157718658447266e-01) (155, 4.18585449457168579102e-01) (156, 5.44959381222724914551e-02) (157, -1.44821703433990478516e-01) (158, 4.25183445215225219727e-01) (159, 5.22172391414642333984e-01) (160, -6.44366666674613952637e-02) (161, -9.48664024472236633301e-02) (162, -1.96483246982097625732e-02) (163, 3.03853809833526611328e-01) (164, -5.03686480224132537842e-02) (165, -2.01979167759418487549e-02) (166, 3.81359994411468505859e-01) (167, 4.60335403680801391602e-01) (168, 2.63282984495162963867e-01) (169, -2.40491330623626708984e-02) (170, -5.41996881365776062012e-02) (171, 3.37601810693740844727e-01) (172, 6.79274439811706542969e-01) (173, -1.43681466579437255859e-01) (174, -1.28575693815946578979e-02) (175, -1.88404873013496398926e-01) (176, 4.10554826259613037109e-01) (177, 1.62846177816390991211e-01) (178, -6.49689836427569389343e-03) (179, 5.36727190017700195312e-01) (180, 4.54183673858642578125e+00) (181, 5.69140291213989257812e+00) (182, -1.68795108795166015625e+00) (183, -7.59523510932922363281e-01) (184, -2.21830344200134277344e+00) (185, 7.32079148292541503906e-01) (186, -5.00508189201354980469e-01) (187, 1.35562789440155029297e+00) (188, -3.37428331375122070312e-01) (189, 1.60440301895141601562e+00) (190, 6.84925258159637451172e-01) (191, 9.75034177303314208984e-01) (192, -2.45120358467102050781e+00) (193, 2.64183402061462402344e-01) (0, 7.21545636653900146484e-01) (1, 4.90196824073791503906e-01) (2, 1.67265677452087402344e+00) (3, -1.84966802597045898438e-01) (4, 1.53806972503662109375e+00) (5, 2.30361413955688476562e+00) (6, -2.80234646797180175781e+00) (7, 3.81698429584503173828e-01) (8, -1.87195038795471191406e+00) (9, 1.28231167793273925781e-01) (10, 3.45980793237686157227e-01) (11, 1.15087652206420898438e+00) (12, 2.52445268630981445312e+00) (13, 1.99969017505645751953e+00) (14, 3.56671035289764404297e-01) (15, -1.74333143234252929688e+00) (16, -2.71484702825546264648e-01) (17, -9.68109071254730224609e-01) (18, 9.84247982501983642578e-01) (19, -5.91058135032653808594e-01) (20, 2.32579922676086425781e+00) (21, -3.63579809665679931641e-01) (22, -4.55388736724853515625e+00) (23, -2.04851195216178894043e-01) (24, 8.13006162643432617188e-01) (25, -1.47321772575378417969e+00) (26, 2.68733918666839599609e-01) (27, 8.71228158473968505859e-01) (28, 5.58943390846252441406e-01) (29, 9.98287141323089599609e-01) (30, 5.30272662639617919922e-01) (31, 2.34514164924621582031e+00) (32, 2.80491757392883300781e+00) (33, 2.55218172073364257812e+00) (34, -8.73648226261138916016e-01) (35, -3.53179025650024414062e+00) (36, -3.36482763290405273438e-01) (37, 5.90315580368041992188e-01) (38, 1.97943305969238281250e+00) (39, -2.49387645721435546875e+00) (40, -2.78507918119430541992e-01) (41, 2.92535257339477539062e+00) (42, -2.33872428536415100098e-01) (43, 3.98208647966384887695e-01) (44, -1.26379057765007019043e-01) (45, 6.27008259296417236328e-01) (46, 1.44895601272583007812e+00) (47, 1.50000000000000000000e+03) (48, 1.50000000000000000000e+03) (49, 1.50000000000000000000e+03) (50, 1.50000000000000000000e+03) (51, 1.50000000000000000000e+03) (52, 1.50000000000000000000e+03) (53, 1.50000000000000000000e+03) (54, 1.50000000000000000000e+03) (55, 1.50000000000000000000e+03) (56, 1.50000000000000000000e+03) (57, 1.50000000000000000000e+03) (58, 1.50000000000000000000e+03) (59, 1.50000000000000000000e+03) (60, 4.23787832260131835938e-01) (61, 4.81517225503921508789e-01) (62, 5.81408619880676269531e-01) (63, 3.58430027961730957031e-01) (64, 3.64814281463623046875e-01) (65, 4.49204415082931518555e-01) (66, 3.86880785226821899414e-01) (67, 3.79986405372619628906e-01) (68, 3.75483363866806030273e-01) (69, 4.45983737707138061523e-01) (70, 3.81476849317550659180e-01) (71, 4.04590845108032226562e-01) (72, 3.85574221611022949219e-01) (73, 4.82821792364120483398e-01) (74, 3.11660736799240112305e-01) (75, 4.37884837388992309570e-01) (76, 4.27954256534576416016e-01) (77, 4.58167552947998046875e-01) (78, 4.97645795345306396484e-01) (79, 5.03611564636230468750e-01) (80, 3.83307993412017822266e-01) (81, 3.97490829229354858398e-01) (82, 3.34223121404647827148e-01) (83, 3.76360803842544555664e-01) (84, 5.09343385696411132812e-01) (85, 3.99850994348526000977e-01) (86, 1.15212368965148925781e+00) (87, 1.23147630691528320312e+01) (88, 6.87077224254608154297e-01) (89, -1.62250429391860961914e-01) (90, 2.35321760177612304688e-01) (91, 9.98977005481719970703e-01) (92, 2.06954264640808105469e+00) (93, -8.62126052379608154297e-01) (94, 1.50000000000000000000e+03) (95, 1.50000000000000000000e+03) (96, 1.50000000000000000000e+03) (97, 1.50000000000000000000e+03) (98, 1.50000000000000000000e+03) (99, 1.50000000000000000000e+03) (100, 1.50000000000000000000e+03) (101, 1.50000000000000000000e+03) (102, 1.50000000000000000000e+03) (103, 1.50000000000000000000e+03) (104, 1.50000000000000000000e+03) (105, 1.50000000000000000000e+03) (106, 1.50000000000000000000e+03) (107, -3.24062347412109375000e+00) (108, -1.39091491699218750000e+00) (109, -7.39642977714538574219e-01) (110, 1.16516900062561035156e+00) (111, 5.77754259109497070312e-01) (112, -5.47156572341918945312e-01) (113, 3.26346218585968017578e-01) (114, 7.69676148891448974609e-01) (115, 1.29374539852142333984e+00) (116, 1.03424668312072753906e+00) (117, 6.11613035202026367188e-01) (118, 8.80195558071136474609e-01) (119, 8.48522090911865234375e+00) (120, 2.68785595893859863281e-01) (121, 6.30172491073608398438e-01) (122, 4.86608773469924926758e-01) (123, 5.65941631793975830078e-01) (124, 3.61252397298812866211e-01) (125, 1.76422774791717529297e-01) (126, 5.82872152328491210938e-01) (127, 2.70551294088363647461e-01) (128, 3.34440529346466064453e-01) (129, 1.91419720649719238281e-01) (130, 7.24951922893524169922e-01) (131, 5.65939068794250488281e-01) (132, 5.12582123279571533203e-01) (133, -2.09013319015502929688e+00) (134, -6.84061199426651000977e-02) (135, -2.07245135307312011719e+00) (136, 1.35392522811889648438e+00) (137, 4.30789321660995483398e-01) (138, -6.28745496273040771484e-01) (139, -2.04556322097778320312e+00) (140, -2.55961108207702636719e+00) (141, 1.50000000000000000000e+03) (142, 1.50000000000000000000e+03) (143, 1.50000000000000000000e+03) (144, 1.50000000000000000000e+03) (145, 1.50000000000000000000e+03) (146, 1.50000000000000000000e+03) (147, 1.50000000000000000000e+03) (148, 1.50000000000000000000e+03) (149, 1.50000000000000000000e+03) (150, 1.50000000000000000000e+03) (151, 1.50000000000000000000e+03) (152, 1.50000000000000000000e+03) (153, 1.50000000000000000000e+03) (154, -6.84874579310417175293e-02) (155, -1.24238878488540649414e-01) (156, -1.93640440702438354492e-01) (157, -8.95562469959259033203e-02) (158, 9.49068292975425720215e-02) (159, -9.80979874730110168457e-02) (160, -1.33102089166641235352e-01) (161, -3.80607470870018005371e-02) (162, 1.15917712450027465820e-01) (163, -1.13868072628974914551e-01) (164, -2.33881533145904541016e-01) (165, -1.14838487934321165085e-03) (166, 1.83431684970855712891e-01) (167, -2.07829158753156661987e-02) (168, -1.85300514101982116699e-01) (169, -3.65241896361112594604e-03) (170, -8.29333290457725524902e-02) (171, 6.51020631194114685059e-02) (172, -7.34003260731697082520e-02) (173, -2.88959890604019165039e-02) (174, 7.33375772833824157715e-02) (175, 5.04326075315475463867e-02) (176, 1.50340178515762090683e-03) (177, -1.99868768453598022461e-01) (178, -1.73128992319107055664e-01) (179, 4.25870455801486968994e-02) (180, -2.86789774894714355469e+00) (181, 1.51015233993530273438e+00) (182, -1.01005777716636657715e-01) (183, 6.24993503093719482422e-01) (184, 3.41397881507873535156e+00) (185, 1.40243029594421386719e+00) (186, 2.59509921073913574219e+00) (187, 1.55152904987335205078e+00) (188, -1.11241769790649414062e+00) (189, 5.25797128677368164062e-01) (190, -5.96979427337646484375e+00) (191, 4.20089244842529296875e+00) (192, -2.48578831553459167480e-01) (193, -7.04939126968383789062e-01) (0, -1.15139544010162353516e+00) (1, 3.38334274291992187500e+00) (2, 2.27511501312255859375e+00) (3, 1.96370303630828857422e-01) (4, 5.05384564399719238281e-01) (5, -1.64437186717987060547e+00) (6, 6.25344395637512207031e-01) (7, 2.88718652725219726562e+00) (8, 2.53328371047973632812e+00) (9, -2.62603807449340820312e+00) (10, 7.89923369884490966797e-01) (11, -3.62354898452758789062e+00) (12, 6.89009130001068115234e-01) (13, -3.28358650207519531250e+00) (14, -2.76222437620162963867e-01) (15, -6.35164022445678710938e-01) (16, 6.16624176502227783203e-01) (17, 2.05377864837646484375e+00) (18, 1.36350011825561523438e+00) (19, -4.22039937973022460938e+00) (20, -9.05573654174804687500e+00) (21, 6.34474515914916992188e-01) (22, -1.26099812984466552734e+00) (23, -1.08352041244506835938e+00) (24, -2.04937219619750976562e-01) (25, 1.77670931816101074219e+00) (26, -6.85933455824851989746e-02) (27, 3.20139348506927490234e-01) (28, 8.69058012962341308594e-01) (29, 2.86746829748153686523e-01) (30, 8.35239887237548828125e-01) (31, 1.47285759449005126953e+00) (32, -2.68222641944885253906e+00) (33, -1.28941559791564941406e+00) (34, -2.12987995147705078125e+00) (35, 5.34673571586608886719e-01) (36, 4.06006455421447753906e-01) (37, 1.54299521446228027344e+00) (38, 1.13876438140869140625e+00) (39, 6.24824047088623046875e-01) (40, -1.31612789630889892578e+00) (41, 3.07347834110260009766e-01) (42, -1.57774597406387329102e-01) (43, -1.36870592832565307617e-01) (44, -1.74562418460845947266e+00) (45, -1.04911398887634277344e+00) (46, -3.11224944889545440674e-02) (47, 1.50000000000000000000e+03) (48, 1.50000000000000000000e+03) (49, 1.50000000000000000000e+03) (50, 1.50000000000000000000e+03) (51, 1.50000000000000000000e+03) (52, 1.50000000000000000000e+03) (53, 1.50000000000000000000e+03) (54, 1.50000000000000000000e+03) (55, 1.50000000000000000000e+03) (56, 1.50000000000000000000e+03) (57, 1.50000000000000000000e+03) (58, 1.50000000000000000000e+03) (59, 1.50000000000000000000e+03) (60, -6.65093138813972473145e-02) (61, -2.09148705005645751953e-01) (62, -2.09893971681594848633e-01) (63, -2.12406724691390991211e-01) (64, -9.15731191635131835938e-02) (65, -1.48781165480613708496e-01) (66, -1.40100896358489990234e-01) (67, -1.06754720211029052734e-01) (68, -2.36359536647796630859e-01) (69, -1.21158659458160400391e-01) (70, -5.46796768903732299805e-02) (71, -2.01184898614883422852e-01) (72, -2.28364486247301101685e-02) (73, -2.31667071580886840820e-01) (74, -2.17444509267807006836e-01) (75, -2.27673858404159545898e-01) (76, -2.22315534949302673340e-01) (77, 3.04725132882595062256e-02) (78, -1.93584829568862915039e-01) (79, -5.05942851305007934570e-02) (80, -1.27962335944175720215e-01) (81, -2.25855782628059387207e-01) (82, -2.15789481997489929199e-01) (83, -1.91242381930351257324e-01) (84, -7.87958502769470214844e-02) (85, -1.01838022470474243164e-01) (86, 4.68479931354522705078e-01) (87, 1.78154170513153076172e+00) (88, -3.34965395927429199219e+00) (89, 3.60040724277496337891e-01) (90, -6.49857461452484130859e-01) (91, -7.97008872032165527344e-01) (92, -1.21028804779052734375e+00) (93, 1.56631445884704589844e+00) (94, 1.50000000000000000000e+03) (95, 1.50000000000000000000e+03) (96, 1.50000000000000000000e+03) (97, 1.50000000000000000000e+03) (98, 1.50000000000000000000e+03) (99, 1.50000000000000000000e+03) (100, 1.50000000000000000000e+03) (101, 1.50000000000000000000e+03) (102, 1.50000000000000000000e+03) (103, 1.50000000000000000000e+03) (104, 1.50000000000000000000e+03) (105, 1.50000000000000000000e+03) (106, 1.50000000000000000000e+03) (107, -2.16808289289474487305e-01) (108, 1.82485508918762207031e+00) (109, 1.47835159301757812500e+00) (110, -2.13889896869659423828e-01) (111, 1.63055491447448730469e+00) (112, 9.23150658607482910156e-01) (113, -7.84285545349121093750e+00) (114, -6.51712059974670410156e-01) (115, 5.73981428146362304688e+00) (116, 2.83667755126953125000e+00) (117, 2.63502883911132812500e+00) (118, -1.05267211794853210449e-01) (119, -3.87458825111389160156e+00) (120, 3.81716489791870117188e-01) (121, 7.42193937301635742188e-01) (122, 4.93683934211730957031e-01) (123, 4.30731743574142456055e-01) (124, 1.02837286889553070068e-01) (125, 2.26026982069015502930e-01) (126, 9.25743937492370605469e-01) (127, 5.75253553688526153564e-02) (128, 8.06814730167388916016e-01) (129, 2.04949259757995605469e+00) (130, 5.13886868953704833984e-01) (131, 2.53517061471939086914e-01) (132, -3.41902762651443481445e-01) (133, -3.37688088417053222656e+00) (134, 1.59739363193511962891e+00) (135, -8.20456683635711669922e-01) (136, -2.21228837966918945312e+00) (137, -9.12195026874542236328e-01) (138, -1.66812014579772949219e+00) (139, -2.01364421844482421875e+00) (140, 1.63328909873962402344e+00) (141, 1.50000000000000000000e+03) (142, 1.50000000000000000000e+03) (143, 1.50000000000000000000e+03) (144, 1.50000000000000000000e+03) (145, 1.50000000000000000000e+03) (146, 1.50000000000000000000e+03) (147, 1.50000000000000000000e+03) (148, 1.50000000000000000000e+03) (149, 1.50000000000000000000e+03) (150, 1.50000000000000000000e+03) (151, 1.50000000000000000000e+03) (152, 1.50000000000000000000e+03) (153, 1.50000000000000000000e+03) (154, 5.89820221066474914551e-02) (155, 1.10222697257995605469e+00) (156, 5.54780900478363037109e-01) (157, -2.57902503013610839844e-01) (158, 6.37528598308563232422e-01) (159, 1.11145034432411193848e-01) (160, 9.37645323574542999268e-03) (161, 7.71119475364685058594e-01) (162, -6.92591294646263122559e-02) (163, -4.92326289415359497070e-01) (164, 2.31378212571144104004e-01) (165, 8.68849828839302062988e-02) (166, 6.19361340999603271484e-01) (167, 2.43307039141654968262e-01) (168, 7.97585785388946533203e-01) (169, 3.59408497810363769531e-01) (170, -4.82265315949916839600e-02) (171, 5.57278692722320556641e-01) (172, 1.02960728108882904053e-01) (173, 1.15226849913597106934e-01) (174, 5.83506643772125244141e-01) (175, -1.23662017285823822021e-01) (176, -8.16734731197357177734e-01) (177, 2.08294779062271118164e-01) (178, -1.11046567559242248535e-01) (179, 5.55168867111206054688e-01) (180, -9.71960961818695068359e-01) (181, 2.50532531738281250000e+00) (182, -1.31027781963348388672e+00) (183, 1.53404104709625244141e+00) (184, 5.74058771133422851562e-01) (185, 1.11332488059997558594e+00) (186, 2.09645724296569824219e+00) (187, -2.15686798095703125000e-01) (188, 6.71572983264923095703e-01) (189, -1.89366757869720458984e-01) (190, 2.30106019973754882812e+00) (191, 1.03983092308044433594e+00) (192, -2.40376234054565429688e+00) (193, 2.43994370102882385254e-01) (0, -3.67447853088378906250e+00) (1, 1.66683316230773925781e+00) (2, 6.68971419334411621094e-01) (3, -3.67280453443527221680e-01) (4, 2.65356945991516113281e+00) (5, 1.10218501091003417969e+00) (6, 7.37839281558990478516e-01) (7, -3.53849798440933227539e-01) (8, -6.59782230854034423828e-01) (9, 3.79115533828735351562e+00) (10, -4.07482124865055084229e-02) (11, 8.31438064575195312500e-01) (12, 9.18451189994812011719e-01) (13, 1.75190055370330810547e+00) (14, 5.25212287902832031250e-01) (15, 5.09178042411804199219e-01) (16, 1.39393603801727294922e+00) (17, -2.24282526969909667969e+00) (18, -6.86964914202690124512e-02) (19, -1.56405913829803466797e+00) (20, 4.21165406703948974609e-01) (21, 1.68751463294029235840e-01) (22, 1.22778564691543579102e-01) (23, 1.90721645951271057129e-01) (24, -5.61254382133483886719e-01) (25, 2.74843502044677734375e+00) (26, 1.28067255020141601562e+00) (27, 8.55012834072113037109e-01) (28, 5.47673940658569335938e-01) (29, 8.40682983398437500000e-01) (30, 1.57715356349945068359e+00) (31, 9.73214924335479736328e-01) (32, 9.25022661685943603516e-01) (33, 2.79477208852767944336e-01) (34, 7.13368654251098632812e-01) (35, -2.19081759452819824219e+00) (36, 3.57045352458953857422e-01) (37, 1.18813002109527587891e+00) (38, 3.43788623809814453125e+00) (39, 5.10491251945495605469e-01) (40, -1.64953783154487609863e-01) (41, 8.76346051692962646484e-01) (42, -4.02176260948181152344e-01) (43, -9.34863507747650146484e-01) (44, -5.15569329261779785156e-01) (45, -9.71818327903747558594e-01) (46, -3.12448382377624511719e-01) (47, 1.50000000000000000000e+03) (48, 1.50000000000000000000e+03) (49, 1.50000000000000000000e+03) (50, 1.50000000000000000000e+03) (51, 1.50000000000000000000e+03) (52, 1.50000000000000000000e+03) (53, 1.50000000000000000000e+03) (54, 1.50000000000000000000e+03) (55, 1.50000000000000000000e+03) (56, 1.50000000000000000000e+03) (57, 1.50000000000000000000e+03) (58, 1.50000000000000000000e+03) (59, 1.50000000000000000000e+03) (60, -3.64792078733444213867e-01) (61, -2.79638648033142089844e-01) (62, -4.09799605607986450195e-01) (63, -2.90754944086074829102e-01) (64, -4.33638840913772583008e-01) (65, -2.52359926700592041016e-01) (66, -2.52029538154602050781e-01) (67, -4.24707472324371337891e-01) (68, -4.24078226089477539062e-01) (69, -3.89732390642166137695e-01) (70, -3.36881041526794433594e-01) (71, -2.56811887025833129883e-01) (72, -4.12822961807250976562e-01) (73, -2.95542597770690917969e-01) (74, -3.41522634029388427734e-01) (75, -3.02312940359115600586e-01) (76, -3.98643285036087036133e-01) (77, -4.15504306554794311523e-01) (78, -4.04078334569931030273e-01) (79, -4.10088330507278442383e-01) (80, -3.82469832897186279297e-01) (81, -3.24508547782897949219e-01) (82, -5.24072468280792236328e-01) (83, -4.07810449600219726562e-01) (84, -3.72620731592178344727e-01) (85, -3.04097205400466918945e-01) (86, 2.77900528907775878906e+00) (87, -3.27564644813537597656e+00) (88, -3.60408991575241088867e-01) (89, -1.30588793754577636719e+00) (90, -3.73330861330032348633e-01) (91, 1.78212952613830566406e+00) (92, -2.65678703784942626953e-01) (93, -1.46971976757049560547e+00) (94, 1.50000000000000000000e+03) (95, 1.50000000000000000000e+03) (96, 1.50000000000000000000e+03) (97, 1.50000000000000000000e+03) (98, 1.50000000000000000000e+03) (99, 1.50000000000000000000e+03) (100, 1.50000000000000000000e+03) (101, 1.50000000000000000000e+03) (102, 1.50000000000000000000e+03) (103, 1.50000000000000000000e+03) (104, 1.50000000000000000000e+03) (105, 1.50000000000000000000e+03) (106, 1.50000000000000000000e+03) (107, 1.69022351503372192383e-01) (108, 1.59703075885772705078e+00) (109, 1.61283731460571289062e+00) (110, 2.08615088462829589844e+00) (111, 1.24013924598693847656e+00) (112, -1.24609135091304779053e-01) (113, 9.73523914813995361328e-01) (114, -1.16097617149353027344e+00) (115, 1.49774348735809326172e+00) (116, 3.38498067855834960938e+00) (117, -2.17500612139701843262e-01) (118, 4.55987215042114257812e-01) (119, 5.07066786289215087891e-01) (120, 3.87102305889129638672e-01) (121, 4.32250499725341796875e-01) (122, 5.92922389507293701172e-01) (123, 6.08123302459716796875e-01) (124, 1.08089029788970947266e+00) (125, 3.49871426820755004883e-01) (126, 9.48306918144226074219e-01) (127, 6.03468716144561767578e-01) (128, 9.92805600166320800781e-01) (129, 3.10237812995910644531e+00) (130, 2.78696000576019287109e-01) (131, 4.56202030181884765625e-01) (132, -3.83042335510253906250e-01) (133, -2.28065681457519531250e+00) (134, 1.54801094532012939453e+00) (135, 5.96665404736995697021e-02) (136, 6.99336230754852294922e-01) (137, 1.11019097268581390381e-01) (138, 4.52877461910247802734e-01) (139, -1.29689645767211914062e+00) (140, 1.39037787914276123047e+00) (141, 1.50000000000000000000e+03) (142, 1.50000000000000000000e+03) (143, 1.50000000000000000000e+03) (144, 1.50000000000000000000e+03) (145, 1.50000000000000000000e+03) (146, 1.50000000000000000000e+03) (147, 1.50000000000000000000e+03) (148, 1.50000000000000000000e+03) (149, 1.50000000000000000000e+03) (150, 1.50000000000000000000e+03) (151, 1.50000000000000000000e+03) (152, 1.50000000000000000000e+03) (153, 1.50000000000000000000e+03) (154, 4.03559893369674682617e-01) (155, 9.47696745395660400391e-01) (156, 2.05887407064437866211e-01) (157, 5.73291957378387451172e-01) (158, 3.23604285717010498047e-01) (159, 9.75977003574371337891e-01) (160, -4.17340695858001708984e-01) (161, 2.04971224069595336914e-01) (162, 1.88656136393547058105e-01) (163, 1.75783842802047729492e-01) (164, 2.17372283339500427246e-01) (165, 4.64854482561349868774e-03) (166, 5.88940083980560302734e-02) (167, 1.47165477275848388672e-01) (168, 3.89121502637863159180e-01) (169, 5.18943071365356445312e-01) (170, 2.27605327963829040527e-01) (171, 3.41357231140136718750e-01) (172, 5.32397627830505371094e-01) (173, -1.17794670164585113525e-01) (174, 1.64507135748863220215e-01) (175, 1.58504456281661987305e-01) (176, 2.08691909909248352051e-01) (177, 3.34316343069076538086e-01) (178, 1.54405375942587852478e-02) (179, 2.54132542759180068970e-02) (180, -1.46968054771423339844e+00) (181, -1.74737465381622314453e+00) (182, 1.18428874015808105469e+00) (183, -8.31838488578796386719e-01) (184, 2.81727504730224609375e+00) (185, 1.02800750732421875000e+00) (186, 1.07719898223876953125e+00) (187, -1.03058612346649169922e+00) (188, -5.64408563077449798584e-02) (189, -2.51175618171691894531e+00) (190, -6.01816475391387939453e-01) (191, 2.72816443443298339844e+00) (192, -7.19390749931335449219e-01) (193, 2.47200012207031250000e-01) (0, -5.06332278251647949219e-01) (1, 3.98233592510223388672e-01) (2, -2.82076299190521240234e-01) (3, 4.62787359952926635742e-01) (4, -3.98716449737548828125e-01) (5, -3.72561186552047729492e-01) (6, 9.05114948749542236328e-01) (7, -3.36972022056579589844e+00) (8, -4.73011791706085205078e-01) (9, 4.61611002683639526367e-02) (10, -1.05393372476100921631e-01) (11, 1.70920383930206298828e+00) (12, 7.60710656642913818359e-01) (13, -7.91643500328063964844e-01) (14, -1.73584923148155212402e-01) (15, 2.67959088087081909180e-01) (16, 2.72655034065246582031e+00) (17, 5.79672008752822875977e-02) (18, 1.26695072650909423828e+00) (19, -7.59828031063079833984e-01) (20, 1.54329621791839599609e+00) (21, 1.09773600101470947266e+00) (22, 9.88967418670654296875e-01) (23, -6.95429325103759765625e-01) (24, -1.69560283422470092773e-01) (25, 3.29057788848876953125e+00) (26, -2.01226070523262023926e-01) (27, 1.50938034057617187500e-01) (28, 6.90561294555664062500e-01) (29, 1.16520881652832031250e+00) (30, 1.58454209566116333008e-01) (31, 2.35098409652709960938e+00) (32, -8.98993909358978271484e-01) (33, -1.07594811916351318359e+00) (34, -6.33390128612518310547e-01) (35, 3.39237362146377563477e-01) (36, 2.47991099953651428223e-01) (37, 7.70182371139526367188e-01) (38, 1.01599347591400146484e+00) (39, 2.23637223243713378906e+00) (40, 1.98265266418457031250e+00) (41, -3.35927700996398925781e+00) (42, 6.38381950557231903076e-03) (43, 1.00602179765701293945e-01) (44, 4.39957380294799804688e-02) (45, -7.50591039657592773438e-01) (46, -3.35076451301574707031e+00) (47, 1.50000000000000000000e+03) (48, 1.50000000000000000000e+03) (49, 1.50000000000000000000e+03) (50, 1.50000000000000000000e+03) (51, 1.50000000000000000000e+03) (52, 1.50000000000000000000e+03) (53, 1.50000000000000000000e+03) (54, 1.50000000000000000000e+03) (55, 1.50000000000000000000e+03) (56, 1.50000000000000000000e+03) (57, 1.50000000000000000000e+03) (58, 1.50000000000000000000e+03) (59, 1.50000000000000000000e+03) (60, -2.30433996766805648804e-02) (61, 4.32897992432117462158e-02) (62, -1.72731466591358184814e-02) (63, 1.14049375057220458984e-01) (64, -4.00440134108066558838e-02) (65, 2.37889923155307769775e-02) (66, -7.81202688813209533691e-02) (67, 1.64605397731065750122e-02) (68, 5.07904291152954101562e-02) (69, 1.78913418203592300415e-02) (70, 1.02725446224212646484e-01) (71, 1.05970017611980438232e-01) (72, -4.55881953239440917969e-02) (73, -4.84741479158401489258e-02) (74, 9.82804894447326660156e-02) (75, 6.32394477725028991699e-02) (76, 9.37615782022476196289e-02) (77, 1.03636451065540313721e-01) (78, -4.77899946272373199463e-02) (79, 3.93918491899967193604e-02) (80, 4.21384498476982116699e-02) (81, -1.83992516249418258667e-02) (82, 8.40077996253967285156e-02) (83, -8.01959186792373657227e-02) (84, 8.72041136026382446289e-02) (85, 3.81615236401557922363e-02) (86, -1.32701551914215087891e+00) (87, 4.79819267988204956055e-01) (88, -1.16797852516174316406e+00) (89, -1.24718993902206420898e-01) (90, -1.79021728038787841797e+00) (91, 2.77590364217758178711e-01) (92, -1.30870902538299560547e+00) (93, 6.73767447471618652344e-01) (94, 1.50000000000000000000e+03) (95, 1.50000000000000000000e+03) (96, 1.50000000000000000000e+03) (97, 1.50000000000000000000e+03) (98, 1.50000000000000000000e+03) (99, 1.50000000000000000000e+03) (100, 1.50000000000000000000e+03) (101, 1.50000000000000000000e+03) (102, 1.50000000000000000000e+03) (103, 1.50000000000000000000e+03) (104, 1.50000000000000000000e+03) (105, 1.50000000000000000000e+03) (106, 1.50000000000000000000e+03) (107, 2.38575625419616699219e+00) (108, 3.38896608352661132812e+00) (109, 3.40366363525390625000e-02) (110, 2.39422702789306640625e+00) (111, 8.30052435398101806641e-01) (112, 5.81415534019470214844e-01) (113, -2.06049814820289611816e-01) (114, 6.28015100955963134766e-01) (115, 2.96226429939270019531e+00) (116, 2.05038952827453613281e+00) (117, -8.49737375974655151367e-02) (118, 6.51201725006103515625e-01) (119, -5.10835528373718261719e-01) (120, 2.49642536044120788574e-01) (121, 6.51352465152740478516e-01) (122, 6.16877496242523193359e-01) (123, 5.19136965274810791016e-01) (124, -4.60645437240600585938e-01) (125, 4.67010170221328735352e-01) (126, -1.72769412398338317871e-01) (127, -2.44450252503156661987e-02) (128, 9.50350642204284667969e-01) (129, 7.44685232639312744141e-01) (130, 4.77367132902145385742e-01) (131, 1.41534820199012756348e-01) (132, -7.52650573849678039551e-02) (133, -1.17207181453704833984e+00) (134, 7.11370170116424560547e-01) (135, -1.06307618319988250732e-01) (136, 1.55224096775054931641e+00) (137, -2.36842918395996093750e+00) (138, -2.93346929550170898438e+00) (139, 1.39940392971038818359e+00) (140, 1.29821717739105224609e+00) (141, 1.50000000000000000000e+03) (142, 1.50000000000000000000e+03) (143, 1.50000000000000000000e+03) (144, 1.50000000000000000000e+03) (145, 1.50000000000000000000e+03) (146, 1.50000000000000000000e+03) (147, 1.50000000000000000000e+03) (148, 1.50000000000000000000e+03) (149, 1.50000000000000000000e+03) (150, 1.50000000000000000000e+03) (151, 1.50000000000000000000e+03) (152, 1.50000000000000000000e+03) (153, 1.50000000000000000000e+03) (154, -1.86457917094230651855e-01) (155, 2.66330838203430175781e-01) (156, 2.21626356244087219238e-01) (157, -2.65407897531986236572e-02) (158, 2.37175613641738891602e-01) (159, 1.71743646264076232910e-01) (160, 4.16924566030502319336e-01) (161, 1.47113472223281860352e-01) (162, -1.17856107652187347412e-01) (163, 2.34195277094841003418e-01) (164, -1.06711125373840332031e+00) (165, 3.80370050668716430664e-01) (166, 1.40376225113868713379e-01) (167, -1.59070268273353576660e-01) (168, 3.50483059883117675781e-01) (169, 2.08782032132148742676e-01) (170, 2.64029242098331451416e-02) (171, 2.01187938451766967773e-01) (172, 1.11582875251770019531e-01) (173, 4.64976429939270019531e-01) (174, 1.82558089494705200195e-01) (175, 2.65158563852310180664e-01) (176, 2.59674102067947387695e-01) (177, -4.40701842308044433594e-02) (178, 3.11363667249679565430e-01) (179, 1.72797083854675292969e-01) (180, -2.04238414764404296875e+00) (181, -9.93760079145431518555e-02) (182, -4.90677267313003540039e-01) (183, 5.97736895084381103516e-01) (184, 1.79621076583862304688e+00) (185, -5.55867242813110351562e+00) (186, 8.68123412132263183594e-01) (187, -4.12416553497314453125e+00) (188, 3.15579295158386230469e+00) (189, 9.48248922824859619141e-01) (190, 1.66470932960510253906e+00) (191, 5.91286611557006835938e+00) (192, -1.63443610072135925293e-01) (193, 1.20041228830814361572e-01) (0, -1.95487275719642639160e-01) (1, 4.96149015426635742188e+00) (2, -1.33542335033416748047e+00) (3, 5.79729020595550537109e-01) (4, 1.20836913585662841797e+00) (5, 1.37534284591674804688e+00) (6, 2.79159998893737792969e+00) (7, 1.60226857662200927734e+00) (8, 3.21988368034362792969e+00) (9, 2.50701278448104858398e-01) (10, 9.56550359725952148438e-01) (11, 2.96055459976196289062e+00) (12, 3.36990915238857269287e-02) (13, 4.04828161001205444336e-01) (14, 6.03629052639007568359e-01) (15, 1.72353267669677734375e-01) (16, 1.18059337139129638672e+00) (17, 2.76084303855895996094e+00) (18, 1.19074404239654541016e+00) (19, -2.20017266273498535156e+00) (20, -1.68929624557495117188e+00) (21, -3.32886338233947753906e-01) (22, -1.29557526111602783203e+00) (23, -8.29771757125854492188e-01) (24, -6.21396720409393310547e-01) (25, 5.38681602478027343750e+00) (26, 7.84012496471405029297e-01) (27, 4.83443140983581542969e-01) (28, 6.94048643112182617188e-01) (29, 1.21313893795013427734e+00) (30, 7.08353161811828613281e-01) (31, 1.83926546573638916016e+00) (32, 2.02177500724792480469e+00) (33, 3.47148394584655761719e+00) (34, -7.67709136009216308594e-01) (35, -3.63661813735961914062e+00) (36, 1.80977225303649902344e+00) (37, 8.26778531074523925781e-01) (38, -1.17303776741027832031e+00) (39, 4.15394735336303710938e+00) (40, -1.47218954563140869141e+00) (41, -2.13439965248107910156e+00) (42, -3.01276501268148422241e-02) (43, -2.15386986732482910156e-01) (44, -1.93076181411743164062e+00) (45, -2.91618657112121582031e+00) (46, -2.65835702419281005859e-01) (47, 1.50000000000000000000e+03) (48, 1.50000000000000000000e+03) (49, 1.50000000000000000000e+03) (50, 1.50000000000000000000e+03) (51, 1.50000000000000000000e+03) (52, 1.50000000000000000000e+03) (53, 1.50000000000000000000e+03) (54, 1.50000000000000000000e+03) (55, 1.50000000000000000000e+03) (56, 1.50000000000000000000e+03) (57, 1.50000000000000000000e+03) (58, 1.50000000000000000000e+03) (59, 1.50000000000000000000e+03) (60, -5.60316920280456542969e-01) (61, -5.23028254508972167969e-01) (62, -3.24470341205596923828e-01) (63, -3.06768119335174560547e-01) (64, -4.82228279113769531250e-01) (65, -3.66848647594451904297e-01) (66, -3.75324428081512451172e-01) (67, -2.41626396775245666504e-01) (68, -5.72753190994262695312e-01) (69, -6.17743492126464843750e-01) (70, -2.76177942752838134766e-01) (71, -5.14094531536102294922e-01) (72, -4.65477198362350463867e-01) (73, -5.21711945533752441406e-01) (74, -4.94150549173355102539e-01) (75, -2.50000417232513427734e-01) (76, -3.52216124534606933594e-01) (77, -4.77916240692138671875e-01) (78, -2.83325135707855224609e-01) (79, -4.56888437271118164062e-01) (80, -2.62065351009368896484e-01) (81, -7.49522149562835693359e-01) (82, -5.52246868610382080078e-01) (83, -3.29198032617568969727e-01) (84, -4.90510493516921997070e-01) (85, -4.58113849163055419922e-01) (86, 2.83376026153564453125e+00) (87, -1.76657962799072265625e+00) (88, -3.60181987285614013672e-01) (89, 2.54852265119552612305e-01) (90, 4.08722370862960815430e-01) (91, -1.03180348873138427734e+00) (92, -2.43078112602233886719e+00) (93, 9.45052385330200195312e-01) (94, 1.50000000000000000000e+03) (95, 1.50000000000000000000e+03) (96, 1.50000000000000000000e+03) (97, 1.50000000000000000000e+03) (98, 1.50000000000000000000e+03) (99, 1.50000000000000000000e+03) (100, 1.50000000000000000000e+03) (101, 1.50000000000000000000e+03) (102, 1.50000000000000000000e+03) (103, 1.50000000000000000000e+03) (104, 1.50000000000000000000e+03) (105, 1.50000000000000000000e+03) (106, 1.50000000000000000000e+03) (107, -9.98253747820854187012e-02) (108, -7.78979003429412841797e-01) (109, 1.21344685554504394531e+00) (110, -1.70924448966979980469e+00) (111, 4.74348664283752441406e-01) (112, 4.14912074804306030273e-01) (113, -2.47109675407409667969e+00) (114, -1.53003430366516113281e+00) (115, 8.16956400871276855469e-01) (116, 1.57696163654327392578e+00) (117, 1.36176872253417968750e+00) (118, -1.25878584384918212891e+00) (119, -4.77280557155609130859e-01) (120, 3.19297045469284057617e-01) (121, 4.43795025348663330078e-01) (122, 6.90352976322174072266e-01) (123, 7.02437818050384521484e-01) (124, 3.62135231494903564453e-01) (125, 4.32911098003387451172e-01) (126, 3.50359737873077392578e-01) (127, 3.88485461473464965820e-01) (128, 1.24437904357910156250e+00) (129, 1.12212324142456054688e+00) (130, 1.64524853229522705078e+00) (131, 2.59448915719985961914e-01) (132, 3.07097077369689941406e-01) (133, 3.41326546669006347656e+00) (134, 9.86050605773925781250e-01) (135, -1.27968704700469970703e+00) (136, 9.72371101379394531250e-01) (137, -1.46508947014808654785e-01) (138, -1.85961389541625976562e+00) (139, 1.34275168180465698242e-01) (140, -1.77390599250793457031e+00) (141, 1.50000000000000000000e+03) (142, 1.50000000000000000000e+03) (143, 1.50000000000000000000e+03) (144, 1.50000000000000000000e+03) (145, 1.50000000000000000000e+03) (146, 1.50000000000000000000e+03) (147, 1.50000000000000000000e+03) (148, 1.50000000000000000000e+03) (149, 1.50000000000000000000e+03) (150, 1.50000000000000000000e+03) (151, 1.50000000000000000000e+03) (152, 1.50000000000000000000e+03) (153, 1.50000000000000000000e+03) (154, 7.13837295770645141602e-02) (155, 9.99263748526573181152e-02) (156, -4.21009987592697143555e-01) (157, -2.75439351797103881836e-01) (158, 6.63362920284271240234e-01) (159, 7.43290968239307403564e-03) (160, 1.34165227413177490234e+00) (161, -3.00696998834609985352e-01) (162, 4.03834819793701171875e-01) (163, -5.41948080062866210938e-01) (164, -1.06263168156147003174e-01) (165, -2.05048657953739166260e-02) (166, 2.61902540922164916992e-01) (167, 7.37215876579284667969e-01) (168, 3.61737340688705444336e-01) (169, -1.77321508526802062988e-01) (170, -2.62984007596969604492e-01) (171, 2.97413587570190429688e-01) (172, -5.29508106410503387451e-02) (173, 1.59637391567230224609e+00) (174, 3.16791206598281860352e-01) (175, 2.30281695723533630371e-01) (176, -6.40719711780548095703e-01) (177, -1.21567465364933013916e-01) (178, -3.53957638144493103027e-02) (179, -8.82226824760437011719e-02) (180, 9.19396951794624328613e-02) (181, 8.13085362315177917480e-02) (182, -2.89076119661331176758e-01) (183, 5.00980234146118164062e+00) (184, 3.22393751144409179688e+00) (185, -9.42515969276428222656e-01) (186, 6.35756134986877441406e-01) (187, -6.52641415596008300781e-01) (188, 2.06089544296264648438e+00) (189, 2.83004164695739746094e+00) (190, 7.23541975021362304688e-01) (191, -6.11509196460247039795e-02) (192, -7.65934288501739501953e-01) (193, 1.10628888010978698730e-01) (0, -2.17838859558105468750e+00) (1, 9.21980202198028564453e-01) (2, 1.90392518043518066406e+00) (3, 2.42768716812133789062e+00) (4, 4.78072834014892578125e+00) (5, 1.84679388999938964844e+00) (6, 4.12795662879943847656e-01) (7, 4.65283107757568359375e+00) (8, 9.23826336860656738281e-01) (9, -4.56247627735137939453e-01) (10, -3.80140185356140136719e-01) (11, -7.57641196250915527344e-01) (12, 1.75986027717590332031e+00) (13, -1.00843906402587890625e+00) (14, -2.60583686828613281250e+00) (15, -3.19676208496093750000e+00) (16, 3.07754486799240112305e-01) (17, 3.50053453445434570312e+00) (18, 2.00941395759582519531e+00) (19, 1.47790682315826416016e+00) (20, 9.45460021495819091797e-01) (21, 3.34141105413436889648e-01) (22, 7.70798623561859130859e-01) (23, -1.70094799995422363281e+00) (24, 4.67350333929061889648e-01) (25, 1.33883309364318847656e+00) (26, 2.33937799930572509766e-01) (27, 1.54570078849792480469e+00) (28, 8.28371584415435791016e-01) (29, 2.50024527311325073242e-01) (30, 7.76640653610229492188e-01) (31, 9.36569452285766601562e-01) (32, 2.13127404451370239258e-01) (33, 2.93987607955932617188e+00) (34, 4.72149699926376342773e-01) (35, -7.58016169071197509766e-01) (36, -3.07029038667678833008e-01) (37, 6.84658229351043701172e-01) (38, 1.54909348487854003906e+00) (39, 1.04910838603973388672e+00) (40, 1.38266766071319580078e+00) (41, -1.56393170356750488281e+00) (42, 7.34906017780303955078e-01) (43, 3.80778521299362182617e-01) (44, 6.31379783153533935547e-01) (45, -6.16005241870880126953e-01) (46, -2.19070449471473693848e-01) (47, 1.50000000000000000000e+03) (48, 1.50000000000000000000e+03) (49, 1.50000000000000000000e+03) (50, 1.50000000000000000000e+03) (51, 1.50000000000000000000e+03) (52, 1.50000000000000000000e+03) (53, 1.50000000000000000000e+03) (54, 1.50000000000000000000e+03) (55, 1.50000000000000000000e+03) (56, 1.50000000000000000000e+03) (57, 1.50000000000000000000e+03) (58, 1.50000000000000000000e+03) (59, 1.50000000000000000000e+03) (60, 3.61065387725830078125e-01) (61, 3.04408282041549682617e-01) (62, 3.50893855094909667969e-01) (63, 3.44442754983901977539e-01) (64, 3.74581038951873779297e-01) (65, 3.73988240957260131836e-01) (66, 4.02516454458236694336e-01) (67, 2.68630146980285644531e-01) (68, 3.08264702558517456055e-01) (69, 4.55910652875900268555e-01) (70, 4.31223630905151367188e-01) (71, 3.26360434293746948242e-01) (72, 2.44348242878913879395e-01) (73, 4.43800956010818481445e-01) (74, 2.64714270830154418945e-01) (75, 3.87361109256744384766e-01) (76, 4.03893262147903442383e-01) (77, 4.13769125938415527344e-01) (78, 4.29720759391784667969e-01) (79, 3.61636936664581298828e-01) (80, 3.90882700681686401367e-01) (81, 4.35165822505950927734e-01) (82, 2.75189369916915893555e-01) (83, 3.98246318101882934570e-01) (84, 2.72133529186248779297e-01) (85, 3.61667364835739135742e-01) (86, -5.70553183555603027344e-01) (87, 9.10628676414489746094e-01) (88, -1.71734392642974853516e-02) (89, 8.41345489025115966797e-01) (90, -4.26242858171463012695e-01) (91, 8.89103055000305175781e-01) (92, 6.51145100593566894531e-01) (93, 2.29176855087280273438e+00) (94, 1.50000000000000000000e+03) (95, 1.50000000000000000000e+03) (96, 1.50000000000000000000e+03) (97, 1.50000000000000000000e+03) (98, 1.50000000000000000000e+03) (99, 1.50000000000000000000e+03) (100, 1.50000000000000000000e+03) (101, 1.50000000000000000000e+03) (102, 1.50000000000000000000e+03) (103, 1.50000000000000000000e+03) (104, 1.50000000000000000000e+03) (105, 1.50000000000000000000e+03) (106, 1.50000000000000000000e+03) (107, 8.44144248962402343750e+00) (108, -8.11328887939453125000e-01) (109, -5.81867694854736328125e-01) (110, -1.49320870637893676758e-01) (111, 8.07718932628631591797e-01) (112, 1.40839850902557373047e+00) (113, 7.39682435989379882812e-01) (114, -1.91926705837249755859e+00) (115, 1.31565082073211669922e+00) (116, 8.81176769733428955078e-01) (117, 1.67694306373596191406e+00) (118, 2.60190224647521972656e+00) (119, -7.28624034672975540161e-03) (120, -3.89959737658500671387e-02) (121, -8.43146815896034240723e-02) (122, 4.90361489355564117432e-02) (123, -1.01414278149604797363e-01) (124, 7.16496706008911132812e-01) (125, 1.04522675275802612305e-01) (126, -1.70483142137527465820e-02) (127, 3.59147816896438598633e-01) (128, 1.12617783248424530029e-01) (129, -3.21276634931564331055e-01) (130, 3.71714383363723754883e-01) (131, -1.18386685848236083984e-01) (132, 3.22580099105834960938e-01) (133, -2.25067424774169921875e+00) (134, -1.13618278503417968750e+00) (135, 2.08451724052429199219e+00) (136, 9.96832787990570068359e-01) (137, 2.36532902717590332031e+00) (138, -4.77531641721725463867e-01) (139, -1.11332118511199951172e+00) (140, -8.07797729969024658203e-01) (141, 1.50000000000000000000e+03) (142, 1.50000000000000000000e+03) (143, 1.50000000000000000000e+03) (144, 1.50000000000000000000e+03) (145, 1.50000000000000000000e+03) (146, 1.50000000000000000000e+03) (147, 1.50000000000000000000e+03) (148, 1.50000000000000000000e+03) (149, 1.50000000000000000000e+03) (150, 1.50000000000000000000e+03) (151, 1.50000000000000000000e+03) (152, 1.50000000000000000000e+03) (153, 1.50000000000000000000e+03) (154, 2.84025162458419799805e-01) (155, 5.28827786445617675781e-01) (156, 4.23219978809356689453e-01) (157, 2.33574837446212768555e-01) (158, -2.37073823809623718262e-01) (159, 1.28707408905029296875e-01) (160, 5.15351653099060058594e-01) (161, 2.06533506512641906738e-01) (162, 6.05090439319610595703e-01) (163, 9.23435866832733154297e-01) (164, 3.63896161317825317383e-01) (165, 3.20049673318862915039e-01) (166, -1.18697412312030792236e-01) (167, 2.79138863086700439453e-01) (168, 5.15743911266326904297e-01) (169, 6.67669832706451416016e-01) (170, 1.51924759149551391602e-01) (171, -8.16743820905685424805e-02) (172, 2.08217039704322814941e-01) (173, 5.16515016555786132812e-01) (174, 7.29972720146179199219e-02) (175, 4.47915822267532348633e-01) (176, 1.80877578258514404297e+00) (177, 3.49873751401901245117e-01) (178, 3.39834511280059814453e-01) (179, 1.17973662912845611572e-01) (180, 1.29774892330169677734e+00) (181, 1.01447832584381103516e+00) (182, -7.44162797927856445312e-01) (183, -2.09738302230834960938e+00) (184, 2.58586025238037109375e+00) (185, -3.66150450706481933594e+00) (186, -4.06325244903564453125e+00) (187, -5.03106212615966796875e+00) (188, 6.29740059375762939453e-01) (189, -4.13885414600372314453e-01) (190, 9.22265291213989257812e-01) (191, -1.71303793787956237793e-01) (192, -7.62481570243835449219e-01) (193, -1.15537905693054199219e+00) (0, -1.37643170356750488281e+00) (1, -1.23129014968872070312e+01) (2, -9.71914112567901611328e-01) (3, 5.42380094528198242188e-01) (4, 1.50564610958099365234e+00) (5, -2.17991113662719726562e+00) (6, -1.19820511341094970703e+00) (7, 6.94139146804809570312e+00) (8, 4.28524875640869140625e+00) (9, 4.72388356924057006836e-01) (10, 1.57842412590980529785e-03) (11, 5.60945510864257812500e+00) (12, 1.64098429679870605469e+00) (13, 1.36329734325408935547e+00) (14, 1.37029767036437988281e-01) (15, 2.70804572105407714844e+00) (16, 2.21493184566497802734e-01) (17, 4.90917235612869262695e-01) (18, 1.01942873001098632812e+00) (19, -1.15523405075073242188e+01) (20, 9.09600162506103515625e+00) (21, -1.80441096425056457520e-01) (22, 2.63026928901672363281e+00) (23, 3.32488203048706054688e+00) (24, 1.51806205511093139648e-01) (25, -7.52432680130004882812e+00) (26, 2.34038019180297851562e+00) (27, 1.94624468684196472168e-01) (28, 3.37440943717956542969e+00) (29, 7.77629971504211425781e-01) (30, -3.41347432136535644531e+00) (31, -8.97284889221191406250e+00) (32, 1.86907672882080078125e+00) (33, 8.63834545016288757324e-02) (34, 2.72602558135986328125e-01) (35, -1.39858138561248779297e+00) (36, -9.03474998474121093750e+00) (37, -9.70739173889160156250e+00) (38, -1.00677385926246643066e-01) (39, 3.74969214200973510742e-01) (40, -1.64971780776977539062e+00) (41, 7.05451297760009765625e+00) (42, -3.88434386253356933594e+00) (43, 6.29602298140525817871e-02) (44, -1.13349832594394683838e-01) (45, -2.36773228645324707031e+00) (46, 1.09711015224456787109e+00) (47, 1.50000000000000000000e+03) (48, 1.50000000000000000000e+03) (49, 1.50000000000000000000e+03) (50, 1.50000000000000000000e+03) (51, 1.50000000000000000000e+03) (52, 1.50000000000000000000e+03) (53, 1.50000000000000000000e+03) (54, 1.50000000000000000000e+03) (55, 1.50000000000000000000e+03) (56, 1.50000000000000000000e+03) (57, 1.50000000000000000000e+03) (58, 1.50000000000000000000e+03) (59, 1.50000000000000000000e+03) (60, 3.63313525915145874023e-01) (61, 1.57349988818168640137e-01) (62, 3.63199383020401000977e-01) (63, 2.96234577894210815430e-01) (64, 2.60019242763519287109e-01) (65, 4.06083613634109497070e-01) (66, 2.49571025371551513672e-01) (67, 3.32935482263565063477e-01) (68, 3.04156839847564697266e-01) (69, 2.54377365112304687500e-01) (70, 4.42141026258468627930e-01) (71, 1.53710708022117614746e-01) (72, 2.96863228082656860352e-01) (73, 3.82482439279556274414e-01) (74, 2.04633578658103942871e-01) (75, 2.95134931802749633789e-01) (76, 2.93562740087509155273e-01) (77, 3.39630782604217529297e-01) (78, 3.47181409597396850586e-01) (79, 8.60393941402435302734e-02) (80, 2.05976620316505432129e-01) (81, 3.55710804462432861328e-01) (82, 3.72551262378692626953e-01) (83, 4.32475864887237548828e-01) (84, 2.37277105450630187988e-01) (85, 3.37539047002792358398e-01) (86, -2.65515117645263671875e+01) (87, 2.54111027717590332031e+00) (88, -5.71414709091186523438e-01) (89, 7.65822008252143859863e-02) (90, 1.75871717929840087891e+00) (91, -7.04579889774322509766e-01) (92, 9.18520259857177734375e+00) (93, -6.25562250614166259766e-01) (94, 1.50000000000000000000e+03) (95, 1.50000000000000000000e+03) (96, 1.50000000000000000000e+03) (97, 1.50000000000000000000e+03) (98, 1.50000000000000000000e+03) (99, 1.50000000000000000000e+03) (100, 1.50000000000000000000e+03) (101, 1.50000000000000000000e+03) (102, 1.50000000000000000000e+03) (103, 1.50000000000000000000e+03) (104, 1.50000000000000000000e+03) (105, 1.50000000000000000000e+03) (106, 1.50000000000000000000e+03) (107, 1.69381484985351562500e+01) (108, -1.06999838352203369141e+00) (109, 1.83772754669189453125e+00) (110, -3.05928647518157958984e-01) (111, -4.49771702289581298828e-01) (112, -1.31207900121808052063e-02) (113, -3.64334034919738769531e+00) (114, 6.17037010192871093750e+00) (115, -3.91971731185913085938e+00) (116, 6.60120487213134765625e+00) (117, 6.59103989601135253906e-01) (118, -2.57154178619384765625e+00) (119, 9.99587726593017578125e+00) (120, 3.53382110595703125000e-01) (121, 5.12893438339233398438e-01) (122, 2.89130926132202148438e-01) (123, 8.88889431953430175781e-01) (124, 2.43879213929176330566e-01) (125, 7.61761784553527832031e-01) (126, 8.45859110355377197266e-01) (127, 5.47666430473327636719e-01) (128, 7.59180068969726562500e-01) (129, 1.03003859519958496094e+00) (130, 6.48100495338439941406e-01) (131, 9.38991844654083251953e-01) (132, 7.02369391918182373047e-01) (133, 9.41562891006469726562e-01) (134, -1.52627098560333251953e+00) (135, 8.65343689918518066406e-01) (136, 5.07564926147460937500e+00) (137, 1.08404426574707031250e+01) (138, 3.78259801864624023438e+00) (139, -5.00571346282958984375e+00) (140, 1.66533052921295166016e+00) (141, 1.50000000000000000000e+03) (142, 1.50000000000000000000e+03) (143, 1.50000000000000000000e+03) (144, 1.50000000000000000000e+03) (145, 1.50000000000000000000e+03) (146, 1.50000000000000000000e+03) (147, 1.50000000000000000000e+03) (148, 1.50000000000000000000e+03) (149, 1.50000000000000000000e+03) (150, 1.50000000000000000000e+03) (151, 1.50000000000000000000e+03) (152, 1.50000000000000000000e+03) (153, 1.50000000000000000000e+03) (154, -2.78793033212423324585e-02) (155, -1.28514587879180908203e-01) (156, 5.45001208782196044922e-01) (157, -1.74450889229774475098e-01) (158, 7.39180982112884521484e-01) (159, -3.69187295436859130859e-02) (160, -9.17782187461853027344e-02) (161, 4.25465017557144165039e-01) (162, 1.71115994453430175781e-01) (163, 1.15510307252407073975e-01) (164, 5.47660410404205322266e-01) (165, -1.91825136542320251465e-01) (166, 2.01105147600173950195e-01) (167, -3.32493968307971954346e-02) (168, 3.22253137826919555664e-01) (169, 7.03290045261383056641e-01) (170, -1.09951004385948181152e-01) (171, 6.49748921394348144531e-01) (172, 3.69234569370746612549e-02) (173, 7.88854435086250305176e-02) (174, 2.86459952592849731445e-01) (175, -8.91185998916625976562e-02) (176, -1.38955324888229370117e-01) (177, 6.71516239643096923828e-01) (178, -3.14405769109725952148e-01) (179, 2.07389533519744873047e-01) (180, -2.87734150886535644531e-01) (181, 3.81489658355712890625e+00) (182, 6.13559675216674804688e+00) (183, -1.63743269443511962891e+00) (184, -1.64538726210594177246e-01) (185, 3.70855107903480529785e-02) (186, -1.13807654380798339844e+00) (187, 2.24438712000846862793e-01) (188, -7.89223471656441688538e-04) (189, 4.01470136642456054688e+00) (190, -1.27947294712066650391e+00) (191, -7.15242564678192138672e-01) (192, 1.13631415367126464844e+00) (193, 5.54437637329101562500e-01) (0, 2.96148061752319335938e+00) (1, 2.37509322166442871094e+00) (2, 1.27865207195281982422e+00) (3, 4.57852065563201904297e-01) (4, 3.46835803985595703125e+00) (5, 1.61714088916778564453e+00) (6, -4.50753271579742431641e-01) (7, 2.46226683259010314941e-01) (8, 3.12716126441955566406e+00) (9, 5.80344498157501220703e-01) (10, 1.87222206592559814453e+00) (11, 3.66600990295410156250e+00) (12, 1.13194859027862548828e+00) (13, 2.06872582435607910156e+00) (14, 3.82437556982040405273e-01) (15, -1.21837782859802246094e+00) (16, 7.24389851093292236328e-02) (17, -1.97568297386169433594e-01) (18, 1.60713338851928710938e+00) (19, 3.25364232063293457031e+00) (20, 8.55702236294746398926e-02) (21, 1.91860938072204589844e+00) (22, -1.46766936779022216797e+00) (23, -1.47110784053802490234e+00) (24, -4.20566886663436889648e-01) (25, 3.81502866744995117188e+00) (26, 8.68768036365509033203e-01) (27, 8.76787602901458740234e-01) (28, 1.35389375686645507812e+00) (29, 1.13455915451049804688e+00) (30, 5.79023510217666625977e-02) (31, 2.46052169799804687500e+00) (32, 1.54928076267242431641e+00) (33, 1.66279649734497070312e+00) (34, 6.13315522670745849609e-01) (35, 1.07761394977569580078e+00) (36, 2.53411456942558288574e-02) (37, -4.31960910558700561523e-01) (38, -8.43244612216949462891e-01) (39, 2.54940724372863769531e+00) (40, -1.90843897871673107147e-03) (41, -9.01247680187225341797e-01) (42, -2.79845446348190307617e-01) (43, 6.44476413726806640625e-01) (44, 8.94146487116813659668e-02) (45, 1.72304689884185791016e+00) (46, 5.83377107977867126465e-02) (47, 1.50000000000000000000e+03) (48, 1.50000000000000000000e+03) (49, 1.50000000000000000000e+03) (50, 1.50000000000000000000e+03) (51, 1.50000000000000000000e+03) (52, 1.50000000000000000000e+03) (53, 1.50000000000000000000e+03) (54, 1.50000000000000000000e+03) (55, 1.50000000000000000000e+03) (56, 1.50000000000000000000e+03) (57, 1.50000000000000000000e+03) (58, 1.50000000000000000000e+03) (59, 1.50000000000000000000e+03) (60, 1.42114236950874328613e-01) (61, 1.66091948747634887695e-01) (62, 2.79372423887252807617e-01) (63, 1.96495667099952697754e-01) (64, 3.00779044628143310547e-01) (65, 1.74439996480941772461e-01) (66, 3.33439171314239501953e-01) (67, 2.63626784086227416992e-01) (68, 1.61933436989784240723e-01) (69, 2.32190474867820739746e-01) (70, 2.12370961904525756836e-01) (71, 1.47100448608398437500e-01) (72, 3.20473909378051757812e-01) (73, 1.71122431755065917969e-01) (74, 2.48032882809638977051e-01) (75, 2.64801412820816040039e-01) (76, 3.01481604576110839844e-01) (77, 3.08797895908355712891e-01) (78, 2.60114789009094238281e-01) (79, 2.54453092813491821289e-01) (80, 2.16268807649612426758e-01) (81, 1.74593225121498107910e-01) (82, 1.69985547661781311035e-01) (83, 2.32975035905838012695e-01) (84, 2.37114682793617248535e-01) (85, 1.35407730937004089355e-01) (86, 4.64810803532600402832e-02) (87, 3.49165582656860351562e+00) (88, -3.92994403839111328125e+00) (89, -3.51560688018798828125e+00) (90, -9.43874567747116088867e-02) (91, -5.09500801563262939453e-01) (92, 4.67291139066219329834e-02) (93, -9.98795330524444580078e-01) (94, 1.50000000000000000000e+03) (95, 1.50000000000000000000e+03) (96, 1.50000000000000000000e+03) (97, 1.50000000000000000000e+03) (98, 1.50000000000000000000e+03) (99, 1.50000000000000000000e+03) (100, 1.50000000000000000000e+03) (101, 1.50000000000000000000e+03) (102, 1.50000000000000000000e+03) (103, 1.50000000000000000000e+03) (104, 1.50000000000000000000e+03) (105, 1.50000000000000000000e+03) (106, 1.50000000000000000000e+03) (107, -4.00297790765762329102e-01) (108, -9.03519332408905029297e-01) (109, 2.60491013526916503906e+00) (110, 1.84201848506927490234e+00) (111, 3.93730425834655761719e+00) (112, 9.05881214141845703125e+00) (113, 1.16183209419250488281e+00) (114, 3.09759140014648437500e-01) (115, -9.20055210590362548828e-01) (116, -1.95097804069519042969e+00) (117, 1.01811647415161132812e+00) (118, -2.95224595069885253906e+00) (119, 3.11459422111511230469e+00) (120, 2.59169787168502807617e-01) (121, 4.87073272466659545898e-01) (122, 6.37993454933166503906e-01) (123, 5.59200286865234375000e-01) (124, 7.96942591667175292969e-01) (125, 1.42938449978828430176e-01) (126, 4.90469962358474731445e-01) (127, 1.82314038276672363281e-01) (128, 3.21701675653457641602e-01) (129, 1.27807903289794921875e+00) (130, 2.96480178833007812500e-01) (131, 8.59971046447753906250e-01) (132, 6.25967264175415039062e-01) (133, 4.08266830444335937500e+00) (134, -3.06361049413681030273e-01) (135, 2.49950146675109863281e+00) (136, 4.16899561882019042969e-01) (137, 4.24173450469970703125e+00) (138, -1.24192439019680023193e-01) (139, 1.60601004958152770996e-01) (140, 6.17524766921997070312e+00) (141, 1.50000000000000000000e+03) (142, 1.50000000000000000000e+03) (143, 1.50000000000000000000e+03) (144, 1.50000000000000000000e+03) (145, 1.50000000000000000000e+03) (146, 1.50000000000000000000e+03) (147, 1.50000000000000000000e+03) (148, 1.50000000000000000000e+03) (149, 1.50000000000000000000e+03) (150, 1.50000000000000000000e+03) (151, 1.50000000000000000000e+03) (152, 1.50000000000000000000e+03) (153, 