FANN_FLO_2.1
num_layers=4
learning_rate=0.000500
connection_rate=1.000000
network_type=0
learning_momentum=0.000000
training_algorithm=2
train_error_function=1
train_stop_function=0
cascade_output_change_fraction=0.010000
quickprop_decay=-0.000100
quickprop_mu=1.750000
rprop_increase_factor=1.200000
rprop_decrease_factor=0.500000
rprop_delta_min=0.000000
rprop_delta_max=50.000000
rprop_delta_zero=0.100000
cascade_output_stagnation_epochs=12
cascade_candidate_change_fraction=0.010000
cascade_candidate_stagnation_epochs=12
cascade_max_out_epochs=150
cascade_min_out_epochs=50
cascade_max_cand_epochs=150
cascade_min_cand_epochs=50
cascade_num_candidate_groups=2
bit_fail_limit=3.49999994039535522461e-01
cascade_candidate_limit=1.00000000000000000000e+03
cascade_weight_multiplier=4.00000005960464477539e-01
cascade_activation_functions_count=10
cascade_activation_functions=3 5 7 8 10 11 14 15 16 17 
cascade_activation_steepnesses_count=4
cascade_activation_steepnesses=2.50000000000000000000e-01 5.00000000000000000000e-01 7.50000000000000000000e-01 1.00000000000000000000e+00 
layer_sizes=194 33 9 5 
scale_included=0
neurons (num_inputs, activation_function, activation_steepness)=(0, 0, 0.00000000000000000000e+00) (0, 0, 0.00000000000000000000e+00) (0, 0, 0.00000000000000000000e+00) (0, 0, 0.00000000000000000000e+00) (0, 0, 0.00000000000000000000e+00) (0, 0, 0.00000000000000000000e+00) (0, 0, 0.00000000000000000000e+00) (0, 0, 0.00000000000000000000e+00) (0, 0, 0.00000000000000000000e+00) (0, 0, 0.00000000000000000000e+00) (0, 0, 0.00000000000000000000e+00) (0, 0, 0.00000000000000000000e+00) (0, 0, 0.00000000000000000000e+00) (0, 0, 0.00000000000000000000e+00) (0, 0, 0.00000000000000000000e+00) (0, 0, 0.00000000000000000000e+00) (0, 0, 0.00000000000000000000e+00) (0, 0, 0.00000000000000000000e+00) (0, 0, 0.00000000000000000000e+00) (0, 0, 0.00000000000000000000e+00) (0, 0, 0.00000000000000000000e+00) (0, 0, 0.00000000000000000000e+00) (0, 0, 0.00000000000000000000e+00) (0, 0, 0.00000000000000000000e+00) (0, 0, 0.00000000000000000000e+00) (0, 0, 0.00000000000000000000e+00) (0, 0, 0.00000000000000000000e+00) (0, 0, 0.00000000000000000000e+00) (0, 0, 0.00000000000000000000e+00) (0, 0, 0.00000000000000000000e+00) (0, 0, 0.00000000000000000000e+00) (0, 0, 0.00000000000000000000e+00) (0, 0, 0.00000000000000000000e+00) (0, 0, 0.00000000000000000000e+00) (0, 0, 0.00000000000000000000e+00) (0, 0, 0.00000000000000000000e+00) (0, 0, 0.00000000000000000000e+00) (0, 0, 0.00000000000000000000e+00) (0, 0, 0.00000000000000000000e+00) (0, 0, 0.00000000000000000000e+00) (0, 0, 0.00000000000000000000e+00) (0, 0, 0.00000000000000000000e+00) (0, 0, 0.00000000000000000000e+00) (0, 0, 0.00000000000000000000e+00) (0, 0, 0.00000000000000000000e+00) (0, 0, 0.00000000000000000000e+00) (0, 0, 0.00000000000000000000e+00) (0, 0, 0.00000000000000000000e+00) (0, 0, 0.00000000000000000000e+00) (0, 0, 0.00000000000000000000e+00) (0, 0, 0.00000000000000000000e+00) (0, 0, 0.00000000000000000000e+00) (0, 0, 0.00000000000000000000e+00) (0, 0, 0.00000000000000000000e+00) (0, 0, 0.00000000000000000000e+00) (0, 0, 0.00000000000000000000e+00) (0, 0, 0.00000000000000000000e+00) (0, 0, 0.00000000000000000000e+00) (0, 0, 0.00000000000000000000e+00) (0, 0, 0.00000000000000000000e+00) (0, 0, 0.00000000000000000000e+00) (0, 0, 0.00000000000000000000e+00) (0, 0, 0.00000000000000000000e+00) (0, 0, 0.00000000000000000000e+00) (0, 0, 0.00000000000000000000e+00) (0, 0, 0.00000000000000000000e+00) (0, 0, 0.00000000000000000000e+00) (0, 0, 0.00000000000000000000e+00) (0, 0, 0.00000000000000000000e+00) (0, 0, 0.00000000000000000000e+00) (0, 0, 0.00000000000000000000e+00) (0, 0, 0.00000000000000000000e+00) (0, 0, 0.00000000000000000000e+00) (0, 0, 0.00000000000000000000e+00) (0, 0, 0.00000000000000000000e+00) (0, 0, 0.00000000000000000000e+00) (0, 0, 0.00000000000000000000e+00) (0, 0, 0.00000000000000000000e+00) (0, 0, 0.00000000000000000000e+00) (0, 0, 0.00000000000000000000e+00) (0, 0, 0.00000000000000000000e+00) (0, 0, 0.00000000000000000000e+00) (0, 0, 0.00000000000000000000e+00) (0, 0, 0.00000000000000000000e+00) (0, 0, 0.00000000000000000000e+00) (0, 0, 0.00000000000000000000e+00) (0, 0, 0.00000000000000000000e+00) (0, 0, 0.00000000000000000000e+00) (0, 0, 0.00000000000000000000e+00) (0, 0, 0.00000000000000000000e+00) (0, 0, 0.00000000000000000000e+00) (0, 0, 0.00000000000000000000e+00) (0, 0, 0.00000000000000000000e+00) (0, 0, 0.00000000000000000000e+00) (0, 0, 0.00000000000000000000e+00) (0, 0, 0.00000000000000000000e+00) (0, 0, 0.00000000000000000000e+00) (0, 0, 0.00000000000000000000e+00) (0, 0, 0.00000000000000000000e+00) (0, 0, 0.00000000000000000000e+00) (0, 0, 0.00000000000000000000e+00) (0, 0, 0.00000000000000000000e+00) (0, 0, 0.00000000000000000000e+00) (0, 0, 0.00000000000000000000e+00) (0, 0, 0.00000000000000000000e+00) (0, 0, 0.00000000000000000000e+00) (0, 0, 0.00000000000000000000e+00) (0, 0, 0.00000000000000000000e+00) (0, 0, 0.00000000000000000000e+00) (0, 0, 0.00000000000000000000e+00) (0, 0, 0.00000000000000000000e+00) (0, 0, 0.00000000000000000000e+00) (0, 0, 0.00000000000000000000e+00) (0, 0, 0.00000000000000000000e+00) (0, 0, 0.00000000000000000000e+00) (0, 0, 0.00000000000000000000e+00) (0, 0, 0.00000000000000000000e+00) (0, 0, 0.00000000000000000000e+00) (0, 0, 0.00000000000000000000e+00) (0, 0, 0.00000000000000000000e+00) (0, 0, 0.00000000000000000000e+00) (0, 0, 0.00000000000000000000e+00) (0, 0, 0.00000000000000000000e+00) (0, 0, 0.00000000000000000000e+00) (0, 0, 0.00000000000000000000e+00) (0, 0, 0.00000000000000000000e+00) (0, 0, 0.00000000000000000000e+00) (0, 0, 0.00000000000000000000e+00) (0, 0, 0.00000000000000000000e+00) (0, 0, 0.00000000000000000000e+00) (0, 0, 0.00000000000000000000e+00) (0, 0, 0.00000000000000000000e+00) (0, 0, 0.00000000000000000000e+00) (0, 0, 0.00000000000000000000e+00) (0, 0, 0.00000000000000000000e+00) (0, 0, 0.00000000000000000000e+00) (0, 0, 0.00000000000000000000e+00) (0, 0, 0.00000000000000000000e+00) (0, 0, 0.00000000000000000000e+00) (0, 0, 0.00000000000000000000e+00) (0, 0, 0.00000000000000000000e+00) (0, 0, 0.00000000000000000000e+00) (0, 0, 0.00000000000000000000e+00) (0, 0, 0.00000000000000000000e+00) (0, 0, 0.00000000000000000000e+00) (0, 0, 0.00000000000000000000e+00) (0, 0, 0.00000000000000000000e+00) (0, 0, 0.00000000000000000000e+00) (0, 0, 0.00000000000000000000e+00) (0, 0, 0.00000000000000000000e+00) (0, 0, 0.00000000000000000000e+00) (0, 0, 0.00000000000000000000e+00) (0, 0, 0.00000000000000000000e+00) (0, 0, 0.00000000000000000000e+00) (0, 0, 0.00000000000000000000e+00) (0, 0, 0.00000000000000000000e+00) (0, 0, 0.00000000000000000000e+00) (0, 0, 0.00000000000000000000e+00) (0, 0, 0.00000000000000000000e+00) (0, 0, 0.00000000000000000000e+00) (0, 0, 0.00000000000000000000e+00) (0, 0, 0.00000000000000000000e+00) (0, 0, 0.00000000000000000000e+00) (0, 0, 0.00000000000000000000e+00) (0, 0, 0.00000000000000000000e+00) (0, 0, 0.00000000000000000000e+00) (0, 0, 0.00000000000000000000e+00) (0, 0, 0.00000000000000000000e+00) (0, 0, 0.00000000000000000000e+00) (0, 0, 0.00000000000000000000e+00) (0, 0, 0.00000000000000000000e+00) (0, 0, 0.00000000000000000000e+00) (0, 0, 0.00000000000000000000e+00) (0, 0, 0.00000000000000000000e+00) (0, 0, 0.00000000000000000000e+00) (0, 0, 0.00000000000000000000e+00) (0, 0, 0.00000000000000000000e+00) (0, 0, 0.00000000000000000000e+00) (0, 0, 0.00000000000000000000e+00) (0, 0, 0.00000000000000000000e+00) (0, 0, 0.00000000000000000000e+00) (0, 0, 0.00000000000000000000e+00) (0, 0, 0.00000000000000000000e+00) (0, 0, 0.00000000000000000000e+00) (0, 0, 0.00000000000000000000e+00) (0, 0, 0.00000000000000000000e+00) (0, 0, 0.00000000000000000000e+00) (0, 0, 0.00000000000000000000e+00) (0, 0, 0.00000000000000000000e+00) (0, 0, 0.00000000000000000000e+00) (0, 0, 0.00000000000000000000e+00) (0, 0, 0.00000000000000000000e+00) (0, 0, 0.00000000000000000000e+00) (0, 0, 0.00000000000000000000e+00) (194, 3, 5.00000000000000000000e-01) (194, 3, 5.00000000000000000000e-01) (194, 3, 5.00000000000000000000e-01) (194, 3, 5.00000000000000000000e-01) (194, 3, 5.00000000000000000000e-01) (194, 3, 5.00000000000000000000e-01) (194, 3, 5.00000000000000000000e-01) (194, 3, 5.00000000000000000000e-01) (194, 3, 5.00000000000000000000e-01) (194, 3, 5.00000000000000000000e-01) (194, 3, 5.00000000000000000000e-01) (194, 3, 5.00000000000000000000e-01) (194, 3, 5.00000000000000000000e-01) (194, 3, 5.00000000000000000000e-01) (194, 3, 5.00000000000000000000e-01) (194, 3, 5.00000000000000000000e-01) (194, 3, 5.00000000000000000000e-01) (194, 3, 5.00000000000000000000e-01) (194, 3, 5.00000000000000000000e-01) (194, 3, 5.00000000000000000000e-01) (194, 3, 5.00000000000000000000e-01) (194, 3, 5.00000000000000000000e-01) (194, 3, 5.00000000000000000000e-01) (194, 3, 5.00000000000000000000e-01) (194, 3, 5.00000000000000000000e-01) (194, 3, 5.00000000000000000000e-01) (194, 3, 5.00000000000000000000e-01) (194, 3, 5.00000000000000000000e-01) (194, 3, 5.00000000000000000000e-01) (194, 3, 5.00000000000000000000e-01) (194, 3, 5.00000000000000000000e-01) (194, 3, 5.00000000000000000000e-01) (0, 3, 0.00000000000000000000e+00) (33, 3, 5.00000000000000000000e-01) (33, 3, 5.00000000000000000000e-01) (33, 3, 5.00000000000000000000e-01) (33, 3, 5.00000000000000000000e-01) (33, 3, 5.00000000000000000000e-01) (33, 3, 5.00000000000000000000e-01) (33, 3, 5.00000000000000000000e-01) (33, 3, 5.00000000000000000000e-01) (0, 3, 0.00000000000000000000e+00) (9, 3, 5.00000000000000000000e-01) (9, 3, 5.00000000000000000000e-01) (9, 3, 5.00000000000000000000e-01) (9, 3, 5.00000000000000000000e-01) (0, 3, 0.00000000000000000000e+00) 
connections (connected_to_neuron, weight)=(0, -7.23805618286132812500e+00) (1, -1.13179244995117187500e+01) (2, 1.80881416797637939453e+00) (3, 5.34354639053344726562e+00) (4, 3.55318450927734375000e+00) (5, 7.61542841792106628418e-03) (6, 3.45179200172424316406e-01) (7, -4.45574951171875000000e+00) (8, -3.11454248428344726562e+00) (9, 6.20675659179687500000e+00) (10, 2.92415797710418701172e-01) (11, 1.83990228176116943359e+00) (12, -1.72679972648620605469e+00) (13, 1.32356321811676025391e+00) (14, 4.22918647527694702148e-01) (15, -8.83560121059417724609e-01) (16, -4.40550756454467773438e+00) (17, 2.36336660385131835938e+00) (18, 5.54427480697631835938e+00) (19, 8.86093020439147949219e-01) (20, 1.38912191390991210938e+01) (21, 2.39865183830261230469e+00) (22, -2.12864685058593750000e+00) (23, 1.94234561920166015625e+00) (24, 3.02757096290588378906e+00) (25, 2.30609130859375000000e+00) (26, 1.09395611286163330078e+00) (27, 6.30361413955688476562e+00) (28, -2.81051349639892578125e+00) (29, -1.59460258483886718750e+00) (30, 1.00063300132751464844e+00) (31, 6.25609815120697021484e-01) (32, -1.51305475234985351562e+01) (33, 1.87316966056823730469e+00) (34, -3.35892534255981445312e+00) (35, -5.45174980163574218750e+00) (36, 7.78865098953247070312e-01) (37, 3.51256418228149414062e+00) (38, -1.50086164474487304688e+00) (39, -1.26237988471984863281e+00) (40, -3.94431734085083007812e+00) (41, 6.61697959899902343750e+00) (42, -1.25135183334350585938e+00) (43, 2.14306998252868652344e+00) (44, 1.98737728595733642578e+00) (45, 1.78029286861419677734e+00) (46, 4.45097398757934570312e+00) (47, 1.50000000000000000000e+03) (48, 1.50000000000000000000e+03) (49, 1.50000000000000000000e+03) (50, 1.50000000000000000000e+03) (51, 1.50000000000000000000e+03) (52, 1.50000000000000000000e+03) (53, 1.50000000000000000000e+03) (54, 1.50000000000000000000e+03) (55, 1.50000000000000000000e+03) (56, 1.50000000000000000000e+03) (57, 1.50000000000000000000e+03) (58, 1.50000000000000000000e+03) (59, 1.50000000000000000000e+03) (60, 1.24157249927520751953e+00) (61, 1.46785080432891845703e+00) (62, 1.08497071266174316406e+00) (63, 8.98242533206939697266e-01) (64, 1.19073092937469482422e+00) (65, 1.04274797439575195312e+00) (66, 1.36780047416687011719e+00) (67, 1.04468965530395507812e+00) (68, 1.09144032001495361328e+00) (69, 1.12560379505157470703e+00) (70, 1.21333575248718261719e+00) (71, 1.16703534126281738281e+00) (72, 1.11043536663055419922e+00) (73, 1.15518641471862792969e+00) (74, 1.21798241138458251953e+00) (75, 1.13915216922760009766e+00) (76, 1.15059995651245117188e+00) (77, 1.09263932704925537109e+00) (78, 1.08275949954986572266e+00) (79, 1.39569115638732910156e+00) (80, 1.11804401874542236328e+00) (81, 1.09962725639343261719e+00) (82, 1.13519799709320068359e+00) (83, 1.29070484638214111328e+00) (84, 1.21588993072509765625e+00) (85, 1.05438101291656494141e+00) (86, 3.54717516899108886719e+00) (87, 3.45120811462402343750e+00) (88, -7.41475641727447509766e-01) (89, -2.29742020368576049805e-01) (90, 7.74558842182159423828e-01) (91, 1.70789146423339843750e+01) (92, 1.08851261138916015625e+01) (93, 7.14088022708892822266e-01) (94, 1.50000000000000000000e+03) (95, 1.50000000000000000000e+03) (96, 1.50000000000000000000e+03) (97, 1.50000000000000000000e+03) (98, 1.50000000000000000000e+03) (99, 1.50000000000000000000e+03) (100, 1.50000000000000000000e+03) (101, 1.50000000000000000000e+03) (102, 1.50000000000000000000e+03) (103, 1.50000000000000000000e+03) (104, 1.50000000000000000000e+03) (105, 1.50000000000000000000e+03) (106, 1.50000000000000000000e+03) (107, -6.56103706359863281250e+00) (108, -8.29938507080078125000e+00) (109, 7.58769226074218750000e+00) (110, -1.73488187789916992188e+00) (111, -1.75555616617202758789e-01) (112, 1.39391303062438964844e+00) (113, 4.93682193756103515625e+00) (114, 1.07301509380340576172e+00) (115, -5.86742258071899414062e+00) (116, -6.10012578964233398438e+00) (117, 4.53131532669067382812e+00) (118, 7.73719978332519531250e+00) (119, 6.41622447967529296875e+00) (120, -2.86495894193649291992e-01) (121, -1.02443322539329528809e-01) (122, 2.19201952219009399414e-01) (123, -8.15914198756217956543e-02) (124, 1.14714646339416503906e+00) (125, -1.60023435950279235840e-01) (126, -9.02366161346435546875e-01) (127, 1.41810762882232666016e+00) (128, 7.55315124988555908203e-02) (129, -1.99732100963592529297e+00) (130, 2.18293726444244384766e-01) (131, -1.92843884229660034180e-01) (132, 9.53097701072692871094e-01) (133, -1.37794244289398193359e+00) (134, 1.52048473358154296875e+01) (135, -1.35395121574401855469e+00) (136, -1.01608264446258544922e+00) (137, -4.71818161010742187500e+00) (138, 3.03709125518798828125e+00) (139, -2.21891903877258300781e+00) (140, -6.67678117752075195312e+00) (141, 1.50000000000000000000e+03) (142, 1.50000000000000000000e+03) (143, 1.50000000000000000000e+03) (144, 1.50000000000000000000e+03) (145, 1.50000000000000000000e+03) (146, 1.50000000000000000000e+03) (147, 1.50000000000000000000e+03) (148, 1.50000000000000000000e+03) (149, 1.50000000000000000000e+03) (150, 1.50000000000000000000e+03) (151, 1.50000000000000000000e+03) (152, 1.50000000000000000000e+03) (153, 1.50000000000000000000e+03) (154, 4.78098034858703613281e-01) (155, 2.70594453811645507812e+00) (156, 3.02555114030838012695e-01) (157, 3.73932510614395141602e-01) (158, 5.34106567502021789551e-02) (159, 2.97391563653945922852e-01) (160, 1.55204200744628906250e+00) (161, -9.17212009429931640625e+00) (162, 9.67273473739624023438e-01) (163, 7.34645605087280273438e-01) (164, 2.19971805810928344727e-01) (165, 7.24460065364837646484e-01) (166, -7.24127769470214843750e-01) (167, 7.95140266418457031250e-01) (168, 2.91215443611145019531e+00) (169, 1.47961303591728210449e-01) (170, 3.79253625869750976562e-01) (171, -5.01398146152496337891e-01) (172, 2.55189865827560424805e-01) (173, 1.87553250789642333984e+00) (174, -7.24582719802856445312e+00) (175, 6.94970667362213134766e-01) (176, 7.03812301158905029297e-01) (177, 2.55596518516540527344e-01) (178, 2.73255085945129394531e+00) (179, -8.20631802082061767578e-01) (180, 5.47916507720947265625e+00) (181, -3.23174023628234863281e+00) (182, 2.19395828247070312500e+00) (183, 2.33694478869438171387e-01) (184, -1.19326770305633544922e+00) (185, 2.10891699790954589844e+00) (186, 2.47247293591499328613e-01) (187, 7.14321613311767578125e+00) (188, 1.12522993087768554688e+01) (189, 2.89311438798904418945e-01) (190, -9.66329002380371093750e+00) (191, -5.36990356445312500000e+00) (192, 2.29571938514709472656e-01) (193, -3.09116721153259277344e+00) (0, 6.31716299057006835938e+00) (1, 1.21293842792510986328e+00) (2, 3.92914265394210815430e-01) (3, -9.88369643688201904297e-01) (4, 1.93229722976684570312e+00) (5, 9.05050933361053466797e-01) (6, 9.97282087802886962891e-01) (7, 6.67224550247192382812e+00) (8, 3.03233861923217773438e+00) (9, 1.94161921739578247070e-01) (10, -3.03151488304138183594e+00) (11, 1.29783973097801208496e-01) (12, -6.03657865524291992188e+00) (13, -4.74135547876358032227e-01) (14, -1.66121435165405273438e+00) (15, -8.97762119770050048828e-01) (16, -1.95119130611419677734e+00) (17, 1.08655726909637451172e+00) (18, 4.24250960350036621094e-01) (19, 2.81686949729919433594e+00) (20, 4.07782220840454101562e+00) (21, -6.63857877254486083984e-01) (22, -2.19479131698608398438e+00) (23, -1.05567431449890136719e+00) (24, -4.09267276525497436523e-01) (25, 1.41267883777618408203e+00) (26, -2.06481397151947021484e-01) (27, 5.68944513797760009766e-01) (28, 4.90462958812713623047e-01) (29, 1.03176295757293701172e+00) (30, 9.60766613483428955078e-01) (31, 1.63172364234924316406e+00) (32, -2.19339752197265625000e+00) (33, 1.91305708885192871094e+00) (34, -2.35703992843627929688e+00) (35, 4.87799823284149169922e-01) (36, 7.72019661962985992432e-03) (37, 2.64776015281677246094e+00) (38, 1.99455702304840087891e+00) (39, 1.25301122665405273438e+00) (40, 1.02825450897216796875e+00) (41, 3.47577619552612304688e+00) (42, -2.82387156039476394653e-02) (43, -8.41402485966682434082e-02) (44, 1.46971149370074272156e-02) (45, -4.47012744843959808350e-02) (46, 1.49622035026550292969e+00) (47, 1.50000000000000000000e+03) (48, 1.50000000000000000000e+03) (49, 1.50000000000000000000e+03) (50, 1.50000000000000000000e+03) (51, 1.50000000000000000000e+03) (52, 1.50000000000000000000e+03) (53, 1.50000000000000000000e+03) (54, 1.50000000000000000000e+03) (55, 1.50000000000000000000e+03) (56, 1.50000000000000000000e+03) (57, 1.50000000000000000000e+03) (58, 1.50000000000000000000e+03) (59, 1.50000000000000000000e+03) (60, -7.33829364180564880371e-02) (61, 7.32222646474838256836e-02) (62, 1.63345113396644592285e-02) (63, -1.15369841456413269043e-01) (64, 2.42238375358283519745e-03) (65, -3.27139929868280887604e-03) (66, -8.79968851804733276367e-02) (67, -7.75864124298095703125e-02) (68, -8.17426890134811401367e-02) (69, -4.10548001527786254883e-02) (70, 1.81812886148691177368e-02) (71, 1.10627664253115653992e-02) (72, -8.02752003073692321777e-02) (73, -8.01751539111137390137e-02) (74, 5.85154443979263305664e-02) (75, -1.19119264185428619385e-01) (76, -1.40802003443241119385e-03) (77, 6.02089986205101013184e-02) (78, 4.11000885069370269775e-02) (79, -1.30443340167403221130e-02) (80, -3.02602332085371017456e-02) (81, 1.07281794771552085876e-02) (82, 1.95950642228126525879e-02) (83, -8.76595899462699890137e-02) (84, 4.24710661172866821289e-02) (85, 2.36334856599569320679e-02) (86, -5.41835403442382812500e+00) (87, -2.09404540061950683594e+00) (88, 1.09215939044952392578e+00) (89, -8.68157982826232910156e-01) (90, 2.27852880954742431641e-01) (91, 8.75391662120819091797e-01) (92, 1.93169146776199340820e-01) (93, -1.00181989371776580811e-01) (94, 1.50000000000000000000e+03) (95, 1.50000000000000000000e+03) (96, 1.50000000000000000000e+03) (97, 1.50000000000000000000e+03) (98, 1.50000000000000000000e+03) (99, 1.50000000000000000000e+03) (100, 1.50000000000000000000e+03) (101, 1.50000000000000000000e+03) (102, 1.50000000000000000000e+03) (103, 1.50000000000000000000e+03) (104, 1.50000000000000000000e+03) (105, 1.50000000000000000000e+03) (106, 1.50000000000000000000e+03) (107, -7.90226906538009643555e-02) (108, -6.12675487995147705078e-01) (109, 3.01357898861169815063e-02) (110, -9.41917657852172851562e-01) (111, 2.84379154443740844727e-01) (112, 1.90845239162445068359e+00) (113, -2.40009307861328125000e+00) (114, -2.01625570654869079590e-01) (115, -5.14418840408325195312e-01) (116, -5.17460405826568603516e-01) (117, 2.77418112754821777344e+00) (118, -1.30158603191375732422e+00) (119, 4.09654760360717773438e+00) (120, -1.40908920764923095703e+00) (121, 3.47469061613082885742e-01) (122, 9.25989866256713867188e-01) (123, 3.25200170278549194336e-01) (124, 3.78132313489913940430e-01) (125, 2.78773367404937744141e-01) (126, 2.48392358422279357910e-01) (127, 9.16907608509063720703e-01) (128, 4.75344449281692504883e-01) (129, 8.66577178239822387695e-02) (130, 3.37001770734786987305e-01) (131, 2.78661817312240600586e-01) (132, 5.40491878986358642578e-01) (133, -4.63494271039962768555e-01) (134, 4.91154491901397705078e-01) (135, -4.45663273334503173828e-01) (136, 2.52221035957336425781e+00) (137, -2.26470232009887695312e+00) (138, 1.86743164062500000000e+00) (139, -2.24213552474975585938e+00) (140, -5.80513668060302734375e+00) (141, 1.50000000000000000000e+03) (142, 1.50000000000000000000e+03) (143, 1.50000000000000000000e+03) (144, 1.50000000000000000000e+03) (145, 1.50000000000000000000e+03) (146, 1.50000000000000000000e+03) (147, 1.50000000000000000000e+03) (148, 1.50000000000000000000e+03) (149, 1.50000000000000000000e+03) (150, 1.50000000000000000000e+03) (151, 1.50000000000000000000e+03) (152, 1.50000000000000000000e+03) (153, 1.50000000000000000000e+03) (154, 2.35373154282569885254e-01) (155, 3.24627667665481567383e-01) (156, 2.68964320421218872070e-01) (157, 6.73154145479202270508e-02) (158, 3.76624137163162231445e-01) (159, 2.24789470434188842773e-01) (160, 1.22759237885475158691e-01) (161, -6.70159816741943359375e-01) (162, 2.80845612287521362305e-01) (163, 1.63230791687965393066e-01) (164, 1.90005525946617126465e-01) (165, 9.46311578154563903809e-02) (166, 2.75267940014600753784e-03) (167, 3.21270853281021118164e-01) (168, 6.63487240672111511230e-02) (169, 1.90966263413429260254e-01) (170, 5.58994114398956298828e-02) (171, -8.68802219629287719727e-02) (172, 2.28167608380317687988e-01) (173, 1.69858470559120178223e-01) (174, -6.55098915100097656250e-01) (175, 1.82215049862861633301e-01) (176, 2.04869866371154785156e-01) (177, 2.67507553100585937500e-01) (178, 3.92003804445266723633e-01) (179, -2.94037926942110061646e-02) (180, 4.58658784627914428711e-01) (181, -3.54136323928833007812e+00) (182, -1.02722561359405517578e+00) (183, 4.46441555023193359375e+00) (184, -2.64911603927612304688e+00) (185, 1.66034555435180664062e+00) (186, 5.54850435256958007812e+00) (187, 4.74115085601806640625e+00) (188, -1.78700470924377441406e+00) (189, 5.21779727935791015625e+00) (190, -2.88903522491455078125e+00) (191, -4.69069147109985351562e+00) (192, 1.48804616928100585938e+00) (193, -3.18501979112625122070e-01) (0, -3.16587519645690917969e+00) (1, 9.30197775363922119141e-01) (2, 1.17170553207397460938e+01) (3, 6.87332689762115478516e-01) (4, -4.55461800098419189453e-01) (5, 7.47742295265197753906e-01) (6, 6.96302413940429687500e-01) (7, -2.69251883029937744141e-01) (8, 9.67634499073028564453e-01) (9, -6.27062976360321044922e-01) (10, 9.67949211597442626953e-01) (11, 3.93405699729919433594e+00) (12, -1.28557956218719482422e+00) (13, -3.89278233051300048828e-01) (14, 8.75908553600311279297e-01) (15, -1.54741013050079345703e+00) (16, -7.59390652179718017578e-01) (17, -2.41363930702209472656e+00) (18, 4.72219586372375488281e-01) (19, 1.92846441268920898438e+00) (20, 3.15897774696350097656e+00) (21, 2.61847496032714843750e+00) (22, -6.54959499835968017578e-01) (23, -8.31882119178771972656e-01) (24, -6.64286166429519653320e-02) (25, -5.85476577281951904297e-01) (26, -1.33717644214630126953e+00) (27, 1.62054347991943359375e+00) (28, 9.76499140262603759766e-01) (29, -1.01443029940128326416e-01) (30, -2.44363576173782348633e-01) (31, -5.62064409255981445312e-01) (32, -3.71141839027404785156e+00) (33, 6.91577851772308349609e-01) (34, 3.75902116298675537109e-01) (35, 1.31032431125640869141e+00) (36, -5.80305576324462890625e-01) (37, 3.35942469537258148193e-02) (38, -1.39996969699859619141e+00) (39, -5.01871764659881591797e-01) (40, 2.50495791435241699219e+00) (41, 5.40475893020629882812e+00) (42, 6.98436498641967773438e-01) (43, 3.41292381286621093750e-01) (44, 1.00327086448669433594e+00) (45, 1.23270428180694580078e+00) (46, 1.23347473144531250000e+00) (47, 1.50000000000000000000e+03) (48, 1.50000000000000000000e+03) (49, 1.50000000000000000000e+03) (50, 1.50000000000000000000e+03) (51, 1.50000000000000000000e+03) (52, 1.50000000000000000000e+03) (53, 1.50000000000000000000e+03) (54, 1.50000000000000000000e+03) (55, 1.50000000000000000000e+03) (56, 1.50000000000000000000e+03) (57, 1.50000000000000000000e+03) (58, 1.50000000000000000000e+03) (59, 1.50000000000000000000e+03) (60, 3.84806126356124877930e-01) (61, 3.38718116283416748047e-01) (62, 3.00002336502075195312e-01) (63, 3.58354061841964721680e-01) (64, 3.66787254810333251953e-01) (65, 3.54329884052276611328e-01) (66, 4.67872798442840576172e-01) (67, 2.59465545415878295898e-01) (68, 3.99214357137680053711e-01) (69, 4.37072545289993286133e-01) (70, 3.91966193914413452148e-01) (71, 3.98163199424743652344e-01) (72, 2.43690833449363708496e-01) (73, 3.96948397159576416016e-01) (74, 3.80243510007858276367e-01) (75, 4.81201022863388061523e-01) (76, 3.16320180892944335938e-01) (77, 2.50805318355560302734e-01) (78, 4.42638576030731201172e-01) (79, 4.83658313751220703125e-01) (80, 3.28823149204254150391e-01) (81, 3.67191553115844726562e-01) (82, 4.38880532979965209961e-01) (83, 3.72559905052185058594e-01) (84, 4.96656864881515502930e-01) (85, 2.36038103699684143066e-01) (86, -1.34622800350189208984e+00) (87, 9.36962306499481201172e-01) (88, 2.35850906372070312500e+00) (89, 4.43880856037139892578e-01) (90, -9.51311349868774414062e-01) (91, 2.03835105895996093750e+00) (92, 9.44911670684814453125e+00) (93, -1.68931210041046142578e+00) (94, 1.50000000000000000000e+03) (95, 1.50000000000000000000e+03) (96, 1.50000000000000000000e+03) (97, 1.50000000000000000000e+03) (98, 1.50000000000000000000e+03) (99, 1.50000000000000000000e+03) (100, 1.50000000000000000000e+03) (101, 1.50000000000000000000e+03) (102, 1.50000000000000000000e+03) (103, 1.50000000000000000000e+03) (104, 1.50000000000000000000e+03) (105, 1.50000000000000000000e+03) (106, 1.50000000000000000000e+03) (107, -3.81172388792037963867e-01) (108, 1.47758829593658447266e+00) (109, -2.67142224311828613281e+00) (110, -2.13010001182556152344e+00) (111, -4.84045457839965820312e+00) (112, -1.87357985973358154297e+00) (113, 7.18154311180114746094e-01) (114, 6.73219025135040283203e-01) (115, -6.83589696884155273438e-01) (116, 6.55296817421913146973e-02) (117, -1.16984449326992034912e-01) (118, 2.12234282493591308594e+00) (119, 3.14917016029357910156e+00) (120, -2.96554148197174072266e-01) (121, -1.72744885087013244629e-01) (122, -1.15781143307685852051e-01) (123, -2.87495970726013183594e-01) (124, 1.82904936373233795166e-02) (125, -8.03326815366744995117e-02) (126, 6.62516616284847259521e-03) (127, 2.90226370096206665039e-01) (128, -3.66130560636520385742e-01) (129, -4.71760511398315429688e-01) (130, -2.02567398548126220703e-01) (131, 2.07274898886680603027e-01) (132, -7.92903229594230651855e-02) (133, -2.69171804189682006836e-01) (134, 3.69341969490051269531e+00) (135, -8.75956177711486816406e-01) (136, 4.88521248102188110352e-01) (137, 7.40855336189270019531e-01) (138, -6.03053808212280273438e-01) (139, -1.84147000312805175781e+00) (140, -7.30803549289703369141e-01) (141, 1.50000000000000000000e+03) (142, 1.50000000000000000000e+03) (143, 1.50000000000000000000e+03) (144, 1.50000000000000000000e+03) (145, 1.50000000000000000000e+03) (146, 1.50000000000000000000e+03) (147, 1.50000000000000000000e+03) (148, 1.50000000000000000000e+03) (149, 1.50000000000000000000e+03) (150, 1.50000000000000000000e+03) (151, 1.50000000000000000000e+03) (152, 1.50000000000000000000e+03) (153, 1.50000000000000000000e+03) (154, 8.54616940021514892578e-01) (155, 5.89806199073791503906e-01) (156, 9.19873654842376708984e-01) (157, 6.93078994750976562500e-01) (158, 4.49250936508178710938e-01) (159, 3.57618927955627441406e-01) (160, 6.88262581825256347656e-01) (161, 5.29407322406768798828e-01) (162, 7.28382468223571777344e-01) (163, 7.21868097782135009766e-01) (164, 5.55042505264282226562e-01) (165, 7.41848528385162353516e-01) (166, 6.34771466255187988281e-01) (167, 6.70367240905761718750e-01) (168, 6.80742561817169189453e-01) (169, 6.27725660800933837891e-01) (170, 6.24117195606231689453e-01) (171, 5.52873849868774414062e-01) (172, 4.33364927768707275391e-01) (173, 8.95724236965179443359e-01) (174, 5.80281972885131835938e-01) (175, 1.10900473594665527344e+00) (176, 6.82601451873779296875e-01) (177, 6.38725996017456054688e-01) (178, 7.72082567214965820312e-01) (179, 5.15365898609161376953e-01) (180, -1.34990286827087402344e+00) (181, 1.83034670352935791016e+00) (182, -6.54680311679840087891e-01) (183, 9.36365187168121337891e-01) (184, -4.32669544219970703125e+00) (185, -1.61501264572143554688e+00) (186, -2.64817452430725097656e+00) (187, -1.05628275871276855469e+00) (188, 1.80201902985572814941e-02) (189, -1.80942499637603759766e+00) (190, -1.23423719406127929688e+00) (191, -2.52311646938323974609e-01) (192, 5.40883004665374755859e-01) (193, -1.48600172996520996094e+00) (0, 3.46047949790954589844e+00) (1, -2.47896075248718261719e+00) (2, 1.55400142073631286621e-01) (3, 9.29632127285003662109e-01) (4, 9.81875717639923095703e-01) (5, -3.24577629566192626953e-01) (6, -1.09715148806571960449e-01) (7, 1.00700318813323974609e+00) (8, 1.83076393604278564453e+00) (9, -2.12275719642639160156e+00) (10, 3.58242988586425781250e+00) (11, 8.15836966037750244141e-01) (12, 6.97594344615936279297e-01) (13, -2.95151352882385253906e+00) (14, -1.83074861764907836914e-01) (15, 2.31262654066085815430e-01) (16, -5.28919026255607604980e-02) (17, 1.28267884254455566406e-01) (18, 1.77841413021087646484e+00) (19, 4.79855597019195556641e-01) (20, 5.34115076065063476562e-01) (21, -5.84745593369007110596e-02) (22, 9.03046131134033203125e-01) (23, -5.73291838169097900391e-01) (24, -1.55135527253150939941e-01) (25, -1.13240666687488555908e-01) (26, -2.97396391630172729492e-01) (27, -2.97206312417984008789e-01) (28, 1.41869843006134033203e-01) (29, 4.01985377073287963867e-01) (30, 7.88074254989624023438e-01) (31, 2.04091048240661621094e+00) (32, 2.66035526990890502930e-01) (33, -4.37377952039241790771e-02) (34, 6.95550814270973205566e-02) (35, -8.68299245834350585938e-01) (36, -1.16410143673419952393e-02) (37, 2.15028166770935058594e+00) (38, 3.15707659721374511719e+00) (39, -4.86266642808914184570e-01) (40, -4.16638225317001342773e-01) (41, 2.18166017532348632812e+00) (42, 2.23559215664863586426e-01) (43, -1.47041633725166320801e-01) (44, -6.37035131454467773438e-01) (45, 6.69337734580039978027e-02) (46, 2.72587418556213378906e+00) (47, 1.50000000000000000000e+03) (48, 1.50000000000000000000e+03) (49, 1.50000000000000000000e+03) (50, 1.50000000000000000000e+03) (51, 1.50000000000000000000e+03) (52, 1.50000000000000000000e+03) (53, 1.50000000000000000000e+03) (54, 1.50000000000000000000e+03) (55, 1.50000000000000000000e+03) (56, 1.50000000000000000000e+03) (57, 1.50000000000000000000e+03) (58, 1.50000000000000000000e+03) (59, 1.50000000000000000000e+03) (60, -3.09143424034118652344e-01) (61, -3.49661976099014282227e-01) (62, -3.02139073610305786133e-01) (63, -2.48944789171218872070e-01) (64, -2.17910662293434143066e-01) (65, -4.40729498863220214844e-01) (66, -2.31766059994697570801e-01) (67, -2.61504232883453369141e-01) (68, -2.82119393348693847656e-01) (69, -4.00976240634918212891e-01) (70, -4.06733542680740356445e-01) (71, -4.12179797887802124023e-01) (72, -2.58170425891876220703e-01) (73, -1.78934246301651000977e-01) (74, -3.61276715993881225586e-01) (75, -3.28404188156127929688e-01) (76, -2.41904675960540771484e-01) (77, -2.88856387138366699219e-01) (78, -4.98597919940948486328e-01) (79, -2.36387923359870910645e-01) (80, -2.46952071785926818848e-01) (81, -3.97237777709960937500e-01) (82, -3.14157873392105102539e-01) (83, -3.11425656080245971680e-01) (84, -3.78089576959609985352e-01) (85, -2.32035771012306213379e-01) (86, -6.15044176578521728516e-01) (87, -1.00629329681396484375e+00) (88, 1.00473606586456298828e+00) (89, 9.23032984137535095215e-02) (90, -1.37418851256370544434e-01) (91, 3.91888439655303955078e-01) (92, 1.04270589351654052734e+00) (93, 3.02482008934020996094e-01) (94, 1.50000000000000000000e+03) (95, 1.50000000000000000000e+03) (96, 1.50000000000000000000e+03) (97, 1.50000000000000000000e+03) (98, 1.50000000000000000000e+03) (99, 1.50000000000000000000e+03) (100, 1.50000000000000000000e+03) (101, 1.50000000000000000000e+03) (102, 1.50000000000000000000e+03) (103, 1.50000000000000000000e+03) (104, 1.50000000000000000000e+03) (105, 1.50000000000000000000e+03) (106, 1.50000000000000000000e+03) (107, -1.95628726482391357422e+00) (108, 1.07640945911407470703e+00) (109, 1.18422113358974456787e-01) (110, -2.02205941081047058105e-01) (111, 6.28697931766510009766e-01) (112, -7.36857712268829345703e-01) (113, -2.44142627716064453125e+00) (114, 9.44315373897552490234e-01) (115, 2.57316708564758300781e-01) (116, -2.02361798286437988281e+00) (117, 4.35814666748046875000e+00) (118, 1.12154281139373779297e+00) (119, 1.83507668972015380859e+00) (120, 2.01357483863830566406e-01) (121, 1.80558294057846069336e-01) (122, 4.53914582729339599609e-01) (123, 5.22977709770202636719e-01) (124, 1.96508929133415222168e-01) (125, 3.44230502843856811523e-01) (126, 3.65763634443283081055e-01) (127, 1.42458736896514892578e+00) (128, 5.80558896064758300781e-01) (129, 4.72999989986419677734e-01) (130, 5.10642409324645996094e-01) (131, -2.10463199764490127563e-02) (132, 9.49078798294067382812e-01) (133, -1.59926187992095947266e+00) (134, -1.62240481376647949219e+00) (135, 4.76919740438461303711e-01) (136, 1.95366561412811279297e+00) (137, -7.65570044517517089844e-01) (138, 2.38783001899719238281e+00) (139, -5.51535069942474365234e-01) (140, -2.53197693824768066406e+00) (141, 1.50000000000000000000e+03) (142, 1.50000000000000000000e+03) (143, 1.50000000000000000000e+03) (144, 1.50000000000000000000e+03) (145, 1.50000000000000000000e+03) (146, 1.50000000000000000000e+03) (147, 1.50000000000000000000e+03) (148, 1.50000000000000000000e+03) (149, 1.50000000000000000000e+03) (150, 1.50000000000000000000e+03) (151, 1.50000000000000000000e+03) (152, 1.50000000000000000000e+03) (153, 1.50000000000000000000e+03) (154, 6.38725161552429199219e-01) (155, 1.38844028115272521973e-01) (156, 1.42730074003338813782e-02) (157, 6.60969838500022888184e-02) (158, 5.84287121891975402832e-02) (159, 3.80861349403858184814e-02) (160, 2.04633101820945739746e-02) (161, -2.48268410563468933105e-01) (162, 4.50756959617137908936e-02) (163, 1.11596487462520599365e-01) (164, -2.12427496910095214844e-01) (165, 1.14218406379222869873e-01) (166, -7.43800699710845947266e-02) (167, 5.16042292118072509766e-01) (168, 1.83164268732070922852e-01) (169, 1.07127562165260314941e-01) (170, 1.35048732161521911621e-01) (171, -1.47378398105502128601e-02) (172, 1.45811028778553009033e-02) (173, 1.18079066276550292969e-01) (174, -1.32694780826568603516e-01) (175, -1.45690795034170150757e-03) (176, 9.69806499779224395752e-03) (177, -7.97508656978607177734e-02) (178, -2.80071701854467391968e-02) (179, 1.52401015162467956543e-01) (180, -4.36308294534683227539e-01) (181, 3.03832459449768066406e+00) (182, 1.34428012371063232422e+00) (183, 1.62360692024230957031e+00) (184, 5.08516907691955566406e-01) (185, -7.78455018997192382812e-01) (186, 2.03024938702583312988e-01) (187, 3.30241203308105468750e-01) (188, 7.07153797149658203125e-01) (189, 7.86840975284576416016e-01) (190, 6.58633291721343994141e-01) (191, 1.55954575538635253906e+00) (192, 2.96721792221069335938e+00) (193, -1.68914332985877990723e-01) (0, 3.23176741600036621094e+00) (1, -1.33901052474975585938e+01) (2, 6.75453901290893554688e+00) (3, 1.92145037651062011719e+00) (4, 1.71592915058135986328e+00) (5, 3.30465030670166015625e+00) (6, 8.18311989307403564453e-01) (7, 1.31397180557250976562e+01) (8, 3.67219671607017517090e-02) (9, 1.94597792625427246094e+00) (10, -1.37530350685119628906e+00) (11, 4.31883335113525390625e+00) (12, 9.87899208068847656250e+00) (13, -3.43802237510681152344e+00) (14, 4.93706274032592773438e+00) (15, 1.39018917083740234375e+00) (16, -3.18845486640930175781e+00) (17, -6.41844892501831054688e+00) (18, -3.99219703674316406250e+00) (19, -7.71444499492645263672e-01) (20, 1.23101511001586914062e+01) (21, -8.35167467594146728516e-01) (22, 1.13157939910888671875e+00) (23, 2.90388965606689453125e+00) (24, 3.22699844837188720703e-01) (25, 3.65630793571472167969e+00) (26, 5.12123227119445800781e-01) (27, 1.13069021701812744141e+00) (28, -1.51449906826019287109e+00) (29, -1.13418650627136230469e+00) (30, -3.48543971776962280273e-01) (31, 2.44526886940002441406e+00) (32, -4.83518743515014648438e+00) (33, 2.36948704719543457031e+00) (34, -5.98883390426635742188e-01) (35, 8.52043819427490234375e+00) (36, -1.13337469100952148438e+01) (37, 1.66181713342666625977e-01) (38, 6.21632337570190429688e-01) (39, -2.01598215103149414062e+00) (40, 1.05597295761108398438e+01) (41, 7.60920763015747070312e+00) (42, 2.91346979141235351562e+00) (43, 1.77242338657379150391e+00) (44, 1.44514572620391845703e+00) (45, 3.76617765426635742188e+00) (46, 1.14361560344696044922e+00) (47, 1.50000000000000000000e+03) (48, 1.50000000000000000000e+03) (49, 1.50000000000000000000e+03) (50, 1.50000000000000000000e+03) (51, 1.50000000000000000000e+03) (52, 1.50000000000000000000e+03) (53, 1.50000000000000000000e+03) (54, 1.50000000000000000000e+03) (55, 1.50000000000000000000e+03) (56, 1.50000000000000000000e+03) (57, 1.50000000000000000000e+03) (58, 1.50000000000000000000e+03) (59, 1.50000000000000000000e+03) (60, 1.60705637931823730469e+00) (61, 1.54867732524871826172e+00) (62, 7.44644224643707275391e-01) (63, 1.47479009628295898438e+00) (64, 7.50887811183929443359e-01) (65, 7.17981457710266113281e-01) (66, 1.51833701133728027344e+00) (67, 1.43076145648956298828e+00) (68, 1.47411561012268066406e+00) (69, 1.41719388961791992188e+00) (70, 1.48863327503204345703e+00) (71, 1.45489692687988281250e+00) (72, 1.48312163352966308594e+00) (73, 1.53235805034637451172e+00) (74, 1.53534126281738281250e+00) (75, 8.72023999691009521484e-01) (76, 1.48942720890045166016e+00) (77, 7.97677338123321533203e-01) (78, 7.29366242885589599609e-01) (79, 1.40923583507537841797e+00) (80, 7.77984559535980224609e-01) (81, 1.56857466697692871094e+00) (82, 1.58154714107513427734e+00) (83, 1.60422289371490478516e+00) (84, 1.44614529609680175781e+00) (85, 1.34795713424682617188e+00) (86, 2.51860308647155761719e+00) (87, -1.78570985794067382812e+00) (88, 2.54636287689208984375e+00) (89, -3.30386328697204589844e+00) (90, -1.79683446884155273438e+00) (91, 7.37881720066070556641e-01) (92, 2.44155502319335937500e+00) (93, -2.23199534416198730469e+00) (94, 1.50000000000000000000e+03) (95, 1.50000000000000000000e+03) (96, 1.50000000000000000000e+03) (97, 1.50000000000000000000e+03) (98, 1.50000000000000000000e+03) (99, 1.50000000000000000000e+03) (100, 1.50000000000000000000e+03) (101, 1.50000000000000000000e+03) (102, 1.50000000000000000000e+03) (103, 1.50000000000000000000e+03) (104, 1.50000000000000000000e+03) (105, 1.50000000000000000000e+03) (106, 1.50000000000000000000e+03) (107, 4.06177902221679687500e+00) (108, 5.52287530899047851562e+00) (109, 6.38427162170410156250e+00) (110, -4.47030782699584960938e+00) (111, -5.78665590286254882812e+00) (112, 1.46240842342376708984e+00) (113, 5.92128753662109375000e+00) (114, 9.16576576232910156250e+00) (115, -1.95042133331298828125e+00) (116, 5.03175449371337890625e+00) (117, -3.95121669769287109375e+00) (118, 5.50834059715270996094e-01) (119, 4.46894550323486328125e+00) (120, -7.38329172134399414062e-01) (121, -1.24220475554466247559e-01) (122, -5.00394046306610107422e-01) (123, -5.52586913108825683594e-01) (124, -3.60897570848464965820e-01) (125, -5.29022574424743652344e-01) (126, -1.05953641235828399658e-01) (127, 2.20981717109680175781e+00) (128, -7.35395401716232299805e-02) (129, 4.15110856294631958008e-01) (130, -1.83401286602020263672e-01) (131, 2.81839460134506225586e-01) (132, -3.98602224886417388916e-02) (133, 1.11703589558601379395e-01) (134, 2.24788689613342285156e+00) (135, 6.82389974594116210938e-01) (136, 6.69428586959838867188e-01) (137, -1.04158163070678710938e+00) (138, -9.51866626739501953125e-01) (139, 3.67941880226135253906e+00) (140, -8.74818623065948486328e-01) (141, 1.50000000000000000000e+03) (142, 1.50000000000000000000e+03) (143, 1.50000000000000000000e+03) (144, 1.50000000000000000000e+03) (145, 1.50000000000000000000e+03) (146, 1.50000000000000000000e+03) (147, 1.50000000000000000000e+03) (148, 1.50000000000000000000e+03) (149, 1.50000000000000000000e+03) (150, 1.50000000000000000000e+03) (151, 1.50000000000000000000e+03) (152, 1.50000000000000000000e+03) (153, 1.50000000000000000000e+03) (154, 3.21387863159179687500e+00) (155, 5.25585949420928955078e-01) (156, 7.76023626327514648438e-01) (157, 1.16710114479064941406e+00) (158, 8.36318552494049072266e-01) (159, 5.21362602710723876953e-01) (160, 1.14687144756317138672e+00) (161, 1.15772396326065063477e-01) (162, 7.50492691993713378906e-01) (163, 9.80339944362640380859e-01) (164, 6.38655781745910644531e-01) (165, 9.62958753108978271484e-01) (166, 5.66762149333953857422e-01) (167, 3.47132921218872070312e+00) (168, 4.76075410842895507812e-01) (169, 4.86673831939697265625e-01) (170, 5.17171621322631835938e-01) (171, 1.15409982204437255859e+00) (172, 7.78656482696533203125e-01) (173, 8.09468984603881835938e-01) (174, 3.67106907069683074951e-02) (175, 6.73334240913391113281e-01) (176, 9.34510946273803710938e-01) (177, 1.15327167510986328125e+00) (178, 9.58459198474884033203e-01) (179, 5.87736725807189941406e-01) (180, -3.06375861167907714844e+00) (181, -4.85817164182662963867e-01) (182, -1.94146239757537841797e+00) (183, -4.28359460830688476562e+00) (184, 4.36621308326721191406e-01) (185, -1.15250790119171142578e+00) (186, 1.60483038425445556641e+00) (187, 1.26461887359619140625e+00) (188, -4.31343460083007812500e+00) (189, -1.26865816116333007812e+01) (190, -1.68794274330139160156e+00) (191, 1.68590474128723144531e+00) (192, -3.59486460685729980469e+00) (193, 3.71228419244289398193e-02) (0, 1.19802837371826171875e+01) (1, 2.73014926910400390625e+00) (2, -1.37384998798370361328e+00) (3, 7.77293801307678222656e-01) (4, 9.11917816847562789917e-03) (5, -3.95637392997741699219e+00) (6, 1.45803570747375488281e+00) (7, -1.44140505790710449219e+00) (8, 1.23665153980255126953e+00) (9, 1.53647279739379882812e+00) (10, -4.09191370010375976562e-01) (11, 1.08058583736419677734e+00) (12, 2.80572700500488281250e+00) (13, 2.78883039951324462891e-01) (14, 1.61496508121490478516e+00) (15, 8.24715375900268554688e-01) (16, 2.04477334022521972656e+00) (17, 1.07058553695678710938e+01) (18, 6.80547618865966796875e+00) (19, 5.24714374542236328125e+00) (20, -4.78356218338012695312e+00) (21, 3.71804893016815185547e-01) (22, 2.30628561973571777344e+00) (23, -6.21893823146820068359e-01) (24, 1.06431007385253906250e+00) (25, 2.26573657989501953125e+00) (26, 2.70649218559265136719e+00) (27, -2.90159970521926879883e-01) (28, 1.83576509356498718262e-01) (29, 6.54595941305160522461e-02) (30, -2.89148569107055664062e+00) (31, 6.47043704986572265625e-01) (32, 4.32510995864868164062e+00) (33, -6.88038170337677001953e-01) (34, 9.55827534198760986328e-01) (35, 1.28531491756439208984e+00) (36, 4.04176425933837890625e+00) (37, -5.34031343460083007812e+00) (38, -6.43420219421386718750e-01) (39, -4.90730971097946166992e-01) (40, -3.24591249227523803711e-02) (41, 2.04151487350463867188e+00) (42, -3.89451580122113227844e-03) (43, 4.92842048406600952148e-01) (44, 5.03899633884429931641e-01) (45, 6.01815998554229736328e-01) (46, -1.88263881206512451172e+00) (47, 1.50000000000000000000e+03) (48, 1.50000000000000000000e+03) (49, 1.50000000000000000000e+03) (50, 1.50000000000000000000e+03) (51, 1.50000000000000000000e+03) (52, 1.50000000000000000000e+03) (53, 1.50000000000000000000e+03) (54, 1.50000000000000000000e+03) (55, 1.50000000000000000000e+03) (56, 1.50000000000000000000e+03) (57, 1.50000000000000000000e+03) (58, 1.50000000000000000000e+03) (59, 1.50000000000000000000e+03) (60, 4.31165605783462524414e-01) (61, 7.08757698535919189453e-01) (62, 4.20733958482742309570e-01) (63, 4.89787727594375610352e-01) (64, 6.97531402111053466797e-01) (65, 6.83159589767456054688e-01) (66, 6.61501109600067138672e-01) (67, 6.98057949542999267578e-01) (68, 5.61293005943298339844e-01) (69, 8.33440795540809631348e-02) (70, 6.62725687026977539062e-01) (71, 5.99401056766510009766e-01) (72, 7.05692827701568603516e-01) (73, 5.69848179817199707031e-01) (74, 5.54853916168212890625e-01) (75, 5.27902066707611083984e-01) (76, 5.80910563468933105469e-01) (77, 7.25943326950073242188e-01) (78, 6.57441139221191406250e-01) (79, 7.05468058586120605469e-01) (80, 7.47885286808013916016e-01) (81, 7.17732667922973632812e-01) (82, 6.23062029480934143066e-02) (83, 6.46553993225097656250e-01) (84, 4.28360849618911743164e-01) (85, 6.79632723331451416016e-01) (86, 1.54789793491363525391e+00) (87, 1.89956545829772949219e+00) (88, 1.99659383296966552734e+00) (89, 6.38185310363769531250e+00) (90, -8.27314794063568115234e-01) (91, -9.14101064205169677734e-01) (92, -1.45748376846313476562e+00) (93, -2.36791685223579406738e-01) (94, 1.50000000000000000000e+03) (95, 1.50000000000000000000e+03) (96, 1.50000000000000000000e+03) (97, 1.50000000000000000000e+03) (98, 1.50000000000000000000e+03) (99, 1.50000000000000000000e+03) (100, 1.50000000000000000000e+03) (101, 1.50000000000000000000e+03) (102, 1.50000000000000000000e+03) (103, 1.50000000000000000000e+03) (104, 1.50000000000000000000e+03) (105, 1.50000000000000000000e+03) (106, 1.50000000000000000000e+03) (107, 2.77170467376708984375e+00) (108, 8.43580055236816406250e+00) (109, 6.70923566818237304688e+00) (110, 4.57591342926025390625e+00) (111, 1.91201388835906982422e+00) (112, 1.76670193672180175781e+00) (113, 2.37723493576049804688e+00) (114, 3.21840310096740722656e+00) (115, -1.06472998857498168945e-01) (116, 7.70097112655639648438e+00) (117, 7.93834209442138671875e+00) (118, 3.28432178497314453125e+00) (119, -3.98348212242126464844e-01) (120, 4.17787408828735351562e+00) (121, 9.98100414872169494629e-02) (122, 6.63090646266937255859e-01) (123, -2.93211489915847778320e-02) (124, -3.87059867382049560547e-01) (125, 1.17410385608673095703e+00) (126, 1.29543042182922363281e+00) (127, -1.25863328576087951660e-01) (128, 5.52681803703308105469e-01) (129, 7.94669017195701599121e-02) (130, 3.42719286680221557617e-01) (131, 1.50263771414756774902e-01) (132, -2.16236054897308349609e-01) (133, 2.92716479301452636719e+00) (134, -8.97327995300292968750e+00) (135, 3.60065817832946777344e+00) (136, -1.83257237076759338379e-01) (137, 1.84733986854553222656e+00) (138, 1.68259143829345703125e-02) (139, 1.26472175121307373047e-01) (140, 1.30538702011108398438e+00) (141, 1.50000000000000000000e+03) (142, 1.50000000000000000000e+03) (143, 1.50000000000000000000e+03) (144, 1.50000000000000000000e+03) (145, 1.50000000000000000000e+03) (146, 1.50000000000000000000e+03) (147, 1.50000000000000000000e+03) (148, 1.50000000000000000000e+03) (149, 1.50000000000000000000e+03) (150, 1.50000000000000000000e+03) (151, 1.50000000000000000000e+03) (152, 1.50000000000000000000e+03) (153, 1.50000000000000000000e+03) (154, -5.81794071197509765625e+00) (155, 8.24400067329406738281e-01) (156, 8.49309325218200683594e-01) (157, 6.12452387809753417969e-01) (158, 8.41897547245025634766e-01) (159, -4.33197170495986938477e-02) (160, 5.71489632129669189453e-01) (161, 1.70966072082519531250e+01) (162, -3.81540320813655853271e-02) (163, 1.43823921680450439453e+00) (164, 5.43922960758209228516e-01) (165, 2.25332140922546386719e-01) (166, 2.55622506141662597656e+00) (167, -1.82986335754394531250e+01) (168, 1.62643051147460937500e+00) (169, 8.06454956531524658203e-01) (170, 7.37388134002685546875e-01) (171, 1.31984066963195800781e+00) (172, 9.87507253885269165039e-02) (173, 5.48331081867218017578e-01) (174, 3.59955863952636718750e+01) (175, -1.22554826736450195312e+00) (176, 9.15952086448669433594e-01) (177, 6.27173662185668945312e-01) (178, 9.51188728213310241699e-02) (179, 2.41795492172241210938e+00) (180, 4.00914847850799560547e-01) (181, -3.39768409729003906250e+00) (182, 1.91589033603668212891e+00) (183, -6.55876111984252929688e+00) (184, 8.19077610969543457031e-01) (185, 1.98008346557617187500e+00) (186, 6.53283929824829101562e+00) (187, 5.66295623779296875000e-01) (188, 1.00192713737487792969e+00) (189, -2.36864471435546875000e+00) (190, 5.54390239715576171875e+00) (191, 2.02043938636779785156e+00) (192, 8.55842685699462890625e+00) (193, -2.40183040499687194824e-01) (0, 1.40233716964721679688e+01) (1, -1.26507878303527832031e+00) (2, 1.29566848278045654297e+00) (3, 1.02189695835113525391e+00) (4, 1.01313295364379882812e+01) (5, -3.66895556449890136719e+00) (6, 5.28906631469726562500e+00) (7, 1.38637228012084960938e+01) (8, 3.02999186515808105469e+00) (9, 4.77974939346313476562e+00) (10, -1.55485916137695312500e+00) (11, 7.70561790466308593750e+00) (12, -1.38388299942016601562e+00) (13, 3.05479311943054199219e+00) (14, 3.05769801139831542969e+00) (15, -1.40513873100280761719e+00) (16, 1.52052238583564758301e-01) (17, -6.51783466339111328125e+00) (18, -1.66632807254791259766e+00) (19, -1.73747932910919189453e+00) (20, 1.12089672088623046875e+01) (21, -1.49742412567138671875e+00) (22, 7.66206741333007812500e+00) (23, 5.47076940536499023438e+00) (24, 1.58999300003051757812e+00) (25, 1.31140708923339843750e+00) (26, 7.81859278678894042969e-01) (27, -9.61954891681671142578e-02) (28, -3.76228189468383789062e+00) (29, -6.15614891052246093750e-01) (30, -1.70196628570556640625e+00) (31, 6.67529523372650146484e-01) (32, 5.33267974853515625000e+00) (33, 6.14380407333374023438e+00) (34, -7.21585094928741455078e-01) (35, 3.26517748832702636719e+00) (36, 4.61369323730468750000e+00) (37, 5.37323504686355590820e-02) (38, -3.07855010032653808594e+00) (39, 3.62948060035705566406e-01) (40, 1.68125426769256591797e+00) (41, 2.01696562767028808594e+00) (42, 1.55905306339263916016e+00) (43, 4.14692699909210205078e-01) (44, 2.49852871894836425781e+00) (45, 2.32669830322265625000e+00) (46, 2.23314261436462402344e+00) (47, 1.50000000000000000000e+03) (48, 1.50000000000000000000e+03) (49, 1.50000000000000000000e+03) (50, 1.50000000000000000000e+03) (51, 1.50000000000000000000e+03) (52, 1.50000000000000000000e+03) (53, 1.50000000000000000000e+03) (54, 1.50000000000000000000e+03) (55, 1.50000000000000000000e+03) (56, 1.50000000000000000000e+03) (57, 1.50000000000000000000e+03) (58, 1.50000000000000000000e+03) (59, 1.50000000000000000000e+03) (60, 3.54394555091857910156e-01) (61, 5.09023785591125488281e-01) (62, 4.24419850111007690430e-01) (63, 4.74435746669769287109e-01) (64, 5.01071214675903320312e-01) (65, 3.87464761734008789062e-01) (66, 4.41381841897964477539e-01) (67, 3.59197348356246948242e-01) (68, 3.81397008895874023438e-01) (69, 5.19550561904907226562e-01) (70, 4.44761782884597778320e-01) (71, 3.62387925386428833008e-01) (72, 4.51813131570816040039e-01) (73, 4.11262214183807373047e-01) (74, 4.70266580581665039062e-01) (75, 4.05865818262100219727e-01) (76, 4.83742475509643554688e-01) (77, 3.93563657999038696289e-01) (78, 5.03610432147979736328e-01) (79, 4.00929927825927734375e-01) (80, 4.61396872997283935547e-01) (81, 3.70897173881530761719e-01) (82, 4.31372821331024169922e-01) (83, 3.60763818025588989258e-01) (84, 3.41732263565063476562e-01) (85, 4.42392975091934204102e-01) (86, -6.26858055591583251953e-01) (87, 4.44027614593505859375e+00) (88, 1.20461034774780273438e+01) (89, 3.40666234493255615234e-01) (90, 3.20476740598678588867e-01) (91, 1.81731510162353515625e+00) (92, 1.81286849975585937500e+01) (93, -5.99188983440399169922e-01) (94, 1.50000000000000000000e+03) (95, 1.50000000000000000000e+03) (96, 1.50000000000000000000e+03) (97, 1.50000000000000000000e+03) (98, 1.50000000000000000000e+03) (99, 1.50000000000000000000e+03) (100, 1.50000000000000000000e+03) (101, 1.50000000000000000000e+03) (102, 1.50000000000000000000e+03) (103, 1.50000000000000000000e+03) (104, 1.50000000000000000000e+03) (105, 1.50000000000000000000e+03) (106, 1.50000000000000000000e+03) (107, 5.90202569961547851562e-01) (108, 6.27477121353149414062e+00) (109, -1.19458591938018798828e+00) (110, -1.11093544960021972656e+00) (111, 2.27916288375854492188e+00) (112, -5.24607276916503906250e+00) (113, 8.67397689819335937500e+00) (114, 7.50539970397949218750e+00) (115, 6.50539517402648925781e-01) (116, -4.03401899337768554688e+00) (117, 2.39918637275695800781e+00) (118, 1.17460000514984130859e+00) (119, 4.14051532745361328125e+00) (120, -2.94541805982589721680e-01) (121, 5.33668845891952514648e-02) (122, -1.33752807974815368652e-01) (123, -1.32956132292747497559e-01) (124, -1.64214789867401123047e-01) (125, -2.38382533192634582520e-01) (126, 6.07964038848876953125e-01) (127, 3.42334270477294921875e-01) (128, -1.89702674746513366699e-01) (129, -3.03752422332763671875e-01) (130, -7.04111158847808837891e-02) (131, 1.62285029888153076172e-01) (132, 5.11241964995861053467e-02) (133, 3.90519928932189941406e+00) (134, -3.31961363554000854492e-01) (135, 5.06846141815185546875e+00) (136, -3.47076296806335449219e+00) (137, 1.10414683818817138672e+00) (138, 1.98710784316062927246e-01) (139, 1.33139586448669433594e+00) (140, 1.62946724891662597656e+00) (141, 1.50000000000000000000e+03) (142, 1.50000000000000000000e+03) (143, 1.50000000000000000000e+03) (144, 1.50000000000000000000e+03) (145, 1.50000000000000000000e+03) (146, 1.50000000000000000000e+03) (147, 1.50000000000000000000e+03) (148, 1.50000000000000000000e+03) (149, 1.50000000000000000000e+03) (150, 1.50000000000000000000e+03) (151, 1.50000000000000000000e+03) (152, 1.50000000000000000000e+03) (153, 1.50000000000000000000e+03) (154, 1.89968645572662353516e+00) (155, -2.25130263715982437134e-02) (156, 4.63539332151412963867e-01) (157, 9.92774248123168945312e-01) (158, 6.26603364944458007812e-01) (159, 9.98808443546295166016e-01) (160, 1.01242721080780029297e-01) (161, -3.49898934364318847656e-01) (162, 4.85308408737182617188e-01) (163, 6.49904608726501464844e-01) (164, 5.57482838630676269531e-01) (165, 1.41766980290412902832e-01) (166, 5.55985569953918457031e-01) (167, 1.04704356193542480469e+00) (168, 2.98628121614456176758e-01) (169, 4.25496280193328857422e-01) (170, 5.51482796669006347656e-01) (171, 5.43736696243286132812e-01) (172, 5.90129435062408447266e-01) (173, 9.00526046752929687500e-02) (174, 3.09875249862670898438e-01) (175, 3.99956256151199340820e-01) (176, 7.65584886074066162109e-01) (177, 4.19343650341033935547e-01) (178, 1.99321538209915161133e-01) (179, 5.76188981533050537109e-01) (180, 2.03118872642517089844e+00) (181, 1.05514264106750488281e+00) (182, 3.84514021873474121094e+00) (183, 2.47356915473937988281e+00) (184, 4.25254201889038085938e+00) (185, 1.38127934932708740234e+00) (186, 1.02349662780761718750e+00) (187, 3.99722027778625488281e+00) (188, -1.06018962860107421875e+01) (189, -7.67731308937072753906e-01) (190, -1.73590409755706787109e+00) (191, -4.78194504976272583008e-01) (192, 3.84852409362792968750e+00) (193, -1.61408662796020507812e+00) (0, 2.31562948226928710938e+00) (1, 5.76181352138519287109e-01) (2, 1.81849253177642822266e+00) (3, 1.66369032859802246094e+00) (4, -1.05790376663208007812e+00) (5, 1.74843955039978027344e+00) (6, -1.46614670753479003906e+00) (7, 2.74152469635009765625e+00) (8, 1.57019898295402526855e-01) (9, 5.06833493709564208984e-01) (10, -8.40257167816162109375e-01) (11, 4.46281671524047851562e-01) (12, 1.69843241572380065918e-01) (13, 4.81923609972000122070e-01) (14, -1.22730076313018798828e+00) (15, 3.58936250209808349609e-01) (16, -9.43551898002624511719e-01) (17, 1.27642536163330078125e+00) (18, -1.36371541023254394531e+00) (19, 2.09082937240600585938e+00) (20, 1.72719657421112060547e+00) (21, 4.10378313064575195312e+00) (22, -3.21432471275329589844e-01) (23, -2.30403923988342285156e+00) (24, -1.14477664232254028320e-01) (25, 6.94088995456695556641e-01) (26, -1.34153485298156738281e-01) (27, 2.98862963914871215820e-01) (28, 5.47840178012847900391e-01) (29, -1.32834225893020629883e-01) (30, 5.82298696041107177734e-01) (31, 1.02561402320861816406e+00) (32, -2.27079927921295166016e-01) (33, -3.11828899383544921875e+00) (34, 2.21888750791549682617e-01) (35, -1.01127684116363525391e-01) (36, 1.32809042930603027344e+00) (37, 1.48624527454376220703e+00) (38, 9.19885516166687011719e-01) (39, -4.49220657348632812500e-01) (40, 1.15863955020904541016e+00) (41, 3.38886880874633789062e+00) (42, 2.92524844408035278320e-01) (43, -4.32715192437171936035e-02) (44, -3.64286363124847412109e-01) (45, -1.16299167275428771973e-01) (46, 2.68319869041442871094e+00) (47, 1.50000000000000000000e+03) (48, 1.50000000000000000000e+03) (49, 1.50000000000000000000e+03) (50, 1.50000000000000000000e+03) (51, 1.50000000000000000000e+03) (52, 1.50000000000000000000e+03) (53, 1.50000000000000000000e+03) (54, 1.50000000000000000000e+03) (55, 1.50000000000000000000e+03) (56, 1.50000000000000000000e+03) (57, 1.50000000000000000000e+03) (58, 1.50000000000000000000e+03) (59, 1.50000000000000000000e+03) (60, -5.52063100039958953857e-02) (61, -6.98864236474037170410e-02) (62, 4.36459891498088836670e-02) (63, -1.11007720232009887695e-01) (64, -4.04283870011568069458e-03) (65, -4.59447354078292846680e-02) (66, 7.44719728827476501465e-02) (67, -1.20580114424228668213e-01) (68, -9.56400111317634582520e-02) (69, -1.30565181374549865723e-01) (70, -7.15933665633201599121e-02) (71, 9.31014120578765869141e-03) (72, 7.69425462931394577026e-03) (73, 1.88141930848360061646e-02) (74, -7.18141943216323852539e-02) (75, 6.45816186442971229553e-03) (76, -9.95064973831176757812e-02) (77, 3.35341952741146087646e-02) (78, -8.83919559419155120850e-03) (79, -4.64484095573425292969e-02) (80, -5.43218329548835754395e-02) (81, -7.92373865842819213867e-02) (82, -6.42187148332595825195e-02) (83, -1.16379715502262115479e-01) (84, -1.22270591557025909424e-01) (85, -1.64315272122621536255e-02) (86, -2.65096831321716308594e+00) (87, -6.59926116466522216797e-01) (88, 2.32232499122619628906e+00) (89, -9.83692780137062072754e-02) (90, 8.71520102024078369141e-01) (91, 2.43154358863830566406e+00) (92, 1.35528278350830078125e+00) (93, 6.34860038757324218750e-01) (94, 1.50000000000000000000e+03) (95, 1.50000000000000000000e+03) (96, 1.50000000000000000000e+03) (97, 1.50000000000000000000e+03) (98, 1.50000000000000000000e+03) (99, 1.50000000000000000000e+03) (100, 1.50000000000000000000e+03) (101, 1.50000000000000000000e+03) (102, 1.50000000000000000000e+03) (103, 1.50000000000000000000e+03) (104, 1.50000000000000000000e+03) (105, 1.50000000000000000000e+03) (106, 1.50000000000000000000e+03) (107, 7.94851422309875488281e-01) (108, 1.81387174129486083984e+00) (109, -7.32806563377380371094e-01) (110, -8.47609460353851318359e-01) (111, 6.26779019832611083984e-01) (112, 5.88839232921600341797e-01) (113, 5.22089385986328125000e+00) (114, -1.55446779727935791016e+00) (115, -1.45953643321990966797e+00) (116, -8.74535322189331054688e-01) (117, -4.40904951095581054688e+00) (118, 1.53665828704833984375e+00) (119, 3.22434997558593750000e+00) (120, 2.56952762603759765625e-01) (121, 5.36667823791503906250e-01) (122, -3.08866351842880249023e-01) (123, -1.05673462152481079102e-01) (124, 5.85512697696685791016e-01) (125, -8.94687250256538391113e-02) (126, 2.36555576324462890625e-01) (127, -1.10331535339355468750e-01) (128, 2.43767440319061279297e-01) (129, 4.34269644320011138916e-02) (130, 6.17687046527862548828e-01) (131, 2.59185850620269775391e-01) (132, 1.19348776340484619141e+00) (133, -3.21377903223037719727e-01) (134, -8.98515164852142333984e-01) (135, 1.32961535453796386719e+00) (136, 1.72280120849609375000e+00) (137, 3.51543352007865905762e-02) (138, 9.32251334190368652344e-01) (139, 2.98229604959487915039e-01) (140, 2.83136874437332153320e-01) (141, 1.50000000000000000000e+03) (142, 1.50000000000000000000e+03) (143, 1.50000000000000000000e+03) (144, 1.50000000000000000000e+03) (145, 1.50000000000000000000e+03) (146, 1.50000000000000000000e+03) (147, 1.50000000000000000000e+03) (148, 1.50000000000000000000e+03) (149, 1.50000000000000000000e+03) (150, 1.50000000000000000000e+03) (151, 1.50000000000000000000e+03) (152, 1.50000000000000000000e+03) (153, 1.50000000000000000000e+03) (154, 1.51636168360710144043e-01) (155, 1.09633974730968475342e-01) (156, 1.13810968399047851562e+00) (157, 3.54117989540100097656e-01) (158, -1.20674937963485717773e-01) (159, 2.49050989747047424316e-01) (160, -1.95051372051239013672e-01) (161, 9.16903972625732421875e-01) (162, 2.54631429910659790039e-01) (163, 1.16966970264911651611e-01) (164, 4.60873126983642578125e-01) (165, 2.62534618377685546875e-01) (166, -1.68440997600555419922e-01) (167, 2.87237972021102905273e-01) (168, 1.54734283685684204102e-01) (169, 5.45175373554229736328e-01) (170, 3.19582223892211914062e-01) (171, -2.69070686772465705872e-03) (172, 3.09765756130218505859e-01) (173, -9.79186072945594787598e-02) (174, 5.01086592674255371094e-01) (175, 2.25887060165405273438e-01) (176, 2.68115103244781494141e-01) (177, 1.06290742754936218262e-01) (178, 1.07658527791500091553e-01) (179, -2.04554826021194458008e-01) (180, 3.10490250587463378906e+00) (181, -1.18363475799560546875e+00) (182, 1.44281697273254394531e+00) (183, 2.40314793586730957031e+00) (184, -3.72803473472595214844e+00) (185, -3.73528420925140380859e-01) (186, 5.56630194187164306641e-01) (187, 2.41448283195495605469e+00) (188, -5.06571769714355468750e-01) (189, -3.63273692131042480469e+00) (190, -1.67120248079299926758e-01) (191, -1.09609231948852539062e+01) (192, -2.67443847656250000000e+00) (193, -2.29897245764732360840e-01) (0, 4.74237823486328125000e+00) (1, 3.73233892023563385010e-02) (2, 1.69743835926055908203e+00) (3, 1.00136458873748779297e+00) (4, 3.11062365770339965820e-01) (5, -9.67473387718200683594e-01) (6, 1.23005473613739013672e+00) (7, 2.38574695587158203125e+00) (8, -6.75095260143280029297e-01) (9, -1.24827718734741210938e+00) (10, -1.48987650871276855469e+00) (11, 3.03965568542480468750e+00) (12, 9.57285389304161071777e-02) (13, 4.85070019960403442383e-01) (14, 2.49051049351692199707e-01) (15, 1.08486378192901611328e+00) (16, -2.04243093729019165039e-01) (17, 1.15200147032737731934e-01) (18, 2.82396942377090454102e-01) (19, 9.17307794094085693359e-01) (20, 2.44462275505065917969e+00) (21, 1.37039780616760253906e+00) (22, 1.64490640163421630859e+00) (23, 1.02909219264984130859e+00) (24, -9.22707021236419677734e-01) (25, 1.78907382488250732422e+00) (26, -4.78357523679733276367e-01) (27, 3.66263478994369506836e-01) (28, 8.54767024517059326172e-01) (29, 6.52127981185913085938e-01) (30, 2.33249998092651367188e+00) (31, 8.40589761734008789062e-01) (32, -1.16339910030364990234e+00) (33, 3.88888567686080932617e-02) (34, 3.81662273406982421875e+00) (35, 3.99340438842773437500e+00) (36, -6.19681119918823242188e-01) (37, 9.47016477584838867188e-02) (38, 6.45933091640472412109e-01) (39, -3.84379291534423828125e+00) (40, 7.26328659057617187500e+00) (41, 3.57992577552795410156e+00) (42, 5.07692754268646240234e-01) (43, 1.45650774240493774414e-01) (44, 3.77041071653366088867e-01) (45, 9.13368940353393554688e-01) (46, 7.40949726104736328125e+00) (47, 1.50000000000000000000e+03) (48, 1.50000000000000000000e+03) (49, 1.50000000000000000000e+03) (50, 1.50000000000000000000e+03) (51, 1.50000000000000000000e+03) (52, 1.50000000000000000000e+03) (53, 1.50000000000000000000e+03) (54, 1.50000000000000000000e+03) (55, 1.50000000000000000000e+03) (56, 1.50000000000000000000e+03) (57, 1.50000000000000000000e+03) (58, 1.50000000000000000000e+03) (59, 1.50000000000000000000e+03) (60, 1.26391306519508361816e-01) (61, 2.03936144709587097168e-01) (62, 3.20371806621551513672e-01) (63, 3.14437359571456909180e-01) (64, 1.97318106889724731445e-01) (65, 1.73077479004859924316e-01) (66, 2.71348893642425537109e-01) (67, 2.42137610912322998047e-01) (68, 1.60039901733398437500e-01) (69, 2.27952450513839721680e-01) (70, 3.07087302207946777344e-01) (71, 1.62845298647880554199e-01) (72, 2.86679714918136596680e-01) (73, 2.21123427152633666992e-01) (74, 1.79612874984741210938e-01) (75, 1.72212645411491394043e-01) (76, 1.24827593564987182617e-01) (77, 2.90456354618072509766e-01) (78, 3.03019821643829345703e-01) (79, 2.59792506694793701172e-01) (80, 1.13836698234081268311e-01) (81, 2.53825902938842773438e-01) (82, 2.42173731327056884766e-01) (83, 2.88200139999389648438e-01) (84, 2.07147940993309020996e-01) (85, 1.69817849993705749512e-01) (86, 6.40680730342864990234e-01) (87, 2.13201951980590820312e+00) (88, 3.11865878105163574219e+00) (89, -1.05293810367584228516e+00) (90, 2.35829520225524902344e+00) (91, 6.61264181137084960938e+00) (92, 2.78733277320861816406e+00) (93, 7.08798944950103759766e-01) (94, 1.50000000000000000000e+03) (95, 1.50000000000000000000e+03) (96, 1.50000000000000000000e+03) (97, 1.50000000000000000000e+03) (98, 1.50000000000000000000e+03) (99, 1.50000000000000000000e+03) (100, 1.50000000000000000000e+03) (101, 1.50000000000000000000e+03) (102, 1.50000000000000000000e+03) (103, 1.50000000000000000000e+03) (104, 1.50000000000000000000e+03) (105, 1.50000000000000000000e+03) (106, 1.50000000000000000000e+03) (107, -5.31498014926910400391e-01) (108, -1.13224673271179199219e+00) (109, 1.18603691458702087402e-01) (110, -1.88284480571746826172e+00) (111, 2.56303405761718750000e+00) (112, -7.74498105049133300781e-01) (113, -1.44612884521484375000e+00) (114, -2.08199262619018554688e-01) (115, -2.85456871986389160156e+00) (116, -9.94873702526092529297e-01) (117, 9.44985866546630859375e-01) (118, -2.14204764366149902344e+00) (119, 4.46314543485641479492e-01) (120, 3.20794135332107543945e-01) (121, 2.41760447621345520020e-01) (122, -2.55403995513916015625e-01) (123, 2.07811400294303894043e-01) (124, 1.22398316860198974609e+00) (125, 2.20884248614311218262e-01) (126, -1.36473551392555236816e-01) (127, 1.84612106531858444214e-02) (128, -1.43157804012298583984e+00) (129, 2.45482042431831359863e-01) (130, 2.81239505857229232788e-02) (131, -7.80477523803710937500e-02) (132, 3.69352608919143676758e-01) (133, 4.88150358200073242188e-01) (134, 5.67889750003814697266e-01) (135, 1.41556277871131896973e-01) (136, 2.32005572319030761719e+00) (137, 2.19121813774108886719e+00) (138, 2.50785064697265625000e+00) (139, -3.33403635025024414062e+00) (140, 5.51237940788269042969e-01) (141, 1.50000000000000000000e+03) (142, 1.50000000000000000000e+03) (143, 1.50000000000000000000e+03) (144, 1.50000000000000000000e+03) (145, 1.50000000000000000000e+03) (146, 1.50000000000000000000e+03) (147, 1.50000000000000000000e+03) (148, 1.50000000000000000000e+03) (149, 1.50000000000000000000e+03) (150, 1.50000000000000000000e+03) (151, 1.50000000000000000000e+03) (152, 1.50000000000000000000e+03) (153, 1.50000000000000000000e+03) (154, -1.62451177835464477539e-01) (155, 3.49101424217224121094e-01) (156, 5.67777454853057861328e-01) (157, 8.75948071479797363281e-01) (158, -2.51920204609632492065e-02) (159, 8.00919890403747558594e-01) (160, -7.50812739133834838867e-02) (161, 8.69512140750885009766e-01) (162, 6.58447861671447753906e-01) (163, 6.35685086250305175781e-01) (164, 4.08174663782119750977e-01) (165, 8.92166197299957275391e-01) (166, 5.14605522155761718750e-01) (167, -1.94150432944297790527e-01) (168, 1.04303300380706787109e-01) (169, 9.36961948871612548828e-01) (170, 8.36897969245910644531e-01) (171, 5.10053895413875579834e-02) (172, 8.24349880218505859375e-01) (173, -1.63403794169425964355e-01) (174, 7.54757225513458251953e-01) (175, 4.65892076492309570312e+00) (176, 5.42627334594726562500e-01) (177, 3.43601375818252563477e-01) (178, 1.67441380023956298828e+00) (179, 9.65524613857269287109e-02) (180, -2.26990628242492675781e+00) (181, -9.13959085941314697266e-01) (182, 1.15728020668029785156e+00) (183, 4.85970735549926757812e-01) (184, 2.84644663333892822266e-01) (185, 1.45391297340393066406e+00) (186, -2.44477081298828125000e+00) (187, 3.76719236373901367188e+00) (188, -2.71693444252014160156e+00) (189, -2.52264356613159179688e+00) (190, -3.89585900306701660156e+00) (191, -7.79775619506835937500e+00) (192, 2.29447388648986816406e+00) (193, 1.53443384170532226562e+00) (0, 6.28704214096069335938e+00) (1, 1.50000000000000000000e+03) (2, -1.47500000000000000000e+03) (3, -1.50000000000000000000e+03) (4, 3.82324385643005371094e+00) (5, 1.24248632812500000000e+03) (6, 1.49758142089843750000e+03) (7, -6.37765303254127502441e-02) (8, 1.50000000000000000000e+03) (9, 1.44794647216796875000e+02) (10, -8.63888000488281250000e+02) (11, 1.44095751953125000000e+03) (12, 1.48500000000000000000e+03) (13, -3.46652297973632812500e+01) (14, -8.02341735839843750000e+02) (15, -4.96720184326171875000e+02) (16, 2.53318572044372558594e+00) (17, -1.06337566375732421875e+01) (18, -7.78003811836242675781e-01) (19, -1.01138587951660156250e+02) (20, -1.46478686523437500000e+03) (21, -1.50000000000000000000e+03) (22, -1.50000000000000000000e+03) (23, -1.50000000000000000000e+03) (24, -5.72595477104187011719e-01) (25, 1.50000000000000000000e+03) (26, 1.48743420410156250000e+03) (27, 6.66505859375000000000e+02) (28, 2.53140731811523437500e+02) (29, 5.75580993652343750000e+02) (30, -6.63906921386718750000e+02) (31, 9.45872497558593750000e+02) (32, 7.49966186523437500000e+02) (33, 5.01304626464843750000e+02) (34, -5.33152437210083007812e+00) (35, -1.50000000000000000000e+03) (36, -1.50000000000000000000e+03) (37, -8.13090515136718750000e+00) (38, 1.16542248535156250000e+03) (39, 1.26527618408203125000e+02) (40, -3.91119152307510375977e-01) (41, 1.07534370422363281250e+01) (42, 4.02770400047302246094e-01) (43, -2.10884567350149154663e-02) (44, 1.03152513504028320312e+01) (45, 2.36974578857421875000e+02) (46, -1.46515905761718750000e+03) (47, 1.50000000000000000000e+03) (48, 1.50000000000000000000e+03) (49, 1.50000000000000000000e+03) (50, 1.50000000000000000000e+03) (51, 1.50000000000000000000e+03) (52, 1.50000000000000000000e+03) (53, 1.50000000000000000000e+03) (54, 1.50000000000000000000e+03) (55, 1.50000000000000000000e+03) (56, 1.50000000000000000000e+03) (57, 1.50000000000000000000e+03) (58, 1.50000000000000000000e+03) (59, 1.50000000000000000000e+03) (60, 3.48386359214782714844e+00) (61, 7.81090021133422851562e+00) (62, 1.92006816864013671875e+01) (63, 2.31574974060058593750e+01) (64, 4.38852729797363281250e+01) (65, 1.91289100646972656250e+01) (66, 1.87179851531982421875e+01) (67, 1.16471954345703125000e+02) (68, 1.92810611724853515625e+01) (69, 4.49485778808593750000e+01) (70, 4.47775459289550781250e+01) (71, 4.64820432662963867188e+00) (72, 2.02853031158447265625e+01) (73, 4.26339101791381835938e+00) (74, 4.38083505630493164062e+00) (75, 1.93100585937500000000e+01) (76, 2.31195983886718750000e+01) (77, 4.37956275939941406250e+01) (78, 1.92332458496093750000e+01) (79, 1.73592281341552734375e+01) (80, 1.20986869812011718750e+02) (81, 4.55122032165527343750e+01) (82, 4.49500885009765625000e+01) (83, 4.41918945312500000000e+01) (84, 4.44512462615966796875e+00) (85, 1.84338321685791015625e+01) (86, -1.50000000000000000000e+03) (87, 8.35714459419250488281e-01) (88, -4.11510467529296875000e+00) (89, 1.50000000000000000000e+03) (90, 2.56160068511962890625e+01) (91, 5.86961865425109863281e-01) (92, 4.47138595581054687500e+01) (93, -2.10025268554687500000e+02) (94, 1.50000000000000000000e+03) (95, 1.50000000000000000000e+03) (96, 1.50000000000000000000e+03) (97, 1.50000000000000000000e+03) (98, 1.50000000000000000000e+03) (99, 1.50000000000000000000e+03) (100, 1.50000000000000000000e+03) (101, 1.50000000000000000000e+03) (102, 1.50000000000000000000e+03) (103, 1.50000000000000000000e+03) (104, 1.50000000000000000000e+03) (105, 1.50000000000000000000e+03) (106, 1.50000000000000000000e+03) (107, 2.06549346923828125000e+02) (108, -1.50577783584594726562e+01) (109, -8.61395629882812500000e+02) (110, -3.20566131591796875000e+02) (111, 4.22242015600204467773e-01) (112, -3.25319030761718750000e+02) (113, -1.16527856445312500000e+03) (114, -3.73773651123046875000e+02) (115, 4.58581466674804687500e+01) (116, -1.50000000000000000000e+03) (117, -1.16510485839843750000e+03) (118, -5.65422105789184570312e+00) (119, -8.12549781799316406250e+00) (120, -6.40653564453125000000e+02) (121, -6.38931155204772949219e-01) (122, -3.31359297037124633789e-01) (123, -1.37935829162597656250e+00) (124, -4.91053909063339233398e-01) (125, -4.16417509317398071289e-01) (126, 2.25888527929782867432e-02) (127, -1.49584094238281250000e+03) (128, -3.73514318466186523438e+00) (129, -1.17359554767608642578e+00) (130, 5.26521825790405273438e+00) (131, -1.05237439274787902832e-01) (132, -5.06508159637451171875e+00) (133, 1.17364931106567382812e+00) (134, -6.34969970703125000000e+02) (135, 7.76535491943359375000e+01) (136, -4.98813552856445312500e+01) (137, 8.55081653594970703125e+00) (138, 1.50000000000000000000e+03) (139, 1.25599353027343750000e+03) (140, 6.24192428588867187500e+01) (141, 1.50000000000000000000e+03) (142, 1.50000000000000000000e+03) (143, 1.50000000000000000000e+03) (144, 1.50000000000000000000e+03) (145, 1.50000000000000000000e+03) (146, 1.50000000000000000000e+03) (147, 1.50000000000000000000e+03) (148, 1.50000000000000000000e+03) (149, 1.50000000000000000000e+03) (150, 1.50000000000000000000e+03) (151, 1.50000000000000000000e+03) (152, 1.50000000000000000000e+03) (153, 1.50000000000000000000e+03) (154, 1.04043701171875000000e+03) (155, 3.70926165580749511719e+00) (156, 1.32414662837982177734e+00) (157, 4.29188728332519531250e+00) (158, 1.53982520103454589844e+00) (159, 1.02452068328857421875e+01) (160, 1.89353740215301513672e+00) (161, 1.49997155761718750000e+03) (162, 5.94545459747314453125e+00) (163, 4.07388925552368164062e+00) (164, 1.26511919498443603516e+00) (165, 1.20323145389556884766e+00) (166, 4.92143440246582031250e+00) (167, 1.14216979980468750000e+02) (168, 2.35222482681274414062e+00) (169, 8.00600230693817138672e-01) (170, 2.83419609069824218750e+00) (171, 1.88852691650390625000e+00) (172, 9.79188251495361328125e+00) (173, 1.10490810871124267578e+00) (174, 1.50000000000000000000e+03) (175, 5.63818550109863281250e+00) (176, 4.18712615966796875000e+00) (177, -5.39842300415039062500e+01) (178, 1.04836666584014892578e+00) (179, 9.78447914123535156250e+00) (180, -1.41465759277343750000e+03) (181, 1.18485400390625000000e+03) (182, 3.36571258544921875000e+02) (183, -2.37063484191894531250e+01) (184, -7.27519592285156250000e+02) (185, -1.56286697387695312500e+02) (186, -7.71137952804565429688e-01) (187, -9.20053222656250000000e+02) (188, -4.84984855651855468750e+01) (189, -1.43430847167968750000e+03) (190, 4.90309509277343750000e+02) (191, 2.02731871604919433594e+00) (192, 5.17360595703125000000e+02) (193, 1.48782312870025634766e-01) (0, 1.44318017959594726562e+01) (1, -7.74296808242797851562e+00) (2, 7.91557669639587402344e-01) (3, 2.69234848022460937500e+00) (4, 1.38872385025024414062e-01) (5, -6.85662701725959777832e-02) (6, 2.08222794532775878906e+00) (7, -4.74029064178466796875e-01) (8, -8.14333677291870117188e-01) (9, 9.00624036788940429688e-01) (10, 1.44735884666442871094e+00) (11, 2.78566122055053710938e+00) (12, -4.47233319282531738281e-01) (13, 4.09666776657104492188e-01) (14, 2.33929657936096191406e+00) (15, -1.62590920925140380859e+00) (16, -6.54628944396972656250e+00) (17, 6.61537051200866699219e-01) (18, 3.17395663261413574219e+00) (19, 2.98370480537414550781e+00) (20, 1.50847387313842773438e+00) (21, 6.23623991012573242188e+00) (22, 8.75647723674774169922e-01) (23, 6.46887719631195068359e-01) (24, 9.92543995380401611328e-01) (25, 2.70592451095581054688e+00) (26, -4.98468130826950073242e-01) (27, 3.39761376380920410156e+00) (28, -6.16685211658477783203e-01) (29, -9.34472307562828063965e-03) (30, -3.16462159156799316406e-01) (31, 2.55405724048614501953e-01) (32, -2.53253388404846191406e+00) (33, 6.85779094696044921875e-01) (34, 2.48192048072814941406e+00) (35, 1.18414795398712158203e+00) (36, -3.26581549644470214844e+00) (37, 1.70523333549499511719e+00) (38, 5.76884984970092773438e-01) (39, 6.21372580528259277344e-01) (40, 1.47109746932983398438e+01) (41, 5.08172035217285156250e+00) (42, 1.72326767444610595703e+00) (43, 9.47302699089050292969e-01) (44, 1.79154753684997558594e+00) (45, 5.24067783355712890625e+00) (46, -7.42361307144165039062e+00) (47, 1.50000000000000000000e+03) (48, 1.50000000000000000000e+03) (49, 1.50000000000000000000e+03) (50, 1.50000000000000000000e+03) (51, 1.50000000000000000000e+03) (52, 1.50000000000000000000e+03) (53, 1.50000000000000000000e+03) (54, 1.50000000000000000000e+03) (55, 1.50000000000000000000e+03) (56, 1.50000000000000000000e+03) (57, 1.50000000000000000000e+03) (58, 1.50000000000000000000e+03) (59, 1.50000000000000000000e+03) (60, 1.10181725025177001953e+00) (61, 1.01848518848419189453e+00) (62, 1.12391066551208496094e+00) (63, 1.09929382801055908203e+00) (64, 1.04788994789123535156e+00) (65, 9.61276650428771972656e-01) (66, 9.64645802974700927734e-01) (67, 9.58776652812957763672e-01) (68, 1.05637037754058837891e+00) (69, 1.06380510330200195312e+00) (70, 9.96833860874176025391e-01) (71, 9.59004223346710205078e-01) (72, 1.03225886821746826172e+00) (73, 1.09243762493133544922e+00) (74, 9.55107331275939941406e-01) (75, 1.17252910137176513672e+00) (76, 1.01749348640441894531e+00) (77, 1.07774209976196289062e+00) (78, 1.05361974239349365234e+00) (79, 1.08692800998687744141e+00) (80, 1.08904588222503662109e+00) (81, 1.01317739486694335938e+00) (82, 9.22169685363769531250e-01) (83, 9.17185246944427490234e-01) (84, 1.13736093044281005859e+00) (85, 9.83760535717010498047e-01) (86, 2.31846752166748046875e+01) (87, -1.29857349395751953125e+01) (88, -8.47196519374847412109e-01) (89, -7.03059434890747070312e-01) (90, 5.50682604312896728516e-01) (91, 5.29981231689453125000e+00) (92, 6.69479513168334960938e+00) (93, 2.41381660103797912598e-01) (94, 1.50000000000000000000e+03) (95, 1.50000000000000000000e+03) (96, 1.50000000000000000000e+03) (97, 1.50000000000000000000e+03) (98, 1.50000000000000000000e+03) (99, 1.50000000000000000000e+03) (100, 1.50000000000000000000e+03) (101, 1.50000000000000000000e+03) (102, 1.50000000000000000000e+03) (103, 1.50000000000000000000e+03) (104, 1.50000000000000000000e+03) (105, 1.50000000000000000000e+03) (106, 1.50000000000000000000e+03) (107, -1.11594653129577636719e+00) (108, 2.75890588760375976562e+00) (109, 2.25347608327865600586e-01) (110, -1.75195908546447753906e+00) (111, -3.54227066040039062500e+00) (112, -4.86114352941513061523e-01) (113, 3.38057589530944824219e+00) (114, 2.21846811473369598389e-02) (115, -2.41074490547180175781e+00) (116, 3.41072827577590942383e-01) (117, 1.00097999572753906250e+01) (118, 1.40075531005859375000e+01) (119, 2.70110416412353515625e+00) (120, -8.10578823089599609375e-01) (121, 1.00010499358177185059e-01) (122, -1.16875693202018737793e-01) (123, -2.73049801588058471680e-01) (124, -1.47807896137237548828e-01) (125, -6.75518393516540527344e-01) (126, -2.97062218189239501953e-01) (127, -1.11113935708999633789e-01) (128, -4.75704997777938842773e-01) (129, -1.93249285221099853516e-01) (130, -3.14334273338317871094e-01) (131, -3.96999061107635498047e-01) (132, -1.83733224868774414062e-01) (133, -3.11122274398803710938e+00) (134, 3.88878417015075683594e+00) (135, 5.37245631217956542969e-01) (136, -6.07935488224029541016e-01) (137, -1.33930385112762451172e+00) (138, -9.35480690002441406250e+00) (139, -1.28362598419189453125e+01) (140, -2.78358912467956542969e+00) (141, 1.50000000000000000000e+03) (142, 1.50000000000000000000e+03) (143, 1.50000000000000000000e+03) (144, 1.50000000000000000000e+03) (145, 1.50000000000000000000e+03) (146, 1.50000000000000000000e+03) (147, 1.50000000000000000000e+03) (148, 1.50000000000000000000e+03) (149, 1.50000000000000000000e+03) (150, 1.50000000000000000000e+03) (151, 1.50000000000000000000e+03) (152, 1.50000000000000000000e+03) (153, 1.50000000000000000000e+03) (154, 4.02495813369750976562e+00) (155, 3.46336901187896728516e-01) (156, 1.58913683891296386719e+00) (157, 9.95325982570648193359e-01) (158, 1.94067859649658203125e+00) (159, 2.35659956932067871094e+00) (160, 6.12446010112762451172e-01) (161, 8.88251483440399169922e-01) (162, 5.86333811283111572266e-01) (163, 6.44585847854614257812e-01) (164, 1.75403639674186706543e-01) (165, 4.25819933414459228516e-01) (166, 7.70064771175384521484e-01) (167, 1.01151208877563476562e+01) (168, 2.97168999910354614258e-01) (169, 6.25924050807952880859e-01) (170, 9.95442688465118408203e-01) (171, 1.17838966846466064453e+00) (172, 2.62846326828002929688e+00) (173, 1.12414240837097167969e+00) (174, 1.49353969097137451172e+00) (175, 6.42770171165466308594e-01) (176, 7.38227546215057373047e-01) (177, 3.39168608188629150391e-01) (178, 4.08044248819351196289e-01) (179, 1.15368747711181640625e+00) (180, -6.00023984909057617188e+00) (181, 5.79891353845596313477e-02) (182, -8.83692145347595214844e-01) (183, 2.86423182487487792969e+00) (184, -1.36954808235168457031e+00) (185, 1.02326929569244384766e+00) (186, 2.86720901727676391602e-01) (187, 6.84753179550170898438e-01) (188, 5.48665952682495117188e+00) (189, 3.09862184524536132812e+00) (190, -6.57380282878875732422e-01) (191, 6.93652406334877014160e-03) (192, -3.33852720260620117188e+00) (193, -1.32833993434906005859e+00) (0, 4.39013093709945678711e-01) (1, 1.34642231464385986328e+00) (2, -1.51075625419616699219e+00) (3, 3.99608433246612548828e-01) (4, 1.37166380882263183594e+00) (5, 1.58284202218055725098e-01) (6, 1.72362953424453735352e-01) (7, 4.48089790344238281250e+00) (8, 4.66243922710418701172e-02) (9, -1.61194229125976562500e+00) (10, 2.15922641754150390625e+00) (11, 6.08677721023559570312e+00) (12, -3.55639338493347167969e+00) (13, -7.82775044441223144531e-01) (14, -2.41384908556938171387e-01) (15, 6.90624356269836425781e-01) (16, -7.32245206832885742188e-01) (17, 8.56841027736663818359e-01) (18, -3.12557190656661987305e-01) (19, -2.37746834754943847656e-01) (20, 1.49431359767913818359e+00) (21, 1.40302598476409912109e+00) (22, 7.55679905414581298828e-01) (23, -4.98115777969360351562e-01) (24, 1.98262643814086914062e+00) (25, 1.95807576179504394531e+00) (26, -2.25756049156188964844e-01) (27, -3.84737372398376464844e-01) (28, 4.13390368223190307617e-01) (29, 2.25301068276166915894e-02) (30, 8.78427147865295410156e-01) (31, 6.59107804298400878906e-01) (32, 2.36690115928649902344e+00) (33, -1.48061645030975341797e+00) (34, -1.43892811611294746399e-02) (35, -1.14281900227069854736e-01) (36, 5.20786046981811523438e-02) (37, 1.25762999057769775391e+00) (38, 3.56555074453353881836e-01) (39, 7.05953180789947509766e-01) (40, 1.81762278079986572266e+00) (41, -3.75862181186676025391e-01) (42, -2.70067167282104492188e+00) (43, -3.52509409189224243164e-01) (44, -6.58198073506355285645e-02) (45, -1.93545746803283691406e+00) (46, -1.93636035919189453125e+00) (47, 1.50000000000000000000e+03) (48, 1.50000000000000000000e+03) (49, 1.50000000000000000000e+03) (50, 1.50000000000000000000e+03) (51, 1.50000000000000000000e+03) (52, 1.50000000000000000000e+03) (53, 1.50000000000000000000e+03) (54, 1.50000000000000000000e+03) (55, 1.50000000000000000000e+03) (56, 1.50000000000000000000e+03) (57, 1.50000000000000000000e+03) (58, 1.50000000000000000000e+03) (59, 1.50000000000000000000e+03) (60, -2.89894878864288330078e-01) (61, -4.74527835845947265625e-01) (62, -3.83573114871978759766e-01) (63, -1.55910596251487731934e-01) (64, -2.16771095991134643555e-01) (65, -1.38691872358322143555e-01) (66, -4.71594065427780151367e-01) (67, -4.31063890457153320312e-01) (68, -4.66935783624649047852e-01) (69, -3.45212996006011962891e-01) (70, -4.81197774410247802734e-01) (71, -3.56464415788650512695e-01) (72, -1.90481305122375488281e-01) (73, -4.41806405782699584961e-01) (74, -4.92296576499938964844e-01) (75, -3.24397593736648559570e-01) (76, -2.94376075267791748047e-01) (77, -4.14236634969711303711e-01) (78, -3.52120488882064819336e-01) (79, -4.72735673189163208008e-01) (80, -4.13614630699157714844e-01) (81, -2.90981203317642211914e-01) (82, -5.12519143521785736084e-02) (83, -3.89626801013946533203e-01) (84, -3.65312874317169189453e-01) (85, -4.05809730291366577148e-01) (86, 1.54561150074005126953e+00) (87, 1.00473999977111816406e+00) (88, -2.13757848739624023438e+00) (89, -2.81089454889297485352e-01) (90, 5.97858548164367675781e-01) (91, 2.90130615234375000000e+00) (92, -2.17054724693298339844e-01) (93, -2.67355814576148986816e-02) (94, 1.50000000000000000000e+03) (95, 1.50000000000000000000e+03) (96, 1.50000000000000000000e+03) (97, 1.50000000000000000000e+03) (98, 1.50000000000000000000e+03) (99, 1.50000000000000000000e+03) (100, 1.50000000000000000000e+03) (101, 1.50000000000000000000e+03) (102, 1.50000000000000000000e+03) (103, 1.50000000000000000000e+03) (104, 1.50000000000000000000e+03) (105, 1.50000000000000000000e+03) (106, 1.50000000000000000000e+03) (107, -3.28571833670139312744e-02) (108, 5.58566907420754432678e-03) (109, 8.39596331119537353516e-01) (110, 2.84106254577636718750e+00) (111, 5.73179841041564941406e-01) (112, -6.17476046085357666016e-01) (113, -1.06145858764648437500e+00) (114, 8.88075470924377441406e-01) (115, -3.47358703613281250000e-01) (116, 1.20119392871856689453e+00) (117, 5.00945448875427246094e-01) (118, -1.41626566648483276367e-01) (119, 3.64490199089050292969e+00) (120, 2.62272566556930541992e-01) (121, 7.81810343265533447266e-01) (122, 5.81305146217346191406e-01) (123, 4.87457752227783203125e-01) (124, 3.21723930537700653076e-02) (125, 2.20227211713790893555e-01) (126, 4.49467599391937255859e-02) (127, 2.40227952599525451660e-01) (128, -2.33341410756111145020e-01) (129, 2.89620131254196166992e-01) (130, 1.04287683963775634766e+00) (131, 3.87419402599334716797e-01) (132, 2.13526654243469238281e+00) (133, -1.77533671259880065918e-01) (134, -5.10757327079772949219e-01) (135, -1.09912633895874023438e+00) (136, 2.08773040771484375000e+00) (137, -8.10328900814056396484e-01) (138, 2.85185068845748901367e-01) (139, -1.12952291965484619141e+00) (140, 2.26195037364959716797e-01) (141, 1.50000000000000000000e+03) (142, 1.50000000000000000000e+03) (143, 1.50000000000000000000e+03) (144, 1.50000000000000000000e+03) (145, 1.50000000000000000000e+03) (146, 1.50000000000000000000e+03) (147, 1.50000000000000000000e+03) (148, 1.50000000000000000000e+03) (149, 1.50000000000000000000e+03) (150, 1.50000000000000000000e+03) (151, 1.50000000000000000000e+03) (152, 1.50000000000000000000e+03) (153, 1.50000000000000000000e+03) (154, -6.77531063556671142578e-01) (155, -1.46670669317245483398e-01) (156, 8.72179925441741943359e-01) (157, 5.13769835233688354492e-02) (158, 5.17333328723907470703e-01) (159, 5.18844842910766601562e-01) (160, 9.77229058742523193359e-01) (161, 1.36920869350433349609e-01) (162, 2.53415632247924804688e+00) (163, -2.04448938369750976562e-01) (164, -3.13483327627182006836e-01) (165, 6.05030894279479980469e-01) (166, 1.93144436925649642944e-02) (167, 2.93262243270874023438e-01) (168, -1.23077847063541412354e-01) (169, 4.34376180171966552734e-01) (170, 4.15745854377746582031e-01) (171, 8.12549814581871032715e-02) (172, 7.22581088542938232422e-01) (173, 3.91297668218612670898e-01) (174, 9.05052304267883300781e-01) (175, 1.05138623714447021484e+00) (176, 2.62322366237640380859e-01) (177, 1.77437111735343933105e-01) (178, 7.12746143341064453125e-01) (179, -1.04331612586975097656e-01) (180, 1.52013564109802246094e+00) (181, -1.23637415468692779541e-01) (182, -1.09836256504058837891e+00) (183, 9.01955544948577880859e-01) (184, 4.53205928206443786621e-02) (185, -2.20382237434387207031e+00) (186, 1.66876268386840820312e+00) (187, -2.15899658203125000000e+00) (188, 1.34330499172210693359e+00) (189, -1.74200832843780517578e+00) (190, -4.05625939369201660156e-01) (191, -5.98291778564453125000e+00) (192, 7.35663855448365211487e-03) (193, -1.78203582763671875000e-01) (0, 1.21042728424072265625e+01) (1, 5.99567365646362304688e+00) (2, 9.36865806579589843750e-01) (3, -5.20228242874145507812e+00) (4, 8.03007984161376953125e+00) (5, -1.13037097454071044922e+00) (6, 1.92414844036102294922e+00) (7, 1.20854501724243164062e+01) (8, 6.38595151901245117188e+00) (9, 3.15448880195617675781e+00) (10, 2.77529168128967285156e+00) (11, 5.79225826263427734375e+00) (12, 3.58191192150115966797e-01) (13, -2.90226960182189941406e+00) (14, 6.26926600933074951172e-01) (15, -3.72402000427246093750e+00) (16, 4.25209790468215942383e-01) (17, -6.70788943767547607422e-01) (18, -1.30745534896850585938e+01) (19, 2.02252268791198730469e+00) (20, 1.56141400337219238281e+00) (21, 3.24436736106872558594e+00) (22, 9.10045981407165527344e-01) (23, 5.54211199283599853516e-01) (24, -1.99245643615722656250e+00) (25, -7.77772188186645507812e+00) (26, -1.16178846359252929688e+00) (27, -1.40807127952575683594e+00) (28, -1.17243313789367675781e+00) (29, -2.99716496467590332031e+00) (30, -1.97110518813133239746e-01) (31, 2.37033233046531677246e-01) (32, -3.35255980491638183594e+00) (33, -9.54828858375549316406e-01) (34, -2.00906848907470703125e+01) (35, 4.93735218048095703125e+00) (36, -2.54777997732162475586e-01) (37, 1.67823171615600585938e+00) (38, -6.53346586227416992188e+00) (39, -1.44501221179962158203e+00) (40, 3.32238960266113281250e+00) (41, 9.94221019744873046875e+00) (42, 4.62763166427612304688e+00) (43, 5.42975544929504394531e-01) (44, 5.23276090621948242188e-01) (45, 7.06104612350463867188e+00) (46, 4.72950887680053710938e+00) (47, 1.50000000000000000000e+03) (48, 1.50000000000000000000e+03) (49, 1.50000000000000000000e+03) (50, 1.50000000000000000000e+03) (51, 1.50000000000000000000e+03) (52, 1.50000000000000000000e+03) (53, 1.50000000000000000000e+03) (54, 1.50000000000000000000e+03) (55, 1.50000000000000000000e+03) (56, 1.50000000000000000000e+03) (57, 1.50000000000000000000e+03) (58, 1.50000000000000000000e+03) (59, 1.50000000000000000000e+03) (60, 4.44040209054946899414e-01) (61, 4.51947003602981567383e-01) (62, 4.99796599149703979492e-01) (63, 4.19846594333648681641e-01) (64, 4.70775127410888671875e-01) (65, 3.25961321592330932617e-01) (66, 4.92070525884628295898e-01) (67, 4.42925304174423217773e-01) (68, 3.96240621805191040039e-01) (69, 4.74964618682861328125e-01) (70, 3.73124241828918457031e-01) (71, 4.03728425502777099609e-01) (72, 4.90950316190719604492e-01) (73, 3.75005334615707397461e-01) (74, 4.91506993770599365234e-01) (75, 4.84509497880935668945e-01) (76, 3.80448997020721435547e-01) (77, 4.21048879623413085938e-01) (78, 3.23288947343826293945e-01) (79, 4.88215982913970947266e-01) (80, 4.66320782899856567383e-01) (81, 5.01012563705444335938e-01) (82, 3.82515460252761840820e-01) (83, 3.56391370296478271484e-01) (84, 4.41970050334930419922e-01) (85, 4.15181577205657958984e-01) (86, -4.70450305938720703125e+00) (87, 8.30055415630340576172e-01) (88, 3.62745165824890136719e+00) (89, 6.62784695625305175781e-01) (90, -1.53230023384094238281e+00) (91, 2.00405311584472656250e+00) (92, 1.01819763183593750000e+01) (93, -5.57856619358062744141e-01) (94, 1.50000000000000000000e+03) (95, 1.50000000000000000000e+03) (96, 1.50000000000000000000e+03) (97, 1.50000000000000000000e+03) (98, 1.50000000000000000000e+03) (99, 1.50000000000000000000e+03) (100, 1.50000000000000000000e+03) (101, 1.50000000000000000000e+03) (102, 1.50000000000000000000e+03) (103, 1.50000000000000000000e+03) (104, 1.50000000000000000000e+03) (105, 1.50000000000000000000e+03) (106, 1.50000000000000000000e+03) (107, 4.78914439678192138672e-01) (108, 6.01426219940185546875e+00) (109, -6.18801772594451904297e-01) (110, -1.51979141235351562500e+01) (111, -9.65114891529083251953e-01) (112, -3.67460608482360839844e+00) (113, 1.12963562011718750000e+01) (114, -2.29316425323486328125e+00) (115, -5.17274236679077148438e+00) (116, 6.43422007560729980469e-01) (117, -5.29880237579345703125e+00) (118, 4.12785911560058593750e+00) (119, 1.25317025184631347656e+00) (120, -6.19777977466583251953e-01) (121, 2.96547776088118553162e-03) (122, -3.91103625297546386719e-01) (123, -3.65408629179000854492e-01) (124, -1.85295995324850082397e-02) (125, 2.19308227300643920898e-01) (126, 1.31535992026329040527e-01) (127, 4.01545315980911254883e-02) (128, -4.19896543025970458984e-01) (129, -3.83078753948211669922e-02) (130, 9.75680537521839141846e-03) (131, -2.46583893895149230957e-01) (132, 1.73625499010086059570e-01) (133, -3.59959840774536132812e+00) (134, 6.74178695678710937500e+00) (135, 1.30817687511444091797e+00) (136, 1.13458299636840820312e+01) (137, -3.20963597297668457031e+00) (138, -3.62233996391296386719e+00) (139, 1.57203876972198486328e+00) (140, -6.88990175724029541016e-01) (141, 1.50000000000000000000e+03) (142, 1.50000000000000000000e+03) (143, 1.50000000000000000000e+03) (144, 1.50000000000000000000e+03) (145, 1.50000000000000000000e+03) (146, 1.50000000000000000000e+03) (147, 1.50000000000000000000e+03) (148, 1.50000000000000000000e+03) (149, 1.50000000000000000000e+03) (150, 1.50000000000000000000e+03) (151, 1.50000000000000000000e+03) (152, 1.50000000000000000000e+03) (153, 1.50000000000000000000e+03) (154, 1.45998549461364746094e+00) (155, 6.06647551059722900391e-01) (156, 9.40468609333038330078e-01) (157, 1.34937024116516113281e+00) (158, 7.37685739994049072266e-01) (159, 2.88917392492294311523e-01) (160, 3.22311490774154663086e-01) (161, 4.04467344284057617188e-01) (162, 6.26873910427093505859e-01) (163, 6.01907670497894287109e-01) (164, 7.12157309055328369141e-01) (165, 7.98775494098663330078e-01) (166, 2.60925024747848510742e-01) (167, 1.63275873661041259766e+00) (168, 4.12308186292648315430e-01) (169, 4.37567591667175292969e-01) (170, 9.32315170764923095703e-01) (171, 6.09398007392883300781e-01) (172, 2.08807140588760375977e-01) (173, 4.74027037620544433594e-01) (174, 4.11369532346725463867e-01) (175, 8.08059990406036376953e-01) (176, 4.71371978521347045898e-01) (177, 3.85789841413497924805e-01) (178, 8.81150126457214355469e-01) (179, 3.94492298364639282227e-01) (180, -1.64530503749847412109e+00) (181, -1.92991077899932861328e+00) (182, -9.63061571121215820312e-01) (183, 9.36992913484573364258e-02) (184, 2.42783212661743164062e+00) (185, 3.46169173717498779297e-01) (186, 6.29744243621826171875e+00) (187, -1.33864080905914306641e+00) (188, -4.75861644744873046875e+00) (189, 2.55691261291503906250e+01) (190, -2.29431700706481933594e+00) (191, -5.32301950454711914062e+00) (192, 2.66959953308105468750e+00) (193, -4.61296749114990234375e+00) (0, -1.31382836914062500000e+03) (1, 3.64000274658203125000e+02) (2, -5.42695808410644531250e+00) (3, 2.10654602050781250000e+02) (4, -7.45037292480468750000e+02) (5, 3.32579874992370605469e+00) (6, 1.40742182731628417969e+00) (7, -1.47500000000000000000e+03) (8, -1.43000000000000000000e+03) (9, 1.50000000000000000000e+03) (10, 3.24429206848144531250e+01) (11, 1.87100982666015625000e+00) (12, 1.50000000000000000000e+03) (13, -1.49029862880706787109e+00) (14, -4.64374828338623046875e+00) (15, -1.47472216796875000000e+03) (16, -1.46371203613281250000e+03) (17, -1.44800000000000000000e+03) (18, -1.50000000000000000000e+03) (19, -2.41176147460937500000e+02) (20, -1.50000000000000000000e+03) (21, -1.50000000000000000000e+03) (22, -1.50000000000000000000e+03) (23, -4.57765197753906250000e+02) (24, 3.47644090652465820312e+00) (25, -5.60014160156250000000e+02) (26, 2.39431691169738769531e+00) (27, 5.78324279785156250000e+02) (28, -1.33438934326171875000e+02) (29, -9.82537918090820312500e+01) (30, 4.43559855222702026367e-01) (31, 6.25190063476562500000e+02) (32, 8.00979375839233398438e-01) (33, -3.69647033691406250000e+02) (34, 1.02012519836425781250e+02) (35, -1.50000000000000000000e+03) (36, -1.50000000000000000000e+03) (37, -1.50000000000000000000e+03) (38, 1.44295068359375000000e+03) (39, 1.50000000000000000000e+03) (40, 1.50000000000000000000e+03) (41, 1.68045568466186523438e+00) (42, -2.49794692993164062500e+01) (43, -7.14813852310180664062e+00) (44, -4.32943237304687500000e+02) (45, 9.09408092498779296875e+00) (46, 2.64108886718750000000e+02) (47, 1.50000000000000000000e+03) (48, 1.50000000000000000000e+03) (49, 1.50000000000000000000e+03) (50, 1.50000000000000000000e+03) (51, 1.50000000000000000000e+03) (52, 1.50000000000000000000e+03) (53, 1.50000000000000000000e+03) (54, 1.50000000000000000000e+03) (55, 1.50000000000000000000e+03) (56, 1.50000000000000000000e+03) (57, 1.50000000000000000000e+03) (58, 1.50000000000000000000e+03) (59, 1.50000000000000000000e+03) (60, -6.72901153564453125000e+00) (61, 5.45788586139678955078e-01) (62, -1.05039558410644531250e+01) (63, -2.58170032501220703125e+00) (64, 8.13394248485565185547e-01) (65, 5.59931814670562744141e-01) (66, -1.47095823287963867188e+00) (67, 9.82175707817077636719e-01) (68, -3.80333364009857177734e-01) (69, 5.46972811222076416016e-01) (70, 5.74772953987121582031e-01) (71, 5.80132305622100830078e-01) (72, 9.43555414676666259766e-01) (73, -6.86393594741821289062e+00) (74, -5.10738849639892578125e-01) (75, -3.84564805030822753906e+00) (76, -1.79814088344573974609e+00) (77, 9.14205789566040039062e-01) (78, 9.51457142829895019531e-01) (79, -1.75023186206817626953e+00) (80, 1.11597442626953125000e+00) (81, -2.49912023544311523438e-01) (82, 6.34489893913269042969e-01) (83, 6.14762127399444580078e-01) (84, 5.30502259731292724609e-01) (85, 1.04835009574890136719e+00) (86, -1.50000000000000000000e+03) (87, -3.83890647888183593750e+01) (88, 1.48340139389038085938e+01) (89, 3.25194239616394042969e+00) (90, -1.47016491699218750000e+03) (91, -4.25050277709960937500e+01) (92, 1.63897209167480468750e+01) (93, -9.49273254394531250000e+02) (94, 1.50000000000000000000e+03) (95, 1.50000000000000000000e+03) (96, 1.50000000000000000000e+03) (97, 1.50000000000000000000e+03) (98, 1.50000000000000000000e+03) (99, 1.50000000000000000000e+03) (100, 1.50000000000000000000e+03) (101, 1.50000000000000000000e+03) (102, 1.50000000000000000000e+03) (103, 1.50000000000000000000e+03) (104, 1.50000000000000000000e+03) (105, 1.50000000000000000000e+03) (106, 1.50000000000000000000e+03) (107, 1.38995208740234375000e+02) (108, 1.42726501464843750000e+03) (109, -2.59830474853515625000e+01) (110, -8.49621486663818359375e+00) (111, -1.41684912109375000000e+03) (112, 2.71156387329101562500e+01) (113, -1.48480090332031250000e+03) (114, -3.54875946044921875000e+02) (115, -1.50000000000000000000e+03) (116, -1.39095776367187500000e+03) (117, -6.27477493286132812500e+01) (118, 2.14868965148925781250e+01) (119, -1.33621228027343750000e+03) (120, -3.49647291004657745361e-02) (121, 3.51602722167968750000e+02) (122, 2.38676643371582031250e+00) (123, 9.26763534545898437500e+00) (124, -1.50000000000000000000e+03) (125, -4.01113957166671752930e-01) (126, 1.65129885077476501465e-01) (127, -1.47500000000000000000e+03) (128, -4.56368140876293182373e-02) (129, 2.70652809143066406250e+01) (130, 8.66636352539062500000e+02) (131, 2.76897668838500976562e+00) (132, -1.50000000000000000000e+03) (133, -9.34040039062500000000e+02) (134, -1.50000000000000000000e+03) (135, -1.50000000000000000000e+03) (136, 2.93051605224609375000e+02) (137, 1.48500000000000000000e+03) (138, 2.20004791259765625000e+02) (139, 1.23291223144531250000e+03) (140, -3.50664886474609375000e+02) (141, 1.50000000000000000000e+03) (142, 1.50000000000000000000e+03) (143, 1.50000000000000000000e+03) (144, 1.50000000000000000000e+03) (145, 1.50000000000000000000e+03) (146, 1.50000000000000000000e+03) (147, 1.50000000000000000000e+03) (148, 1.50000000000000000000e+03) (149, 1.50000000000000000000e+03) (150, 1.50000000000000000000e+03) (151, 1.50000000000000000000e+03) (152, 1.50000000000000000000e+03) (153, 1.50000000000000000000e+03) (154, -3.91600112915039062500e+01) (155, -5.22049255371093750000e+02) 