FANN_FLO_2.1
num_layers=4
learning_rate=0.000500
connection_rate=1.000000
network_type=0
learning_momentum=0.000000
training_algorithm=2
train_error_function=1
train_stop_function=0
cascade_output_change_fraction=0.010000
quickprop_decay=-0.000100
quickprop_mu=1.750000
rprop_increase_factor=1.200000
rprop_decrease_factor=0.500000
rprop_delta_min=0.000000
rprop_delta_max=50.000000
rprop_delta_zero=0.100000
cascade_output_stagnation_epochs=12
cascade_candidate_change_fraction=0.010000
cascade_candidate_stagnation_epochs=12
cascade_max_out_epochs=150
cascade_min_out_epochs=50
cascade_max_cand_epochs=150
cascade_min_cand_epochs=50
cascade_num_candidate_groups=2
bit_fail_limit=3.49999994039535522461e-01
cascade_candidate_limit=1.00000000000000000000e+03
cascade_weight_multiplier=4.00000005960464477539e-01
cascade_activation_functions_count=10
cascade_activation_functions=3 5 7 8 10 11 14 15 16 17 
cascade_activation_steepnesses_count=4
cascade_activation_steepnesses=2.50000000000000000000e-01 5.00000000000000000000e-01 7.50000000000000000000e-01 1.00000000000000000000e+00 
layer_sizes=194 33 9 5 
scale_included=0
neurons (num_inputs, activation_function, activation_steepness)=(0, 0, 0.00000000000000000000e+00) (0, 0, 0.00000000000000000000e+00) (0, 0, 0.00000000000000000000e+00) (0, 0, 0.00000000000000000000e+00) (0, 0, 0.00000000000000000000e+00) (0, 0, 0.00000000000000000000e+00) (0, 0, 0.00000000000000000000e+00) (0, 0, 0.00000000000000000000e+00) (0, 0, 0.00000000000000000000e+00) (0, 0, 0.00000000000000000000e+00) (0, 0, 0.00000000000000000000e+00) (0, 0, 0.00000000000000000000e+00) (0, 0, 0.00000000000000000000e+00) (0, 0, 0.00000000000000000000e+00) (0, 0, 0.00000000000000000000e+00) (0, 0, 0.00000000000000000000e+00) (0, 0, 0.00000000000000000000e+00) (0, 0, 0.00000000000000000000e+00) (0, 0, 0.00000000000000000000e+00) (0, 0, 0.00000000000000000000e+00) (0, 0, 0.00000000000000000000e+00) (0, 0, 0.00000000000000000000e+00) (0, 0, 0.00000000000000000000e+00) (0, 0, 0.00000000000000000000e+00) (0, 0, 0.00000000000000000000e+00) (0, 0, 0.00000000000000000000e+00) (0, 0, 0.00000000000000000000e+00) (0, 0, 0.00000000000000000000e+00) (0, 0, 0.00000000000000000000e+00) (0, 0, 0.00000000000000000000e+00) (0, 0, 0.00000000000000000000e+00) (0, 0, 0.00000000000000000000e+00) (0, 0, 0.00000000000000000000e+00) (0, 0, 0.00000000000000000000e+00) (0, 0, 0.00000000000000000000e+00) (0, 0, 0.00000000000000000000e+00) (0, 0, 0.00000000000000000000e+00) (0, 0, 0.00000000000000000000e+00) (0, 0, 0.00000000000000000000e+00) (0, 0, 0.00000000000000000000e+00) (0, 0, 0.00000000000000000000e+00) (0, 0, 0.00000000000000000000e+00) (0, 0, 0.00000000000000000000e+00) (0, 0, 0.00000000000000000000e+00) (0, 0, 0.00000000000000000000e+00) (0, 0, 0.00000000000000000000e+00) (0, 0, 0.00000000000000000000e+00) (0, 0, 0.00000000000000000000e+00) (0, 0, 0.00000000000000000000e+00) (0, 0, 0.00000000000000000000e+00) (0, 0, 0.00000000000000000000e+00) (0, 0, 0.00000000000000000000e+00) (0, 0, 0.00000000000000000000e+00) (0, 0, 0.00000000000000000000e+00) (0, 0, 0.00000000000000000000e+00) (0, 0, 0.00000000000000000000e+00) (0, 0, 0.00000000000000000000e+00) (0, 0, 0.00000000000000000000e+00) (0, 0, 0.00000000000000000000e+00) (0, 0, 0.00000000000000000000e+00) (0, 0, 0.00000000000000000000e+00) (0, 0, 0.00000000000000000000e+00) (0, 0, 0.00000000000000000000e+00) (0, 0, 0.00000000000000000000e+00) (0, 0, 0.00000000000000000000e+00) (0, 0, 0.00000000000000000000e+00) (0, 0, 0.00000000000000000000e+00) (0, 0, 0.00000000000000000000e+00) (0, 0, 0.00000000000000000000e+00) (0, 0, 0.00000000000000000000e+00) (0, 0, 0.00000000000000000000e+00) (0, 0, 0.00000000000000000000e+00) (0, 0, 0.00000000000000000000e+00) (0, 0, 0.00000000000000000000e+00) (0, 0, 0.00000000000000000000e+00) (0, 0, 0.00000000000000000000e+00) (0, 0, 0.00000000000000000000e+00) (0, 0, 0.00000000000000000000e+00) (0, 0, 0.00000000000000000000e+00) (0, 0, 0.00000000000000000000e+00) (0, 0, 0.00000000000000000000e+00) (0, 0, 0.00000000000000000000e+00) (0, 0, 0.00000000000000000000e+00) (0, 0, 0.00000000000000000000e+00) (0, 0, 0.00000000000000000000e+00) (0, 0, 0.00000000000000000000e+00) (0, 0, 0.00000000000000000000e+00) (0, 0, 0.00000000000000000000e+00) (0, 0, 0.00000000000000000000e+00) (0, 0, 0.00000000000000000000e+00) (0, 0, 0.00000000000000000000e+00) (0, 0, 0.00000000000000000000e+00) (0, 0, 0.00000000000000000000e+00) (0, 0, 0.00000000000000000000e+00) (0, 0, 0.00000000000000000000e+00) (0, 0, 0.00000000000000000000e+00) (0, 0, 0.00000000000000000000e+00) (0, 0, 0.00000000000000000000e+00) (0, 0, 0.00000000000000000000e+00) (0, 0, 0.00000000000000000000e+00) (0, 0, 0.00000000000000000000e+00) (0, 0, 0.00000000000000000000e+00) (0, 0, 0.00000000000000000000e+00) (0, 0, 0.00000000000000000000e+00) (0, 0, 0.00000000000000000000e+00) (0, 0, 0.00000000000000000000e+00) (0, 0, 0.00000000000000000000e+00) (0, 0, 0.00000000000000000000e+00) (0, 0, 0.00000000000000000000e+00) (0, 0, 0.00000000000000000000e+00) (0, 0, 0.00000000000000000000e+00) (0, 0, 0.00000000000000000000e+00) (0, 0, 0.00000000000000000000e+00) (0, 0, 0.00000000000000000000e+00) (0, 0, 0.00000000000000000000e+00) (0, 0, 0.00000000000000000000e+00) (0, 0, 0.00000000000000000000e+00) (0, 0, 0.00000000000000000000e+00) (0, 0, 0.00000000000000000000e+00) (0, 0, 0.00000000000000000000e+00) (0, 0, 0.00000000000000000000e+00) (0, 0, 0.00000000000000000000e+00) (0, 0, 0.00000000000000000000e+00) (0, 0, 0.00000000000000000000e+00) (0, 0, 0.00000000000000000000e+00) (0, 0, 0.00000000000000000000e+00) (0, 0, 0.00000000000000000000e+00) (0, 0, 0.00000000000000000000e+00) (0, 0, 0.00000000000000000000e+00) (0, 0, 0.00000000000000000000e+00) (0, 0, 0.00000000000000000000e+00) (0, 0, 0.00000000000000000000e+00) (0, 0, 0.00000000000000000000e+00) (0, 0, 0.00000000000000000000e+00) (0, 0, 0.00000000000000000000e+00) (0, 0, 0.00000000000000000000e+00) (0, 0, 0.00000000000000000000e+00) (0, 0, 0.00000000000000000000e+00) (0, 0, 0.00000000000000000000e+00) (0, 0, 0.00000000000000000000e+00) (0, 0, 0.00000000000000000000e+00) (0, 0, 0.00000000000000000000e+00) (0, 0, 0.00000000000000000000e+00) (0, 0, 0.00000000000000000000e+00) (0, 0, 0.00000000000000000000e+00) (0, 0, 0.00000000000000000000e+00) (0, 0, 0.00000000000000000000e+00) (0, 0, 0.00000000000000000000e+00) (0, 0, 0.00000000000000000000e+00) (0, 0, 0.00000000000000000000e+00) (0, 0, 0.00000000000000000000e+00) (0, 0, 0.00000000000000000000e+00) (0, 0, 0.00000000000000000000e+00) (0, 0, 0.00000000000000000000e+00) (0, 0, 0.00000000000000000000e+00) (0, 0, 0.00000000000000000000e+00) (0, 0, 0.00000000000000000000e+00) (0, 0, 0.00000000000000000000e+00) (0, 0, 0.00000000000000000000e+00) (0, 0, 0.00000000000000000000e+00) (0, 0, 0.00000000000000000000e+00) (0, 0, 0.00000000000000000000e+00) (0, 0, 0.00000000000000000000e+00) (0, 0, 0.00000000000000000000e+00) (0, 0, 0.00000000000000000000e+00) (0, 0, 0.00000000000000000000e+00) (0, 0, 0.00000000000000000000e+00) (0, 0, 0.00000000000000000000e+00) (0, 0, 0.00000000000000000000e+00) (0, 0, 0.00000000000000000000e+00) (0, 0, 0.00000000000000000000e+00) (0, 0, 0.00000000000000000000e+00) (0, 0, 0.00000000000000000000e+00) (0, 0, 0.00000000000000000000e+00) (0, 0, 0.00000000000000000000e+00) (0, 0, 0.00000000000000000000e+00) (0, 0, 0.00000000000000000000e+00) (0, 0, 0.00000000000000000000e+00) (0, 0, 0.00000000000000000000e+00) (0, 0, 0.00000000000000000000e+00) (0, 0, 0.00000000000000000000e+00) (0, 0, 0.00000000000000000000e+00) (0, 0, 0.00000000000000000000e+00) (0, 0, 0.00000000000000000000e+00) (0, 0, 0.00000000000000000000e+00) (0, 0, 0.00000000000000000000e+00) (0, 0, 0.00000000000000000000e+00) (0, 0, 0.00000000000000000000e+00) (0, 0, 0.00000000000000000000e+00) (0, 0, 0.00000000000000000000e+00) (0, 0, 0.00000000000000000000e+00) (0, 0, 0.00000000000000000000e+00) (0, 0, 0.00000000000000000000e+00) (0, 0, 0.00000000000000000000e+00) (194, 3, 5.00000000000000000000e-01) (194, 3, 5.00000000000000000000e-01) (194, 3, 5.00000000000000000000e-01) (194, 3, 5.00000000000000000000e-01) (194, 3, 5.00000000000000000000e-01) (194, 3, 5.00000000000000000000e-01) (194, 3, 5.00000000000000000000e-01) (194, 3, 5.00000000000000000000e-01) (194, 3, 5.00000000000000000000e-01) (194, 3, 5.00000000000000000000e-01) (194, 3, 5.00000000000000000000e-01) (194, 3, 5.00000000000000000000e-01) (194, 3, 5.00000000000000000000e-01) (194, 3, 5.00000000000000000000e-01) (194, 3, 5.00000000000000000000e-01) (194, 3, 5.00000000000000000000e-01) (194, 3, 5.00000000000000000000e-01) (194, 3, 5.00000000000000000000e-01) (194, 3, 5.00000000000000000000e-01) (194, 3, 5.00000000000000000000e-01) (194, 3, 5.00000000000000000000e-01) (194, 3, 5.00000000000000000000e-01) (194, 3, 5.00000000000000000000e-01) (194, 3, 5.00000000000000000000e-01) (194, 3, 5.00000000000000000000e-01) (194, 3, 5.00000000000000000000e-01) (194, 3, 5.00000000000000000000e-01) (194, 3, 5.00000000000000000000e-01) (194, 3, 5.00000000000000000000e-01) (194, 3, 5.00000000000000000000e-01) (194, 3, 5.00000000000000000000e-01) (194, 3, 5.00000000000000000000e-01) (0, 3, 0.00000000000000000000e+00) (33, 3, 5.00000000000000000000e-01) (33, 3, 5.00000000000000000000e-01) (33, 3, 5.00000000000000000000e-01) (33, 3, 5.00000000000000000000e-01) (33, 3, 5.00000000000000000000e-01) (33, 3, 5.00000000000000000000e-01) (33, 3, 5.00000000000000000000e-01) (33, 3, 5.00000000000000000000e-01) (0, 3, 0.00000000000000000000e+00) (9, 3, 5.00000000000000000000e-01) (9, 3, 5.00000000000000000000e-01) (9, 3, 5.00000000000000000000e-01) (9, 3, 5.00000000000000000000e-01) (0, 3, 0.00000000000000000000e+00) 
connections (connected_to_neuron, weight)=(0, -7.16598272323608398438e-01) (1, 4.76668804883956909180e-01) (2, 3.68408977985382080078e-01) (3, 1.57180356979370117188e+00) (4, -8.90882015228271484375e-01) (5, 6.31034553050994873047e-01) (6, 1.07175338268280029297e+00) (7, -2.61484122276306152344e+00) (8, 3.30838394165039062500e+00) (9, 1.73870837688446044922e+00) (10, -8.38931143283843994141e-01) (11, 1.27306580543518066406e+00) (12, 2.11507415771484375000e+00) (13, 5.08953034877777099609e-01) (14, 1.18807101249694824219e+00) (15, 1.98790833353996276855e-01) (16, 5.28613626956939697266e-02) (17, -9.32337939739227294922e-01) (18, 1.64278931915760040283e-02) (19, -6.72994256019592285156e-01) (20, 4.67983663082122802734e-01) (21, 6.95475101470947265625e-01) (22, 1.39316070079803466797e+00) (23, 2.14495968818664550781e+00) (24, -3.94351333379745483398e-01) (25, -1.55885726213455200195e-01) (26, 2.01059326529502868652e-01) (27, -2.13970780372619628906e-01) (28, -2.83755302429199218750e-01) (29, -3.85948240756988525391e-01) (30, 1.02170825004577636719e+00) (31, 7.07554399967193603516e-01) (32, 4.88823920488357543945e-01) (33, -9.23703551292419433594e-01) (34, 1.86952960491180419922e+00) (35, -1.47559189796447753906e+00) (36, 5.96401333808898925781e-01) (37, -1.26826775074005126953e+00) (38, -1.90240311622619628906e+00) (39, 1.60808920860290527344e-01) (40, -5.95514249801635742188e+00) (41, -5.07498562335968017578e-01) (42, 2.06104367971420288086e-01) (43, -2.96313971281051635742e-01) (44, 1.13995663821697235107e-01) (45, 1.94402068853378295898e-01) (46, 4.51756194233894348145e-02) (47, 1.50000000000000000000e+03) (48, 1.50000000000000000000e+03) (49, 1.50000000000000000000e+03) (50, 1.50000000000000000000e+03) (51, 1.50000000000000000000e+03) (52, 1.50000000000000000000e+03) (53, 1.50000000000000000000e+03) (54, 1.50000000000000000000e+03) (55, 1.50000000000000000000e+03) (56, 1.50000000000000000000e+03) (57, 1.50000000000000000000e+03) (58, 1.50000000000000000000e+03) (59, 1.50000000000000000000e+03) (60, 1.75763398408889770508e-01) (61, 2.01748386025428771973e-01) (62, 1.45217239856719970703e-01) (63, 1.87050431966781616211e-01) (64, -3.86379599571228027344e-01) (65, -3.71857702732086181641e-01) (66, 1.27778694033622741699e-01) (67, 1.41078993678092956543e-01) (68, 1.67950049042701721191e-01) (69, 8.52622762322425842285e-02) (70, 9.31013450026512145996e-02) (71, 1.88036873936653137207e-01) (72, -2.26206958293914794922e-01) (73, 1.46720811724662780762e-01) (74, -4.09540265798568725586e-01) (75, 9.52288433909416198730e-02) (76, 8.02696123719215393066e-02) (77, -3.70004802942276000977e-01) (78, 1.81670323014259338379e-01) (79, 2.36297726631164550781e-01) (80, 6.24950230121612548828e-02) (81, 2.13892668485641479492e-01) (82, 1.32659718394279479980e-01) (83, 2.15215772390365600586e-01) (84, 5.62534518539905548096e-02) (85, 1.18866108357906341553e-01) (86, 7.21784651279449462891e-01) (87, -1.32196044921875000000e+00) (88, 5.51238477230072021484e-01) (89, 2.49502751976251602173e-02) (90, 1.82096231728792190552e-02) (91, -4.21091496944427490234e-01) (92, 1.78605943918228149414e-01) (93, 1.29318749904632568359e+00) (94, 1.50000000000000000000e+03) (95, 1.50000000000000000000e+03) (96, 1.50000000000000000000e+03) (97, 1.50000000000000000000e+03) (98, 1.50000000000000000000e+03) (99, 1.50000000000000000000e+03) (100, 1.50000000000000000000e+03) (101, 1.50000000000000000000e+03) (102, 1.50000000000000000000e+03) (103, 1.50000000000000000000e+03) (104, 1.50000000000000000000e+03) (105, 1.50000000000000000000e+03) (106, 1.50000000000000000000e+03) (107, 4.92346525192260742188e-01) (108, 5.14354526996612548828e-01) (109, 1.32661056518554687500e+00) (110, 8.39595735073089599609e-01) (111, 3.21424335241317749023e-01) (112, -6.17400527000427246094e-01) (113, 3.57881188392639160156e-01) (114, 1.41618239879608154297e+00) (115, 8.04858207702636718750e-01) (116, -6.41058444976806640625e-01) (117, 6.96667623519897460938e+00) (118, -1.36794054508209228516e+00) (119, 1.08134973049163818359e+00) (120, 3.64186704158782958984e-01) (121, -6.07425756752490997314e-02) (122, 1.37366712093353271484e+00) (123, 4.27271604537963867188e-01) (124, 2.87555623799562454224e-02) (125, 9.53722417354583740234e-01) (126, 2.86908209323883056641e-01) (127, 2.79870331287384033203e-01) (128, 6.56801164150238037109e-01) (129, 1.32786083221435546875e+00) (130, 2.10987739264965057373e-02) (131, 1.43237376213073730469e+00) (132, -2.84575849771499633789e-01) (133, 1.72114777565002441406e+00) (134, 5.09155631065368652344e-01) (135, 7.35444948077201843262e-02) (136, 2.79035300016403198242e-01) (137, -1.12884593009948730469e+00) (138, -1.59861636161804199219e+00) (139, -8.60195875167846679688e-01) (140, 2.70592021942138671875e+00) (141, 1.50000000000000000000e+03) (142, 1.50000000000000000000e+03) (143, 1.50000000000000000000e+03) (144, 1.50000000000000000000e+03) (145, 1.50000000000000000000e+03) (146, 1.50000000000000000000e+03) (147, 1.50000000000000000000e+03) (148, 1.50000000000000000000e+03) (149, 1.50000000000000000000e+03) (150, 1.50000000000000000000e+03) (151, 1.50000000000000000000e+03) (152, 1.50000000000000000000e+03) (153, 1.50000000000000000000e+03) (154, 2.69846677780151367188e-01) (155, 5.50268352031707763672e-01) (156, -2.05190762877464294434e-01) (157, 1.87427014112472534180e-01) (158, 4.35276746749877929688e-01) (159, 2.55270034074783325195e-01) (160, -5.34559302031993865967e-02) (161, -2.49376028776168823242e-01) (162, 1.71173140406608581543e-01) (163, -5.16519695520401000977e-02) (164, 4.09749090671539306641e-01) (165, -1.29723954200744628906e+00) (166, 5.66981554031372070312e-01) (167, 4.50042039155960083008e-02) (168, 5.50580680370330810547e-01) (169, -3.02578926086425781250e-01) (170, 1.59442469477653503418e-01) (171, 4.64962542057037353516e-01) (172, 1.84835433959960937500e-01) (173, 5.10311484336853027344e-01) (174, -5.38105309009552001953e-01) (175, 1.70269943773746490479e-02) (176, 7.39055797457695007324e-02) (177, 3.25891047716140747070e-01) (178, -1.19427359104156494141e+00) (179, 4.34794761240482330322e-02) (180, 1.16296000778675079346e-01) (181, 2.78282284736633300781e+00) (182, 5.99381327629089355469e-01) (183, 2.05594092607498168945e-01) (184, -6.64718449115753173828e-01) (185, 2.32493981719017028809e-01) (186, 9.10173177719116210938e-01) (187, 1.14654374122619628906e+00) (188, 1.64332103729248046875e+00) (189, 2.52519631385803222656e+00) (190, 1.80416929721832275391e+00) (191, 3.08084845542907714844e+00) (192, 1.14051043987274169922e+00) (193, -2.93295919895172119141e-01) (0, 5.88442564010620117188e-01) (1, 8.16939353942871093750e-01) (2, -2.63070791959762573242e-01) (3, -3.79591882228851318359e-02) (4, 7.58217394351959228516e-01) (5, 6.93376898765563964844e-01) (6, 2.72495460510253906250e+00) (7, 2.17336916923522949219e+00) (8, -3.65867763757705688477e-01) (9, 1.01671004295349121094e+00) (10, 1.15984961390495300293e-01) (11, 9.71515476703643798828e-01) (12, 6.42429709434509277344e-01) (13, -6.22256696224212646484e-01) (14, -1.13724529743194580078e+00) (15, -6.40119671821594238281e-01) (16, -1.23493008315563201904e-01) (17, 1.37368535995483398438e+00) (18, 4.11800050735473632812e+00) (19, -1.14952720701694488525e-01) (20, -6.75498127937316894531e-01) (21, 4.82527732849121093750e-01) (22, 1.21631217002868652344e+00) (23, 1.81870651245117187500e+00) (24, 6.27605080604553222656e-01) (25, 6.54921829700469970703e-01) (26, -9.65690851211547851562e-01) (27, -1.12007832527160644531e+00) (28, 3.04825574159622192383e-01) (29, 1.50909855961799621582e-01) (30, 7.96992242336273193359e-01) (31, 7.30677247047424316406e-01) (32, -1.60545080900192260742e-01) (33, -3.96072715520858764648e-02) (34, 2.05646681785583496094e+00) (35, 6.98114728927612304688e+00) (36, 1.99240124225616455078e+00) (37, 4.31545764207839965820e-01) (38, 1.02166563272476196289e-01) (39, 2.05679371953010559082e-01) (40, 6.17406427860260009766e-01) (41, 1.76927387714385986328e+00) (42, 6.85468018054962158203e-01) (43, 5.10383903980255126953e-01) (44, 4.93294775485992431641e-01) (45, 7.65047013759613037109e-01) (46, -1.50534883141517639160e-01) (47, 1.50000000000000000000e+03) (48, 1.50000000000000000000e+03) (49, 1.50000000000000000000e+03) (50, 1.50000000000000000000e+03) (51, 1.50000000000000000000e+03) (52, 1.50000000000000000000e+03) (53, 1.50000000000000000000e+03) (54, 1.50000000000000000000e+03) (55, 1.50000000000000000000e+03) (56, 1.50000000000000000000e+03) (57, 1.50000000000000000000e+03) (58, 1.50000000000000000000e+03) (59, 1.50000000000000000000e+03) (60, 5.92773854732513427734e-01) (61, 4.97177988290786743164e-01) (62, 6.07298195362091064453e-01) (63, 5.81425070762634277344e-01) (64, 5.67764461040496826172e-01) (65, 5.17439961433410644531e-01) (66, 6.64024412631988525391e-01) (67, 6.27222418785095214844e-01) (68, 6.14848375320434570312e-01) (69, 6.78499877452850341797e-01) (70, 1.30581855773925781250e-01) (71, 7.31418788433074951172e-01) (72, 5.81563174724578857422e-01) (73, 5.26763677597045898438e-01) (74, 5.00195086002349853516e-01) (75, 6.03780388832092285156e-01) (76, 7.40311205387115478516e-01) (77, 5.59539556503295898438e-01) (78, 5.42791664600372314453e-01) (79, 5.77560305595397949219e-01) (80, 5.24655342102050781250e-01) (81, 6.05655312538146972656e-01) (82, 7.13782310485839843750e-01) (83, 5.77600598335266113281e-02) (84, 6.21263682842254638672e-01) (85, 6.03246986865997314453e-01) (86, -3.16996663808822631836e-01) (87, 5.01817286014556884766e-01) (88, 7.58982241153717041016e-01) (89, 5.83316385746002197266e-02) (90, -7.13846325874328613281e-01) (91, -1.34367871284484863281e+00) (92, 7.63058289885520935059e-02) (93, -8.54666709899902343750e-01) (94, 1.50000000000000000000e+03) (95, 1.50000000000000000000e+03) (96, 1.50000000000000000000e+03) (97, 1.50000000000000000000e+03) (98, 1.50000000000000000000e+03) (99, 1.50000000000000000000e+03) (100, 1.50000000000000000000e+03) (101, 1.50000000000000000000e+03) (102, 1.50000000000000000000e+03) (103, 1.50000000000000000000e+03) (104, 1.50000000000000000000e+03) (105, 1.50000000000000000000e+03) (106, 1.50000000000000000000e+03) (107, 3.09259623289108276367e-01) (108, -2.38258743286132812500e+00) (109, 7.98731803894042968750e-01) (110, -3.70038658380508422852e-01) (111, 2.11156010627746582031e+00) (112, 1.14458048343658447266e+00) (113, -1.54890251159667968750e+00) (114, 2.49761953949928283691e-01) (115, -1.01313054561614990234e+00) (116, 9.76923942565917968750e-01) (117, 1.35327589511871337891e+00) (118, 2.59588748216629028320e-01) (119, 2.52666741609573364258e-01) (120, -1.93993374705314636230e-02) (121, 3.51968497037887573242e-01) (122, 7.40648061037063598633e-02) (123, -6.47305918391793966293e-04) (124, 1.12819105386734008789e-01) (125, 1.54829084873199462891e-01) (126, -4.95448559522628784180e-02) (127, 9.64954197406768798828e-01) (128, 1.79600454866886138916e-02) (129, -1.18118725717067718506e-01) (130, 1.54454097151756286621e-01) (131, -4.38712596893310546875e-01) (132, 2.38851860165596008301e-01) (133, 6.78305566310882568359e-01) (134, 4.24969768524169921875e+00) (135, -5.35433411598205566406e-01) (136, -6.37090742588043212891e-01) (137, 8.48884284496307373047e-01) (138, -4.89427149295806884766e-01) (139, -5.12311840057373046875e+00) (140, 4.60442811250686645508e-01) (141, 1.50000000000000000000e+03) (142, 1.50000000000000000000e+03) (143, 1.50000000000000000000e+03) (144, 1.50000000000000000000e+03) (145, 1.50000000000000000000e+03) (146, 1.50000000000000000000e+03) (147, 1.50000000000000000000e+03) (148, 1.50000000000000000000e+03) (149, 1.50000000000000000000e+03) (150, 1.50000000000000000000e+03) (151, 1.50000000000000000000e+03) (152, 1.50000000000000000000e+03) (153, 1.50000000000000000000e+03) (154, 3.83565306663513183594e-01) (155, 4.02409821748733520508e-01) (156, 4.92112487554550170898e-01) (157, 3.46151083707809448242e-01) (158, 2.41213381290435791016e-01) (159, 3.32442522048950195312e-01) (160, 5.93260049819946289062e-01) (161, -1.47777289152145385742e-01) (162, 3.09792339801788330078e-01) (163, 3.71557414531707763672e-01) (164, 2.77468174695968627930e-01) (165, 2.33736589550971984863e-01) (166, 4.17273819446563720703e-01) (167, 2.64561414718627929688e-01) (168, 2.83307552337646484375e-01) (169, 3.45264941453933715820e-01) (170, 3.92021298408508300781e-01) (171, 2.32147365808486938477e-01) (172, 4.93961781263351440430e-01) (173, 5.37765741348266601562e-01) (174, -4.57841575145721435547e-01) (175, 4.25112366676330566406e-01) (176, 2.77655124664306640625e-01) (177, 2.57375955581665039062e-01) (178, 3.71331185102462768555e-01) (179, 3.87867957353591918945e-01) (180, 5.74044179916381835938e+00) (181, 6.66516304016113281250e-01) (182, 3.74935197830200195312e+00) (183, -1.59539151191711425781e+00) (184, 1.14969933032989501953e+00) (185, -1.56537222862243652344e+00) (186, 1.26410984992980957031e+00) (187, 1.24793958663940429688e+00) (188, -6.55027151107788085938e-01) (189, 1.13196122646331787109e+00) (190, 9.69245731830596923828e-01) (191, -7.90961146354675292969e-01) (192, 2.74363458156585693359e-01) (193, 1.63137182593345642090e-01) (0, 1.93004518747329711914e-01) (1, -2.99590539932250976562e+00) (2, 4.72597450017929077148e-01) (3, 3.99509638547897338867e-01) (4, 6.50867342948913574219e-01) (5, 1.83673524856567382812e+00) (6, 1.25876212120056152344e+00) (7, -2.81058979034423828125e+00) (8, 6.27883315086364746094e-01) (9, 4.54808568954467773438e+00) (10, 2.23130202293395996094e+00) (11, -1.63274443149566650391e+00) (12, 5.90056705474853515625e+00) (13, 1.72121360898017883301e-01) (14, -4.50164049863815307617e-01) (15, 2.34009042382240295410e-01) (16, -1.01397082209587097168e-01) (17, 4.94415998458862304688e-01) (18, -2.08485007286071777344e-01) (19, -5.03063738346099853516e-01) (20, 1.67715954780578613281e+00) (21, 1.82312540709972381592e-02) (22, 2.42860031127929687500e+00) (23, 5.04728674888610839844e-01) (24, 5.99596023559570312500e-01) (25, 1.24107563495635986328e+00) (26, 1.37171566486358642578e+00) (27, 6.69846311211585998535e-02) (28, 3.10567021369934082031e-01) (29, -7.49086365103721618652e-02) (30, 1.10333085060119628906e+00) (31, -3.61978486180305480957e-02) (32, 2.87506669759750366211e-01) (33, 4.37321454286575317383e-01) (34, -4.12033885717391967773e-01) (35, 8.07183563709259033203e-01) (36, 5.02267003059387207031e-01) (37, 1.82069504261016845703e+00) (38, -2.76445293426513671875e+00) (39, 6.41141533851623535156e-01) (40, -1.09892725944519042969e+00) (41, 5.96383631229400634766e-01) (42, 2.56799906492233276367e-01) (43, 6.46689534187316894531e-02) (44, -9.55893278121948242188e-01) (45, 1.58578529953956604004e-01) (46, 1.73241829872131347656e+00) (47, 1.50000000000000000000e+03) (48, 1.50000000000000000000e+03) (49, 1.50000000000000000000e+03) (50, 1.50000000000000000000e+03) (51, 1.50000000000000000000e+03) (52, 1.50000000000000000000e+03) (53, 1.50000000000000000000e+03) (54, 1.50000000000000000000e+03) (55, 1.50000000000000000000e+03) (56, 1.50000000000000000000e+03) (57, 1.50000000000000000000e+03) (58, 1.50000000000000000000e+03) (59, 1.50000000000000000000e+03) (60, 2.99424707889556884766e-01) (61, 3.82896125316619873047e-01) (62, -4.25262510776519775391e-01) (63, -3.71315747499465942383e-01) (64, -3.60902130603790283203e-01) (65, 9.36434641480445861816e-02) (66, 1.00488573312759399414e-01) (67, -2.40498244762420654297e-01) (68, 1.35436147451400756836e-01) (69, 3.31071138381958007812e-01) (70, 1.98799923062324523926e-01) (71, -3.94399195909500122070e-01) (72, 6.87227770686149597168e-02) (73, 2.95504570007324218750e-01) (74, 2.97942757606506347656e-01) (75, -3.40345770120620727539e-01) (76, -3.91643017530441284180e-01) (77, -3.28230291604995727539e-01) (78, 3.53273488581180572510e-02) (79, 2.92861014604568481445e-02) (80, -3.38202208280563354492e-01) (81, 1.52255058288574218750e-01) (82, -1.49179501459002494812e-02) (83, 1.23000666499137878418e-01) (84, 9.17012393474578857422e-02) (85, 2.90567755699157714844e-01) (86, 7.55059540271759033203e-01) (87, 5.04725122451782226562e+00) (88, 4.73387807607650756836e-01) (89, 3.16388577222824096680e-01) (90, -8.64972621202468872070e-02) (91, -3.41311097145080566406e-01) (92, -3.28113317489624023438e-01) (93, 3.15742999315261840820e-01) (94, 1.50000000000000000000e+03) (95, 1.50000000000000000000e+03) (96, 1.50000000000000000000e+03) (97, 1.50000000000000000000e+03) (98, 1.50000000000000000000e+03) (99, 1.50000000000000000000e+03) (100, 1.50000000000000000000e+03) (101, 1.50000000000000000000e+03) (102, 1.50000000000000000000e+03) (103, 1.50000000000000000000e+03) (104, 1.50000000000000000000e+03) (105, 1.50000000000000000000e+03) (106, 1.50000000000000000000e+03) (107, -2.48399782180786132812e+00) (108, -3.09671211242675781250e+00) (109, 3.97496849298477172852e-01) (110, -5.20238950848579406738e-02) (111, -4.05158901214599609375e+00) (112, -2.19844412803649902344e+00) (113, -2.71215975284576416016e-01) (114, 1.07644147872924804688e+01) (115, 3.24037343263626098633e-01) (116, -5.06464123725891113281e-01) (117, 1.67031264305114746094e+00) (118, -4.46981430053710937500e-01) (119, -1.43767464160919189453e+00) (120, 1.51127472519874572754e-01) (121, 4.28571254014968872070e-01) (122, 9.07424613833427429199e-02) (123, 3.06293576955795288086e-01) (124, -2.82769240438938140869e-02) (125, 3.99007439613342285156e-01) (126, 1.99054729938507080078e+00) (127, -8.07846263051033020020e-02) (128, 1.03893280029296875000e-01) (129, 3.12261641025543212891e-01) (130, 5.03859668970108032227e-02) (131, 6.25297129154205322266e-02) (132, -1.54669627547264099121e-01) (133, 4.35945224761962890625e+00) (134, -2.87330836057662963867e-01) (135, 8.44695866107940673828e-01) (136, -7.55414292216300964355e-02) (137, -7.39300608634948730469e-01) (138, 3.87432068586349487305e-01) (139, 3.51453155279159545898e-01) (140, 1.82881069183349609375e+00) (141, 1.50000000000000000000e+03) (142, 1.50000000000000000000e+03) (143, 1.50000000000000000000e+03) (144, 1.50000000000000000000e+03) (145, 1.50000000000000000000e+03) (146, 1.50000000000000000000e+03) (147, 1.50000000000000000000e+03) (148, 1.50000000000000000000e+03) (149, 1.50000000000000000000e+03) (150, 1.50000000000000000000e+03) (151, 1.50000000000000000000e+03) (152, 1.50000000000000000000e+03) (153, 1.50000000000000000000e+03) (154, 2.40771815180778503418e-01) (155, 2.68196225166320800781e-01) (156, 5.01905381679534912109e-01) (157, 1.13407753407955169678e-01) (158, 1.56947433948516845703e-01) (159, 2.81178265810012817383e-01) (160, 2.73585170507431030273e-01) (161, 4.07277733087539672852e-01) (162, 7.57425129413604736328e-02) (163, 3.60958963632583618164e-01) (164, 4.28398787975311279297e-01) (165, -8.77102166414260864258e-02) (166, 5.78601717948913574219e-01) (167, 3.37459117174148559570e-01) (168, 1.01183146238327026367e-01) (169, 4.50615733861923217773e-01) (170, 1.08172960579395294189e-01) (171, 2.71479725837707519531e-01) (172, 1.61676019430160522461e-01) (173, -9.15466129779815673828e-01) (174, 6.28783941268920898438e-01) (175, 3.09243232011795043945e-01) (176, 3.73463660478591918945e-01) (177, 4.83626335859298706055e-01) (178, 9.68844592571258544922e-02) (179, 5.20288407802581787109e-01) (180, 1.19671058654785156250e+00) (181, -6.74141526222229003906e-01) (182, -2.26965212821960449219e+00) (183, -3.22821140289306640625e+00) (184, 4.89530706405639648438e+00) (185, -2.04978632926940917969e+00) (186, -5.84762871265411376953e-01) (187, 1.88792181015014648438e+00) (188, 2.45014452934265136719e+00) (189, 3.23701906204223632812e+00) (190, 7.05502450466156005859e-01) (191, 2.86280202865600585938e+00) (192, 1.17795860767364501953e+00) (193, 9.97991204261779785156e-01) (0, -2.75703519582748413086e-01) (1, 4.77137416601181030273e-02) (2, -1.01474082469940185547e+00) (3, 5.50454497337341308594e-01) (4, 1.78556156158447265625e+00) (5, 4.36965435743331909180e-01) (6, 1.24449051916599273682e-01) (7, -9.23602819442749023438e-01) (8, 9.57600176334381103516e-01) (9, -6.54738068580627441406e-01) (10, -1.19950067996978759766e+00) (11, -2.47118759155273437500e+00) (12, -7.43169113993644714355e-02) (13, 6.11313700675964355469e-01) (14, 6.71330034732818603516e-01) (15, -1.49776756763458251953e-01) (16, -3.85446381568908691406e+00) (17, 1.64998579025268554688e+00) (18, 3.02348160743713378906e+00) (19, 5.05718171596527099609e-01) (20, 8.10048937797546386719e-01) (21, 1.71179130673408508301e-01) (22, 2.94543790817260742188e+00) (23, 5.12739181518554687500e+00) (24, -1.84716963768005371094e+00) (25, -1.93161308765411376953e+00) (26, -4.39215540885925292969e-01) (27, -5.42741358280181884766e-01) (28, 1.16612471640110015869e-01) (29, 4.70856636762619018555e-01) (30, 1.51064860820770263672e+00) (31, 7.74709761142730712891e-01) (32, 6.89770514145493507385e-03) (33, -2.97478032112121582031e+00) (34, -7.29835391044616699219e-01) (35, 4.35033226013183593750e+00) (36, 1.21114003658294677734e+00) (37, -9.47728633880615234375e-01) (38, -7.45498090982437133789e-02) (39, 1.45635947585105895996e-01) (40, -5.89585185050964355469e-01) (41, -4.93347257375717163086e-01) (42, 5.72205305099487304688e-01) (43, -1.69346317648887634277e-01) (44, -7.57483720779418945312e-01) (45, -2.91306138038635253906e+00) (46, 3.04011255502700805664e-01) (47, 1.50000000000000000000e+03) (48, 1.50000000000000000000e+03) (49, 1.50000000000000000000e+03) (50, 1.50000000000000000000e+03) (51, 1.50000000000000000000e+03) (52, 1.50000000000000000000e+03) (53, 1.50000000000000000000e+03) (54, 1.50000000000000000000e+03) (55, 1.50000000000000000000e+03) (56, 1.50000000000000000000e+03) (57, 1.50000000000000000000e+03) (58, 1.50000000000000000000e+03) (59, 1.50000000000000000000e+03) (60, -3.05663883686065673828e-01) (61, -2.49016195535659790039e-01) (62, -1.50793626904487609863e-01) (63, -2.45185449719429016113e-01) (64, -2.53161013126373291016e-01) (65, -1.94758653640747070312e-01) (66, -1.68978244066238403320e-01) (67, -2.19531357288360595703e-01) (68, -2.38202154636383056641e-01) (69, -2.81567841768264770508e-01) (70, -1.93655773997306823730e-01) (71, -2.86993265151977539062e-01) (72, -3.39503526687622070312e-01) (73, -2.74221062660217285156e-01) (74, -1.72072961926460266113e-01) (75, -2.08773359656333923340e-01) (76, -1.80544540286064147949e-01) (77, -1.83346211910247802734e-01) (78, -1.98249146342277526855e-01) (79, -2.87801504135131835938e-01) (80, -2.19233453273773193359e-01) (81, -1.89849093556404113770e-01) (82, -2.88358539342880249023e-01) (83, -2.48076990246772766113e-01) (84, -1.77572533488273620605e-01) (85, -2.49400734901428222656e-01) (86, 2.11967706680297851562e+00) (87, -1.96483686566352844238e-01) (88, 3.07113945484161376953e-01) (89, -9.65766966342926025391e-01) (90, -4.30864304304122924805e-01) (91, -9.90464836359024047852e-02) (92, 7.40162491798400878906e-01) (93, 6.20650410652160644531e-01) (94, 1.50000000000000000000e+03) (95, 1.50000000000000000000e+03) (96, 1.50000000000000000000e+03) (97, 1.50000000000000000000e+03) (98, 1.50000000000000000000e+03) (99, 1.50000000000000000000e+03) (100, 1.50000000000000000000e+03) (101, 1.50000000000000000000e+03) (102, 1.50000000000000000000e+03) (103, 1.50000000000000000000e+03) (104, 1.50000000000000000000e+03) (105, 1.50000000000000000000e+03) (106, 1.50000000000000000000e+03) (107, -2.16083857230842113495e-03) (108, 3.85216474533081054688e-02) (109, 6.21319651603698730469e-01) (110, 3.04067897796630859375e+00) (111, -2.99430584907531738281e+00) (112, 1.79946815967559814453e+00) (113, 3.31249862909317016602e-01) (114, 5.63541054725646972656e-01) (115, -7.34965875744819641113e-03) (116, 9.32228088378906250000e-01) (117, 2.69872641563415527344e+00) (118, 8.98968875408172607422e-01) (119, 1.05150949954986572266e+00) (120, 2.23434761166572570801e-01) (121, 5.37868738174438476562e-01) (122, 3.91698718070983886719e-01) (123, 6.46449387073516845703e-01) (124, 4.07293736934661865234e-01) (125, 2.87235289812088012695e-01) (126, 6.87569916248321533203e-01) (127, 8.12731564044952392578e-01) (128, 9.59583163261413574219e-01) (129, 4.54512208700180053711e-01) (130, 1.28650009632110595703e-01) (131, 9.91174876689910888672e-01) (132, 2.38248333334922790527e-01) (133, -2.35587477684020996094e+00) (134, -5.07743358612060546875e-01) (135, 2.12080240249633789062e+00) (136, 3.82122492790222167969e+00) (137, -1.25752127170562744141e+00) (138, 6.32108867168426513672e-01) (139, -1.80168998241424560547e+00) (140, 2.46391916275024414062e+00) (141, 1.50000000000000000000e+03) (142, 1.50000000000000000000e+03) (143, 1.50000000000000000000e+03) (144, 1.50000000000000000000e+03) (145, 1.50000000000000000000e+03) (146, 1.50000000000000000000e+03) (147, 1.50000000000000000000e+03) (148, 1.50000000000000000000e+03) (149, 1.50000000000000000000e+03) (150, 1.50000000000000000000e+03) (151, 1.50000000000000000000e+03) (152, 1.50000000000000000000e+03) (153, 1.50000000000000000000e+03) (154, -4.52163405716419219971e-02) (155, 1.27951633185148239136e-02) (156, -1.79386511445045471191e-01) (157, -8.28573629260063171387e-02) (158, -1.27394439186900854111e-03) (159, 7.87879303097724914551e-02) (160, -1.46934449672698974609e-01) (161, -4.89629507064819335938e-01) (162, -2.44911149144172668457e-01) (163, -4.62516844272613525391e-02) (164, 4.32895449921488761902e-03) (165, -3.83009225130081176758e-01) (166, 3.30652445554733276367e-01) (167, 8.60955268144607543945e-02) (168, 1.00299231708049774170e-02) (169, 1.06495385989546775818e-02) (170, -1.77959382534027099609e-01) (171, 1.75015777349472045898e-01) (172, 1.03966102004051208496e-01) (173, 3.81830893456935882568e-02) (174, -2.32611343264579772949e-01) (175, 5.41002303361892700195e-03) (176, 6.37178272008895874023e-02) (177, 3.08024078607559204102e-01) (178, -1.66580423712730407715e-01) (179, -4.15086559951305389404e-02) (180, 1.40567433834075927734e+00) (181, 2.38330888748168945312e+00) (182, -3.16211915016174316406e+00) (183, 9.55373167991638183594e-01) (184, 1.26709043979644775391e+00) (185, 1.19396305084228515625e+00) (186, -2.11312270164489746094e+00) (187, 6.54988586902618408203e-01) (188, 1.85995042324066162109e+00) (189, -5.42662084102630615234e-01) (190, 1.03550232946872711182e-01) (191, 1.74844637513160705566e-01) (192, 3.16172122955322265625e+00) (193, 4.49702203273773193359e-01) (0, -1.70050457119941711426e-01) (1, -2.47398257255554199219e-01) (2, 8.43906342983245849609e-01) (3, -6.01161718368530273438e-01) (4, 7.21932291984558105469e-01) (5, 2.60799455642700195312e+00) (6, 2.90113449096679687500e+00) (7, -3.95451259613037109375e+00) (8, 3.67677211761474609375e-01) (9, 6.00710344314575195312e+00) (10, 4.87274080514907836914e-01) (11, -3.06041389703750610352e-01) (12, 9.87622588872909545898e-02) (13, -5.08381128311157226562e-01) (14, 3.68833616375923156738e-02) (15, -1.24775922298431396484e+00) (16, 1.79987108707427978516e+00) (17, -4.97852087020874023438e-01) (18, -9.55789506435394287109e-01) (19, 9.42499041557312011719e-02) (20, 9.36060428619384765625e-01) (21, -3.88210602104663848877e-02) (22, 1.35135149955749511719e+00) (23, 2.81975603103637695312e+00) (24, -4.19574677944183349609e-01) (25, -1.20095157623291015625e+00) (26, 2.02889382839202880859e-01) (27, 1.47683009505271911621e-01) (28, -4.45735991001129150391e-01) (29, 1.00804187357425689697e-01) (30, -4.14552599191665649414e-01) (31, 1.63961008191108703613e-01) (32, -1.31530478596687316895e-01) (33, 7.01449438929557800293e-03) (34, -1.34309947490692138672e-01) (35, -2.53894424438476562500e+00) (36, -1.09850192070007324219e+00) (37, 1.08715511858463287354e-01) (38, -8.81894588470458984375e-01) (39, -1.64440214633941650391e-01) (40, -2.91258406639099121094e+00) (41, 1.95878899097442626953e+00) (42, -1.32047444581985473633e-01) (43, -5.01323282718658447266e-01) (44, 1.50881959125399589539e-02) (45, -3.95230948925018310547e-01) (46, 2.96012878417968750000e-01) (47, 1.50000000000000000000e+03) (48, 1.50000000000000000000e+03) (49, 1.50000000000000000000e+03) (50, 1.50000000000000000000e+03) (51, 1.50000000000000000000e+03) (52, 1.50000000000000000000e+03) (53, 1.50000000000000000000e+03) (54, 1.50000000000000000000e+03) (55, 1.50000000000000000000e+03) (56, 1.50000000000000000000e+03) (57, 1.50000000000000000000e+03) (58, 1.50000000000000000000e+03) (59, 1.50000000000000000000e+03) (60, -5.13140201568603515625e-01) (61, -4.74698364734649658203e-01) (62, -4.15473103523254394531e-01) (63, -4.78612869977951049805e-01) (64, -5.06365001201629638672e-01) (65, -4.48841989040374755859e-01) (66, -3.22867780923843383789e-01) (67, -4.50250178575515747070e-01) (68, -5.05234897136688232422e-01) (69, -3.97690862417221069336e-01) (70, -3.90060931444168090820e-01) (71, -4.22764241695404052734e-01) (72, -5.03775835037231445312e-01) (73, -4.56830620765686035156e-01) (74, -4.16245132684707641602e-01) (75, -4.59859937429428100586e-01) (76, -3.23629677295684814453e-01) (77, -4.64645326137542724609e-01) (78, -4.20734941959381103516e-01) (79, -5.10778188705444335938e-01) (80, -4.33795839548110961914e-01) (81, -4.09905314445495605469e-01) (82, -3.50037783384323120117e-01) (83, -3.41730386018753051758e-01) (84, -4.23378854990005493164e-01) (85, -4.77420359849929809570e-01) (86, 1.52558743953704833984e+00) (87, -1.00383901596069335938e+00) (88, 1.66570746898651123047e+00) (89, 6.61606565117835998535e-02) (90, 2.15324926376342773438e+00) (91, 1.92639470100402832031e-01) (92, 1.76967084407806396484e-01) (93, 3.63096642494201660156e+00) (94, 1.50000000000000000000e+03) (95, 1.50000000000000000000e+03) (96, 1.50000000000000000000e+03) (97, 1.50000000000000000000e+03) (98, 1.50000000000000000000e+03) (99, 1.50000000000000000000e+03) (100, 1.50000000000000000000e+03) (101, 1.50000000000000000000e+03) (102, 1.50000000000000000000e+03) (103, 1.50000000000000000000e+03) (104, 1.50000000000000000000e+03) (105, 1.50000000000000000000e+03) (106, 1.50000000000000000000e+03) (107, -5.97935914993286132812e-01) (108, 5.96749603748321533203e-01) (109, 3.46934825181961059570e-01) (110, 3.64704751968383789062e+00) (111, 4.58558881655335426331e-03) (112, 4.22140881419181823730e-02) (113, -2.47959628701210021973e-01) (114, 6.04784905910491943359e-01) (115, 1.50636208057403564453e+00) (116, -6.00432395935058593750e-01) (117, 4.36048650741577148438e+00) (118, 4.98152643442153930664e-01) (119, 1.02329599857330322266e+00) (120, 6.12015783786773681641e-01) (121, -3.61446887254714965820e-01) (122, -2.21659496426582336426e-01) (123, 5.74564218521118164062e-01) (124, -6.98521062731742858887e-02) (125, 2.15787485241889953613e-01) (126, 2.26820126175880432129e-01) (127, 2.74451881647109985352e-01) (128, 1.14973080158233642578e+00) (129, 1.69414877891540527344e+00) (130, -1.74531549215316772461e-01) (131, 7.19815969467163085938e-01) (132, 4.20379787683486938477e-01) (133, 8.65852355957031250000e-01) (134, 2.01575636863708496094e-01) (135, 1.67855632305145263672e+00) (136, -5.88481128215789794922e-01) (137, -4.54352951049804687500e+00) (138, -1.24373674392700195312e+00) (139, -1.58040240406990051270e-01) (140, 9.49380695819854736328e-01) (141, 1.50000000000000000000e+03) (142, 1.50000000000000000000e+03) (143, 1.50000000000000000000e+03) (144, 1.50000000000000000000e+03) (145, 1.50000000000000000000e+03) (146, 1.50000000000000000000e+03) (147, 1.50000000000000000000e+03) (148, 1.50000000000000000000e+03) (149, 1.50000000000000000000e+03) (150, 1.50000000000000000000e+03) (151, 1.50000000000000000000e+03) (152, 1.50000000000000000000e+03) (153, 1.50000000000000000000e+03) (154, 2.56740540266036987305e-01) (155, 8.00634741783142089844e-01) (156, -3.75139713287353515625e-02) (157, 2.60805934667587280273e-01) (158, 5.59200763702392578125e-01) (159, 1.96778625249862670898e-01) (160, 5.44083476066589355469e-01) (161, 3.78107607364654541016e-01) (162, 1.81411728262901306152e-01) (163, 1.10230013728141784668e-01) (164, 6.36929392814636230469e-01) (165, 1.95958763360977172852e-01) (166, 4.94941622018814086914e-01) (167, 2.22329974174499511719e-01) (168, 8.04616153240203857422e-01) (169, -1.22072175145149230957e-01) (170, 2.79070466756820678711e-01) (171, 5.44464051723480224609e-01) (172, 2.05999717116355895996e-01) (173, 5.61135858297348022461e-02) (174, 1.38925924897193908691e-01) (175, 1.58015251159667968750e-01) (176, 1.24393656849861145020e-01) (177, 6.26600265502929687500e-01) (178, 5.27650594711303710938e-01) (179, -1.70365553349256515503e-02) (180, -1.55137389898300170898e-01) (181, 5.85234224796295166016e-01) (182, -3.26455533504486083984e-02) (183, 2.39081591367721557617e-01) (184, 2.45335519313812255859e-01) (185, 1.09515798091888427734e+00) (186, 1.40508794784545898438e+00) (187, 4.95582848787307739258e-01) (188, 9.37525272369384765625e-01) (189, 1.08815574645996093750e+00) (190, 8.65599930286407470703e-01) (191, 4.84622240066528320312e+00) (192, -8.60596418380737304688e-01) (193, -2.45053362846374511719e+00) (0, -5.51324337720870971680e-04) (1, 1.04553472995758056641e+00) (2, 1.23668543994426727295e-01) (3, -1.64937302470207214355e-02) (4, 1.81513202190399169922e+00) (5, 2.12849542498588562012e-01) (6, 2.35047578811645507812e+00) (7, -3.64275097846984863281e+00) (8, -1.09130203723907470703e+00) (9, 1.82360184192657470703e+00) (10, 3.51635366678237915039e-03) (11, -2.81011819839477539062e+00) (12, 6.30448341369628906250e-01) (13, 8.05930644273757934570e-02) (14, 1.31551817059516906738e-01) (15, -1.03888106346130371094e+00) (16, -3.97636234760284423828e-01) (17, 6.18910193443298339844e-01) (18, 1.60392865538597106934e-01) (19, -3.05411159992218017578e-01) (20, -3.00348967313766479492e-01) (21, -3.29408615827560424805e-01) (22, 3.72702062129974365234e-01) (23, 1.13758945465087890625e+00) (24, 9.93913471698760986328e-01) (25, -1.10140240192413330078e+00) (26, 4.71830785274505615234e-01) (27, -1.42962783575057983398e-01) (28, -5.48947513103485107422e-01) (29, 6.95493042469024658203e-01) (30, 4.65203523635864257812e-01) (31, 1.46513080596923828125e+00) (32, -6.33979916572570800781e-01) (33, -6.52701556682586669922e-01) (34, 4.01173621416091918945e-01) (35, -2.33710452914237976074e-01) (36, -4.20371919870376586914e-01) (37, -2.14584231376647949219e+00) (38, 7.25513339042663574219e-01) (39, 1.18227100372314453125e+00) (40, -3.27549695968627929688e+00) (41, 1.97144865989685058594e+00) (42, 4.73915552720427513123e-03) (43, 1.13185398280620574951e-01) (44, 7.81397446990013122559e-02) (45, -1.64591157436370849609e+00) (46, -3.20185899734497070312e+00) (47, 1.50000000000000000000e+03) (48, 1.50000000000000000000e+03) (49, 1.50000000000000000000e+03) (50, 1.50000000000000000000e+03) (51, 1.50000000000000000000e+03) (52, 1.50000000000000000000e+03) (53, 1.50000000000000000000e+03) (54, 1.50000000000000000000e+03) (55, 1.50000000000000000000e+03) (56, 1.50000000000000000000e+03) (57, 1.50000000000000000000e+03) (58, 1.50000000000000000000e+03) (59, 1.50000000000000000000e+03) (60, 2.43699997663497924805e-01) (61, 1.57864555716514587402e-01) (62, 2.80413657426834106445e-01) (63, 1.76446259021759033203e-01) (64, 2.49431386590003967285e-01) (65, 2.29248106479644775391e-01) (66, 2.55082756280899047852e-01) (67, 1.13861531019210815430e-01) (68, 2.84791827201843261719e-01) (69, 1.12450696527957916260e-01) (70, 2.63043463230133056641e-01) (71, 1.94101795554161071777e-01) (72, 1.10311187803745269775e-01) (73, 1.68872892856597900391e-01) (74, 2.08326295018196105957e-01) (75, 1.90358906984329223633e-01) (76, 1.79831013083457946777e-01) (77, 2.11799204349517822266e-01) (78, 1.47342756390571594238e-01) (79, 2.21007958054542541504e-01) (80, 1.36737287044525146484e-01) (81, 1.31157502532005310059e-01) (82, 2.89465129375457763672e-01) (83, 2.83183395862579345703e-01) (84, 2.74887323379516601562e-01) (85, 2.76995062828063964844e-01) (86, 4.01299864053726196289e-01) (87, -2.03352421522140502930e-01) (88, 5.81362307071685791016e-01) (89, 1.67650878429412841797e+00) (90, 5.55725276470184326172e-01) (91, -1.57334852218627929688e+00) (92, -9.67167615890502929688e-02) (93, 8.85486364364624023438e-01) (94, 1.50000000000000000000e+03) (95, 1.50000000000000000000e+03) (96, 1.50000000000000000000e+03) (97, 1.50000000000000000000e+03) (98, 1.50000000000000000000e+03) (99, 1.50000000000000000000e+03) (100, 1.50000000000000000000e+03) (101, 1.50000000000000000000e+03) (102, 1.50000000000000000000e+03) (103, 1.50000000000000000000e+03) (104, 1.50000000000000000000e+03) (105, 1.50000000000000000000e+03) (106, 1.50000000000000000000e+03) (107, -3.92712146043777465820e-01) (108, 2.06713271141052246094e+00) (109, -4.18540745973587036133e-01) (110, 9.33890163898468017578e-01) (111, 3.22023630142211914062e-01) (112, 2.47629836201667785645e-01) (113, -7.34908819198608398438e-01) (114, 3.68086338043212890625e-01) (115, 7.26977205276489257812e+00) (116, 2.49594521522521972656e+00) (117, 7.45172083377838134766e-01) (118, -6.00703954696655273438e+00) (119, -4.73658180236816406250e+00) (120, 2.25827321410179138184e-01) (121, 4.59799617528915405273e-01) (122, 2.63618052005767822266e-01) (123, 1.21712005138397216797e+00) (124, 1.24701289460062980652e-02) (125, 4.48001652956008911133e-01) (126, 1.51896640658378601074e-01) (127, -6.47702366113662719727e-02) (128, 5.11215746402740478516e-01) (129, 4.77812051773071289062e-01) (130, 3.03381115198135375977e-01) (131, 1.22014962136745452881e-01) (132, -5.78161254525184631348e-02) (133, -2.06730112433433532715e-01) (134, -3.09672772884368896484e-01) (135, 1.69651031494140625000e-01) (136, -1.91283617168664932251e-02) (137, -5.09016096591949462891e-01) (138, 1.18506181240081787109e+00) (139, -3.27094852924346923828e-01) (140, -1.01896086707711219788e-02) (141, 1.50000000000000000000e+03) (142, 1.50000000000000000000e+03) (143, 1.50000000000000000000e+03) (144, 1.50000000000000000000e+03) (145, 1.50000000000000000000e+03) (146, 1.50000000000000000000e+03) (147, 1.50000000000000000000e+03) (148, 1.50000000000000000000e+03) (149, 1.50000000000000000000e+03) (150, 1.50000000000000000000e+03) (151, 1.50000000000000000000e+03) (152, 1.50000000000000000000e+03) (153, 1.50000000000000000000e+03) (154, 1.87598109245300292969e-01) (155, 1.52150526642799377441e-01) (156, -4.03864122927188873291e-02) (157, 5.38225658237934112549e-02) (158, 3.71118485927581787109e-01) (159, 1.46161317825317382812e-01) (160, 1.66407927870750427246e-01) (161, 3.04633677005767822266e-01) (162, -4.24631871283054351807e-02) (163, 2.13661804795265197754e-01) (164, 1.21464356780052185059e-01) (165, 4.14091609418392181396e-02) (166, 3.90072554349899291992e-01) (167, 4.61721926927566528320e-01) (168, 2.36472804099321365356e-02) (169, -7.56174400448799133301e-02) (170, 7.33155906200408935547e-02) (171, 3.01761209964752197266e-01) (172, 2.36718550324440002441e-01) (173, 4.39640618860721588135e-02) (174, 2.42836683988571166992e-01) (175, -1.63245409727096557617e-01) (176, 1.61670073866844177246e-01) (177, 1.40106916427612304688e-01) (178, 1.17574147880077362061e-02) (179, 3.06264668703079223633e-01) (180, 1.54266893863677978516e+00) (181, 2.21313834190368652344e+00) (182, -4.79662537574768066406e-01) (183, -1.64802998304367065430e-01) (184, 2.05225253105163574219e+00) (185, 9.49513733386993408203e-01) (186, -7.08582162857055664062e-01) (187, 3.13170403242111206055e-02) (188, 1.32421052455902099609e+00) (189, -1.55535921454429626465e-01) (190, 6.92930030822753906250e+00) (191, 5.27380418777465820312e+00) (192, 3.10140180587768554688e+00) (193, -1.16238725185394287109e+00) (0, -1.75661599636077880859e+00) (1, 3.47970938682556152344e+00) (2, 3.20626807212829589844e+00) (3, 2.49395594000816345215e-01) (4, -3.22792696952819824219e+00) (5, -4.52214539051055908203e-01) (6, 5.17108023166656494141e-01) (7, -4.94697618484497070312e+00) (8, 2.77536797523498535156e+00) (9, -8.43757569789886474609e-01) (10, -3.73435616493225097656e+00) (11, -4.77680489420890808105e-02) (12, 1.32128596305847167969e+00) (13, 1.59373950958251953125e+00) (14, 2.93936222791671752930e-01) (15, 2.21949434280395507812e+00) (16, 1.47058472037315368652e-01) (17, 1.79871663451194763184e-01) (18, 1.39470577239990234375e-01) (19, 3.01338583230972290039e-01) (20, 4.03227329254150390625e-01) (21, 5.26386737823486328125e-01) (22, 2.04249453544616699219e+00) (23, 1.69739329814910888672e+00) (24, 6.24525904655456542969e-01) (25, -9.61655199527740478516e-01) (26, 2.99335300922393798828e-01) (27, 2.61334109306335449219e+00) (28, 8.44468355178833007812e-01) (29, 1.21638834476470947266e+00) (30, 1.85284435749053955078e-01) (31, 1.93254816532135009766e+00) (32, 6.37573659420013427734e-01) (33, -6.24965652823448181152e-02) (34, 1.80479645729064941406e+00) (35, -5.86909055709838867188e-03) (36, 2.64487957954406738281e+00) (37, -1.04888689517974853516e+00) (38, 7.92533993721008300781e-01) (39, 2.31341123580932617188e+00) (40, -2.11547470092773437500e+00) (41, -1.21435534954071044922e+00) (42, 3.37129503488540649414e-01) (43, 8.44268947839736938477e-02) (44, -7.49534666538238525391e-02) (45, -2.03767061233520507812e-01) (46, 4.16188985109329223633e-02) (47, 1.50000000000000000000e+03) (48, 1.50000000000000000000e+03) (49, 1.50000000000000000000e+03) (50, 1.50000000000000000000e+03) (51, 1.50000000000000000000e+03) (52, 1.50000000000000000000e+03) (53, 1.50000000000000000000e+03) (54, 1.50000000000000000000e+03) (55, 1.50000000000000000000e+03) (56, 1.50000000000000000000e+03) (57, 1.50000000000000000000e+03) (58, 1.50000000000000000000e+03) (59, 1.50000000000000000000e+03) (60, -6.76873251795768737793e-02) (61, -2.85987071692943572998e-02) (62, -8.25565680861473083496e-02) (63, 6.82979002594947814941e-02) (64, -1.13230787217617034912e-01) (65, -1.88790019601583480835e-02) (66, -2.13661074638366699219e-01) (67, 2.56058368831872940063e-02) (68, 8.28912761062383651733e-03) (69, -1.46320741623640060425e-03) (70, -7.36288502812385559082e-02) (71, -2.50845581293106079102e-01) (72, -1.07235491275787353516e-01) (73, 2.32515130192041397095e-02) (74, -1.24025732278823852539e-01) (75, -6.11111335456371307373e-03) (76, -3.11154536902904510498e-02) (77, 3.61943133175373077393e-02) (78, 1.10694235190749168396e-02) (79, -9.97326672077178955078e-02) (80, -2.55676191300153732300e-02) (81, -8.58124643564224243164e-02) (82, 6.59433007240295410156e-02) (83, -2.58637759834527969360e-02) (84, -1.73600018024444580078e-01) (85, 1.61239667795598506927e-03) (86, -4.45129692554473876953e-01) (87, -6.75914049148559570312e-01) (88, 1.95293402671813964844e+00) (89, 4.37960952520370483398e-01) (90, 1.96656227111816406250e-01) (91, 4.30998057126998901367e-01) (92, -2.26025238633155822754e-01) (93, -2.93480801582336425781e+00) (94, 1.50000000000000000000e+03) (95, 1.50000000000000000000e+03) (96, 1.50000000000000000000e+03) (97, 1.50000000000000000000e+03) (98, 1.50000000000000000000e+03) (99, 1.50000000000000000000e+03) (100, 1.50000000000000000000e+03) (101, 1.50000000000000000000e+03) (102, 1.50000000000000000000e+03) (103, 1.50000000000000000000e+03) (104, 1.50000000000000000000e+03) (105, 1.50000000000000000000e+03) (106, 1.50000000000000000000e+03) (107, -2.85190641880035400391e-01) (108, 6.37054491043090820312e+00) (109, 5.17019367218017578125e+00) (110, 1.03759324550628662109e+00) (111, 9.65050816535949707031e-01) (112, -1.99264049530029296875e+00) (113, 7.52383947372436523438e-01) (114, 3.79730641841888427734e-01) (115, 1.13568127155303955078e+00) (116, -6.26424741744995117188e+00) (117, 4.51328563690185546875e+00) (118, -5.89962303638458251953e-02) (119, -1.00669467449188232422e+00) (120, 1.21681846678256988525e-01) (121, 1.41430959105491638184e-01) (122, -5.32144665718078613281e-01) (123, 7.94174298644065856934e-02) (124, -4.32072758674621582031e-01) (125, 1.18388876318931579590e-01) (126, 1.75261333584785461426e-01) (127, -3.37516628205776214600e-02) (128, -7.34127521514892578125e-01) (129, 9.21827793121337890625e-01) (130, 1.60260111093521118164e-01) (131, -2.12777450680732727051e-01) (132, -7.36001551151275634766e-01) (133, 4.23704862594604492188e+00) (134, 7.52413868904113769531e-01) (135, -5.20739853382110595703e-01) (136, -4.36247557401657104492e-01) (137, 1.39350008964538574219e+00) (138, -6.49334043264389038086e-02) (139, 1.20078480243682861328e+00) (140, -1.69292497634887695312e+00) (141, 1.50000000000000000000e+03) (142, 1.50000000000000000000e+03) (143, 1.50000000000000000000e+03) (144, 1.50000000000000000000e+03) (145, 1.50000000000000000000e+03) (146, 1.50000000000000000000e+03) (147, 1.50000000000000000000e+03) (148, 1.50000000000000000000e+03) (149, 1.50000000000000000000e+03) (150, 1.50000000000000000000e+03) (151, 1.50000000000000000000e+03) (152, 1.50000000000000000000e+03) (153, 1.50000000000000000000e+03) (154, 1.87798529863357543945e-01) (155, 6.19065314531326293945e-02) (156, 2.63762831687927246094e-01) (157, 2.93590664863586425781e-01) (158, 5.13523042201995849609e-01) (159, 1.30492180585861206055e-01) (160, 2.74254046380519866943e-02) (161, 1.90628737211227416992e-01) (162, 1.87647998332977294922e-01) (163, 1.12722948193550109863e-01) (164, 1.03043816983699798584e-01) (165, 2.32859216630458831787e-02) (166, 3.72385559603571891785e-03) (167, 8.12242105603218078613e-02) (168, 9.77082476019859313965e-02) (169, 8.75073298811912536621e-02) (170, 2.70286232233047485352e-01) (171, 4.29732918739318847656e-01) (172, 1.62848040461540222168e-01) (173, -5.53489066660404205322e-02) (174, 2.27610275149345397949e-01) (175, 1.92854106426239013672e-01) (176, -6.73616379499435424805e-02) (177, 3.86035628616809844971e-02) (178, 9.71184596419334411621e-02) (179, 1.70172452926635742188e-01) (180, -5.49768030643463134766e-01) (181, 1.41753509640693664551e-01) (182, 4.92869794368743896484e-01) (183, 1.79435098171234130859e+00) (184, 2.14260172843933105469e+00) (185, 4.94347667694091796875e+00) (186, 1.53778767585754394531e+00) (187, 8.71246516704559326172e-01) (188, 1.84086894989013671875e+00) (189, 3.16427421569824218750e+00) (190, 1.12681233882904052734e+00) (191, 5.69066524505615234375e+00) (192, -4.34720659255981445312e+00) (193, 1.43484264612197875977e-01) (0, -4.98514795303344726562e+00) (1, 9.34311866760253906250e-01) (2, -7.07007478922605514526e-03) (3, -3.15793842077255249023e-01) (4, -3.67639213800430297852e-01) (5, 2.04252982139587402344e+00) (6, 1.95633256435394287109e+00) (7, -4.73176574707031250000e+00) (8, 8.97695124149322509766e-01) (9, -6.57867133617401123047e-01) (10, -2.93809384107589721680e-01) (11, -5.34600138664245605469e-01) (12, 7.26448357105255126953e-01) (13, 5.88645637035369873047e-01) (14, -5.88116943836212158203e-01) (15, -1.25337088108062744141e+00) (16, 3.26562672853469848633e-01) (17, -6.32545471191406250000e-01) (18, 1.47216522693634033203e+00) (19, 2.43280157446861267090e-01) (20, -2.92955905199050903320e-01) (21, 4.64667417109012603760e-02) (22, 1.16529095172882080078e+00) (23, 6.54298257827758789062e+00) (24, 1.17342650890350341797e+00) (25, 6.89988136291503906250e-02) (26, 2.05845975875854492188e+00) (27, -8.02764415740966796875e-01) (28, -3.74367803335189819336e-01) (29, 8.39669108390808105469e-01) (30, -1.87681987881660461426e-02) (31, 1.32614254951477050781e+00) (32, 5.34639000892639160156e-01) (33, -1.44616797566413879395e-01) (34, -3.90762090682983398438e-02) (35, 5.06527900695800781250e-01) (36, 1.01420640945434570312e+00) (37, 2.06880554556846618652e-01) (38, 3.89910387992858886719e+00) (39, 6.26113831996917724609e-01) (40, -3.97194445133209228516e-01) (41, -4.36695098876953125000e-01) (42, -6.38712048530578613281e-02) (43, -3.12819816172122955322e-02) (44, -4.23645794391632080078e-01) (45, -4.01572763919830322266e-01) (46, 6.82106792926788330078e-01) (47, 1.50000000000000000000e+03) (48, 1.50000000000000000000e+03) (49, 1.50000000000000000000e+03) (50, 1.50000000000000000000e+03) (51, 1.50000000000000000000e+03) (52, 1.50000000000000000000e+03) (53, 1.50000000000000000000e+03) (54, 1.50000000000000000000e+03) (55, 1.50000000000000000000e+03) (56, 1.50000000000000000000e+03) (57, 1.50000000000000000000e+03) (58, 1.50000000000000000000e+03) (59, 1.50000000000000000000e+03) (60, -3.61173087731003761292e-03) (61, -4.58280369639396667480e-02) (62, -4.88186106085777282715e-02) (63, -1.25333949923515319824e-01) (64, -1.31977558135986328125e-01) (65, -9.51857566833496093750e-02) (66, -1.71756029129028320312e-01) (67, -1.36745336931198835373e-03) (68, -9.77721512317657470703e-02) (69, -7.01743587851524353027e-02) (70, 1.82835571467876434326e-02) (71, -1.45147264003753662109e-01) (72, -5.94195276498794555664e-02) (73, 6.11245371401309967041e-02) (74, -1.84779703617095947266e-01) (75, -6.38738200068473815918e-02) (76, -9.22599434852600097656e-03) (77, -7.63925537467002868652e-02) (78, -7.22439214587211608887e-02) (79, -5.46547174453735351562e-02) (80, -1.14846594631671905518e-01) (81, -1.57151475548744201660e-01) (82, -2.74014193564653396606e-02) (83, 5.54133430123329162598e-02) (84, -1.98632910847663879395e-01) (85, -1.33331030607223510742e-01) (86, -2.85329908132553100586e-01) (87, -1.64129328727722167969e+00) (88, 4.10981595516204833984e-01) (89, 1.99614480137825012207e-01) (90, -3.04398566484451293945e-01) (91, 4.91009771823883056641e-01) (92, 2.36474294215440750122e-02) (93, 2.81479907035827636719e+00) (94, 1.50000000000000000000e+03) (95, 1.50000000000000000000e+03) (96, 1.50000000000000000000e+03) (97, 1.50000000000000000000e+03) (98, 1.50000000000000000000e+03) (99, 1.50000000000000000000e+03) (100, 1.50000000000000000000e+03) (101, 1.50000000000000000000e+03) (102, 1.50000000000000000000e+03) (103, 1.50000000000000000000e+03) (104, 1.50000000000000000000e+03) (105, 1.50000000000000000000e+03) (106, 1.50000000000000000000e+03) (107, -7.75633096694946289062e-01) (108, -1.39463710784912109375e+00) (109, 1.52603828907012939453e+00) (110, 5.37513256072998046875e-01) (111, 5.45514106750488281250e-01) (112, -1.46420407295227050781e+00) (113, -9.11780118942260742188e-01) (114, 7.25488305091857910156e-01) (115, -2.43957594037055969238e-01) (116, -1.07083833217620849609e+00) (117, 8.94801259040832519531e-01) (118, -2.32711124420166015625e+00) (119, -6.60562944412231445312e+00) (120, 4.95498985052108764648e-01) (121, 6.64789378643035888672e-01) (122, 8.33676576614379882812e-01) (123, 4.26842510700225830078e-01) (124, -1.28263041377067565918e-01) (125, 2.24876403808593750000e-01) (126, 4.37205344438552856445e-01) (127, 3.64470660686492919922e-01) (128, 4.50249195098876953125e-01) (129, 6.77591264247894287109e-01) (130, -6.46500810980796813965e-02) (131, 8.19662690162658691406e-01) (132, -3.68757665157318115234e-01) (133, 1.11220169067382812500e+00) (134, -1.53160607814788818359e+00) (135, 4.99303221702575683594e-01) (136, -6.68745458126068115234e-01) (137, -7.43506491184234619141e-01) (138, -3.15848565101623535156e+00) (139, 6.41801655292510986328e-01) (140, 4.96456446126103401184e-03) (141, 1.50000000000000000000e+03) (142, 1.50000000000000000000e+03) (143, 1.50000000000000000000e+03) (144, 1.50000000000000000000e+03) (145, 1.50000000000000000000e+03) (146, 1.50000000000000000000e+03) (147, 1.50000000000000000000e+03) (148, 1.50000000000000000000e+03) (149, 1.50000000000000000000e+03) (150, 1.50000000000000000000e+03) (151, 1.50000000000000000000e+03) (152, 1.50000000000000000000e+03) (153, 1.50000000000000000000e+03) (154, -1.13542914390563964844e-01) (155, -3.56822848320007324219e-01) (156, -2.91435301303863525391e-01) (157, -1.17229551076889038086e-01) (158, 5.78988611698150634766e-01) (159, -7.46536254882812500000e-02) (160, -1.26402258872985839844e-01) (161, -1.63885772228240966797e-01) (162, -8.31745192408561706543e-02) (163, -4.08129364252090454102e-01) (164, 4.05490100383758544922e-01) (165, -1.18203215301036834717e-01) (166, 5.12352764606475830078e-01) (167, -1.57937854528427124023e-01) (168, -3.27626913785934448242e-01) (169, -3.25242578983306884766e-01) (170, -2.35316082835197448730e-01) (171, 6.04078948497772216797e-01) (172, -9.52711030840873718262e-02) (173, -2.07584261894226074219e-01) (174, -1.52383863925933837891e-01) (175, -7.81379714608192443848e-02) (176, -3.15658062696456909180e-01) (177, 4.09887254238128662109e-01) (178, -2.17986673116683959961e-01) (179, 4.47829395532608032227e-01) (180, -2.14162492752075195312e+00) (181, 6.99416756629943847656e-01) (182, 3.43270212411880493164e-01) (183, -2.88594067096710205078e-01) (184, -8.06555628776550292969e-01) (185, 1.58115684986114501953e+00) (186, 2.75584554672241210938e+00) (187, -1.07751381397247314453e+00) (188, 2.00774884223937988281e+00) (189, 9.35943603515625000000e-01) (190, 2.07097768783569335938e+00) (191, 1.08640968799591064453e+00) (192, 3.66494119167327880859e-01) (193, 5.43733313679695129395e-02) (0, -1.11195170879364013672e+00) (1, 2.81583762168884277344e+00) (2, -2.01346382498741149902e-01) (3, 9.30566340684890747070e-02) (4, -1.25617372989654541016e+00) (5, 1.91523790359497070312e-01) (6, -5.18392562866210937500e-01) (7, -1.61237537860870361328e+00) (8, 3.53802517056465148926e-02) (9, 1.78962671756744384766e+00) (10, -3.41631412506103515625e-01) (11, 2.47894406318664550781e-01) (12, -1.43127298355102539062e+00) (13, -8.98373723030090332031e-01) (14, 1.18708837032318115234e+00) (15, -2.38721561431884765625e+00) (16, 2.44901943206787109375e+00) (17, -4.80301916599273681641e-01) (18, -2.71627640724182128906e+00) (19, 2.52100437879562377930e-01) (20, -1.65750727057456970215e-01) (21, -2.93166249990463256836e-01) (22, 1.16046512126922607422e+00) (23, 1.34574079513549804688e+00) (24, 1.21695615351200103760e-01) (25, -1.70475721359252929688e+00) (26, 9.66243386268615722656e-01) (27, 4.22708898782730102539e-01) (28, 5.47883689403533935547e-01) (29, 6.36522829532623291016e-01) (30, -1.42111644148826599121e-01) (31, 6.52418673038482666016e-01) (32, 7.02224969863891601562e-01) (33, 5.33146142959594726562e-01) (34, -3.22119086980819702148e-01) (35, -3.12320619821548461914e-01) (36, -9.71446216106414794922e-01) (37, 2.94691872596740722656e+00) (38, 8.66903245449066162109e-01) (39, 2.71406841278076171875e+00) (40, -9.62134647369384765625e+00) (41, -1.88922655582427978516e+00) (42, 2.43098795413970947266e-01) (43, 2.35602095723152160645e-01) (44, -8.26081991195678710938e-01) (45, -3.98426949977874755859e-01) (46, 5.42827486991882324219e-01) (47, 1.50000000000000000000e+03) (48, 1.50000000000000000000e+03) (49, 1.50000000000000000000e+03) (50, 1.50000000000000000000e+03) (51, 1.50000000000000000000e+03) (52, 1.50000000000000000000e+03) (53, 1.50000000000000000000e+03) (54, 1.50000000000000000000e+03) (55, 1.50000000000000000000e+03) (56, 1.50000000000000000000e+03) (57, 1.50000000000000000000e+03) (58, 1.50000000000000000000e+03) (59, 1.50000000000000000000e+03) (60, -1.38211054727435112000e-02) (61, 9.54976603388786315918e-02) (62, 3.61805520951747894287e-02) (63, -5.49534782767295837402e-02) (64, -8.59223753213882446289e-02) (65, 7.86688774824142456055e-02) (66, 4.71265567466616630554e-03) (67, -6.63925930857658386230e-02) (68, -3.94780822098255157471e-02) (69, -6.11051963642239570618e-03) (70, -9.41161438822746276855e-02) (71, 6.17395527660846710205e-02) (72, -3.17735299468040466309e-02) (73, -4.98447902500629425049e-02) (74, -2.32953839004039764404e-02) (75, 5.96397407352924346924e-02) (76, 6.73729851841926574707e-02) (77, -3.66046689450740814209e-02) (78, -1.00710235536098480225e-01) (79, 5.91980526223778724670e-04) (80, 5.54061233997344970703e-02) (81, -8.35230797529220581055e-02) (82, -1.16067659109830856323e-02) (83, -3.74484919011592864990e-02) (84, 6.74637705087661743164e-02) (85, -8.39447155594825744629e-02) (86, 3.32805871963500976562e+00) (87, -3.02151978015899658203e-01) (88, -3.41309785842895507812e-01) (89, 1.61695376038551330566e-01) (90, -1.84803867340087890625e+00) (91, -2.58084356784820556641e-01) (92, 8.58423292636871337891e-01) (93, 2.45382380485534667969e+00) (94, 1.50000000000000000000e+03) (95, 1.50000000000000000000e+03) (96, 1.50000000000000000000e+03) (97, 1.50000000000000000000e+03) (98, 1.50000000000000000000e+03) (99, 1.50000000000000000000e+03) (100, 1.50000000000000000000e+03) (101, 1.50000000000000000000e+03) (102, 1.50000000000000000000e+03) (103, 1.50000000000000000000e+03) (104, 1.50000000000000000000e+03) (105, 1.50000000000000000000e+03) (106, 1.50000000000000000000e+03) (107, -1.99172818660736083984e+00) (108, -9.10991072654724121094e-01) (109, 6.87688064575195312500e+00) (110, 6.04755163192749023438e-01) (111, -4.43141162395477294922e-01) (112, 2.63950396329164505005e-02) (113, 1.39127254486083984375e+00) (114, -1.05084037780761718750e+00) (115, 2.80019211769104003906e+00) (116, 6.21893525123596191406e-01) (117, 5.32662963867187500000e+00) (118, 1.85522183775901794434e-01) (119, -2.85446643829345703125e+00) (120, 1.28872060775756835938e+00) (121, 6.52197226881980895996e-02) (122, 8.66920173168182373047e-01) (123, 1.24252235889434814453e+00) (124, 3.87183398008346557617e-01) (125, 4.16707277297973632812e-01) (126, 6.29201114177703857422e-01) (127, 3.81163030862808227539e-01) (128, 5.55197954177856445312e-01) (129, 2.14749050140380859375e+00) (130, 8.75180065631866455078e-01) (131, 1.39661908149719238281e+00) (132, 1.64578884840011596680e-01) (133, -2.05300837755203247070e-01) (134, -1.39857983589172363281e+00) (135, -4.93274023756384849548e-03) (136, 1.20020794868469238281e+00) (137, 1.70492184162139892578e+00) (138, 1.66166806221008300781e+00) (139, -7.21012890338897705078e-01) (140, 6.99041604995727539062e-01) (141, 1.50000000000000000000e+03) (142, 1.50000000000000000000e+03) (143, 1.50000000000000000000e+03) (144, 1.50000000000000000000e+03) (145, 1.50000000000000000000e+03) (146, 1.50000000000000000000e+03) (147, 1.50000000000000000000e+03) (148, 1.50000000000000000000e+03) (149, 1.50000000000000000000e+03) (150, 1.50000000000000000000e+03) (151, 1.50000000000000000000e+03) (152, 1.50000000000000000000e+03) (153, 1.50000000000000000000e+03) (154, -6.98936164379119873047e-01) (155, -1.25873908400535583496e-01) (156, -1.25174194574356079102e-01) (157, -9.62856784462928771973e-03) (158, 2.64069829136133193970e-02) (159, -8.62276852130889892578e-02) (160, -4.51241098344326019287e-02) (161, -5.02387583255767822266e-02) (162, 3.88229005038738250732e-02) (163, -1.67340673506259918213e-02) (164, -3.77094447612762451172e-01) (165, 5.78849017620086669922e-02) (166, -2.79729701578617095947e-02) (167, -5.80435432493686676025e-02) (168, -4.39936891198158264160e-02) (169, -1.25215023756027221680e-01) (170, -3.29574570059776306152e-02) (171, 2.94602848589420318604e-02) (172, 9.62241962552070617676e-02) (173, 2.58561260998249053955e-02) (174, 9.28142592310905456543e-02) (175, -1.11827507615089416504e-01) (176, -2.76836991310119628906e-01) (177, -3.09279233217239379883e-01) (178, 3.26301492750644683838e-02) (179, 6.14407658576965332031e-03) (180, -1.27391660213470458984e+00) (181, -9.39500510692596435547e-01) (182, 3.45425868034362792969e+00) (183, 2.97466572374105453491e-02) (184, 8.66175536066293716431e-03) (185, -5.59470176696777343750e-01) (186, 2.31812810897827148438e+00) (187, -4.04410928487777709961e-01) (188, 3.59529185295104980469e+00) (189, 1.26038217544555664062e+00) (190, 5.41025638580322265625e+00) (191, 3.57340669631958007812e+00) (192, 1.02805054187774658203e+00) (193, -5.08981823921203613281e-01) (0, -4.72942543029785156250e+00) (1, 2.62635612487792968750e+00) (2, 3.27850937843322753906e+00) (3, 1.51911020278930664062e-01) (4, 5.13931632041931152344e-01) (5, 1.32283759117126464844e+00) (6, 1.17707407474517822266e+00) (7, -1.10566270351409912109e+00) (8, 1.93090856075286865234e-01) (9, 1.17401361465454101562e+00) (10, 6.12530708312988281250e-01) (11, -2.77446794509887695312e+00) (12, 1.22845315933227539062e+00) (13, 6.45690441131591796875e-01) (14, 4.66110631823539733887e-02) (15, 9.25401985645294189453e-01) (16, 3.32757890224456787109e-01) (17, 2.20319896936416625977e-01) (18, -3.04859447479248046875e+00) (19, 1.27426886558532714844e+00) (20, -6.12766563892364501953e-01) (21, -4.72946047782897949219e-01) (22, 4.71459925174713134766e-02) (23, 4.72273647785186767578e-01) (24, -7.54641354084014892578e-01) (25, -4.88395243883132934570e-01) (26, 1.82652997970581054688e+00) (27, -2.01950579881668090820e-01) (28, 4.06718701124191284180e-01) (29, 2.26936057209968566895e-01) (30, 9.18739438056945800781e-02) (31, 1.43016207218170166016e+00) (32, 8.22967469692230224609e-01) (33, -8.57332289218902587891e-01) (34, -3.24734747409820556641e-01) (35, 3.52113199234008789062e+00) (36, -3.65165948867797851562e+00) (37, -2.28447651863098144531e+00) (38, -4.34941232204437255859e-01) (39, 3.83826541900634765625e+00) (40, -1.10439729690551757812e+00) (41, -1.12490510940551757812e+00) (42, -1.31451398134231567383e-01) (43, 2.10006371140480041504e-01) (44, -8.61636027693748474121e-02) (45, -6.68736815452575683594e-01) (46, 4.56391513347625732422e-01) (47, 1.50000000000000000000e+03) (48, 1.50000000000000000000e+03) (49, 1.50000000000000000000e+03) (50, 1.50000000000000000000e+03) (51, 1.50000000000000000000e+03) (52, 1.50000000000000000000e+03) (53, 1.50000000000000000000e+03) (54, 1.50000000000000000000e+03) (55, 1.50000000000000000000e+03) (56, 1.50000000000000000000e+03) (57, 1.50000000000000000000e+03) (58, 1.50000000000000000000e+03) (59, 1.50000000000000000000e+03) (60, 9.08879935741424560547e-02) (61, 3.38173173367977142334e-02) (62, -1.24399829655885696411e-02) (63, -6.83069974184036254883e-02) (64, 8.99017155170440673828e-02) (65, -1.00662875920534133911e-02) (66, 5.62584884464740753174e-02) (67, 6.65766075253486633301e-02) (68, -1.85116678476333618164e-02) (69, 6.51780515909194946289e-02) (70, -4.46943379938602447510e-03) (71, 1.44774988293647766113e-01) (72, 2.43335604667663574219e-01) (73, 1.43634781241416931152e-01) (74, 9.68416407704353332520e-02) (75, 1.43614420667290687561e-02) (76, -7.42278201505541801453e-03) (77, 1.44529491662979125977e-01) (78, 1.57664582133293151855e-01) (79, -2.87252422422170639038e-02) (80, 2.04559881240129470825e-02) (81, -2.17140577733516693115e-02) (82, 3.99901755154132843018e-02) (83, 1.71565607190132141113e-01) (84, -2.10740305483341217041e-02) (85, 3.32730233669281005859e-01) (86, 5.08100843429565429688e+00) (87, 1.12686894834041595459e-01) (88, 4.43978846073150634766e-01) (89, 4.71706800162792205811e-02) (90, -2.81247962266206741333e-02) (91, -2.77593874931335449219e+00) (92, -1.79433846473693847656e+00) (93, -2.23151683807373046875e-01) (94, 1.50000000000000000000e+03) (95, 1.50000000000000000000e+03) (96, 1.50000000000000000000e+03) (97, 1.50000000000000000000e+03) (98, 1.50000000000000000000e+03) (99, 1.50000000000000000000e+03) (100, 1.50000000000000000000e+03) (101, 1.50000000000000000000e+03) (102, 1.50000000000000000000e+03) (103, 1.50000000000000000000e+03) (104, 1.50000000000000000000e+03) (105, 1.50000000000000000000e+03) (106, 1.50000000000000000000e+03) (107, -4.78532075881958007812e-01) (108, -5.15578448772430419922e-01) (109, 1.06101787090301513672e+00) (110, 2.00266981124877929688e+00) (111, -8.38183909654617309570e-02) (112, 6.88542202115058898926e-02) (113, -8.51620912551879882812e-01) (114, 6.77728578448295593262e-02) (115, -1.06420588493347167969e+00) (116, 5.86854398250579833984e-01) (117, 1.48498117923736572266e+00) (118, -2.83297228813171386719e+00) (119, -8.51272201538085937500e+00) (120, 6.32364928722381591797e-01) (121, 2.03538179397583007812e-01) (122, 5.30937373638153076172e-01) (123, 4.26974266767501831055e-01) (124, -1.79251864552497863770e-01) (125, 2.77541309595108032227e-01) (126, 2.90337026119232177734e-01) (127, 3.32509368658065795898e-01) (128, 6.15263044834136962891e-01) (129, 3.96869868040084838867e-01) (130, 7.87740468978881835938e-01) (131, 3.32919865846633911133e-01) (132, -1.98197543621063232422e-01) (133, -1.86240077018737792969e+00) (134, 4.99601507186889648438e+00) (135, -1.35724306106567382812e+00) (136, -4.55502033233642578125e+00) (137, -2.64127898216247558594e+00) (138, 1.95016360282897949219e+00) (139, 1.56932508945465087891e+00) (140, 2.78278160095214843750e+00) (141, 1.50000000000000000000e+03) (142, 1.50000000000000000000e+03) (143, 1.50000000000000000000e+03) (144, 1.50000000000000000000e+03) (145, 1.50000000000000000000e+03) (146, 1.50000000000000000000e+03) (147, 1.50000000000000000000e+03) (148, 1.50000000000000000000e+03) (149, 1.50000000000000000000e+03) (150, 1.50000000000000000000e+03) (151, 1.50000000000000000000e+03) (152, 1.50000000000000000000e+03) (153, 1.50000000000000000000e+03) (154, -2.22750514745712280273e-01) (155, 9.37684401869773864746e-02) (156, 4.34282161295413970947e-02) (157, -1.92793846130371093750e-01) (158, 5.50411701202392578125e-01) (159, 2.57008492946624755859e-01) (160, -9.80788245797157287598e-02) (161, 7.79355704784393310547e-01) (162, -8.00402909517288208008e-02) (163, -1.30017548799514770508e-01) (164, 9.22019556164741516113e-02) (165, 5.22448904812335968018e-02) (166, 7.98451066017150878906e-01) (167, -1.54934942722320556641e-01) (168, 1.47756561636924743652e-01) (169, 4.17882278561592102051e-02) (170, 2.65176221728324890137e-02) (171, 2.13235169649124145508e-01) (172, 2.13019236922264099121e-01) (173, -1.87319591641426086426e-02) (174, 7.45378553867340087891e-01) (175, -2.87508547306060791016e-01) (176, -8.36206972599029541016e-02) (177, 5.98118714988231658936e-02) (178, 4.64653111994266510010e-02) (179, 4.84677195549011230469e-01) (180, -2.44026088714599609375e+00) (181, -1.32050350308418273926e-01) (182, -6.89088284969329833984e-01) (183, 2.60946679115295410156e+00) (184, 4.75618076324462890625e+00) (185, -2.52191245555877685547e-01) (186, -2.50958013534545898438e+00) (187, -1.56286787986755371094e+00) (188, 2.51492232084274291992e-01) (189, 1.25678801536560058594e+00) (190, 1.86591958999633789062e+00) (191, 8.98953557014465332031e-01) (192, -7.90010929107666015625e-01) (193, 1.62875783443450927734e+00) (0, 7.46609783172607421875e+00) (1, -1.43260276317596435547e+00) (2, 1.00395047664642333984e+00) (3, 8.49338889122009277344e-01) (4, 3.33322572708129882812e+00) (5, 2.01561975479125976562e+00) (6, 8.04089307785034179688e-02) (7, 4.14349842071533203125e+00) (8, 3.55246043205261230469e+00) (9, 2.21287965774536132812e+00) (10, 1.94343894720077514648e-01) (11, 3.15781092643737792969e+00) (12, 1.27662146091461181641e+00) (13, -4.64406520128250122070e-01) (14, 1.58343839645385742188e+00) (15, -2.85984247922897338867e-01) (16, -2.53007054328918457031e-01) (17, -1.24915730953216552734e+00) (18, 3.26562547683715820312e+00) (19, 5.63206225633621215820e-02) (20, 1.62950932979583740234e-01) (21, 5.93515515327453613281e-01) (22, -4.83226001262664794922e-01) (23, -8.44079315662384033203e-01) (24, -2.85798835754394531250e+00) (25, -8.44681358337402343750e+00) (26, 1.02738213539123535156e+00) (27, 1.46377813816070556641e+00) (28, 1.70713496208190917969e+00) (29, 6.18381977081298828125e-01) (30, 1.18079698085784912109e+00) (31, 1.63507652282714843750e+00) (32, -1.85520350933074951172e+00) (33, 4.49572540819644927979e-02) (34, 5.11719346046447753906e-01) (35, 4.85497862100601196289e-01) (36, 4.48441982269287109375e-01) (37, -3.94014805555343627930e-01) (38, -7.65505313873291015625e-01) (39, 8.38492929935455322266e-01) (40, -1.57842314243316650391e+00) (41, 2.22923174500465393066e-01) (42, -7.18160346150398254395e-03) (43, 4.85429465770721435547e-02) (44, 1.73027038574218750000e-01) (45, 2.93312996625900268555e-01) (46, -3.61580520868301391602e-01) (47, 1.50000000000000000000e+03) (48, 1.50000000000000000000e+03) (49, 1.50000000000000000000e+03) (50, 1.50000000000000000000e+03) (51, 1.50000000000000000000e+03) (52, 1.50000000000000000000e+03) (53, 1.50000000000000000000e+03) (54, 1.50000000000000000000e+03) (55, 1.50000000000000000000e+03) (56, 1.50000000000000000000e+03) (57, 1.50000000000000000000e+03) (58, 1.50000000000000000000e+03) (59, 1.50000000000000000000e+03) (60, 2.30612486600875854492e-01) (61, -1.07388002797961235046e-02) (62, -2.57171969860792160034e-02) (63, 1.49078974500298500061e-02) (64, -4.19805757701396942139e-02) (65, 2.45011866092681884766e-01) (66, 3.35372895002365112305e-01) (67, 3.16196590662002563477e-01) (68, 2.60488599538803100586e-01) (69, 8.47906544804573059082e-02) (70, 1.18443518877029418945e-01) (71, 3.76159064471721649170e-02) (72, -5.45963691547513008118e-03) (73, 3.19412857294082641602e-01) (74, -4.09525483846664428711e-02) (75, 5.67162558436393737793e-02) (76, 4.62229624390602111816e-02) (77, -7.27934204041957855225e-03) (78, 2.75588840246200561523e-01) (79, 2.19424411654472351074e-01) (80, -1.12623265013098716736e-02) (81, 1.89672291278839111328e-01) (82, 2.05515585839748382568e-02) (83, 8.35028439760208129883e-02) (84, 9.37094986438751220703e-02) (85, 4.51583415269851684570e-02) (86, 1.75235342979431152344e+00) (87, -4.08790737390518188477e-01) (88, 1.97256278991699218750e+00) (89, 4.01338249444961547852e-01) (90, -4.91064757108688354492e-01) (91, 1.82896161079406738281e+00) (92, 2.69740015268325805664e-01) (93, -3.37791419029235839844e+00) (94, 1.50000000000000000000e+03) (95, 1.50000000000000000000e+03) (96, 1.50000000000000000000e+03) (97, 1.50000000000000000000e+03) (98, 1.50000000000000000000e+03) (99, 1.50000000000000000000e+03) (100, 1.50000000000000000000e+03) (101, 1.50000000000000000000e+03) (102, 1.50000000000000000000e+03) (103, 1.50000000000000000000e+03) (104, 1.50000000000000000000e+03) (105, 1.50000000000000000000e+03) (106, 1.50000000000000000000e+03) (107, -1.19294500350952148438e+00) (108, 5.86205482482910156250e+00) (109, 1.16100713610649108887e-01) (110, 2.36645564436912536621e-01) (111, 2.46505427360534667969e+00) (112, 2.42893028259277343750e+00) (113, -4.07199573516845703125e+00) (114, 2.27751374244689941406e-01) (115, 4.47135418653488159180e-01) (116, -1.30698263645172119141e+00) (117, -1.53214550018310546875e+00) (118, -4.75393682718276977539e-01) (119, -4.07722711563110351562e-01) (120, 1.51229575276374816895e-01) (121, 1.84770748019218444824e-01) (122, 1.21967867016792297363e-01) (123, -1.35761052370071411133e-01) (124, 4.62461680173873901367e-01) (125, -8.08552354574203491211e-02) (126, 3.32590878009796142578e-01) (127, 8.60625326633453369141e-01) (128, -8.47871229052543640137e-02) (129, -8.66355895996093750000e-02) (130, 1.10402858257293701172e+00) (131, 4.61683690547943115234e-01) (132, 4.02745217084884643555e-01) (133, -3.58512902259826660156e+00) (134, -7.75168001651763916016e-01) (135, -2.12558552622795104980e-01) (136, 3.69252538681030273438e+00) (137, 1.66796243190765380859e+00) (138, -4.47549909353256225586e-01) (139, 2.30622336268424987793e-01) (140, 1.22625446319580078125e+00) (141, 1.50000000000000000000e+03) (142, 1.50000000000000000000e+03) (143, 1.50000000000000000000e+03) (144, 1.50000000000000000000e+03) (145, 1.50000000000000000000e+03) (146, 1.50000000000000000000e+03) (147, 1.50000000000000000000e+03) (148, 1.50000000000000000000e+03) (149, 1.50000000000000000000e+03) (150, 1.50000000000000000000e+03) (151, 1.50000000000000000000e+03) (152, 1.50000000000000000000e+03) (153, 1.50000000000000000000e+03) (154, 1.94591432809829711914e-01) (155, 2.07211151719093322754e-01) (156, 1.13889560103416442871e-01) (157, 2.61915057897567749023e-01) (158, -5.92883639037609100342e-02) (159, 6.53166547417640686035e-02) (160, 9.17626097798347473145e-02) (161, -2.59820580482482910156e-01) (162, 2.49774143099784851074e-01) (163, 3.15552204847335815430e-01) (164, 1.94983765482902526855e-01) (165, 1.51335105299949645996e-01) (166, 1.64328701794147491455e-02) (167, 1.23503327369689941406e-01) (168, 1.08366414904594421387e-01) (169, -2.73460149765014648438e-01) (170, 3.03101092576980590820e-01) (171, -1.64114590734243392944e-02) (172, -4.36980798840522766113e-02) (173, -1.67674943804740905762e-01) (174, -3.96040439605712890625e-01) (175, 3.01116138696670532227e-01) (176, 1.98321372270584106445e-01) (177, -2.45831519365310668945e-01) (178, 2.33352765440940856934e-01) (179, 1.12112596631050109863e-01) (180, -2.72817873954772949219e+00) (181, -1.49089992046356201172e+00) (182, 2.40088939666748046875e+00) (183, 6.02432847023010253906e-01) (184, 1.89547991752624511719e+00) (185, 6.72014892101287841797e-01) (186, 1.52328085899353027344e+00) (187, 4.23686742782592773438e+00) (188, -1.21346116065979003906e+00) (189, -2.54147601127624511719e+00) (190, 3.64311814308166503906e-01) (191, 2.24198746681213378906e+00) (192, 1.17454916238784790039e-01) (193, 9.75662052631378173828e-01) (0, 1.91799148559570312500e+02) (1, -1.18651538085937500000e+03) (2, -1.48960983276367187500e+02) (3, 3.40317840576171875000e+02) (4, 1.39165634155273437500e+02) (5, -1.20157341003417968750e+02) (6, 1.48500000000000000000e+03) (7, -1.23689966201782226562e+01) (8, -1.38203692436218261719e+00) (9, 2.04313163757324218750e+01) (10, 1.50000000000000000000e+03) (11, 7.83982086181640625000e+01) (12, 1.45200000000000000000e+03) (13, 5.52547216415405273438e-01) (14, -1.58694550395011901855e-01) (15, 8.72437561035156250000e+02) (16, -3.80334197998046875000e+02) (17, 6.82177495956420898438e+00) (18, -1.42819995117187500000e+03) (19, -1.48500000000000000000e+03) (20, -6.15800048828125000000e+02) (21, 1.01993632316589355469e+00) (22, 3.46244781494140625000e+02) (23, 2.02077133178710937500e+02) (24, 1.58512741088867187500e+02) (25, -1.69666423797607421875e+01) (26, -7.15898498892784118652e-02) (27, -7.68456012010574340820e-02) (28, 7.75428771972656250000e+02) (29, 8.69922101497650146484e-01) (30, 2.75510072708129882812e-01) (31, -1.12438611984252929688e+01) (32, 6.52803421020507812500e+01) (33, 1.77559840679168701172e+00) (34, 2.45924043655395507812e+00) (35, 8.32388366699218750000e+02) (36, -1.50000000000000000000e+03) (37, 1.45488576889038085938e+01) (38, -2.65459990501403808594e+00) (39, -4.37224121093750000000e+02) (40, 1.50000000000000000000e+03) (41, -9.20410919189453125000e+00) (42, 5.41107535362243652344e-01) (43, 3.37743591308593750000e+02) (44, 1.09432010650634765625e+01) (45, 7.61444747447967529297e-01) (46, 8.01820312500000000000e+02) (47, 1.50000000000000000000e+03) (48, 1.50000000000000000000e+03) (49, 1.50000000000000000000e+03) (50, 1.50000000000000000000e+03) (51, 1.50000000000000000000e+03) (52, 1.50000000000000000000e+03) (53, 1.50000000000000000000e+03) (54, 1.50000000000000000000e+03) (55, 1.50000000000000000000e+03) (56, 1.50000000000000000000e+03) (57, 1.50000000000000000000e+03) (58, 1.50000000000000000000e+03) (59, 1.50000000000000000000e+03) (60, 2.00168418884277343750e+01) (61, 2.02812480926513671875e+01) (62, 2.00244216918945312500e+01) (63, 4.75595626831054687500e+01) (64, 1.94933967590332031250e+01) (65, 4.99957370758056640625e+00) (66, 1.77335357666015625000e+01) (67, 9.69559288024902343750e+00) (68, 3.76404533386230468750e+01) (69, 8.30219554901123046875e+00) (70, 1.03968381881713867188e+01) (71, 7.67969369888305664062e+00) (72, 4.27845344543457031250e+01) (73, 2.45938720703125000000e+01) (74, 1.13690490722656250000e+01) (75, 2.45161590576171875000e+01) (76, 4.75580825805664062500e+01) (77, 1.96415405273437500000e+01) (78, 4.87390518188476562500e+00) (79, 1.77377452850341796875e+01) (80, 1.06655616760253906250e+01) (81, 3.75778694152832031250e+01) (82, 9.59645843505859375000e+00) (83, 1.04430484771728515625e+01) (84, 7.64808225631713867188e+00) (85, 1.99359855651855468750e+01) (86, -1.64915573120117187500e+02) (87, 1.19080004882812500000e+03) (88, 5.72400146484375000000e+02) (89, 9.98918354511260986328e-01) (90, -2.07356243133544921875e+01) (91, 9.85128967285156250000e+02) (92, -6.42502164840698242188e+00) (93, 2.72226684570312500000e+02) (94, 1.50000000000000000000e+03) (95, 1.50000000000000000000e+03) (96, 1.50000000000000000000e+03) (97, 1.50000000000000000000e+03) (98, 1.50000000000000000000e+03) (99, 1.50000000000000000000e+03) (100, 1.50000000000000000000e+03) (101, 1.50000000000000000000e+03) (102, 1.50000000000000000000e+03) (103, 1.50000000000000000000e+03) (104, 1.50000000000000000000e+03) (105, 1.50000000000000000000e+03) (106, 1.50000000000000000000e+03) (107, 4.61511939764022827148e-01) (108, -1.50000000000000000000e+03) (109, 1.27623059082031250000e+03) (110, 2.81530181884765625000e+02) (111, 3.81144897460937500000e+02) (112, -1.28960009765625000000e+03) (113, -1.50000000000000000000e+03) (114, 1.50000000000000000000e+03) (115, 1.44334075927734375000e+02) (116, -1.13249816894531250000e+03) (117, -7.42812255859375000000e+02) (118, 7.36162475585937500000e+02) (119, -1.50000000000000000000e+03) (120, -2.09989118576049804688e+00) (121, 8.56771022081375122070e-02) (122, -2.63822618871927261353e-02) (123, 6.42048120498657226562e+00) (124, -5.82483828067779541016e-01) (125, 1.31341695785522460938e+01) (126, -1.38456642627716064453e+00) (127, -8.05053234100341796875e-01) (128, -1.02547562122344970703e+00) (129, -1.04264268875122070312e+01) (130, 3.49708533287048339844e+00) (131, 8.79500806331634521484e-01) (132, -1.33607625961303710938e+01) (133, -1.60732803344726562500e+01) (134, 5.16456115722656250000e+02) (135, 2.51265692710876464844e+00) (136, 3.75258946418762207031e+00) (137, -3.93423583984375000000e+02) (138, 5.22576272487640380859e-01) (139, -5.83370056152343750000e+01) (140, 3.52585266113281250000e+02) (141, 1.50000000000000000000e+03) (142, 1.50000000000000000000e+03) (143, 1.50000000000000000000e+03) (144, 1.50000000000000000000e+03) (145, 1.50000000000000000000e+03) (146, 1.50000000000000000000e+03) (147, 1.50000000000000000000e+03) (148, 1.50000000000000000000e+03) (149, 1.50000000000000000000e+03) (150, 1.50000000000000000000e+03) (151, 1.50000000000000000000e+03) (152, 1.50000000000000000000e+03) (153, 1.50000000000000000000e+03) (154, 4.58659458160400390625e+00) (155, 2.95137166976928710938e+00) (156, -8.75852033495903015137e-02) (157, 5.98485648632049560547e-01) (158, 5.01528978347778320312e+00) (159, 6.83061480522155761719e-01) (160, 1.15739679336547851562e+00) (161, -6.21522784233093261719e-01) (162, 2.14125871658325195312e+00) (163, 4.59965324401855468750e+00) (164, -8.91973376274108886719e-02) (165, 1.46436882019042968750e+00) (166, 2.61104965209960937500e+01) (167, 3.32868885993957519531e+00) (168, 1.66123008728027343750e+00) (169, 2.09407663345336914062e+00) (170, 3.80175471305847167969e-01) (171, 1.18084630966186523438e+01) (172, 1.23195219039916992188e+00) (173, 9.89803552627563476562e-01) (174, -3.56298518180847167969e+00) (175, 2.19687056541442871094e+00) (176, 5.73025894165039062500e+00) (177, 7.77223467826843261719e-01) (178, 1.65145981311798095703e+00) (179, 2.51555099487304687500e+01) (180, 1.11232250976562500000e+03) (181, 1.10113012790679931641e+00) (182, -5.24240646362304687500e+01) (183, -1.12858664989471435547e+00) (184, 1.12231494140625000000e+03) (185, -9.64673340320587158203e-01) (186, -2.70052280426025390625e+01) (187, 1.39080004882812500000e+03) (188, 4.02714967727661132812e+00) (189, -6.13473033905029296875e+00) (190, -2.04242599487304687500e+02) (191, -1.05751617431640625000e+02) (192, 1.28435571289062500000e+03) (193, -1.67432531714439392090e-01) (0, 1.39782533049583435059e-01) (1, -1.89469730854034423828e+00) (2, 1.21805703639984130859e+00) (3, 2.90213134139776229858e-02) (4, -1.18460631370544433594e+00) (5, -4.42441552877426147461e-01) (6, 1.13929748535156250000e+00) (7, 3.85853424668312072754e-02) (8, 1.43745401874184608459e-02) (9, 3.84430408477783203125e-01) (10, 1.05217540264129638672e+00) (11, 1.11650264263153076172e+00) (12, -1.26822471618652343750e+00) (13, -9.12916302680969238281e-01) (14, -3.21787208318710327148e-01) (15, 1.72410234808921813965e-01) (16, 9.99719873070716857910e-02) (17, 8.31504166126251220703e-01) (18, -6.85923218727111816406e-01) (19, 7.60104432702064514160e-02) (20, 6.63551807403564453125e-01) (21, -2.55789566040039062500e+00) (22, 4.81597751379013061523e-01) (23, 1.15465688705444335938e+00) (24, 3.86088222265243530273e-01) (25, 2.05125972628593444824e-01) (26, 1.10177263617515563965e-01) (27, 2.16818049550056457520e-01) (28, 4.46751713752746582031e-01) (29, 1.62915117107331752777e-03) (30, 1.45290422439575195312e+00) (31, 8.25630366802215576172e-01) (32, -1.54647946357727050781e+00) (33, 8.76127406954765319824e-02) (34, 2.25964009761810302734e-01) (35, 2.55561208724975585938e+00) (36, 2.38731458783149719238e-01) (37, -4.76630270481109619141e-01) (38, -8.23626518249511718750e-01) (39, 4.57076519727706909180e-01) (40, -2.40194797515869140625e-02) (41, -3.27937453985214233398e-01) (42, 1.47950515151023864746e-01) (43, -1.04944281280040740967e-01) (44, -1.06300618499517440796e-02) (45, 2.93272919952869415283e-02) (46, -1.21487334370613098145e-01) (47, 1.50000000000000000000e+03) (48, 1.50000000000000000000e+03) (49, 1.50000000000000000000e+03) (50, 1.50000000000000000000e+03) (51, 1.50000000000000000000e+03) (52, 1.50000000000000000000e+03) (53, 1.50000000000000000000e+03) (54, 1.50000000000000000000e+03) (55, 1.50000000000000000000e+03) (56, 1.50000000000000000000e+03) (57, 1.50000000000000000000e+03) (58, 1.50000000000000000000e+03) (59, 1.50000000000000000000e+03) (60, 4.21672791242599487305e-01) (61, 1.29588484764099121094e-01) (62, -1.13816618919372558594e-01) (63, 2.09835514426231384277e-01) (64, -2.10661113262176513672e-01) (65, -5.24836480617523193359e-02) (66, -8.03517624735832214355e-02) (67, -1.69577851891517639160e-01) (68, -2.14973300695419311523e-01) (69, -1.01180627942085266113e-01) (70, -2.06137999892234802246e-01) (71, 1.89545303583145141602e-01) (72, -5.75161762535572052002e-02) (73, 1.84419646859169006348e-01) (74, -3.52775976061820983887e-02) (75, -2.07997616380453109741e-02) (76, 1.90609097480773925781e-01) (77, -1.49076551198959350586e-01) (78, -1.49838104844093322754e-01) (79, -2.05554202198982238770e-01) (80, -1.61004379391670227051e-01) (81, -1.23526506125926971436e-01) (82, -3.15353237092494964600e-02) (83, -1.82490274310111999512e-01) (84, 4.66694124042987823486e-02) (85, -9.20843854546546936035e-02) (86, -1.21975982189178466797e+00) (87, -2.53239250183105468750e+00) (88, -5.33473134040832519531e-01) (89, -1.08197391033172607422e+00) (90, -1.64013326168060302734e+00) (91, -9.61944758892059326172e-01) (92, -3.36702704429626464844e+00) (93, 2.29729875922203063965e-01) (94, 1.50000000000000000000e+03) (95, 1.50000000000000000000e+03) (96, 1.50000000000000000000e+03) (97, 1.50000000000000000000e+03) (98, 1.50000000000000000000e+03) (99, 1.50000000000000000000e+03) (100, 1.50000000000000000000e+03) (101, 1.50000000000000000000e+03) (102, 1.50000000000000000000e+03) (103, 1.50000000000000000000e+03) (104, 1.50000000000000000000e+03) (105, 1.50000000000000000000e+03) (106, 1.50000000000000000000e+03) (107, -1.54744043946266174316e-01) (108, -1.55167567729949951172e+00) (109, 6.72888994216918945312e-01) (110, 4.80024367570877075195e-02) (111, -1.34521794319152832031e+00) (112, -1.21999955177307128906e+00) (113, 5.30075907707214355469e-01) (114, 7.28162586688995361328e-01) (115, -1.72579079866409301758e-01) (116, 1.31743192672729492188e+00) (117, 8.27544331550598144531e-01) (118, 2.16407918930053710938e+00) (119, -4.11129258573055267334e-02) (120, 4.61774408817291259766e-01) (121, 1.58538267016410827637e-01) (122, 5.93240618705749511719e-01) (123, 5.90645134449005126953e-01) (124, 5.17471909523010253906e-01) (125, 5.92833876609802246094e-01) (126, 4.18335527181625366211e-01) (127, 1.37158215045928955078e+00) (128, 6.13491415977478027344e-01) (129, -5.19537150859832763672e-01) (130, 5.09800314903259277344e-01) (131, 8.56791675090789794922e-01) (132, 4.42878693342208862305e-01) (133, 2.54199886322021484375e+00) (134, 1.51770520210266113281e+00) (135, -9.54180210828781127930e-02) (136, 5.49370348453521728516e-02) (137, -9.80586767196655273438e-01) (138, 1.11052262783050537109e+00) (139, -2.89011573791503906250e+00) (140, 1.22617959976196289062e+00) (141, 1.50000000000000000000e+03) (142, 1.50000000000000000000e+03) (143, 1.50000000000000000000e+03) (144, 1.50000000000000000000e+03) (145, 1.50000000000000000000e+03) (146, 1.50000000000000000000e+03) (147, 1.50000000000000000000e+03) (148, 1.50000000000000000000e+03) (149, 1.50000000000000000000e+03) (150, 1.50000000000000000000e+03) (151, 1.50000000000000000000e+03) (152, 1.50000000000000000000e+03) (153, 1.50000000000000000000e+03) (154, 1.35122096538543701172e+00) (155, 4.25203263759613037109e-01) (156, 5.96721582114696502686e-02) (157, -1.96586772799491882324e-01) (158, -6.94081246852874755859e-01) (159, -8.16152915358543395996e-02) (160, 1.12436279654502868652e-01) (161, -6.90216541290283203125e-01) (162, 2.19708576798439025879e-01) (163, 3.39856654405593872070e-01) (164, -1.52883306145668029785e-01) (165, -1.74478128552436828613e-01) (166, 5.70142306387424468994e-02) (167, 8.34450006484985351562e-01) (168, 4.06659901142120361328e-01) (169, -7.56831020116806030273e-02) (170, -3.54553163051605224609e-01) (171, 1.17132123559713363647e-02) (172, -3.15265096724033355713e-02) (173, 2.18431860208511352539e-01) (174, -7.55053043365478515625e-01) (175, 1.56194865703582763672e-01) (176, 5.87835490703582763672e-01) (177, 9.43064391613006591797e-02) (178, -1.61583930253982543945e-01) (179, 7.91306123137474060059e-02) (180, 3.18667387962341308594e+00) (181, 3.90057086944580078125e+00) (182, -2.99979597330093383789e-01) (183, -3.25202047824859619141e-01) (184, -2.17843040823936462402e-01) (185, 3.14883768558502197266e-01) (186, -5.12853622436523437500e-01) (187, -2.73016619682312011719e+00) (188, 1.13818764686584472656e+00) (189, 9.00421202182769775391e-01) (190, -1.64673402905464172363e-01) (191, 8.71244311332702636719e-01) (192, 7.00660645961761474609e-01) (193, -6.67168259620666503906e-01) (0, -4.50511646270751953125e+00) (1, 1.06978869438171386719e+00) (2, 7.07041800022125244141e-01) (3, 2.47589278221130371094e+00) (4, -2.54945427179336547852e-01) (5, -7.70046949386596679688e-01) (6, 2.66956830024719238281e+00) (7, 5.18056821823120117188e+00) (8, -8.64117920398712158203e-01) (9, 3.96164029836654663086e-01) (10, 8.67410957813262939453e-01) (11, -1.73162734508514404297e+00) (12, 4.64882755279541015625e+00) (13, 1.19168889522552490234e+00) (14, -2.14680090546607971191e-01) (15, 4.21729087829589843750e+00) (16, 1.78189992904663085938e-01) (17, 1.48854470252990722656e+00) (18, -3.62791061401367187500e-01) (19, -7.26418614387512207031e-01) (20, 3.72193527221679687500e+00) (21, 1.65270614624023437500e+00) (22, 9.51627135276794433594e-01) (23, 4.15569353103637695312e+00) (24, -3.86890769004821777344e-01) (25, -6.15043580532073974609e-01) (26, 1.82552620768547058105e-01) (27, -3.77336621284484863281e-01) (28, 1.85580179095268249512e-01) (29, 1.95705115795135498047e+00) (30, 1.51665878295898437500e+00) (31, 2.70000004768371582031e+00) (32, 1.07461559772491455078e+00) (33, 2.12703609466552734375e+00) (34, 3.44157844781875610352e-01) (35, 1.88825333118438720703e+00) (36, 1.80088186264038085938e+00) (37, -3.22327303886413574219e+00) (38, -2.70844793319702148438e+00) (39, 1.76520156860351562500e+00) (40, 1.15716308355331420898e-01) (41, -9.41077545285224914551e-02) (42, -9.85760807991027832031e-01) (43, -7.80425190925598144531e-01) (44, -5.37953913211822509766e-01) (45, -2.36564040184020996094e+00) (46, 2.58055120706558227539e-01) (47, 1.50000000000000000000e+03) (48, 1.50000000000000000000e+03) (49, 1.50000000000000000000e+03) (50, 1.50000000000000000000e+03) (51, 1.50000000000000000000e+03) (52, 1.50000000000000000000e+03) (53, 1.50000000000000000000e+03) (54, 1.50000000000000000000e+03) (55, 1.50000000000000000000e+03) (56, 1.50000000000000000000e+03) (57, 1.50000000000000000000e+03) (58, 1.50000000000000000000e+03) (59, 1.50000000000000000000e+03) (60, -8.30503165721893310547e-01) (61, -1.80473983287811279297e+00) (62, -9.16236758232116699219e-01) (63, -7.92794644832611083984e-01) (64, -8.95399868488311767578e-01) (65, -8.14694404602050781250e-01) (66, -1.86516928672790527344e+00) (67, -1.86826658248901367188e+00) (68, -9.16960418224334716797e-01) (69, -1.89925467967987060547e+00) (70, -8.10743927955627441406e-01) (71, -8.51816713809967041016e-01) (72, -7.97283768653869628906e-01) (73, -9.27303314208984375000e-01) (74, -1.81047952175140380859e+00) (75, -8.89454185962677001953e-01) (76, -7.19842612743377685547e-01) (77, -8.28788220882415771484e-01) (78, -8.38552296161651611328e-01) (79, -1.80385696887969970703e+00) (80, -1.80804812908172607422e+00) (81, -8.36556971073150634766e-01) (82, -1.90102851390838623047e+00) (83, -8.30338537693023681641e-01) (84, -8.98042738437652587891e-01) (85, -7.89291679859161376953e-01) (86, 8.07911455631256103516e-01) (87, -1.37047302722930908203e+00) (88, -4.28449571132659912109e-01) (89, 2.38233613967895507812e+00) (90, 2.98805427551269531250e+00) (91, 6.36046826839447021484e-01) (92, -1.49015712738037109375e+00) (93, 4.94182586669921875000e+00) (94, 1.50000000000000000000e+03) (95, 1.50000000000000000000e+03) (96, 1.50000000000000000000e+03) (97, 1.50000000000000000000e+03) (98, 1.50000000000000000000e+03) (99, 1.50000000000000000000e+03) (100, 1.50000000000000000000e+03) (101, 1.50000000000000000000e+03) (102, 1.50000000000000000000e+03) (103, 1.50000000000000000000e+03) (104, 1.50000000000000000000e+03) (105, 1.50000000000000000000e+03) (106, 1.50000000000000000000e+03) (107, 2.42091703414916992188e+00) (108, -1.84761059284210205078e+00) (109, 4.32192325592041015625e+00) (110, 1.48839664459228515625e+00) (111, -2.11513447761535644531e+00) (112, -1.98221221566200256348e-01) (113, -6.96255981922149658203e-01) (114, 6.72258567810058593750e+00) (115, -5.22535085678100585938e+00) (116, -7.59617948532104492188e+00) (117, -2.65815109014511108398e-01) (118, 3.81391346454620361328e-01) (119, -3.70260167121887207031e+00) (120, 6.12584531307220458984e-01) (121, 4.70081418752670288086e-01) (122, 5.29286563396453857422e-01) (123, 4.44738388061523437500e-01) (124, 5.38559220731258392334e-02) (125, 7.74694830179214477539e-02) (126, 2.11247935891151428223e-01) (127, 1.64475575089454650879e-01) (128, 8.53091120719909667969e-01) (129, 2.06928893923759460449e-01) (130, 6.11518085002899169922e-01) (131, 3.68025332689285278320e-01) (132, -1.02220726013183593750e+00) (133, 6.98573589324951171875e-01) (134, 1.12560951709747314453e+00) (135, 2.90847110748291015625e+00) (136, -2.85051727294921875000e+00) (137, -5.44727087020874023438e+00) (138, -3.65477061271667480469e+00) (139, 3.91808748245239257812e-01) (140, 4.06067609786987304688e+00) (141, 1.50000000000000000000e+03) (142, 1.50000000000000000000e+03) (143, 1.50000000000000000000e+03) (144, 1.50000000000000000000e+03) (145, 1.50000000000000000000e+03) (146, 1.50000000000000000000e+03) (147, 1.50000000000000000000e+03) (148, 1.50000000000000000000e+03) (149, 1.50000000000000000000e+03) (150, 1.50000000000000000000e+03) (151, 1.50000000000000000000e+03) (152, 1.50000000000000000000e+03) (153, 