FANN_FLO_2.1
num_layers=4
learning_rate=0.000500
connection_rate=1.000000
network_type=0
learning_momentum=0.000000
training_algorithm=2
train_error_function=1
train_stop_function=0
cascade_output_change_fraction=0.010000
quickprop_decay=-0.000100
quickprop_mu=1.750000
rprop_increase_factor=1.200000
rprop_decrease_factor=0.500000
rprop_delta_min=0.000000
rprop_delta_max=50.000000
rprop_delta_zero=0.100000
cascade_output_stagnation_epochs=12
cascade_candidate_change_fraction=0.010000
cascade_candidate_stagnation_epochs=12
cascade_max_out_epochs=150
cascade_min_out_epochs=50
cascade_max_cand_epochs=150
cascade_min_cand_epochs=50
cascade_num_candidate_groups=2
bit_fail_limit=3.49999994039535522461e-01
cascade_candidate_limit=1.00000000000000000000e+03
cascade_weight_multiplier=4.00000005960464477539e-01
cascade_activation_functions_count=10
cascade_activation_functions=3 5 7 8 10 11 14 15 16 17 
cascade_activation_steepnesses_count=4
cascade_activation_steepnesses=2.50000000000000000000e-01 5.00000000000000000000e-01 7.50000000000000000000e-01 1.00000000000000000000e+00 
layer_sizes=194 33 9 5 
scale_included=0
neurons (num_inputs, activation_function, activation_steepness)=(0, 0, 0.00000000000000000000e+00) (0, 0, 0.00000000000000000000e+00) (0, 0, 0.00000000000000000000e+00) (0, 0, 0.00000000000000000000e+00) (0, 0, 0.00000000000000000000e+00) (0, 0, 0.00000000000000000000e+00) (0, 0, 0.00000000000000000000e+00) (0, 0, 0.00000000000000000000e+00) (0, 0, 0.00000000000000000000e+00) (0, 0, 0.00000000000000000000e+00) (0, 0, 0.00000000000000000000e+00) (0, 0, 0.00000000000000000000e+00) (0, 0, 0.00000000000000000000e+00) (0, 0, 0.00000000000000000000e+00) (0, 0, 0.00000000000000000000e+00) (0, 0, 0.00000000000000000000e+00) (0, 0, 0.00000000000000000000e+00) (0, 0, 0.00000000000000000000e+00) (0, 0, 0.00000000000000000000e+00) (0, 0, 0.00000000000000000000e+00) (0, 0, 0.00000000000000000000e+00) (0, 0, 0.00000000000000000000e+00) (0, 0, 0.00000000000000000000e+00) (0, 0, 0.00000000000000000000e+00) (0, 0, 0.00000000000000000000e+00) (0, 0, 0.00000000000000000000e+00) (0, 0, 0.00000000000000000000e+00) (0, 0, 0.00000000000000000000e+00) (0, 0, 0.00000000000000000000e+00) (0, 0, 0.00000000000000000000e+00) (0, 0, 0.00000000000000000000e+00) (0, 0, 0.00000000000000000000e+00) (0, 0, 0.00000000000000000000e+00) (0, 0, 0.00000000000000000000e+00) (0, 0, 0.00000000000000000000e+00) (0, 0, 0.00000000000000000000e+00) (0, 0, 0.00000000000000000000e+00) (0, 0, 0.00000000000000000000e+00) (0, 0, 0.00000000000000000000e+00) (0, 0, 0.00000000000000000000e+00) (0, 0, 0.00000000000000000000e+00) (0, 0, 0.00000000000000000000e+00) (0, 0, 0.00000000000000000000e+00) (0, 0, 0.00000000000000000000e+00) (0, 0, 0.00000000000000000000e+00) (0, 0, 0.00000000000000000000e+00) (0, 0, 0.00000000000000000000e+00) (0, 0, 0.00000000000000000000e+00) (0, 0, 0.00000000000000000000e+00) (0, 0, 0.00000000000000000000e+00) (0, 0, 0.00000000000000000000e+00) (0, 0, 0.00000000000000000000e+00) (0, 0, 0.00000000000000000000e+00) (0, 0, 0.00000000000000000000e+00) (0, 0, 0.00000000000000000000e+00) (0, 0, 0.00000000000000000000e+00) (0, 0, 0.00000000000000000000e+00) (0, 0, 0.00000000000000000000e+00) (0, 0, 0.00000000000000000000e+00) (0, 0, 0.00000000000000000000e+00) (0, 0, 0.00000000000000000000e+00) (0, 0, 0.00000000000000000000e+00) (0, 0, 0.00000000000000000000e+00) (0, 0, 0.00000000000000000000e+00) (0, 0, 0.00000000000000000000e+00) (0, 0, 0.00000000000000000000e+00) (0, 0, 0.00000000000000000000e+00) (0, 0, 0.00000000000000000000e+00) (0, 0, 0.00000000000000000000e+00) (0, 0, 0.00000000000000000000e+00) (0, 0, 0.00000000000000000000e+00) (0, 0, 0.00000000000000000000e+00) (0, 0, 0.00000000000000000000e+00) (0, 0, 0.00000000000000000000e+00) (0, 0, 0.00000000000000000000e+00) (0, 0, 0.00000000000000000000e+00) (0, 0, 0.00000000000000000000e+00) (0, 0, 0.00000000000000000000e+00) (0, 0, 0.00000000000000000000e+00) (0, 0, 0.00000000000000000000e+00) (0, 0, 0.00000000000000000000e+00) (0, 0, 0.00000000000000000000e+00) (0, 0, 0.00000000000000000000e+00) (0, 0, 0.00000000000000000000e+00) (0, 0, 0.00000000000000000000e+00) (0, 0, 0.00000000000000000000e+00) (0, 0, 0.00000000000000000000e+00) (0, 0, 0.00000000000000000000e+00) (0, 0, 0.00000000000000000000e+00) (0, 0, 0.00000000000000000000e+00) (0, 0, 0.00000000000000000000e+00) (0, 0, 0.00000000000000000000e+00) (0, 0, 0.00000000000000000000e+00) (0, 0, 0.00000000000000000000e+00) (0, 0, 0.00000000000000000000e+00) (0, 0, 0.00000000000000000000e+00) (0, 0, 0.00000000000000000000e+00) (0, 0, 0.00000000000000000000e+00) (0, 0, 0.00000000000000000000e+00) (0, 0, 0.00000000000000000000e+00) (0, 0, 0.00000000000000000000e+00) (0, 0, 0.00000000000000000000e+00) (0, 0, 0.00000000000000000000e+00) (0, 0, 0.00000000000000000000e+00) (0, 0, 0.00000000000000000000e+00) (0, 0, 0.00000000000000000000e+00) (0, 0, 0.00000000000000000000e+00) (0, 0, 0.00000000000000000000e+00) (0, 0, 0.00000000000000000000e+00) (0, 0, 0.00000000000000000000e+00) (0, 0, 0.00000000000000000000e+00) (0, 0, 0.00000000000000000000e+00) (0, 0, 0.00000000000000000000e+00) (0, 0, 0.00000000000000000000e+00) (0, 0, 0.00000000000000000000e+00) (0, 0, 0.00000000000000000000e+00) (0, 0, 0.00000000000000000000e+00) (0, 0, 0.00000000000000000000e+00) (0, 0, 0.00000000000000000000e+00) (0, 0, 0.00000000000000000000e+00) (0, 0, 0.00000000000000000000e+00) (0, 0, 0.00000000000000000000e+00) (0, 0, 0.00000000000000000000e+00) (0, 0, 0.00000000000000000000e+00) (0, 0, 0.00000000000000000000e+00) (0, 0, 0.00000000000000000000e+00) (0, 0, 0.00000000000000000000e+00) (0, 0, 0.00000000000000000000e+00) (0, 0, 0.00000000000000000000e+00) (0, 0, 0.00000000000000000000e+00) (0, 0, 0.00000000000000000000e+00) (0, 0, 0.00000000000000000000e+00) (0, 0, 0.00000000000000000000e+00) (0, 0, 0.00000000000000000000e+00) (0, 0, 0.00000000000000000000e+00) (0, 0, 0.00000000000000000000e+00) (0, 0, 0.00000000000000000000e+00) (0, 0, 0.00000000000000000000e+00) (0, 0, 0.00000000000000000000e+00) (0, 0, 0.00000000000000000000e+00) (0, 0, 0.00000000000000000000e+00) (0, 0, 0.00000000000000000000e+00) (0, 0, 0.00000000000000000000e+00) (0, 0, 0.00000000000000000000e+00) (0, 0, 0.00000000000000000000e+00) (0, 0, 0.00000000000000000000e+00) (0, 0, 0.00000000000000000000e+00) (0, 0, 0.00000000000000000000e+00) (0, 0, 0.00000000000000000000e+00) (0, 0, 0.00000000000000000000e+00) (0, 0, 0.00000000000000000000e+00) (0, 0, 0.00000000000000000000e+00) (0, 0, 0.00000000000000000000e+00) (0, 0, 0.00000000000000000000e+00) (0, 0, 0.00000000000000000000e+00) (0, 0, 0.00000000000000000000e+00) (0, 0, 0.00000000000000000000e+00) (0, 0, 0.00000000000000000000e+00) (0, 0, 0.00000000000000000000e+00) (0, 0, 0.00000000000000000000e+00) (0, 0, 0.00000000000000000000e+00) (0, 0, 0.00000000000000000000e+00) (0, 0, 0.00000000000000000000e+00) (0, 0, 0.00000000000000000000e+00) (0, 0, 0.00000000000000000000e+00) (0, 0, 0.00000000000000000000e+00) (0, 0, 0.00000000000000000000e+00) (0, 0, 0.00000000000000000000e+00) (0, 0, 0.00000000000000000000e+00) (0, 0, 0.00000000000000000000e+00) (0, 0, 0.00000000000000000000e+00) (0, 0, 0.00000000000000000000e+00) (0, 0, 0.00000000000000000000e+00) (0, 0, 0.00000000000000000000e+00) (0, 0, 0.00000000000000000000e+00) (0, 0, 0.00000000000000000000e+00) (0, 0, 0.00000000000000000000e+00) (0, 0, 0.00000000000000000000e+00) (0, 0, 0.00000000000000000000e+00) (0, 0, 0.00000000000000000000e+00) (0, 0, 0.00000000000000000000e+00) (0, 0, 0.00000000000000000000e+00) (0, 0, 0.00000000000000000000e+00) (0, 0, 0.00000000000000000000e+00) (0, 0, 0.00000000000000000000e+00) (0, 0, 0.00000000000000000000e+00) (0, 0, 0.00000000000000000000e+00) (0, 0, 0.00000000000000000000e+00) (0, 0, 0.00000000000000000000e+00) (0, 0, 0.00000000000000000000e+00) (0, 0, 0.00000000000000000000e+00) (0, 0, 0.00000000000000000000e+00) (0, 0, 0.00000000000000000000e+00) (0, 0, 0.00000000000000000000e+00) (194, 3, 5.00000000000000000000e-01) (194, 3, 5.00000000000000000000e-01) (194, 3, 5.00000000000000000000e-01) (194, 3, 5.00000000000000000000e-01) (194, 3, 5.00000000000000000000e-01) (194, 3, 5.00000000000000000000e-01) (194, 3, 5.00000000000000000000e-01) (194, 3, 5.00000000000000000000e-01) (194, 3, 5.00000000000000000000e-01) (194, 3, 5.00000000000000000000e-01) (194, 3, 5.00000000000000000000e-01) (194, 3, 5.00000000000000000000e-01) (194, 3, 5.00000000000000000000e-01) (194, 3, 5.00000000000000000000e-01) (194, 3, 5.00000000000000000000e-01) (194, 3, 5.00000000000000000000e-01) (194, 3, 5.00000000000000000000e-01) (194, 3, 5.00000000000000000000e-01) (194, 3, 5.00000000000000000000e-01) (194, 3, 5.00000000000000000000e-01) (194, 3, 5.00000000000000000000e-01) (194, 3, 5.00000000000000000000e-01) (194, 3, 5.00000000000000000000e-01) (194, 3, 5.00000000000000000000e-01) (194, 3, 5.00000000000000000000e-01) (194, 3, 5.00000000000000000000e-01) (194, 3, 5.00000000000000000000e-01) (194, 3, 5.00000000000000000000e-01) (194, 3, 5.00000000000000000000e-01) (194, 3, 5.00000000000000000000e-01) (194, 3, 5.00000000000000000000e-01) (194, 3, 5.00000000000000000000e-01) (0, 3, 0.00000000000000000000e+00) (33, 3, 5.00000000000000000000e-01) (33, 3, 5.00000000000000000000e-01) (33, 3, 5.00000000000000000000e-01) (33, 3, 5.00000000000000000000e-01) (33, 3, 5.00000000000000000000e-01) (33, 3, 5.00000000000000000000e-01) (33, 3, 5.00000000000000000000e-01) (33, 3, 5.00000000000000000000e-01) (0, 3, 0.00000000000000000000e+00) (9, 3, 5.00000000000000000000e-01) (9, 3, 5.00000000000000000000e-01) (9, 3, 5.00000000000000000000e-01) (9, 3, 5.00000000000000000000e-01) (0, 3, 0.00000000000000000000e+00) 
connections (connected_to_neuron, weight)=(0, -3.73015433549880981445e-01) (1, 5.11289954185485839844e-01) (2, -1.12309789657592773438e+00) (3, 1.69602942466735839844e+00) (4, 3.88512343168258666992e-01) (5, -1.00515687465667724609e+00) (6, 6.25534200668334960938e+00) (7, -3.10083103179931640625e+00) (8, 1.47963380813598632812e+00) (9, -2.06650137901306152344e+00) (10, -6.07226848602294921875e-01) (11, 8.86556446552276611328e-01) (12, 5.86190581321716308594e-01) (13, 9.85150039196014404297e-02) (14, -7.16087162494659423828e-01) (15, 6.38682186603546142578e-01) (16, 7.62483239173889160156e-01) (17, -1.60497546195983886719e-01) (18, -1.65493166446685791016e+00) (19, -1.15033185482025146484e+00) (20, 3.40422660112380981445e-01) (21, -5.82486912608146667480e-02) (22, 4.12864327430725097656e-01) (23, 3.03081989288330078125e-01) (24, -2.14889898896217346191e-01) (25, -2.10911726951599121094e+00) (26, 6.95037424564361572266e-01) (27, -5.38593769073486328125e-01) (28, 3.20708453655242919922e-01) (29, 1.69897109270095825195e-01) (30, 2.54592865705490112305e-01) (31, 4.52271550893783569336e-01) (32, 7.35826015472412109375e-01) (33, 7.46596515178680419922e-01) (34, -7.96221971511840820312e+00) (35, -4.91080331802368164062e+00) (36, 2.65672802925109863281e+00) (37, -2.65751242637634277344e+00) (38, -1.43969595432281494141e+00) (39, 7.03606426715850830078e-01) (40, 7.52074897289276123047e-01) (41, -8.06597232818603515625e-01) (42, 9.50605142861604690552e-03) (43, -3.38046997785568237305e-02) (44, -3.58774103224277496338e-02) (45, 3.61854404211044311523e-01) (46, 3.51153898239135742188e+00) (47, 1.50000000000000000000e+03) (48, 1.50000000000000000000e+03) (49, 1.50000000000000000000e+03) (50, 1.50000000000000000000e+03) (51, 1.50000000000000000000e+03) (52, 1.50000000000000000000e+03) (53, 1.50000000000000000000e+03) (54, 1.50000000000000000000e+03) (55, 1.50000000000000000000e+03) (56, 1.50000000000000000000e+03) (57, 1.50000000000000000000e+03) (58, 1.50000000000000000000e+03) (59, 1.50000000000000000000e+03) (60, 1.47939935326576232910e-01) (61, 1.64202060550451278687e-02) (62, -2.60394662618637084961e-02) (63, -9.71456468105316162109e-02) (64, -1.21931850910186767578e-01) (65, -2.56679169833660125732e-02) (66, 1.91172122955322265625e-01) (67, -2.54934113472700119019e-02) (68, -4.87690865993499755859e-02) (69, 4.26196530461311340332e-02) (70, -8.89254063367843627930e-02) (71, -1.55582884326577186584e-03) (72, -7.67887234687805175781e-02) (73, -5.90895041823387145996e-02) (74, 9.57286581397056579590e-02) (75, -9.09554660320281982422e-02) (76, 7.49908760190010070801e-03) (77, -5.34801445901393890381e-02) (78, 4.00181859731674194336e-02) (79, 7.10032880306243896484e-02) (80, 2.12301276624202728271e-02) (81, 9.30656939744949340820e-02) (82, 7.88805261254310607910e-02) (83, -4.88260872662067413330e-02) (84, 2.53852903842926025391e-01) (85, -6.07364438474178314209e-02) (86, 2.03207850456237792969e+00) (87, -2.03639554977416992188e+00) (88, 3.76928150653839111328e-02) (89, -7.78781771659851074219e-02) (90, -9.82917547225952148438e-01) (91, 1.07779860496520996094e+00) (92, -2.00203940272331237793e-01) (93, 2.10870838165283203125e+00) (94, 1.50000000000000000000e+03) (95, 1.50000000000000000000e+03) (96, 1.50000000000000000000e+03) (97, 1.50000000000000000000e+03) (98, 1.50000000000000000000e+03) (99, 1.50000000000000000000e+03) (100, 1.50000000000000000000e+03) (101, 1.50000000000000000000e+03) (102, 1.50000000000000000000e+03) (103, 1.50000000000000000000e+03) (104, 1.50000000000000000000e+03) (105, 1.50000000000000000000e+03) (106, 1.50000000000000000000e+03) (107, 1.85460761189460754395e-01) (108, 1.02557086944580078125e+00) (109, 2.13118600845336914062e+00) (110, -1.85645774006843566895e-01) (111, -2.63192915916442871094e+00) (112, 9.42326843738555908203e-01) (113, 6.83648729324340820312e+00) (114, 1.51415777206420898438e+00) (115, 3.89465652406215667725e-02) (116, 8.87466430664062500000e-01) (117, 5.60032904148101806641e-01) (118, -7.66223847866058349609e-01) (119, -1.29973515868186950684e-02) (120, -4.62345182895660400391e-01) (121, -2.14106321334838867188e-01) (122, 5.20752787590026855469e-01) (123, -5.10982096195220947266e-01) (124, -2.69036799669265747070e-01) (125, -5.79923279583454132080e-02) (126, 1.61054894328117370605e-01) (127, 3.58865201473236083984e-01) (128, 9.30120229721069335938e-01) (129, 6.26023113727569580078e-01) (130, 5.65928220748901367188e-01) (131, 1.09847128391265869141e+00) (132, -3.20226240158081054688e+00) (133, -1.91191053390502929688e+00) (134, 1.50456535816192626953e+00) (135, 1.90243363380432128906e-01) (136, 2.21453261375427246094e+00) (137, -5.35587333142757415771e-02) (138, 1.14448451995849609375e+00) (139, 7.82542467117309570312e-01) (140, 4.57376241683959960938e-01) (141, 1.50000000000000000000e+03) (142, 1.50000000000000000000e+03) (143, 1.50000000000000000000e+03) (144, 1.50000000000000000000e+03) (145, 1.50000000000000000000e+03) (146, 1.50000000000000000000e+03) (147, 1.50000000000000000000e+03) (148, 1.50000000000000000000e+03) (149, 1.50000000000000000000e+03) (150, 1.50000000000000000000e+03) (151, 1.50000000000000000000e+03) (152, 1.50000000000000000000e+03) (153, 1.50000000000000000000e+03) (154, -1.27069026231765747070e-01) (155, 2.36712709069252014160e-01) (156, -4.99837964773178100586e-01) (157, -3.09351254254579544067e-02) (158, 3.09363991022109985352e-01) (159, -1.22636318206787109375e-01) (160, 7.46051818132400512695e-02) (161, 2.56007581949234008789e-01) (162, -3.37232291698455810547e-01) (163, 1.09895765781402587891e-01) (164, 2.23945409059524536133e-01) (165, -1.94255590438842773438e-01) (166, 1.12571239471435546875e+00) (167, -1.61013633012771606445e-01) (168, 1.10993735492229461670e-01) (169, -1.36859238147735595703e-01) (170, -1.21840298175811767578e-01) (171, 1.02884411811828613281e+00) (172, -1.99525713920593261719e-01) (173, 5.15235476195812225342e-02) (174, 2.38890469074249267578e-01) (175, -2.55927413702011108398e-01) (176, -1.75774037837982177734e-01) (177, 5.06506681442260742188e-01) (178, -1.45964062213897705078e+00) (179, 2.14392757415771484375e+00) (180, 6.67820334434509277344e-01) (181, 1.90723466873168945312e+00) (182, 3.38158774375915527344e+00) (183, 6.18570864200592041016e-01) (184, -1.28019189834594726562e+00) (185, -4.00031566619873046875e-01) (186, -3.17047476768493652344e+00) (187, 2.58988666534423828125e+00) (188, -5.33474349975585937500e+00) (189, 2.73920774459838867188e+00) (190, 1.28702211380004882812e+00) (191, 2.60747885704040527344e+00) (192, 6.36217892169952392578e-01) (193, 8.16967308521270751953e-01) (0, -4.62129545211791992188e+00) (1, -9.16603744029998779297e-01) (2, 7.52582669258117675781e-01) (3, 3.20308595895767211914e-01) (4, -1.09924197196960449219e+00) (5, 1.86937749385833740234e+00) (6, 1.96207642555236816406e+00) (7, -3.67597699165344238281e+00) (8, 5.31603395938873291016e-01) (9, 1.07440590858459472656e+00) (10, -7.29970574378967285156e-01) (11, -1.27726066112518310547e+00) (12, 9.21013832092285156250e-01) (13, 1.47584533691406250000e+00) (14, -5.44345796108245849609e-01) (15, 5.09487390518188476562e-01) (16, -6.63982868194580078125e-01) (17, 1.93117690086364746094e+00) (18, 8.34530651569366455078e-01) (19, -1.30957877635955810547e+00) (20, 1.22311353683471679688e+00) (21, -1.53698539733886718750e+00) (22, -4.82752889394760131836e-01) (23, 2.65433025360107421875e+00) (24, 6.46325922012329101562e+00) (25, 2.52518582344055175781e+00) (26, 8.74886512756347656250e-01) (27, 3.78407984972000122070e-01) (28, -6.47904932498931884766e-01) (29, -2.00625523924827575684e-01) (30, 3.11334997415542602539e-01) (31, -2.92616516351699829102e-01) (32, 4.12015557289123535156e-01) (33, 7.44598031044006347656e-01) (34, 1.12331688404083251953e+00) (35, 4.60183292627334594727e-01) (36, 8.70874106884002685547e-01) (37, 3.24766397476196289062e+00) (38, 1.41810834407806396484e+00) (39, 7.65877246856689453125e-01) (40, -4.91724401712417602539e-01) (41, 1.75729262828826904297e+00) (42, -1.55259728431701660156e-01) (43, 5.91393828392028808594e-01) (44, -5.10799407958984375000e-01) (45, -6.78159713745117187500e-01) (46, -3.47238421440124511719e-01) (47, 1.50000000000000000000e+03) (48, 1.50000000000000000000e+03) (49, 1.50000000000000000000e+03) (50, 1.50000000000000000000e+03) (51, 1.50000000000000000000e+03) (52, 1.50000000000000000000e+03) (53, 1.50000000000000000000e+03) (54, 1.50000000000000000000e+03) (55, 1.50000000000000000000e+03) (56, 1.50000000000000000000e+03) (57, 1.50000000000000000000e+03) (58, 1.50000000000000000000e+03) (59, 1.50000000000000000000e+03) (60, -8.98482203483581542969e-02) (61, -1.84077456593513488770e-01) (62, -1.71214699745178222656e-01) (63, -9.94419902563095092773e-02) (64, -1.33544430136680603027e-01) (65, 3.67403388023376464844e-01) (66, -1.57172724604606628418e-01) (67, -2.00582355260848999023e-01) (68, -2.81258095055818557739e-02) (69, -2.71576344966888427734e-01) (70, -3.11226993799209594727e-01) (71, -1.96700338274240493774e-02) (72, -4.75705377757549285889e-02) (73, -5.26772513985633850098e-02) (74, -7.41206854581832885742e-02) (75, -1.86588466167449951172e-02) (76, -1.92057386040687561035e-01) (77, -3.06935161352157592773e-02) (78, -3.20316135883331298828e-01) (79, -8.32459256052970886230e-02) (80, -5.15697449445724487305e-02) (81, -1.29241585731506347656e-01) (82, -3.46465647220611572266e-01) (83, -2.11207374930381774902e-01) (84, -1.55676335096359252930e-01) (85, -1.19138337671756744385e-01) (86, 4.84273612499237060547e-01) (87, 9.59328189492225646973e-03) (88, 1.55659782886505126953e+00) (89, 4.86515611410140991211e-01) (90, -8.40171933174133300781e-01) (91, -5.11407434940338134766e-01) (92, -6.05636596679687500000e-01) (93, 2.63165283203125000000e+00) (94, 1.50000000000000000000e+03) (95, 1.50000000000000000000e+03) (96, 1.50000000000000000000e+03) (97, 1.50000000000000000000e+03) (98, 1.50000000000000000000e+03) (99, 1.50000000000000000000e+03) (100, 1.50000000000000000000e+03) (101, 1.50000000000000000000e+03) (102, 1.50000000000000000000e+03) (103, 1.50000000000000000000e+03) (104, 1.50000000000000000000e+03) (105, 1.50000000000000000000e+03) (106, 1.50000000000000000000e+03) (107, 5.83458483219146728516e-01) (108, 6.96580648422241210938e-01) (109, 1.07521831989288330078e+00) (110, 3.92841935157775878906e+00) (111, -2.07911714911460876465e-01) (112, -9.61092770099639892578e-01) (113, -9.84227299690246582031e-01) (114, -1.89514473080635070801e-01) (115, 3.05618071556091308594e+00) (116, 5.17930805683135986328e-01) (117, 1.30435717105865478516e+00) (118, -1.27614605426788330078e+00) (119, -1.62456953525543212891e+00) (120, -1.36855876445770263672e+00) (121, 3.94954308867454528809e-02) (122, 1.09804093837738037109e-01) (123, -3.24196308851242065430e-01) (124, -9.96672436594963073730e-02) (125, 6.58917799592018127441e-03) (126, -4.13803309202194213867e-02) (127, -1.99461817741394042969e-01) (128, -6.94608867168426513672e-01) (129, 2.29879826307296752930e-01) (130, 4.65803235769271850586e-01) (131, -3.47990334033966064453e-01) (132, 9.83376502990722656250e-01) (133, 8.87682661414146423340e-02) (134, 1.48570942878723144531e+00) (135, 2.57819831371307373047e-01) (136, 1.00170183181762695312e+00) (137, -2.29787755012512207031e+00) (138, -1.84404027462005615234e+00) (139, -1.88824093341827392578e+00) (140, 6.68358862400054931641e-01) (141, 1.50000000000000000000e+03) (142, 1.50000000000000000000e+03) (143, 1.50000000000000000000e+03) (144, 1.50000000000000000000e+03) (145, 1.50000000000000000000e+03) (146, 1.50000000000000000000e+03) (147, 1.50000000000000000000e+03) (148, 1.50000000000000000000e+03) (149, 1.50000000000000000000e+03) (150, 1.50000000000000000000e+03) (151, 1.50000000000000000000e+03) (152, 1.50000000000000000000e+03) (153, 1.50000000000000000000e+03) (154, 2.55208671092987060547e-01) (155, 1.53918966650962829590e-01) (156, 2.76520848274230957031e-02) (157, 4.42391410470008850098e-02) (158, 3.15763413906097412109e-01) (159, 1.15639962255954742432e-01) (160, 2.12687370367348194122e-03) (161, 1.98198139667510986328e-01) (162, 1.14077605307102203369e-01) (163, 2.89477825164794921875e-01) (164, -8.79181399941444396973e-02) (165, 9.63395535945892333984e-02) (166, 2.36521959304809570312e-01) (167, 3.48938822746276855469e-01) (168, 2.93827474117279052734e-01) (169, 3.16956341266632080078e-01) (170, 1.33442118763923645020e-01) (171, 2.91065126657485961914e-01) (172, 2.78782874345779418945e-01) (173, 3.31800848245620727539e-01) (174, 4.28470224142074584961e-01) (175, 5.41683882474899291992e-02) (176, 1.35541677474975585938e-01) (177, -1.14823266863822937012e-01) (178, 2.62341856956481933594e-01) (179, 2.89036333560943603516e-01) (180, 2.46016550064086914062e+00) (181, -1.72297433018684387207e-01) (182, -5.72339892387390136719e-01) (183, -2.49840664863586425781e+00) (184, -9.20016691088676452637e-02) (185, -1.01484525203704833984e+00) (186, -7.89745569229125976562e-01) (187, 3.14253196120262145996e-02) (188, -4.16071891784667968750e-01) (189, 7.86278629302978515625e+00) (190, 6.20078325271606445312e-01) (191, 2.57175922393798828125e+00) (192, 2.61573433876037597656e+00) (193, -1.13300509750843048096e-01) (0, -6.81416451930999755859e-01) (1, 1.42780542373657226562e+00) (2, -4.74374628067016601562e+00) (3, -1.56448888778686523438e+00) (4, -1.64773023128509521484e+00) (5, 8.13107430934906005859e-01) (6, -3.06810998916625976562e+00) (7, -1.97022211551666259766e+00) (8, 2.93223530054092407227e-01) (9, -5.91482639312744140625e-01) (10, -1.47071170806884765625e+00) (11, 4.68941271305084228516e-01) (12, -1.35083603858947753906e+00) (13, -5.70912599563598632812e-01) (14, -5.06100207567214965820e-02) (15, 1.09426133334636688232e-01) (16, 4.35394287109375000000e-01) (17, 3.52915465831756591797e-01) (18, 7.54002749919891357422e-01) (19, 2.50106930732727050781e-01) (20, -4.72178649902343750000e+00) (21, 5.67041444778442382812e+00) (22, 8.70521605014801025391e-01) (23, 1.24467158317565917969e+00) (24, -2.99142673611640930176e-02) (25, 1.89345633983612060547e+00) (26, 4.02972489595413208008e-01) (27, 2.98336577415466308594e+00) (28, -9.53599512577056884766e-01) (29, -8.70963394641876220703e-01) (30, 1.36785864830017089844e+00) (31, 1.29673814773559570312e+00) (32, -1.19092082977294921875e+00) (33, -2.34767031669616699219e+00) (34, 1.72670423984527587891e+00) (35, -9.18909668922424316406e-01) (36, 1.25772535800933837891e+00) (37, -6.42232835292816162109e-01) (38, -2.88932204246520996094e+00) (39, 5.16623020172119140625e-01) (40, -4.83169317245483398438e-01) (41, -1.15937077999114990234e+00) (42, 7.54030048847198486328e-02) (43, 1.29511940479278564453e+00) (44, -1.83070957660675048828e+00) (45, 4.67574536800384521484e-01) (46, -9.49380576610565185547e-01) (47, 1.50000000000000000000e+03) (48, 1.50000000000000000000e+03) (49, 1.50000000000000000000e+03) (50, 1.50000000000000000000e+03) (51, 1.50000000000000000000e+03) (52, 1.50000000000000000000e+03) (53, 1.50000000000000000000e+03) (54, 1.50000000000000000000e+03) (55, 1.50000000000000000000e+03) (56, 1.50000000000000000000e+03) (57, 1.50000000000000000000e+03) (58, 1.50000000000000000000e+03) (59, 1.50000000000000000000e+03) (60, 9.12788510322570800781e-02) (61, 5.72828277945518493652e-02) (62, 1.31440833210945129395e-02) (63, 1.47948414087295532227e-01) (64, 5.18234670162200927734e-02) (65, -3.69280949234962463379e-02) (66, -7.98135064542293548584e-04) (67, 2.24893480539321899414e-01) (68, -9.56028979271650314331e-03) (69, 7.56552303209900856018e-03) (70, -1.70962251722812652588e-02) (71, 1.28136485815048217773e-01) (72, 1.62058677524328231812e-02) (73, -7.03420583158731460571e-03) (74, 2.38626338541507720947e-02) (75, 1.91640798002481460571e-02) (76, 2.11265131831169128418e-01) (77, 1.02540038526058197021e-01) (78, -4.89646270871162414551e-02) (79, 1.01216100156307220459e-01) (80, 7.95985311269760131836e-02) (81, 4.64123906567692756653e-03) (82, -5.03325648605823516846e-02) (83, 7.64774829149246215820e-02) (84, 1.82764492928981781006e-02) (85, 5.70767559111118316650e-02) (86, 2.09998917579650878906e+00) (87, -1.58531284332275390625e+00) (88, 7.99699008464813232422e-01) (89, 6.09557151794433593750e-01) (90, 3.78459239006042480469e+00) (91, 8.11718404293060302734e-01) (92, 1.46142232418060302734e+00) (93, -1.59496262669563293457e-01) (94, 1.50000000000000000000e+03) (95, 1.50000000000000000000e+03) (96, 1.50000000000000000000e+03) (97, 1.50000000000000000000e+03) (98, 1.50000000000000000000e+03) (99, 1.50000000000000000000e+03) (100, 1.50000000000000000000e+03) (101, 1.50000000000000000000e+03) (102, 1.50000000000000000000e+03) (103, 1.50000000000000000000e+03) (104, 1.50000000000000000000e+03) (105, 1.50000000000000000000e+03) (106, 1.50000000000000000000e+03) (107, -2.09913396835327148438e+00) (108, 8.70647490024566650391e-01) (109, 3.76826524734497070312e-02) (110, -9.66011703014373779297e-01) (111, 9.22764301300048828125e-01) (112, 1.23673141002655029297e+00) (113, -1.79214990139007568359e+00) (114, 5.67471122741699218750e+00) (115, 4.00928914546966552734e-01) (116, 1.00111734867095947266e+00) (117, -1.54597198963165283203e+00) (118, -2.11564636230468750000e+00) (119, -2.13392138481140136719e+00) (120, 1.63551196455955505371e-01) (121, 4.67451065778732299805e-01) (122, 4.81245458126068115234e-01) (123, 5.89096099138259887695e-02) (124, 3.68308603763580322266e-01) (125, 5.23395419120788574219e-01) (126, 2.14588224887847900391e-01) (127, 4.09998178482055664062e-01) (128, 4.21919316053390502930e-01) (129, 3.28340232372283935547e-01) (130, 3.38829666376113891602e-01) (131, -1.08431659638881683350e-01) (132, 3.06768208742141723633e-01) (133, -3.88072276115417480469e+00) (134, -8.18463489413261413574e-02) (135, -1.56350505352020263672e+00) (136, -2.26535582542419433594e+00) (137, -2.29510571807622909546e-02) (138, 1.84775352478027343750e+00) (139, 1.27268767356872558594e+00) (140, 8.03868830204010009766e-01) (141, 1.50000000000000000000e+03) (142, 1.50000000000000000000e+03) (143, 1.50000000000000000000e+03) (144, 1.50000000000000000000e+03) (145, 1.50000000000000000000e+03) (146, 1.50000000000000000000e+03) (147, 1.50000000000000000000e+03) (148, 1.50000000000000000000e+03) (149, 1.50000000000000000000e+03) (150, 1.50000000000000000000e+03) (151, 1.50000000000000000000e+03) (152, 1.50000000000000000000e+03) (153, 1.50000000000000000000e+03) (154, -4.73042577505111694336e-02) (155, 1.49952918291091918945e-01) (156, -1.72730896156281232834e-03) (157, 3.87232005596160888672e-01) (158, -9.00932028889656066895e-02) (159, 1.43894046545028686523e-01) (160, -2.80107110738754272461e-02) (161, 3.45558583736419677734e-01) (162, 3.88888269662857055664e-02) (163, 1.27070695161819458008e-01) (164, -7.61330649256706237793e-02) (165, 9.76274460554122924805e-02) (166, 1.40473976731300354004e-01) (167, 9.39464941620826721191e-03) (168, 4.50988151133060455322e-02) (169, -5.66498152911663055420e-02) (170, 2.58106738328933715820e-01) (171, -1.72140583395957946777e-01) (172, 1.51128500699996948242e-01) (173, 1.73098556697368621826e-02) (174, 2.97107428312301635742e-01) (175, 3.84336225688457489014e-02) (176, -4.42048795521259307861e-02) (177, 1.62503361701965332031e-01) (178, 3.48207086324691772461e-01) (179, 5.26300966739654541016e-01) (180, -3.12296104431152343750e+00) (181, -2.19517779350280761719e+00) (182, 3.63006055355072021484e-01) (183, -1.71168410778045654297e+00) (184, -3.13876047730445861816e-02) (185, -3.41076403856277465820e-01) (186, -2.23370575904846191406e+00) (187, 2.18880462646484375000e+00) (188, 4.56174039840698242188e+00) (189, 1.36898970603942871094e+00) (190, 5.67510414123535156250e+00) (191, 4.23571205139160156250e+00) (192, -3.67641657590866088867e-01) (193, 3.40604901313781738281e-01) (0, 9.70016860961914062500e+00) (1, -2.36398649215698242188e+00) (2, 3.55803966522216796875e+00) (3, 2.25191640853881835938e+00) (4, 3.99533438682556152344e+00) (5, 1.14774727821350097656e+00) (6, 5.36249256134033203125e+00) (7, -4.98694419860839843750e+00) (8, -1.83130180835723876953e+00) (9, -1.26618966460227966309e-01) (10, -5.33249616622924804688e+00) (11, -2.52784466743469238281e+00) (12, -7.64371633529663085938e-01) (13, 2.16370725631713867188e+00) (14, 1.63414156436920166016e+00) (15, 2.74820178747177124023e-01) (16, -5.57851171493530273438e+00) (17, -2.94224452972412109375e+00) (18, -7.08033466339111328125e+00) (19, 1.71765434741973876953e+00) (20, -1.25543451309204101562e+00) (21, -1.28120040893554687500e+00) (22, 4.11185169219970703125e+00) (23, -5.45924472808837890625e+00) (24, 1.13783872127532958984e+00) (25, 1.17894577980041503906e+00) (26, 4.05744165182113647461e-01) (27, 1.05917632579803466797e+00) (28, 1.56147193908691406250e+00) (29, 1.37770161032676696777e-01) (30, 9.80010271072387695312e-01) (31, -3.89055050909519195557e-02) (32, 5.42003488540649414062e+00) (33, 9.15462374687194824219e-01) (34, -5.06517648696899414062e-01) (35, 9.42565321922302246094e-01) (36, 3.61365109682083129883e-01) (37, 2.81344318389892578125e+00) (38, -2.43283733725547790527e-01) (39, -2.14442420005798339844e+00) (40, 2.01516056060791015625e+00) (41, -4.61321976035833358765e-03) (42, 4.72669273614883422852e-01) (43, 2.01640054583549499512e-01) (44, -2.29074263572692871094e+00) (45, -1.72339582443237304688e+00) (46, 1.61205029487609863281e+00) (47, 1.50000000000000000000e+03) (48, 1.50000000000000000000e+03) (49, 1.50000000000000000000e+03) (50, 1.50000000000000000000e+03) (51, 1.50000000000000000000e+03) (52, 1.50000000000000000000e+03) (53, 1.50000000000000000000e+03) (54, 1.50000000000000000000e+03) (55, 1.50000000000000000000e+03) (56, 1.50000000000000000000e+03) (57, 1.50000000000000000000e+03) (58, 1.50000000000000000000e+03) (59, 1.50000000000000000000e+03) (60, 2.97191917896270751953e-01) (61, 4.80086654424667358398e-01) (62, 4.66948002576828002930e-01) (63, 4.25274491310119628906e-01) (64, 3.95419001579284667969e-01) (65, 4.28916782140731811523e-01) (66, 3.70436608791351318359e-01) (67, 2.16516539454460144043e-01) (68, 5.44466137886047363281e-01) (69, 2.65283167362213134766e-01) (70, 3.98657619953155517578e-01) (71, 4.51287031173706054688e-01) (72, 4.90929275751113891602e-01) (73, 3.32835644483566284180e-01) (74, 3.63176077604293823242e-01) (75, 5.60533404350280761719e-01) (76, 5.00485420227050781250e-01) (77, 3.37138265371322631836e-01) (78, 4.31916236877441406250e-01) (79, 4.75624650716781616211e-01) (80, 1.85132503509521484375e-01) (81, 4.23873573541641235352e-01) (82, 4.27291333675384521484e-01) (83, 3.46378803253173828125e-01) (84, 3.91271084547042846680e-01) (85, 4.49594974517822265625e-01) (86, -5.06373405456542968750e-01) (87, 4.40321683883666992188e+00) (88, 4.39474153518676757812e+00) (89, 4.23604726791381835938e-01) (90, 2.19034695625305175781e+00) (91, -1.25892603397369384766e+00) (92, 1.20295464992523193359e+00) (93, -1.24370920658111572266e+00) (94, 1.50000000000000000000e+03) (95, 1.50000000000000000000e+03) (96, 1.50000000000000000000e+03) (97, 1.50000000000000000000e+03) (98, 1.50000000000000000000e+03) (99, 1.50000000000000000000e+03) (100, 1.50000000000000000000e+03) (101, 1.50000000000000000000e+03) (102, 1.50000000000000000000e+03) (103, 1.50000000000000000000e+03) (104, 1.50000000000000000000e+03) (105, 1.50000000000000000000e+03) (106, 1.50000000000000000000e+03) (107, -1.27914738655090332031e+00) (108, 4.45313978195190429688e+00) (109, -1.50093686580657958984e+00) (110, -2.42316174507141113281e+00) (111, -4.26462411880493164062e+00) (112, 6.87973439693450927734e-01) (113, 3.02140164375305175781e+00) (114, 2.88812732696533203125e+00) (115, 1.27326393127441406250e+00) (116, 1.91387146711349487305e-01) (117, 6.35462903976440429688e+00) (118, 2.52079415321350097656e+00) (119, 1.91947352886199951172e+00) (120, -8.60628932714462280273e-02) (121, 3.43892693519592285156e-01) (122, 2.33180802315473556519e-02) (123, 3.05349260568618774414e-01) (124, 2.33464390039443969727e-01) (125, -6.21904693543910980225e-02) (126, 2.99040287733078002930e-01) (127, 1.66211104393005371094e+00) (128, 2.35387727618217468262e-01) (129, -1.09286000952124595642e-02) (130, -1.30437541007995605469e+00) (131, 3.13059359788894653320e-01) (132, 5.16882911324501037598e-03) (133, 1.65594840049743652344e+00) (134, 8.91385257244110107422e-01) (135, -1.13705015182495117188e+00) (136, 1.94852626323699951172e+00) (137, 9.77456152439117431641e-01) (138, -2.96638751029968261719e+00) (139, -3.65968704223632812500e+00) (140, 8.63457202911376953125e-01) (141, 1.50000000000000000000e+03) (142, 1.50000000000000000000e+03) (143, 1.50000000000000000000e+03) (144, 1.50000000000000000000e+03) (145, 1.50000000000000000000e+03) (146, 1.50000000000000000000e+03) (147, 1.50000000000000000000e+03) (148, 1.50000000000000000000e+03) (149, 1.50000000000000000000e+03) (150, 1.50000000000000000000e+03) (151, 1.50000000000000000000e+03) (152, 1.50000000000000000000e+03) (153, 1.50000000000000000000e+03) (154, 6.46761283278465270996e-02) (155, 6.04060068726539611816e-02) (156, 1.18315011262893676758e-01) (157, 1.25618010759353637695e-01) (158, 2.24677786231040954590e-01) (159, -6.36662021279335021973e-02) (160, 3.13206076622009277344e-01) (161, -1.31550168991088867188e+00) (162, 1.29658475518226623535e-01) (163, 1.63066044449806213379e-01) (164, 1.38506841659545898438e+00) (165, 5.54652512073516845703e-02) (166, 2.43711546063423156738e-01) (167, 3.53700995445251464844e-01) (168, 8.18236172199249267578e-02) (169, 1.27297863364219665527e-01) (170, 1.20205871760845184326e-01) (171, 2.10191115736961364746e-01) (172, 3.81454192101955413818e-02) (173, 2.78107553720474243164e-01) (174, -3.03270131349563598633e-01) (175, 2.30871200561523437500e-01) (176, 2.64365881681442260742e-01) (177, 2.01031422615051269531e+00) (178, 1.14783540368080139160e-01) (179, 3.33460897207260131836e-01) (180, 3.29773831367492675781e+00) (181, -2.67785843461751937866e-02) (182, -3.26012998819351196289e-01) (183, 1.09947073459625244141e+00) (184, -1.12505567073822021484e+00) (185, -7.15984249114990234375e+00) (186, -3.58618664741516113281e+00) (187, -4.19398689270019531250e+00) (188, 1.54331362247467041016e+00) (189, 8.49263763427734375000e+00) (190, -1.26652646064758300781e+00) (191, 4.48225307464599609375e+00) (192, 5.62462472915649414062e+00) (193, 1.71714615821838378906e+00) (0, -2.73356246948242187500e+00) (1, 5.31195640563964843750e-01) (2, -2.11121034622192382812e+00) (3, -2.96672314405441284180e-01) (4, 1.31117737293243408203e+00) (5, 7.29213297367095947266e-01) (6, 1.88311576843261718750e+00) (7, -3.48771786689758300781e+00) (8, -2.00585722923278808594e+00) (9, 4.84076309204101562500e+00) (10, 1.14064455032348632812e+00) (11, -6.86952638626098632812e+00) (12, -5.68896114826202392578e-01) (13, -5.21888136863708496094e-01) (14, 3.55168610811233520508e-01) (15, 1.44783425331115722656e+00) (16, -4.13206815719604492188e+00) (17, -2.12908291816711425781e+00) (18, 1.67901599407196044922e+00) (19, -1.02782022953033447266e+00) (20, -9.96114552021026611328e-01) (21, 4.52657270431518554688e+00) (22, 4.32338118553161621094e-01) (23, 8.72459709644317626953e-01) (24, 1.90821123123168945312e+00) (25, -1.50797113776206970215e-01) (26, -5.76445221900939941406e-01) (27, 1.26561868190765380859e+00) (28, 7.14437484741210937500e-01) (29, 9.31664824485778808594e-01) (30, 7.21148848533630371094e-01) (31, 6.68619394302368164062e-01) (32, -3.99462819099426269531e+00) (33, 2.62019395828247070312e-01) (34, -4.17007774114608764648e-01) (35, -7.36479139328002929688e+00) (36, 3.79504299163818359375e+00) (37, 6.34057164192199707031e-01) (38, 1.01951837539672851562e+00) (39, 2.38275408744812011719e+00) (40, -2.70562815666198730469e+00) (41, 8.98802399635314941406e-01) (42, -3.73867213726043701172e-01) (43, 7.02903196215629577637e-02) (44, -8.17103326320648193359e-01) (45, -1.59827545285224914551e-01) (46, -2.65557974576950073242e-01) (47, 1.50000000000000000000e+03) (48, 1.50000000000000000000e+03) (49, 1.50000000000000000000e+03) (50, 1.50000000000000000000e+03) (51, 1.50000000000000000000e+03) (52, 1.50000000000000000000e+03) (53, 1.50000000000000000000e+03) (54, 1.50000000000000000000e+03) (55, 1.50000000000000000000e+03) (56, 1.50000000000000000000e+03) (57, 1.50000000000000000000e+03) (58, 1.50000000000000000000e+03) (59, 1.50000000000000000000e+03) (60, 1.47023439407348632812e-01) (61, 8.88269860297441482544e-03) (62, 1.84936672449111938477e-02) (63, 1.43138885498046875000e-01) (64, -1.02814979851245880127e-01) (65, 1.39935135841369628906e-01) (66, 3.64962592720985412598e-02) (67, 1.66502222418785095215e-02) (68, 1.05143681168556213379e-01) (69, 6.28695636987686157227e-02) (70, -6.38839462772011756897e-03) (71, 3.97715382277965545654e-02) (72, 4.74167950451374053955e-02) (73, 4.19162288308143615723e-02) (74, 3.12415454536676406860e-02) (75, -9.17409546673297882080e-03) (76, 1.72475760336965322495e-03) (77, -2.74995774030685424805e-01) (78, 2.21345722675323486328e-02) (79, -1.55880311504006385803e-02) (80, 8.55033192783594131470e-03) (81, 1.37694492936134338379e-01) (82, -4.48660440742969512939e-02) (83, 1.10980253666639328003e-02) (84, -3.24284732341766357422e-02) (85, -2.37560644745826721191e-03) (86, -6.63722372055053710938e+00) (87, 7.50746393203735351562e+00) (88, 1.24254500865936279297e+00) (89, 8.28862369060516357422e-01) (90, -1.71918225288391113281e+00) (91, 7.99211740493774414062e+00) (92, 3.84414076805114746094e-01) (93, -1.46478056907653808594e+00) (94, 1.50000000000000000000e+03) (95, 1.50000000000000000000e+03) (96, 1.50000000000000000000e+03) (97, 1.50000000000000000000e+03) (98, 1.50000000000000000000e+03) (99, 1.50000000000000000000e+03) (100, 1.50000000000000000000e+03) (101, 1.50000000000000000000e+03) (102, 1.50000000000000000000e+03) (103, 1.50000000000000000000e+03) (104, 1.50000000000000000000e+03) (105, 1.50000000000000000000e+03) (106, 1.50000000000000000000e+03) (107, -6.28006553649902343750e+00) (108, -1.08365975320339202881e-01) (109, 1.13025403022766113281e+00) (110, 9.80498075485229492188e-01) (111, 3.87262046337127685547e-01) (112, 4.24247312545776367188e+00) (113, -1.42669439315795898438e+00) (114, 1.64159965515136718750e+00) (115, 3.73758888244628906250e+00) (116, 2.88361847400665283203e-01) (117, -3.23340153694152832031e+00) (118, 2.45997047424316406250e+00) (119, -2.55513644218444824219e+00) (120, 1.44256576895713806152e-01) (121, -1.91362455487251281738e-01) (122, 2.47336030006408691406e-01) (123, -7.52731740474700927734e-01) (124, -8.79583477973937988281e-01) (125, -3.36590111255645751953e-02) (126, -3.27315837144851684570e-01) (127, 1.98549196124076843262e-01) (128, 4.40258920192718505859e-01) (129, 2.52034604549407958984e-01) (130, -1.67757868766784667969e+00) (131, -3.86633396148681640625e-01) (132, -4.68286097049713134766e-01) (133, 8.14138829708099365234e-01) (134, 1.15396153926849365234e+00) (135, 2.42022156715393066406e+00) (136, -2.31115370988845825195e-01) (137, -3.39058160781860351562e+00) (138, 2.27145695686340332031e+00) (139, -3.39393162727355957031e+00) (140, -5.65520167350769042969e-01) (141, 1.50000000000000000000e+03) (142, 1.50000000000000000000e+03) (143, 1.50000000000000000000e+03) (144, 1.50000000000000000000e+03) (145, 1.50000000000000000000e+03) (146, 1.50000000000000000000e+03) (147, 1.50000000000000000000e+03) (148, 1.50000000000000000000e+03) (149, 1.50000000000000000000e+03) (150, 1.50000000000000000000e+03) (151, 1.50000000000000000000e+03) (152, 1.50000000000000000000e+03) (153, 1.50000000000000000000e+03) (154, 5.53489625453948974609e-01) (155, 1.53933119773864746094e+00) (156, 5.43062448501586914062e-01) (157, 3.31427991390228271484e-01) (158, 7.41412043571472167969e-01) (159, 6.20260417461395263672e-01) (160, 9.26651060581207275391e-01) (161, 5.17044104635715484619e-02) (162, -7.57350176572799682617e-02) (163, 6.14046394824981689453e-01) (164, 3.69145870208740234375e-01) (165, 5.03288626670837402344e-01) (166, 8.48422706127166748047e-01) (167, 1.22634351253509521484e+00) (168, 9.20149862766265869141e-01) (169, 4.76926952600479125977e-01) (170, 5.35979330539703369141e-01) (171, 4.74229663610458374023e-01) (172, 6.65602564811706542969e-01) (173, 8.75910222530364990234e-01) (174, 3.09664964675903320312e-01) (175, 2.00377151370048522949e-01) (176, -4.79712896049022674561e-02) (177, 4.20831412076950073242e-01) (178, 5.70636332035064697266e-01) (179, 4.51510131359100341797e-01) (180, 4.88588380813598632812e+00) (181, -7.64421582221984863281e-01) (182, 1.81865191459655761719e+00) (183, -1.42650663852691650391e+00) (184, -1.53507721424102783203e+00) (185, -3.74248862266540527344e+00) (186, 5.97075819969177246094e-01) (187, 1.13327562808990478516e-01) (188, 2.36816048622131347656e+00) (189, 4.60497665405273437500e+00) (190, 5.40272951126098632812e+00) (191, 6.41425371170043945312e+00) (192, -7.84845530986785888672e-01) (193, -2.34484434127807617188e-01) (0, 1.94969558715820312500e+00) (1, -9.53234767913818359375e+00) (2, 7.13687229156494140625e+00) (3, -5.71761280298233032227e-02) (4, -2.36321878433227539062e+00) (5, 8.64438056945800781250e+00) (6, 1.19631409645080566406e+00) (7, -3.17747426033020019531e+00) (8, 3.61586660146713256836e-01) (9, 7.08295536041259765625e+00) (10, 3.98983001708984375000e+00) (11, -1.25007495880126953125e+01) (12, 4.81489467620849609375e+00) (13, 2.38412475585937500000e+00) (14, -6.72624111175537109375e-02) (15, 1.17782998085021972656e+00) (16, -2.00206732749938964844e+00) (17, -3.78647774457931518555e-01) (18, -9.41772079467773437500e+00) (19, 3.33991169929504394531e+00) (20, 6.96762371063232421875e+00) (21, 1.07076346874237060547e+00) (22, 2.27107286453247070312e+00) (23, 2.91310691833496093750e+00) (24, 1.40363425016403198242e-02) (25, 2.62910079956054687500e+00) (26, 5.96372306346893310547e-01) (27, -4.81063351035118103027e-02) (28, 1.00406420230865478516e+00) (29, 2.90616703033447265625e+00) (30, -6.83377265930175781250e-01) (31, -2.78834253549575805664e-01) (32, 3.07122945785522460938e+00) (33, 8.15798282623291015625e+00) (34, 5.19734811782836914062e+00) (35, -4.73627376556396484375e+00) (36, 3.22077798843383789062e+00) (37, 3.99420309066772460938e+00) (38, 1.36080515384674072266e+00) (39, -1.80693066120147705078e+00) (40, 9.71162438392639160156e-01) (41, 3.60876560211181640625e-01) (42, 1.08119690418243408203e+00) (43, 7.93576061725616455078e-01) (44, 1.41804945468902587891e+00) (45, 2.06870412826538085938e+00) (46, 3.23349070549011230469e+00) (47, 1.50000000000000000000e+03) (48, 1.50000000000000000000e+03) (49, 1.50000000000000000000e+03) (50, 1.50000000000000000000e+03) (51, 1.50000000000000000000e+03) (52, 1.50000000000000000000e+03) (53, 1.50000000000000000000e+03) (54, 1.50000000000000000000e+03) (55, 1.50000000000000000000e+03) (56, 1.50000000000000000000e+03) (57, 1.50000000000000000000e+03) (58, 1.50000000000000000000e+03) (59, 1.50000000000000000000e+03) (60, 6.75286889076232910156e-01) (61, 7.58683204650878906250e-01) (62, 8.12425911426544189453e-01) (63, 7.96591222286224365234e-01) (64, 7.02136158943176269531e-01) (65, 9.07854914665222167969e-01) (66, 7.39727377891540527344e-01) (67, 7.80963957309722900391e-01) (68, 7.26292610168457031250e-01) (69, 8.68869602680206298828e-01) (70, 8.05315792560577392578e-01) (71, 8.28552544116973876953e-01) (72, 8.57503354549407958984e-01) (73, 7.25049197673797607422e-01) (74, 7.29567050933837890625e-01) (75, 7.37091183662414550781e-01) (76, 8.32633972167968750000e-01) (77, 6.54206573963165283203e-01) (78, 8.11586260795593261719e-01) (79, 7.63305246829986572266e-01) (80, 7.99103796482086181641e-01) (81, 8.25277090072631835938e-01) (82, 7.57780492305755615234e-01) (83, 7.35745131969451904297e-01) (84, 8.37863445281982421875e-01) (85, 6.92471504211425781250e-01) (86, 7.73450851440429687500e+00) (87, 1.01913881301879882812e+00) (88, 1.95168778300285339355e-01) (89, 1.04127204418182373047e+00) (90, 5.31975746154785156250e-01) (91, 4.24516773223876953125e+00) (92, -6.60254210233688354492e-02) (93, 5.38351118564605712891e-01) (94, 1.50000000000000000000e+03) (95, 1.50000000000000000000e+03) (96, 1.50000000000000000000e+03) (97, 1.50000000000000000000e+03) (98, 1.50000000000000000000e+03) (99, 1.50000000000000000000e+03) (100, 1.50000000000000000000e+03) (101, 1.50000000000000000000e+03) (102, 1.50000000000000000000e+03) (103, 1.50000000000000000000e+03) (104, 1.50000000000000000000e+03) (105, 1.50000000000000000000e+03) (106, 1.50000000000000000000e+03) (107, -2.41231136322021484375e+01) (108, 3.99172663688659667969e-01) (109, 1.86876988410949707031e+00) (110, -6.70206174254417419434e-03) (111, -5.95609140396118164062e+00) (112, -6.59726333618164062500e+00) (113, 9.09859180450439453125e+00) (114, 1.30244934558868408203e+00) (115, 5.20708501338958740234e-01) (116, 1.55157995223999023438e+00) (117, 6.59820139408111572266e-01) (118, 8.26535820960998535156e-01) (119, 6.95767462253570556641e-01) (120, 1.12019073963165283203e+00) (121, 1.03385731577873229980e-01) (122, -4.00122702121734619141e-02) (123, 8.68817269802093505859e-01) (124, -2.85537242889404296875e-01) (125, 2.03072894364595413208e-02) (126, -1.16455860435962677002e-01) (127, -3.66328172385692596436e-02) (128, 9.67687845230102539062e-01) (129, 7.86333501338958740234e-01) (130, -8.02995637059211730957e-02) (131, 9.45408716797828674316e-02) (132, 2.66052447259426116943e-02) (133, 5.54082345962524414062e+00) (134, -2.33239918947219848633e-01) (135, -5.41024386882781982422e-01) (136, 3.97105604410171508789e-01) (137, 1.04535794258117675781e+00) (138, 9.44401621818542480469e-01) (139, 9.58092308044433593750e+00) (140, 2.69327998161315917969e+00) (141, 1.50000000000000000000e+03) (142, 1.50000000000000000000e+03) (143, 1.50000000000000000000e+03) (144, 1.50000000000000000000e+03) (145, 1.50000000000000000000e+03) (146, 1.50000000000000000000e+03) (147, 1.50000000000000000000e+03) (148, 1.50000000000000000000e+03) (149, 1.50000000000000000000e+03) (150, 1.50000000000000000000e+03) (151, 1.50000000000000000000e+03) (152, 1.50000000000000000000e+03) (153, 1.50000000000000000000e+03) (154, 4.71090346574783325195e-01) (155, 5.73990345001220703125e-01) (156, 6.92450404167175292969e-01) (157, 6.03741407394409179688e-01) (158, 1.33185970783233642578e+00) (159, 6.05169713497161865234e-01) (160, 2.27705612778663635254e-01) (161, 3.19543629884719848633e-01) (162, 2.40311831235885620117e-01) (163, 5.39514303207397460938e-01) (164, 6.71112895011901855469e-01) (165, 3.94587010145187377930e-01) (166, 1.69435799121856689453e+00) (167, 2.65305072069168090820e-01) (168, 4.85925763845443725586e-01) (169, 4.82589602470397949219e-01) (170, 5.69421291351318359375e-01) (171, 8.16269099712371826172e-01) (172, 6.49412214756011962891e-01) (173, 3.30486625432968139648e-01) (174, 4.11665260791778564453e-01) (175, 5.82063317298889160156e-01) (176, 5.13369917869567871094e-01) (177, 5.02622008323669433594e-01) (178, 4.96127933263778686523e-01) (179, 3.70573210716247558594e+00) (180, 1.34929399490356445312e+01) (181, 3.66204786300659179688e+00) (182, -1.90928125381469726562e+00) (183, 3.24078440666198730469e+00) (184, 1.01441419124603271484e+00) (185, -2.13090062141418457031e-01) (186, -2.26921677589416503906e-01) (187, 1.36311855316162109375e+01) (188, 3.05995559692382812500e+00) (189, -1.61491918563842773438e+00) (190, 9.58440876007080078125e+00) (191, -6.74412846565246582031e-02) (192, -7.38699007034301757812e+00) (193, -5.27684986591339111328e-01) (0, 6.47698736190795898438e+00) (1, 7.68200159072875976562e-01) (2, -5.73195695877075195312e+00) (3, 2.81460165977478027344e+00) (4, -3.71926474571228027344e+00) (5, 1.71558201313018798828e-01) (6, 6.11869096755981445312e+00) (7, -2.52070736885070800781e+00) (8, -9.96692657470703125000e-01) (9, -5.13624525070190429688e+00) (10, 2.37898826599121093750e+00) (11, -8.96336936950683593750e+00) (12, 1.78548347949981689453e+00) (13, 9.14307355880737304688e-01) (14, -6.85390472412109375000e-01) (15, -1.65928506851196289062e+00) (16, -1.66719704866409301758e-01) (17, -2.52118372917175292969e+00) (18, 2.05055022239685058594e+00) (19, -7.94365465641021728516e-01) (20, 1.67738214135169982910e-01) (21, -2.55822896957397460938e+00) (22, 3.38787651062011718750e+00) (23, -1.94025027751922607422e+00) (24, 8.30022931098937988281e-01) (25, -1.85274767875671386719e+00) (26, 8.15222561359405517578e-01) (27, 1.50422549247741699219e+00) (28, 1.01588857173919677734e+00) (29, 5.51814436912536621094e-01) (30, 2.65531718730926513672e-01) (31, 6.88720524311065673828e-01) (32, -2.84468340873718261719e+00) (33, 1.14228880405426025391e+00) (34, -1.10198557376861572266e+00) (35, 3.54375433921813964844e+00) (36, 4.28966856002807617188e+00) (37, 1.24498486518859863281e+00) (38, 1.56214773654937744141e+00) (39, 1.30971276760101318359e+00) (40, -1.86355614662170410156e+00) (41, -5.45293951034545898438e+00) (42, -3.07866692543029785156e-01) (43, 3.17497402429580688477e-01) (44, -1.39149650931358337402e-01) (45, -1.54756501317024230957e-01) (46, -6.08050107955932617188e-01) (47, 1.50000000000000000000e+03) (48, 1.50000000000000000000e+03) (49, 1.50000000000000000000e+03) (50, 1.50000000000000000000e+03) (51, 1.50000000000000000000e+03) (52, 1.50000000000000000000e+03) (53, 1.50000000000000000000e+03) (54, 1.50000000000000000000e+03) (55, 1.50000000000000000000e+03) (56, 1.50000000000000000000e+03) (57, 1.50000000000000000000e+03) (58, 1.50000000000000000000e+03) (59, 1.50000000000000000000e+03) (60, 3.48490834236145019531e-01) (61, 4.95361328125000000000e-01) (62, 2.31368333101272583008e-01) (63, 2.65146672725677490234e-01) (64, 3.58367085456848144531e-01) (65, 2.98621475696563720703e-01) (66, 5.02761960029602050781e-01) (67, 4.09181922674179077148e-01) (68, 3.02660465240478515625e-01) (69, 3.99206757545471191406e-01) (70, 2.43253976106643676758e-01) (71, 4.39637243747711181641e-01) (72, 1.32537111639976501465e-01) (73, 1.60633608698844909668e-01) (74, 4.45424973964691162109e-01) (75, 3.62210482358932495117e-01) (76, 2.69643396139144897461e-01) (77, 3.78111362457275390625e-01) (78, 2.94092118740081787109e-01) (79, 4.94912892580032348633e-01) (80, 2.29298874735832214355e-01) (81, 2.06598326563835144043e-01) (82, 3.89794409275054931641e-01) (83, 3.98547947406768798828e-01) (84, 4.47116315364837646484e-01) (85, 2.94497430324554443359e-01) (86, -1.04630577564239501953e+00) (87, 5.42734622955322265625e+00) (88, 1.99709272384643554688e+00) (89, 1.75462150573730468750e+01) (90, -2.31502890586853027344e+00) (91, -3.06553244590759277344e+00) (92, 2.79921221733093261719e+00) (93, 7.64475941658020019531e-01) (94, 1.50000000000000000000e+03) (95, 1.50000000000000000000e+03) (96, 1.50000000000000000000e+03) (97, 1.50000000000000000000e+03) (98, 1.50000000000000000000e+03) (99, 1.50000000000000000000e+03) (100, 1.50000000000000000000e+03) (101, 1.50000000000000000000e+03) (102, 1.50000000000000000000e+03) (103, 1.50000000000000000000e+03) (104, 1.50000000000000000000e+03) (105, 1.50000000000000000000e+03) (106, 1.50000000000000000000e+03) (107, 1.89305853843688964844e+00) (108, 1.19884121417999267578e+00) (109, -4.23156261444091796875e+00) (110, -3.77522617578506469727e-01) (111, -2.37128543853759765625e+00) (112, -5.02974367141723632812e+00) (113, -1.02373182773590087891e+00) (114, 1.39452290534973144531e+00) (115, 7.08278369903564453125e+00) (116, 2.58077263832092285156e+00) (117, -5.94899225234985351562e+00) (118, -4.83089780807495117188e+00) (119, 1.19191718101501464844e+00) (120, -1.25216245651245117188e+00) (121, -5.97302734851837158203e-01) (122, 3.56884956359863281250e-01) (123, -2.59392887353897094727e-01) (124, -1.32847404479980468750e+00) (125, 2.84907460212707519531e-01) (126, 5.26530563831329345703e-01) (127, 5.92389255762100219727e-02) (128, 1.89973384141921997070e-01) (129, 4.43831533193588256836e-01) (130, 3.96525293588638305664e-01) (131, 3.52989226579666137695e-01) (132, -3.20972013473510742188e+00) (133, 4.62673187255859375000e+00) (134, -2.08900332450866699219e+00) (135, 5.73820650577545166016e-01) (136, 5.42208909988403320312e-01) (137, -2.22723913192749023438e+00) (138, -5.31444168090820312500e+00) (139, 1.83051145076751708984e+00) (140, 3.11255037784576416016e-01) (141, 1.50000000000000000000e+03) (142, 1.50000000000000000000e+03) (143, 1.50000000000000000000e+03) (144, 1.50000000000000000000e+03) (145, 1.50000000000000000000e+03) (146, 1.50000000000000000000e+03) (147, 1.50000000000000000000e+03) (148, 1.50000000000000000000e+03) (149, 1.50000000000000000000e+03) (150, 1.50000000000000000000e+03) (151, 1.50000000000000000000e+03) (152, 1.50000000000000000000e+03) (153, 1.50000000000000000000e+03) (154, 2.14779496192932128906e+00) (155, 4.13384705781936645508e-01) (156, 5.87408244609832763672e-02) (157, 3.41722100973129272461e-01) (158, 4.21722173690795898438e-01) (159, 6.02790266275405883789e-02) (160, 1.95226535201072692871e-01) (161, 1.80831208825111389160e-01) (162, 1.42509594559669494629e-01) (163, -1.23700961470603942871e-01) (164, -1.77086647599935531616e-02) (165, 1.35124027729034423828e-01) (166, 8.54839146137237548828e-01) (167, 1.35615193843841552734e+00) (168, 2.25898146629333496094e-01) (169, -7.69235566258430480957e-02) (170, 3.64800065755844116211e-01) (171, 2.38830113410949707031e+00) (172, 1.86229094862937927246e-01) (173, -8.27994868159294128418e-02) (174, 3.76509815454483032227e-01) (175, 9.68564525246620178223e-02) (176, -1.67225018143653869629e-01) (177, -2.42415964603424072266e-01) (178, 1.15744248032569885254e-01) (179, 2.96321600675582885742e-01) (180, 5.31891822814941406250e+00) (181, 1.41282927989959716797e+00) (182, -3.78354549407958984375e-01) (183, 2.23084568977355957031e+00) (184, -8.14054250717163085938e-01) (185, -1.30145227909088134766e+00) (186, 5.89380264282226562500e-01) (187, 3.07049202919006347656e+00) (188, 3.68122482299804687500e+00) (189, 1.50957667827606201172e+00) (190, 4.23648548126220703125e+00) (191, 8.65308856964111328125e+00) (192, 1.17028131484985351562e+01) (193, 3.37194472551345825195e-01) (0, 3.70205231010913848877e-02) (1, -2.83575564622879028320e-01) (2, 3.43475818634033203125e+00) (3, -6.00327253341674804688e-01) (4, 4.39093160629272460938e+00) (5, 8.47137272357940673828e-01) (6, 3.91559004783630371094e+00) (7, -5.41756808757781982422e-01) (8, 5.69660007953643798828e-01) (9, 2.17723536491394042969e+00) (10, -1.14839330315589904785e-01) (11, -3.61169576644897460938e+00) (12, 1.34254503250122070312e+00) (13, -1.51127055287361145020e-01) (14, 2.48069238662719726562e+00) (15, 1.07491183280944824219e+00) (16, -7.10564255714416503906e-01) (17, 2.35815238952636718750e+00) (18, 1.14144778251647949219e+00) (19, -4.26768273115158081055e-01) (20, -2.15103459358215332031e+00) (21, 6.12949490547180175781e-01) (22, -1.78246998786926269531e+00) (23, 9.38036918640136718750e-01) (24, 3.45707654953002929688e-01) (25, 2.11714521050453186035e-01) (26, 5.92256069183349609375e-01) (27, 5.81883013248443603516e-01) (28, -4.51922446489334106445e-01) (29, 1.68101206421852111816e-01) (30, 1.99546497315168380737e-02) (31, -1.31548985838890075684e-01) (32, 2.07473739981651306152e-01) (33, -4.16555023193359375000e+00) (34, 2.88282871246337890625e+00) (35, -3.60095858573913574219e-01) (36, -2.80947625637054443359e-01) (37, -7.03961670398712158203e-01) (38, 7.95683085918426513672e-01) (39, -2.44705462455749511719e+00) (40, -2.81928491592407226562e+00) (41, -1.51990103721618652344e+00) (42, 1.16974553093314170837e-02) (43, 5.40395021438598632812e-01) (44, 5.85727870464324951172e-01) (45, 5.65979897975921630859e-01) (46, 8.38855743408203125000e-01) (47, 1.50000000000000000000e+03) (48, 1.50000000000000000000e+03) (49, 1.50000000000000000000e+03) (50, 1.50000000000000000000e+03) (51, 1.50000000000000000000e+03) (52, 1.50000000000000000000e+03) (53, 1.50000000000000000000e+03) (54, 1.50000000000000000000e+03) (55, 1.50000000000000000000e+03) (56, 1.50000000000000000000e+03) (57, 1.50000000000000000000e+03) (58, 1.50000000000000000000e+03) (59, 1.50000000000000000000e+03) (60, 5.26278674602508544922e-01) (61, 5.13069570064544677734e-01) (62, 6.54848158359527587891e-01) (63, 4.57681030035018920898e-01) (64, 5.51922440528869628906e-01) (65, 4.48105037212371826172e-01) (66, 6.32278978824615478516e-01) (67, 4.36763316392898559570e-01) (68, 5.10881423950195312500e-01) (69, 5.45573472976684570312e-01) (70, 6.05075538158416748047e-01) (71, 6.25403702259063720703e-01) (72, 4.55532431602478027344e-01) (73, 5.92833518981933593750e-01) (74, 4.63816672563552856445e-01) (75, 6.57119870185852050781e-01) (76, 5.80923318862915039062e-01) (77, 6.17587029933929443359e-01) (78, 4.36662495136260986328e-01) (79, 4.51365083456039428711e-01) (80, 5.52066266536712646484e-01) (81, 4.45000112056732177734e-01) (82, 4.96245086193084716797e-01) (83, 6.68884396553039550781e-01) (84, 5.23545444011688232422e-01) (85, 5.96987128257751464844e-01) (86, -1.39434695243835449219e+00) (87, -2.91543030738830566406e+00) (88, 1.00557461380958557129e-01) (89, 2.68520689010620117188e+00) (90, 3.20894837379455566406e+00) (91, -1.17573916912078857422e+00) (92, 1.39931797981262207031e+00) (93, -8.15107583999633789062e-01) (94, 1.50000000000000000000e+03) (95, 1.50000000000000000000e+03) (96, 1.50000000000000000000e+03) (97, 1.50000000000000000000e+03) (98, 1.50000000000000000000e+03) (99, 1.50000000000000000000e+03) (100, 1.50000000000000000000e+03) (101, 1.50000000000000000000e+03) (102, 1.50000000000000000000e+03) (103, 1.50000000000000000000e+03) (104, 1.50000000000000000000e+03) (105, 1.50000000000000000000e+03) (106, 1.50000000000000000000e+03) (107, -7.73169040679931640625e+00) (108, -7.90257334709167480469e-01) (109, -7.57273435592651367188e-01) (110, -4.97466117143630981445e-01) (111, -3.21494191884994506836e-02) (112, -1.11441063880920410156e+00) (113, 1.95795762538909912109e+00) (114, 2.31584191322326660156e+00) (115, 1.86655676364898681641e+00) (116, 5.03592205047607421875e+00) (117, -2.76774597167968750000e+00) (118, 1.44262170791625976562e+00) (119, 3.67229282855987548828e-01) (120, 9.48959648609161376953e-01) (121, 7.37099885940551757812e-01) (122, 9.79869008064270019531e-01) (123, 8.94793391227722167969e-01) (124, 9.01888608932495117188e-01) (125, 3.35886955261230468750e-01) (126, 8.44730675220489501953e-01) (127, 9.12461638450622558594e-01) (128, 4.54323053359985351562e-01) (129, 2.85416394472122192383e-01) (130, -4.09762382507324218750e-01) (131, 5.79594135284423828125e-01) (132, 1.28549098968505859375e-01) (133, -1.13995122909545898438e+00) (134, 1.80913221836090087891e+00) (135, -1.76007091999053955078e+00) (136, -5.49935221672058105469e-01) (137, 5.42351913452148437500e+00) (138, 2.43739986419677734375e+00) (139, -1.94756054878234863281e+00) (140, 2.72057622671127319336e-01) (141, 1.50000000000000000000e+03) (142, 1.50000000000000000000e+03) (143, 1.50000000000000000000e+03) (144, 1.50000000000000000000e+03) (145, 1.50000000000000000000e+03) (146, 1.50000000000000000000e+03) (147, 1.50000000000000000000e+03) (148, 1.50000000000000000000e+03) (149, 1.50000000000000000000e+03) (150, 1.50000000000000000000e+03) (151, 1.50000000000000000000e+03) (152, 1.50000000000000000000e+03) (153, 1.50000000000000000000e+03) (154, -5.05782663822174072266e-01) (155, -2.61752337217330932617e-01) (156, 1.95533677935600280762e-01) (157, -4.14972752332687377930e-01) (158, -3.73312592506408691406e-01) (159, 1.33324891328811645508e-01) (160, -3.85485768318176269531e-01) (161, 2.00085312128067016602e-01) (162, 7.15043991804122924805e-02) (163, -2.58456379175186157227e-01) (164, 2.14839100837707519531e-01) (165, -5.76564967632293701172e-01) (166, -3.74126642942428588867e-01) (167, -7.64781713485717773438e-01) (168, -3.80231380462646484375e-01) (169, 1.95800378918647766113e-01) (170, -4.35858517885208129883e-01) (171, -3.39645832777023315430e-01) (172, 9.56036150455474853516e-02) (173, -3.86844307184219360352e-01) (174, 1.21664762496948242188e-01) (175, 7.31341615319252014160e-02) (176, -4.77492928504943847656e-01) (177, 1.18434987962245941162e-01) (178, -5.23964643478393554688e-01) (179, -3.32996457815170288086e-01) (180, -8.51717376708984375000e+00) (181, -2.30620908737182617188e+00) (182, -4.16871190071105957031e-01) (183, 5.26561975479125976562e-01) (184, -2.07097959518432617188e+00) (185, -2.26775437593460083008e-01) (186, 2.53076314926147460938e-01) (187, 3.52215170860290527344e+00) (188, 1.25842958688735961914e-01) (189, 7.61315107345581054688e-01) (190, 2.53641343116760253906e+00) (191, 1.23008191585540771484e+00) (192, -6.58214807510375976562e-01) (193, 2.41154074668884277344e+00) (0, 1.39576911926269531250e+00) (1, -1.92587232589721679688e+00) (2, -2.70872712135314941406e-01) (3, -2.50995373725891113281e+00) (4, 1.54458489269018173218e-02) (5, 1.35183429718017578125e+00) (6, -8.13335716724395751953e-01) (7, -1.33454641327261924744e-02) (8, -6.32308435440063476562e+00) (9, 4.53965831547975540161e-03) (10, 2.10218906402587890625e+00) (11, -4.95154857635498046875e+00) (12, 2.37512469291687011719e+00) (13, 6.10856056213378906250e-01) (14, 3.69106769561767578125e-01) (15, 8.04838538169860839844e-01) (16, 1.48238551616668701172e+00) (17, -1.16398048400878906250e+00) (18, 1.51714712381362915039e-01) (19, -7.53929197788238525391e-01) (20, -2.96743869781494140625e-01) (21, -4.43706607818603515625e+00) (22, 2.15725183486938476562e+00) (23, 1.41491520404815673828e+00) (24, 4.33438825607299804688e+00) (25, -4.86567914485931396484e-01) (26, 6.25543892383575439453e-01) (27, 3.28181982040405273438e-01) (28, 1.07833111286163330078e+00) (29, 1.08700537681579589844e+00) (30, 3.71203213930130004883e-01) (31, 5.28343737125396728516e-01) (32, 2.65902733802795410156e+00) (33, -6.18270635604858398438e-02) (34, -2.80741786956787109375e+00) (35, 1.17203211784362792969e+00) (36, -5.40842175483703613281e-01) (37, -2.13152647018432617188e+00) (38, 2.20219826698303222656e+00) (39, 1.50995469093322753906e+00) (40, -6.00029277801513671875e+00) (41, 1.72064661979675292969e+00) (42, 2.55606234073638916016e-01) (43, 1.67889505624771118164e-01) (44, -5.76452493667602539062e-01) (45, -2.27458968758583068848e-01) (46, 1.86597943305969238281e+00) (47, 1.50000000000000000000e+03) (48, 1.50000000000000000000e+03) (49, 1.50000000000000000000e+03) (50, 1.50000000000000000000e+03) (51, 1.50000000000000000000e+03) (52, 1.50000000000000000000e+03) (53, 1.50000000000000000000e+03) (54, 1.50000000000000000000e+03) (55, 1.50000000000000000000e+03) (56, 1.50000000000000000000e+03) (57, 1.50000000000000000000e+03) (58, 1.50000000000000000000e+03) (59, 1.50000000000000000000e+03) (60, 2.63628929853439331055e-01) (61, 1.89842715859413146973e-01) (62, 3.17040652036666870117e-01) (63, 1.83460757136344909668e-01) (64, 1.57443687319755554199e-01) (65, 4.36835765838623046875e-01) (66, 3.08034479618072509766e-01) (67, 2.28888854384422302246e-01) (68, 2.29888558387756347656e-01) (69, 3.35584640502929687500e-01) (70, 2.82682806253433227539e-01) (71, 2.62395232915878295898e-01) (72, 1.94835960865020751953e-01) (73, 2.31561601161956787109e-01) (74, 3.57896715402603149414e-01) (75, 2.94492125511169433594e-01) (76, 3.30845147371292114258e-01) (77, 2.82654553651809692383e-01) (78, 2.57262468338012695312e-01) (79, 3.40119659900665283203e-01) (80, 2.14176848530769348145e-01) (81, 1.52702748775482177734e-01) (82, 3.40080976486206054688e-01) (83, 4.41011220216751098633e-01) (84, 2.77385711669921875000e-01) (85, 1.63500532507896423340e-01) (86, -1.99432522058486938477e-01) (87, -3.64410710334777832031e+00) (88, -9.94855105876922607422e-01) (89, -2.79469847679138183594e-01) (90, 2.75377893447875976562e+00) (91, 2.03149533271789550781e+00) (92, -4.31028187274932861328e-01) (93, -1.40794426202774047852e-01) (94, 1.50000000000000000000e+03) (95, 1.50000000000000000000e+03) (96, 1.50000000000000000000e+03) (97, 1.50000000000000000000e+03) (98, 1.50000000000000000000e+03) (99, 1.50000000000000000000e+03) (100, 1.50000000000000000000e+03) (101, 1.50000000000000000000e+03) (102, 1.50000000000000000000e+03) (103, 1.50000000000000000000e+03) (104, 1.50000000000000000000e+03) (105, 1.50000000000000000000e+03) (106, 1.50000000000000000000e+03) (107, -3.83491063117980957031e+00) (108, -2.80521988868713378906e+00) (109, -2.88400578498840332031e+00) (110, -4.43845987319946289062e+00) (111, -6.95405364036560058594e-01) (112, -6.30081236362457275391e-01) (113, -1.46281194686889648438e+00) (114, 1.32012999057769775391e+00) (115, 2.70595407485961914062e+00) (116, 4.57457113265991210938e+00) (117, -1.18176209926605224609e+00) (118, 1.17145586013793945312e+00) (119, 2.10898971557617187500e+00) (120, -5.44726908206939697266e-01) (121, 1.22551083564758300781e+00) (122, 3.79084825515747070312e-01) (123, 9.39873874187469482422e-01) (124, 5.46738326549530029297e-01) (125, 3.33220601081848144531e-01) (126, 2.05669090151786804199e-01) (127, 1.17480233311653137207e-01) (128, 7.19818830490112304688e-01) (129, 4.37915444374084472656e-01) (130, 1.22457802295684814453e+00) (131, 1.49393439292907714844e+00) (132, -5.24051308631896972656e-01) (133, -3.62077474594116210938e+00) (134, 6.58538579940795898438e-01) (135, 6.23692154884338378906e-01) (136, 1.62459790706634521484e+00) (137, 1.71311521530151367188e+00) (138, -6.24319195747375488281e-01) (139, -1.92141890525817871094e+00) (140, 7.02143669128417968750e-01) (141, 1.50000000000000000000e+03) (142, 1.50000000000000000000e+03) (143, 1.50000000000000000000e+03) (144, 1.50000000000000000000e+03) (145, 1.50000000000000000000e+03) (146, 1.50000000000000000000e+03) (147, 1.50000000000000000000e+03) (148, 1.50000000000000000000e+03) (149, 1.50000000000000000000e+03) (150, 1.50000000000000000000e+03) (151, 1.50000000000000000000e+03) (152, 1.50000000000000000000e+03) (153, 1.50000000000000000000e+03) (154, 1.56785440444946289062e+00) (155, 6.40436172485351562500e-01) (156, -2.50254143029451370239e-02) (157, 1.78320065140724182129e-01) (158, 1.29496228694915771484e+00) (159, 9.11093354225158691406e-02) (160, 8.01919177174568176270e-02) (161, 9.36772450804710388184e-02) (162, 7.74125009775161743164e-02) (163, 8.02192389965057373047e-01) (164, 1.28498300909996032715e-01) (165, -6.01419866085052490234e-01) (166, 1.81640911102294921875e+00) (167, 1.45331299304962158203e+00) (168, 3.56256783008575439453e-01) (169, 1.55207306146621704102e-01) (170, -8.46621915698051452637e-02) (171, 1.43855655193328857422e+00) (172, -6.14252872765064239502e-02) (173, -7.30448290705680847168e-02) (174, 3.58689397573471069336e-01) (175, -2.94766634702682495117e-01) (176, 3.19411784410476684570e-01) (177, 1.22156001627445220947e-01) (178, -1.12418532371520996094e+00) (179, 2.05237174034118652344e+00) (180, -6.10398113727569580078e-01) (181, 1.05572557449340820312e+00) (182, -1.58377066254615783691e-01) (183, -1.16053633391857147217e-01) (184, 1.49551957845687866211e-01) (185, -7.55998909473419189453e-01) (186, 1.40161812305450439453e+00) (187, 6.84334710240364074707e-02) (188, 3.49377393722534179688e+00) (189, 1.19635267257690429688e+01) (190, 3.95034861564636230469e+00) (191, 3.47090649604797363281e+00) (192, 6.85097277164459228516e-01) (193, -1.84046077728271484375e+00) (0, 1.83950889110565185547e+00) (1, 4.65054607391357421875e+00) (2, 8.95298671722412109375e+00) (3, 3.35020661354064941406e+00) (4, -2.09833049774169921875e+00) (5, 2.53220945596694946289e-01) (6, 2.56881046295166015625e+00) (7, -1.09112901687622070312e+01) (8, -3.13416361808776855469e-01) (9, 4.07586574554443359375e+00) (10, -8.11167538166046142578e-01) (11, -6.94532871246337890625e-01) (12, 8.38758087158203125000e+00) (13, -8.06306242942810058594e-01) (14, -2.96271538734436035156e+00) (15, -1.77418315410614013672e+00) (16, -1.99613714218139648438e+00) (17, -1.56689524650573730469e+00) (18, 1.50204741954803466797e+00) (19, 1.86276185512542724609e+00) (20, 4.52078390121459960938e+00) (21, -5.14481812715530395508e-02) (22, 1.75767230987548828125e+00) (23, -8.78910422325134277344e-02) (24, -2.31184077262878417969e+00) (25, 2.21450924873352050781e+00) (26, -1.13712477684020996094e+00) (27, -5.76561594009399414062e+00) (28, -2.90428489446640014648e-01) (29, 9.03941988945007324219e-01) (30, 2.24877521395683288574e-01) (31, 7.48952448368072509766e-01) (32, 2.31255149841308593750e+00) (33, 1.93383324146270751953e+00) (34, 2.85024285316467285156e+00) (35, 1.04128205776214599609e+00) (36, -7.09242343902587890625e-01) (37, 2.22825074195861816406e+00) (38, 7.76839828491210937500e+00) (39, 4.72212255001068115234e-01) (40, 1.67520666122436523438e+00) (41, 3.06902438402175903320e-01) (42, -6.77522480487823486328e-01) (43, 1.30947694182395935059e-01) (44, 1.01947796344757080078e+00) (45, 8.73220413923263549805e-02) (46, 9.03342533111572265625e+00) (47, 1.50000000000000000000e+03) (48, 1.50000000000000000000e+03) (49, 1.50000000000000000000e+03) (50, 1.50000000000000000000e+03) (51, 1.50000000000000000000e+03) (52, 1.50000000000000000000e+03) (53, 1.50000000000000000000e+03) (54, 1.50000000000000000000e+03) (55, 1.50000000000000000000e+03) (56, 1.50000000000000000000e+03) (57, 1.50000000000000000000e+03) (58, 1.50000000000000000000e+03) (59, 1.50000000000000000000e+03) (60, 3.34046185016632080078e-01) (61, 3.46141546964645385742e-01) (62, 2.98390746116638183594e-01) (63, 2.26503655314445495605e-01) (64, 2.79509633779525756836e-01) (65, 2.69982606172561645508e-01) (66, 2.07714855670928955078e-01) (67, 3.19615960121154785156e-01) (68, 2.21390768885612487793e-01) (69, 3.34407329559326171875e-01) (70, 1.80558353662490844727e-01) (71, 2.98213779926300048828e-01) (72, 2.22923278808593750000e-01) (73, 1.90319001674652099609e-01) (74, 3.47698509693145751953e-01) (75, 2.01958969235420227051e-01) (76, 2.38291352987289428711e-01) (77, 2.79778063297271728516e-01) (78, 2.49390050768852233887e-01) (79, 2.73339420557022094727e-01) (80, 1.85112953186035156250e-01) (81, 3.67259323596954345703e-01) (82, 3.49946677684783935547e-01) (83, 2.29197755455970764160e-01) (84, 2.34687730669975280762e-01) (85, 2.75010645389556884766e-01) (86, 1.37020826339721679688e+00) (87, 1.43880859017372131348e-01) (88, 4.51162010431289672852e-01) (89, 1.03740118443965911865e-01) (90, -1.79196107387542724609e+00) (91, 1.00597143173217773438e+00) (92, 1.83856204152107238770e-01) (93, 1.81319046020507812500e+00) (94, 1.50000000000000000000e+03) (95, 1.50000000000000000000e+03) (96, 1.50000000000000000000e+03) (97, 1.50000000000000000000e+03) (98, 1.50000000000000000000e+03) (99, 1.50000000000000000000e+03) (100, 1.50000000000000000000e+03) (101, 1.50000000000000000000e+03) (102, 1.50000000000000000000e+03) (103, 1.50000000000000000000e+03) (104, 1.50000000000000000000e+03) (105, 1.50000000000000000000e+03) (106, 1.50000000000000000000e+03) (107, -2.73058104515075683594e+00) (108, 8.34901690483093261719e-01) (109, 2.97022795677185058594e+00) (110, 1.11169397830963134766e+00) (111, -8.25756549835205078125e-01) (112, 3.27291393280029296875e+00) (113, 9.46052455902099609375e+00) (114, 3.43980407714843750000e+00) (115, 1.83070635795593261719e+00) (116, 8.60562133789062500000e+00) (117, 3.64032435417175292969e+00) (118, -4.22613918781280517578e-01) (119, 1.30279481410980224609e+00) (120, 8.67870688438415527344e-01) (121, 2.82381147146224975586e-01) (122, 7.59051963686943054199e-02) (123, -4.45582062005996704102e-01) (124, -1.08432039618492126465e-01) (125, -3.16140198707580566406e+00) (126, -1.57819241285324096680e-01) (127, -1.69781908392906188965e-01) (128, -2.54423886537551879883e-01) (129, 2.67648935317993164062e-01) (130, 4.47548627853393554688e-01) (131, 4.55023236572742462158e-02) (132, 2.39709645509719848633e-01) (133, 3.60331386327743530273e-01) (134, 1.11775827407836914062e+01) (135, -6.52412056922912597656e-01) (136, 1.18875488638877868652e-01) (137, -5.89076232910156250000e+00) (138, -5.10230302810668945312e+00) (139, -5.11585772037506103516e-01) (140, -4.73686754703521728516e-01) (141, 1.50000000000000000000e+03) (142, 1.50000000000000000000e+03) (143, 1.50000000000000000000e+03) (144, 1.50000000000000000000e+03) (145, 1.50000000000000000000e+03) (146, 1.50000000000000000000e+03) (147, 1.50000000000000000000e+03) (148, 1.50000000000000000000e+03) (149, 1.50000000000000000000e+03) (150, 1.50000000000000000000e+03) (151, 1.50000000000000000000e+03) (152, 1.50000000000000000000e+03) (153, 1.50000000000000000000e+03) (154, 3.83534818887710571289e-01) (155, 1.23506271839141845703e+00) (156, 3.64055603742599487305e-01) (157, 3.69337707757949829102e-01) (158, 5.53414762020111083984e-01) (159, 6.44546151161193847656e-01) (160, 6.94083333015441894531e-01) (161, 4.67271924018859863281e-01) (162, 4.16487604379653930664e-01) (163, 8.60373139381408691406e-01) (164, 3.92399579286575317383e-01) (165, 3.89551043510437011719e-01) (166, 2.35021069645881652832e-01) (167, -5.31777858734130859375e-01) (168, 1.20593070983886718750e+00) (169, 2.45499104261398315430e-01) (170, 4.50908899307250976562e-01) (171, 4.81272011995315551758e-01) (172, 7.94137835502624511719e-01) (173, 6.62745296955108642578e-01) (174, 5.30489027500152587891e-01) (175, 6.39204442501068115234e-01) (176, 3.77597063779830932617e-01) (177, 4.45827424526214599609e-01) (178, 3.64187419414520263672e-01) (179, 9.75339233875274658203e-01) (180, 8.48824083805084228516e-01) (181, 6.72767782211303710938e+00) (182, -8.77442455291748046875e+00) (183, -1.46790456771850585938e+00) (184, 1.76796030998229980469e+00) (185, -5.37135162353515625000e+01) (186, -1.62778750061988830566e-01) (187, -3.52401793003082275391e-01) (188, 3.63878154754638671875e+00) (189, 6.31534624099731445312e+00) (190, 3.74113235473632812500e+01) (191, 1.31160783767700195312e+00) (192, 5.57433426380157470703e-01) (193, 1.16733396053314208984e+00) (0, 7.84884023666381835938e+00) (1, -2.55004197359085083008e-01) (2, -8.15668106079101562500e-01) (3, -2.54297018051147460938e+00) (4, 2.08263921737670898438e+00) (5, 6.13880217075347900391e-01) (6, 4.26349115371704101562e+00) (7, -1.88805687427520751953e+00) (8, -3.13969516754150390625e+00) (9, 5.28628528118133544922e-01) (10, 1.36244058609008789062e-01) (11, -4.99549627304077148438e+00) (12, 2.77751636505126953125e+00) (13, 3.83868426084518432617e-01) (14, 4.94721829891204833984e-01) (15, -5.73044717311859130859e-01) (16, -4.10366630554199218750e+00) (17, -4.50964987277984619141e-01) (18, 1.48910403251647949219e+00) (19, -4.01002407073974609375e+00) (20, 3.95642971992492675781e+00) (21, 5.67849063873291015625e+00) (22, 3.24510860443115234375e+00) (23, 3.14411687850952148438e+00) (24, 3.07343316078186035156e+00) (25, -2.30790972709655761719e-02) (26, 3.26968073844909667969e-01) (27, -9.61337387561798095703e-01) (28, -1.09934580326080322266e+00) (29, -5.68736493587493896484e-01) (30, -6.67747080326080322266e-01) (31, 1.99838459491729736328e+00) (32, 1.92884039878845214844e+00) (33, 4.02062034606933593750e+00) (34, -2.57009774446487426758e-01) (35, -2.66765213012695312500e+00) (36, 2.54987311363220214844e+00) (37, -3.57521802186965942383e-01) (38, 3.17376685142517089844e+00) (39, 5.19741415977478027344e-01) (40, 2.83673763275146484375e+00) (41, -4.89256054162979125977e-01) (42, 3.68397533893585205078e-01) (43, 5.03558695316314697266e-01) (44, -2.45393538475036621094e+00) (45, 9.25562679767608642578e-01) (46, 2.08895516395568847656e+00) (47, 1.50000000000000000000e+03) (48, 1.50000000000000000000e+03) (49, 1.50000000000000000000e+03) (50, 1.50000000000000000000e+03) (51, 1.50000000000000000000e+03) (52, 1.50000000000000000000e+03) (53, 1.50000000000000000000e+03) (54, 1.50000000000000000000e+03) (55, 1.50000000000000000000e+03) (56, 1.50000000000000000000e+03) (57, 1.50000000000000000000e+03) (58, 1.50000000000000000000e+03) (59, 1.50000000000000000000e+03) (60, 5.04871249198913574219e-01) (61, 6.08114778995513916016e-01) (62, 5.19358694553375244141e-01) (63, 5.58667004108428955078e-01) (64, 4.79200094938278198242e-01) (65, 5.19452869892120361328e-01) (66, 6.27863109111785888672e-01) (67, 5.75799643993377685547e-01) (68, 5.60171186923980712891e-01) (69, 5.86756646633148193359e-01) (70, 4.62894469499588012695e-01) (71, 6.03692829608917236328e-01) (72, 5.36353528499603271484e-01) (73, 4.04169499874114990234e-01) (74, 5.58700323104858398438e-01) (75, 5.00564694404602050781e-01) (76, 5.20241916179656982422e-01) (77, 3.79569947719573974609e-01) (78, 4.71608847379684448242e-01) (79, 5.10864794254302978516e-01) (80, 4.60012942552566528320e-01) (81, 5.29847681522369384766e-01) (82, 5.63310921192169189453e-01) (83, 6.11709296703338623047e-01) (84, 5.17826497554779052734e-01) (85, 5.35035133361816406250e-01) (86, 9.16381478309631347656e-01) (87, 3.07021522521972656250e+00) (88, 6.75969457626342773438e+00) (89, -1.89839556813240051270e-01) (90, 1.17153525352478027344e+00) (91, -3.86952370405197143555e-01) (92, -2.12599158287048339844e+00) (93, -3.08134531974792480469e+00) (94, 1.50000000000000000000e+03) (95, 1.50000000000000000000e+03) (96, 1.50000000000000000000e+03) (97, 1.50000000000000000000e+03) (98, 1.50000000000000000000e+03) (99, 1.50000000000000000000e+03) (100, 1.50000000000000000000e+03) (101, 1.50000000000000000000e+03) (102, 1.50000000000000000000e+03) (103, 1.50000000000000000000e+03) (104, 1.50000000000000000000e+03) (105, 1.50000000000000000000e+03) (106, 1.50000000000000000000e+03) (107, -4.96773719787597656250e-02) (108, 2.41177749633789062500e+00) (109, 2.86404156684875488281e+00) (110, 3.92305302619934082031e+00) (111, -5.97520828247070312500e-01) (112, -5.62989354133605957031e-01) (113, -1.11738884449005126953e+00) (114, 3.97883033752441406250e+00) (115, -1.05794334411621093750e+00) (116, 9.47662544250488281250e+00) (117, -5.31301259994506835938e+00) (118, 2.86475563049316406250e+00) (119, -3.08028364181518554688e+00) (120, 6.06191456317901611328e-01) (121, -1.15996830165386199951e-01) (122, 1.09887858852744102478e-02) (123, -6.28148198127746582031e-01) (124, -8.70264396071434020996e-02) (125, 5.32658338546752929688e-01) (126, 3.16142253577709197998e-02) (127, -2.41089183837175369263e-02) (128, -2.02402193099260330200e-02) (129, 4.95117232203483581543e-02) (130, -2.25114822387695312500e+00) (131, -4.88452352583408355713e-02) (132, -9.96525347232818603516e-01) (133, -1.31957292556762695312e+00) (134, -1.57454776763916015625e+00) (135, 1.91790327429771423340e-01) (136, -4.28443384170532226562e+00) (137, 2.91140723228454589844e+00) (138, 4.74825680255889892578e-01) (139, -1.05006873607635498047e+00) (140, 2.00379982590675354004e-01) (141, 1.50000000000000000000e+03) (142, 1.50000000000000000000e+03) (143, 1.50000000000000000000e+03) (144, 1.50000000000000000000e+03) (145, 1.50000000000000000000e+03) (146, 1.50000000000000000000e+03) (147, 1.50000000000000000000e+03) (148, 1.50000000000000000000e+03) (149, 1.50000000000000000000e+03) (150, 1.50000000000000000000e+03) (151, 1.50000000000000000000e+03) (152, 1.50000000000000000000e+03) (153, 1.50000000000000000000e+03) (154, -1.89020645618438720703e+00) (155, 6.55758142471313476562e-01) (156, 3.41811120510101318359e-01) (157, 8.42938959598541259766e-01) (158, 8.00751268863677978516e-01) (159, 3.03514063358306884766e-01) (160, 5.87432563304901123047e-01) (161, 7.75448560714721679688e+00) (162, 9.97364103794097900391e-01) (163, 2.96558469533920288086e-01) (164, 2.52082014083862304688e+00) (165, 2.22712561488151550293e-01) (166, 1.42694950103759765625e+00) (167, -9.67549681663513183594e-01) (168, 7.99703955650329589844e-01) (169, 1.76571860909461975098e-01) (170, 7.74859845638275146484e-01) (171, 4.53534364700317382812e-01) (172, 2.83734619617462158203e-01) (173, 2.29949533939361572266e-01) (174, 1.53060996532440185547e+00) (175, 6.35773301124572753906e-01) (176, 9.07693430781364440918e-02) (177, 1.91131353378295898438e+00) (178, 4.05142277479171752930e-01) (179, 6.29471778869628906250e-01) (180, 5.12401342391967773438e+00) (181, -2.33650505542755126953e-01) (182, 3.82232725620269775391e-01) (183, 3.72064799070358276367e-01) (184, -5.07773065567016601562e+00) (185, 4.71461725234985351562e+00) (186, 3.04437279701232910156e+00) (187, 1.34863686561584472656e+00) (188, 2.77085542678833007812e+00) (189, -1.27904272079467773438e+01) (190, -8.24697196483612060547e-01) (191, 8.19663238525390625000e+00) (192, 1.54976904392242431641e-01) (193, 1.21968984603881835938e+00) (0, 5.59541416168212890625e+00) (1, -7.52522587776184082031e-01) (2, 8.69454443454742431641e-01) (3, 2.34719723463058471680e-01) (4, 1.92693853378295898438e+00) (5, 2.31480881571769714355e-01) (6, 1.07568979263305664062e-01) (7, -1.40227663516998291016e+00) (8, 1.80095076560974121094e+00) (9, 2.40133333206176757812e+00) (10, -7.07892715930938720703e-01) (11, -2.97010731697082519531e+00) (12, -1.75557935237884521484e+00) (13, 4.28540134429931640625e+00) (14, 3.48756217956542968750e+00) (15, 1.02928318083286285400e-01) (16, -2.26030325889587402344e+00) (17, 1.19372978806495666504e-01) (18, 2.08636236190795898438e+00) (19, -8.32435905933380126953e-01) (20, 1.74090719223022460938e+00) (21, 2.54049253463745117188e+00) (22, 2.30360889434814453125e+00) (23, 1.90492057800292968750e+00) (24, 6.92686557769775390625e-01) (25, -9.14970159530639648438e-01) (26, 1.86599421501159667969e+00) (27, -1.20112940669059753418e-01) (28, -1.70895770192146301270e-01) (29, -1.57864117622375488281e+00) (30, -1.84932157397270202637e-01) (31, -2.94871956110000610352e-01) (32, 1.74571096897125244141e+00) (33, 6.84549331665039062500e+00) (34, 3.16917359828948974609e-01) (35, 4.38872003555297851562e+00) (36, -2.11112618446350097656e+00) (37, -7.66056537628173828125e-01) (38, 1.07749068737030029297e+00) (39, 1.85497552156448364258e-01) (40, 3.31519991159439086914e-01) (41, -2.22494229674339294434e-01) (42, -4.37423437833786010742e-02) (43, -1.78235709667205810547e-01) (44, 7.02162384986877441406e-01) (45, -4.54593785107135772705e-02) (46, 4.07221555709838867188e+00) (47, 1.50000000000000000000e+03) (48, 1.50000000000000000000e+03) (49, 1.50000000000000000000e+03) (50, 1.50000000000000000000e+03) (51, 1.50000000000000000000e+03) (52, 1.50000000000000000000e+03) (53, 1.50000000000000000000e+03) (54, 1.50000000000000000000e+03) (55, 1.50000000000000000000e+03) (56, 1.50000000000000000000e+03) (57, 1.50000000000000000000e+03) (58, 1.50000000000000000000e+03) (59, 1.50000000000000000000e+03) (60, 1.03422135114669799805e-01) (61, 1.82091861963272094727e-01) (62, 1.69677838683128356934e-01) (63, 5.18171004951000213623e-02) (64, 1.67537420988082885742e-01) (65, 1.20385915040969848633e-01) (66, 2.25439727306365966797e-01) (67, 1.47719979286193847656e-01) (68, 1.29068493843078613281e-01) (69, 1.98202699422836303711e-01) (70, 1.57757058739662170410e-01) (71, 7.35182687640190124512e-02) (72, 1.98635667562484741211e-01) (73, 1.96565017104148864746e-01) (74, 1.36008188128471374512e-01) (75, 1.24157652258872985840e-01) (76, 3.24231982231140136719e-02) (77, 9.27932411432266235352e-02) (78, 2.05126807093620300293e-01) (79, 6.56136870384216308594e-02) (80, 1.90136849880218505859e-01) (81, 1.32270961999893188477e-01) (82, 1.36801630258560180664e-01) (83, 2.17996388673782348633e-01) (84, 1.98434755206108093262e-01) (85, 1.35692238807678222656e-01) (86, -9.68410909175872802734e-01) (87, 6.95656418800354003906e-01) (88, 1.05107676982879638672e+00) (89, -2.79760301113128662109e-01) (90, 5.78822851181030273438e+00) (91, -1.51292800903320312500e+00) (92, -1.91680848598480224609e+00) (93, 1.60092115402221679688e+00) (94, 1.50000000000000000000e+03) (95, 1.50000000000000000000e+03) (96, 1.50000000000000000000e+03) (97, 1.50000000000000000000e+03) (98, 1.50000000000000000000e+03) (99, 1.50000000000000000000e+03) (100, 1.50000000000000000000e+03) (101, 1.50000000000000000000e+03) (102, 1.50000000000000000000e+03) (103, 1.50000000000000000000e+03) (104, 1.50000000000000000000e+03) (105, 1.50000000000000000000e+03) (106, 1.50000000000000000000e+03) (107, -2.70437210798263549805e-01) (108, 9.29583311080932617188e-01) (109, 3.94981890916824340820e-01) (110, 1.23744583129882812500e+00) (111, -4.44509923458099365234e-01) (112, -1.76895296573638916016e+00) (113, 1.91348695755004882812e+00) (114, 1.69254386425018310547e+00) (115, 2.09296607971191406250e+00) (116, 1.69917166233062744141e+00) (117, 3.37178897857666015625e+00) (118, 8.21762382984161376953e-01) (119, -2.02432584762573242188e+00) (120, -8.92379164695739746094e-01) (121, 1.48761361837387084961e-01) (122, -1.05531029403209686279e-01) (123, -3.32839816808700561523e-01) (124, -2.58788354694843292236e-02) (125, -1.01906344294548034668e-01) (126, -6.82647973299026489258e-02) (127, -1.48880481719970703125e-01) (128, -2.03150108456611633301e-01) (129, -2.25645020604133605957e-01) (130, 4.08024907112121582031e-01) (131, 2.19994843006134033203e-01) (132, 8.09577405452728271484e-02) (133, 1.72898605465888977051e-01) (134, -1.24520920217037200928e-01) (135, -8.96357834339141845703e-01) (136, -3.46366226673126220703e-01) (137, 2.76908183097839355469e+00) (138, 3.66308540105819702148e-01) (139, 1.55056405067443847656e+00) (140, 1.31757247447967529297e+00) (141, 1.50000000000000000000e+03) (142, 1.50000000000000000000e+03) (143, 1.50000000000000000000e+03) (144, 1.50000000000000000000e+03) (145, 1.50000000000000000000e+03) (146, 1.50000000000000000000e+03) (147, 1.50000000000000000000e+03) (148, 1.50000000000000000000e+03) (149, 1.50000000000000000000e+03) (150, 1.50000000000000000000e+03) (151, 1.50000000000000000000e+03) (152, 1.50000000000000000000e+03) (153, 1.50000000000000000000e+03) (154, 4.41554903984069824219e-01) (155, 1.71212822198867797852e-01) (156, 5.04097998142242431641e-01) (157, 1.18412756919860839844e+00) (158, 3.08016836643218994141e-01) (159, 6.33391916751861572266e-01) (160, -1.27886794507503509521e-02) (161, 2.06021741032600402832e-01) (162, 2.67091572284698486328e-01) (163, 3.56255024671554565430e-01) (164, 2.28404194116592407227e-01) (165, 1.31105571985244750977e-01) (166, 5.74778378009796142578e-01) (167, 1.83875787258148193359e+00) (168, -8.51838514208793640137e-02) (169, 5.29076576232910156250e-01) (170, 5.23959815502166748047e-01) (171, 3.76337140798568725586e-01) (172, 6.25987708568572998047e-01) (173, -4.35735881328582763672e-02) (174, 2.88711309432983398438e-01) (175, -1.72309651970863342285e-02) (176, 6.58143520355224609375e-01) (177, 3.82459461688995361328e-01) (178, 2.02849209308624267578e-02) (179, 5.00539302825927734375e-01) (180, -3.81836034357547760010e-02) (181, 5.60446083545684814453e-01) (182, -1.25203236937522888184e-01) (183, -6.80448770523071289062e-01) (184, -1.63124513626098632812e+00) (185, 7.79089391231536865234e-01) (186, 2.28124046325683593750e+00) (187, -7.49374568462371826172e-01) (188, 2.10400938987731933594e+00) (189, 4.14824390411376953125e+00) (190, 1.61780285835266113281e+00) (191, 2.68092012405395507812e+00) (192, 1.84026062488555908203e+00) (193, -2.33946636319160461426e-01) (0, -3.08036851882934570312e+00) (1, -6.42833566665649414062e+00) (2, 3.00729942321777343750e+00) (3, 8.47496390342712402344e-02) (4, -1.58726108074188232422e+00) (5, 5.08351325988769531250e+00) (6, 4.92971134185791015625e+00) (7, -9.77847862243652343750e+00) (8, 1.85295641422271728516e-01) (9, 2.41325926780700683594e+00) (10, -1.82586050033569335938e+00) (11, -6.71024847030639648438e+00) (12, 4.48707389831542968750e+00) (13, -5.92312455177307128906e-01) (14, 1.60675972700119018555e-01) (15, 3.14947664737701416016e-01) (16, -1.39722847938537597656e+00) (17, -1.85389161109924316406e+00) (18, -1.01938724517822265625e-01) (19, -1.07754850387573242188e+00) (20, 1.96172130107879638672e+00) (21, -1.06133067607879638672e+00) (22, 1.71542668342590332031e+00) (23, 1.13572728633880615234e+00) (24, -2.81509566307067871094e+00) (25, 6.28594577312469482422e-01) (26, 1.73730194568634033203e+00) (27, 1.52252876758575439453e+00) (28, -3.46840023994445800781e-01) (29, 9.65859442949295043945e-02) (30, -1.02671019732952117920e-01) (31, 5.60381770133972167969e-01) (32, 5.09202718734741210938e-01) (33, 3.17370533943176269531e+00) (34, -4.69471305608749389648e-01) (35, -2.66117572784423828125e+00) (36, 5.01543879508972167969e-01) (37, 2.53539395332336425781e+00) (38, 1.34231293201446533203e+00) (39, 9.14074122905731201172e-01) (40, -1.77868032455444335938e+00) (41, -1.12573303282260894775e-01) (42, 2.83060073852539062500e-01) (43, -4.09937649965286254883e-02) (44, 1.97721958160400390625e+00) (45, 3.01606982946395874023e-01) (46, 4.90866136550903320312e+00) (47, 1.50000000000000000000e+03) (48, 1.50000000000000000000e+03) (49, 1.50000000000000000000e+03) (50, 1.50000000000000000000e+03) (51, 1.50000000000000000000e+03) (52, 1.50000000000000000000e+03) (53, 1.50000000000000000000e+03) (54, 1.50000000000000000000e+03) (55, 1.50000000000000000000e+03) (56, 1.50000000000000000000e+03) (57, 1.50000000000000000000e+03) (58, 1.50000000000000000000e+03) (59, 1.50000000000000000000e+03) (60, 2.22515985369682312012e-01) (61, 6.47742524743080139160e-02) (62, 8.81001278758049011230e-02) (63, 1.22301794588565826416e-01) (64, 9.19470041990280151367e-02) (65, 5.01522235572338104248e-02) (66, 1.19282253086566925049e-01) (67, 5.97469061613082885742e-02) (68, 2.52470761537551879883e-01) (69, 1.06146939098834991455e-01) (70, 1.79515518248081207275e-02) (71, 7.16896429657936096191e-02) (72, 9.38030555844306945801e-02) (73, 2.27401003241539001465e-01) (74, 1.03139042854309082031e-01) (75, 1.39735117554664611816e-01) (76, 1.73837929964065551758e-01) (77, 1.71937718987464904785e-01) (78, 1.74611613154411315918e-01) (79, 1.37659206986427307129e-01) (80, 5.11330738663673400879e-02) (81, 6.54541850090026855469e-02) (82, -4.88876175950281322002e-05) (83, 1.56631898134946823120e-02) (84, 1.58313170075416564941e-01) (85, 2.04034045338630676270e-01) (86, -7.48151481151580810547e-01) (87, -1.63042336702346801758e-01) (88, -1.76984921097755432129e-01) (89, -2.56832480430603027344e+00) (90, -1.95925772190093994141e+00) (91, -4.22650016844272613525e-02) (92, 1.47036761045455932617e-01) (93, -1.13053822517395019531e+00) (94, 1.50000000000000000000e+03) (95, 1.50000000000000000000e+03) (96, 1.50000000000000000000e+03) (97, 1.50000000000000000000e+03) (98, 1.50000000000000000000e+03) (99, 1.50000000000000000000e+03) (100, 1.50000000000000000000e+03) (101, 1.50000000000000000000e+03) (102, 1.50000000000000000000e+03) (103, 1.50000000000000000000e+03) (104, 1.50000000000000000000e+03) (105, 1.50000000000000000000e+03) (106, 1.50000000000000000000e+03) (107, 1.59785151481628417969e+00) (108, 2.07576990127563476562e+00) (109, -1.32054245471954345703e+00) (110, -6.16403281688690185547e-01) (111, -9.91397380828857421875e-01) (112, -2.17524456977844238281e+00) (113, 9.30995106697082519531e-01) (114, 2.21092867851257324219e+00) (115, 4.57296323776245117188e+00) (116, -2.88824439048767089844e+00) (117, 6.69979667663574218750e+00) (118, 2.21399760246276855469e+00) (119, 5.02688837051391601562e+00) (120, 5.00929772853851318359e-01) (121, 2.39435553550720214844e-01) (122, -4.43522214889526367188e-01) (123, -7.00497686862945556641e-01) (124, 8.22521820664405822754e-02) (125, -4.84012693166732788086e-01) (126, -1.35353064537048339844e+00) (127, 7.12054148316383361816e-02) (128, 2.57046669721603393555e-01) (129, -3.80701065063476562500e-01) (130, -1.21269054710865020752e-01) (131, 4.47926133871078491211e-01) (132, -1.89115747809410095215e-01) (133, 1.15782499313354492188e+00) (134, 5.40671634674072265625e+00) (135, -3.02403974533081054688e+00) (136, 2.83699870109558105469e+00) (137, -5.90802788734436035156e-01) (138, 2.48148012161254882812e+00) (139, 1.17234565317630767822e-01) (140, -8.37088655680418014526e-03) (141, 1.50000000000000000000e+03) (142, 1.50000000000000000000e+03) (143, 1.50000000000000000000e+03) (144, 1.50000000000000000000e+03) (145, 1.50000000000000000000e+03) (146, 1.50000000000000000000e+03) (147, 1.50000000000000000000e+03) (148, 1.50000000000000000000e+03) (149, 1.50000000000000000000e+03) (150, 1.50000000000000000000e+03) (151, 1.50000000000000000000e+03) (152, 1.50000000000000000000e+03) (153, 1.50000000000000000000e+03) (154, 8.90501976013183593750e-01) (155, 5.73411881923675537109e-01) (156, 6.97350442409515380859e-01) (157, 5.74046254158020019531e-01) (158, 2.66321748495101928711e-01) (159, 1.59562933444976806641e+00) (160, 5.15546917915344238281e-01) (161, 4.26288042217493057251e-03) (162, 7.06859469413757324219e-01) (163, 1.47443622350692749023e-01) (164, 9.05064761638641357422e-01) (165, -5.62437884509563446045e-02) (166, 2.21030414104461669922e-01) (167, 8.55801045894622802734e-01) (168, 3.96447964012622833252e-02) (169, 2.50826507806777954102e-01) (170, 1.11054226756095886230e-01) (171, 1.73837289214134216309e-01) (172, 3.36803174018859863281e+00) (173, 4.04311150312423706055e-01) (174, 1.82247966527938842773e-01) (175, 9.05332326889038085938e-01) (176, 4.51220303773880004883e-01) (177, 7.70559191703796386719e-01) (178, 5.50120398402214050293e-02) (179, 1.27793580293655395508e-01) (180, -3.35391688346862792969e+00) (181, 4.17483043670654296875e+00) (182, 1.22859811782836914062e+00) (183, -9.45950925350189208984e-01) (184, 1.00035209655761718750e+01) (185, 2.02869153022766113281e+00) (186, -5.97749233245849609375e-01) (187, -1.74024832248687744141e+00) (188, 3.59421348571777343750e+00) (189, 2.79722690582275390625e-01) (190, 6.34945869445800781250e+00) (191, 1.20191586017608642578e+00) (192, 9.85777378082275390625e-01) (193, 5.27198672294616699219e-01) (0, -1.50000000000000000000e+03) (1, 7.57269144058227539062e-01) (2, 1.50000000000000000000e+03) (3, 1.50000000000000000000e+03) (4, 1.47511682128906250000e+03) (5, -1.13799023437500000000e+03) (6, 1.50000000000000000000e+03) (7, -5.99601684570312500000e+02) (8, 1.50000000000000000000e+03) (9, -1.50000000000000000000e+03) (10, 1.50000000000000000000e+03) (11, 7.40207946777343750000e+02) (12, -1.37939178466796875000e+02) (13, -1.50000000000000000000e+03) (14, -7.21278190612792968750e+00) (15, 1.50000000000000000000e+03) (16, 1.48112097167968750000e+03) (17, 9.90628051757812500000e+02) (18, -1.44500000000000000000e+03) (19, -1.40742736816406250000e+03) (20, 7.12146377563476562500e+01) (21, 8.51258911132812500000e+02) (22, -1.50000000000000000000e+03) (23, -1.50000000000000000000e+03) (24, -1.50000000000000000000e+03) (25, 9.78135925292968750000e+02) (26, -1.50000000000000000000e+03) (27, 1.47554479980468750000e+03) (28, 1.50000000000000000000e+03) (29, 1.50000000000000000000e+03) (30, 1.47600000000000000000e+03) (31, 1.29080004882812500000e+03) (32, -5.82334533691406250000e+02) (33, -2.63186759948730468750e+01) (34, -6.27314453125000000000e+02) (35, -1.50000000000000000000e+03) (36, -1.50000000000000000000e+03) (37, -1.50000000000000000000e+03) (38, 1.50000000000000000000e+03) (39, -1.50000000000000000000e+03) (40, 1.50000000000000000000e+03) (41, 1.50000000000000000000e+03) (42, 1.02003374099731445312e+01) (43, 8.18057174682617187500e+01) (44, -1.50000000000000000000e+03) (45, 2.36924886703491210938e+00) (46, -6.58564376831054687500e+01) (47, 1.50000000000000000000e+03) (48, 1.50000000000000000000e+03) (49, 1.50000000000000000000e+03) (50, 1.50000000000000000000e+03) (51, 1.50000000000000000000e+03) (52, 1.50000000000000000000e+03) (53, 1.50000000000000000000e+03) (54, 1.50000000000000000000e+03) (55, 1.50000000000000000000e+03) (56, 1.50000000000000000000e+03) (57, 1.50000000000000000000e+03) (58, 1.50000000000000000000e+03) (59, 1.50000000000000000000e+03) (60, 3.65792350769042968750e+01) (61, 1.34843978881835937500e+02) (62, 1.36602258682250976562e+01) (63, 1.94616714477539062500e+02) (64, 1.87209716796875000000e+02) (65, 8.16070480346679687500e+01) (66, 8.11867370605468750000e+01) (67, 8.17164001464843750000e+01) (68, 2.75977802276611328125e+01) (69, 1.38182098388671875000e+02) (70, 2.68735294342041015625e+01) (71, 1.88989120483398437500e+02) (72, 7.57230300903320312500e+01) (73, 3.65508384704589843750e+01) (74, 1.29514114379882812500e+02) (75, 2.88663101196289062500e+01) (76, 8.25613098144531250000e+01) (77, 1.89512374877929687500e+02) (78, 3.50066986083984375000e+01) (79, 6.87168197631835937500e+01) (80, 7.77808456420898437500e+01) (81, 6.28356513977050781250e+01) (82, 5.66874885559082031250e+01) (83, 2.89050407409667968750e+01) (84, 1.89018371582031250000e+02) (85, 6.28140029907226562500e+01) (86, 1.44120007324218750000e+03) (87, 1.50000000000000000000e+03) (88, 1.50000000000000000000e+03) (89, 1.50000000000000000000e+03) (90, 8.58105590820312500000e+02) (91, 1.50000000000000000000e+03) (92, 1.50000000000000000000e+03) (93, -1.21580004882812500000e+03) (94, 1.50000000000000000000e+03) (95, 1.50000000000000000000e+03) (96, 1.50000000000000000000e+03) (97, 1.50000000000000000000e+03) (98, 1.50000000000000000000e+03) (99, 1.50000000000000000000e+03) (100, 1.50000000000000000000e+03) (101, 1.50000000000000000000e+03) (102, 1.50000000000000000000e+03) (103, 1.50000000000000000000e+03) (104, 1.50000000000000000000e+03) (105, 1.50000000000000000000e+03) (106, 1.50000000000000000000e+03) (107, -1.50000000000000000000e+03) (108, -1.50000000000000000000e+03) (109, 1.32943212890625000000e+03) (110, -6.01261352539062500000e+02) (111, 1.48284216308593750000e+03) (112, 1.50000000000000000000e+03) (113, -1.39692382812500000000e+02) (114, 5.05345886230468750000e+02) (115, 1.50000000000000000000e+03) (116, -1.05917602539062500000e+03) (117, -1.50000000000000000000e+03) (118, -1.50000000000000000000e+03) (119, 1.41281689453125000000e+03) (120, 1.76785888671875000000e+02) (121, 1.50000000000000000000e+03) (122, 1.50000000000000000000e+03) (123, 7.61871337890625000000e+02) (124, 5.62697267532348632812e+00) (125, 5.45254096984863281250e+01) (126, 1.47386764526367187500e+02) (127, 5.86663574218750000000e+02) (128, 1.01687942504882812500e+02) (129, 1.50000000000000000000e+03) (130, 6.65407028198242187500e+01) (131, -2.38386669158935546875e+01) (132, 4.62356567382812500000e+01) (133, 1.50000000000000000000e+03) (134, -1.49776831054687500000e+03) (135, 1.33175683593750000000e+03) (136, 1.50000000000000000000e+03) (137, -1.42973632812500000000e+03) (138, 1.47383105468750000000e+03) (139, 2.88831710815429687500e+01) (140, 3.15883159637451171875e-01) (141, 1.50000000000000000000e+03) (142, 1.50000000000000000000e+03) (143, 1.50000000000000000000e+03) (144, 1.50000000000000000000e+03) (145, 1.50000000000000000000e+03) (146, 1.50000000000000000000e+03) (147, 1.50000000000000000000e+03) (148, 1.50000000000000000000e+03) (149, 1.50000000000000000000e+03) (150, 1.50000000000000000000e+03) (151, 1.50000000000000000000e+03) (152, 1.50000000000000000000e+03) (153, 1.50000000000000000000e+03) (154, -3.84890686035156250000e+02) (155, -1.43390148925781250000e+03) (156, -9.80199951171875000000e+02) 