FANN_FLO_2.1
num_layers=4
learning_rate=0.000500
connection_rate=1.000000
network_type=0
learning_momentum=0.000000
training_algorithm=2
train_error_function=1
train_stop_function=0
cascade_output_change_fraction=0.010000
quickprop_decay=-0.000100
quickprop_mu=1.750000
rprop_increase_factor=1.200000
rprop_decrease_factor=0.500000
rprop_delta_min=0.000000
rprop_delta_max=50.000000
rprop_delta_zero=0.100000
cascade_output_stagnation_epochs=12
cascade_candidate_change_fraction=0.010000
cascade_candidate_stagnation_epochs=12
cascade_max_out_epochs=150
cascade_min_out_epochs=50
cascade_max_cand_epochs=150
cascade_min_cand_epochs=50
cascade_num_candidate_groups=2
bit_fail_limit=3.49999994039535522461e-01
cascade_candidate_limit=1.00000000000000000000e+03
cascade_weight_multiplier=4.00000005960464477539e-01
cascade_activation_functions_count=10
cascade_activation_functions=3 5 7 8 10 11 14 15 16 17 
cascade_activation_steepnesses_count=4
cascade_activation_steepnesses=2.50000000000000000000e-01 5.00000000000000000000e-01 7.50000000000000000000e-01 1.00000000000000000000e+00 
layer_sizes=194 33 9 5 
scale_included=0
neurons (num_inputs, activation_function, activation_steepness)=(0, 0, 0.00000000000000000000e+00) (0, 0, 0.00000000000000000000e+00) (0, 0, 0.00000000000000000000e+00) (0, 0, 0.00000000000000000000e+00) (0, 0, 0.00000000000000000000e+00) (0, 0, 0.00000000000000000000e+00) (0, 0, 0.00000000000000000000e+00) (0, 0, 0.00000000000000000000e+00) (0, 0, 0.00000000000000000000e+00) (0, 0, 0.00000000000000000000e+00) (0, 0, 0.00000000000000000000e+00) (0, 0, 0.00000000000000000000e+00) (0, 0, 0.00000000000000000000e+00) (0, 0, 0.00000000000000000000e+00) (0, 0, 0.00000000000000000000e+00) (0, 0, 0.00000000000000000000e+00) (0, 0, 0.00000000000000000000e+00) (0, 0, 0.00000000000000000000e+00) (0, 0, 0.00000000000000000000e+00) (0, 0, 0.00000000000000000000e+00) (0, 0, 0.00000000000000000000e+00) (0, 0, 0.00000000000000000000e+00) (0, 0, 0.00000000000000000000e+00) (0, 0, 0.00000000000000000000e+00) (0, 0, 0.00000000000000000000e+00) (0, 0, 0.00000000000000000000e+00) (0, 0, 0.00000000000000000000e+00) (0, 0, 0.00000000000000000000e+00) (0, 0, 0.00000000000000000000e+00) (0, 0, 0.00000000000000000000e+00) (0, 0, 0.00000000000000000000e+00) (0, 0, 0.00000000000000000000e+00) (0, 0, 0.00000000000000000000e+00) (0, 0, 0.00000000000000000000e+00) (0, 0, 0.00000000000000000000e+00) (0, 0, 0.00000000000000000000e+00) (0, 0, 0.00000000000000000000e+00) (0, 0, 0.00000000000000000000e+00) (0, 0, 0.00000000000000000000e+00) (0, 0, 0.00000000000000000000e+00) (0, 0, 0.00000000000000000000e+00) (0, 0, 0.00000000000000000000e+00) (0, 0, 0.00000000000000000000e+00) (0, 0, 0.00000000000000000000e+00) (0, 0, 0.00000000000000000000e+00) (0, 0, 0.00000000000000000000e+00) (0, 0, 0.00000000000000000000e+00) (0, 0, 0.00000000000000000000e+00) (0, 0, 0.00000000000000000000e+00) (0, 0, 0.00000000000000000000e+00) (0, 0, 0.00000000000000000000e+00) (0, 0, 0.00000000000000000000e+00) (0, 0, 0.00000000000000000000e+00) (0, 0, 0.00000000000000000000e+00) (0, 0, 0.00000000000000000000e+00) (0, 0, 0.00000000000000000000e+00) (0, 0, 0.00000000000000000000e+00) (0, 0, 0.00000000000000000000e+00) (0, 0, 0.00000000000000000000e+00) (0, 0, 0.00000000000000000000e+00) (0, 0, 0.00000000000000000000e+00) (0, 0, 0.00000000000000000000e+00) (0, 0, 0.00000000000000000000e+00) (0, 0, 0.00000000000000000000e+00) (0, 0, 0.00000000000000000000e+00) (0, 0, 0.00000000000000000000e+00) (0, 0, 0.00000000000000000000e+00) (0, 0, 0.00000000000000000000e+00) (0, 0, 0.00000000000000000000e+00) (0, 0, 0.00000000000000000000e+00) (0, 0, 0.00000000000000000000e+00) (0, 0, 0.00000000000000000000e+00) (0, 0, 0.00000000000000000000e+00) (0, 0, 0.00000000000000000000e+00) (0, 0, 0.00000000000000000000e+00) (0, 0, 0.00000000000000000000e+00) (0, 0, 0.00000000000000000000e+00) (0, 0, 0.00000000000000000000e+00) (0, 0, 0.00000000000000000000e+00) (0, 0, 0.00000000000000000000e+00) (0, 0, 0.00000000000000000000e+00) (0, 0, 0.00000000000000000000e+00) (0, 0, 0.00000000000000000000e+00) (0, 0, 0.00000000000000000000e+00) (0, 0, 0.00000000000000000000e+00) (0, 0, 0.00000000000000000000e+00) (0, 0, 0.00000000000000000000e+00) (0, 0, 0.00000000000000000000e+00) (0, 0, 0.00000000000000000000e+00) (0, 0, 0.00000000000000000000e+00) (0, 0, 0.00000000000000000000e+00) (0, 0, 0.00000000000000000000e+00) (0, 0, 0.00000000000000000000e+00) (0, 0, 0.00000000000000000000e+00) (0, 0, 0.00000000000000000000e+00) (0, 0, 0.00000000000000000000e+00) (0, 0, 0.00000000000000000000e+00) (0, 0, 0.00000000000000000000e+00) (0, 0, 0.00000000000000000000e+00) (0, 0, 0.00000000000000000000e+00) (0, 0, 0.00000000000000000000e+00) (0, 0, 0.00000000000000000000e+00) (0, 0, 0.00000000000000000000e+00) (0, 0, 0.00000000000000000000e+00) (0, 0, 0.00000000000000000000e+00) (0, 0, 0.00000000000000000000e+00) (0, 0, 0.00000000000000000000e+00) (0, 0, 0.00000000000000000000e+00) (0, 0, 0.00000000000000000000e+00) (0, 0, 0.00000000000000000000e+00) (0, 0, 0.00000000000000000000e+00) (0, 0, 0.00000000000000000000e+00) (0, 0, 0.00000000000000000000e+00) (0, 0, 0.00000000000000000000e+00) (0, 0, 0.00000000000000000000e+00) (0, 0, 0.00000000000000000000e+00) (0, 0, 0.00000000000000000000e+00) (0, 0, 0.00000000000000000000e+00) (0, 0, 0.00000000000000000000e+00) (0, 0, 0.00000000000000000000e+00) (0, 0, 0.00000000000000000000e+00) (0, 0, 0.00000000000000000000e+00) (0, 0, 0.00000000000000000000e+00) (0, 0, 0.00000000000000000000e+00) (0, 0, 0.00000000000000000000e+00) (0, 0, 0.00000000000000000000e+00) (0, 0, 0.00000000000000000000e+00) (0, 0, 0.00000000000000000000e+00) (0, 0, 0.00000000000000000000e+00) (0, 0, 0.00000000000000000000e+00) (0, 0, 0.00000000000000000000e+00) (0, 0, 0.00000000000000000000e+00) (0, 0, 0.00000000000000000000e+00) (0, 0, 0.00000000000000000000e+00) (0, 0, 0.00000000000000000000e+00) (0, 0, 0.00000000000000000000e+00) (0, 0, 0.00000000000000000000e+00) (0, 0, 0.00000000000000000000e+00) (0, 0, 0.00000000000000000000e+00) (0, 0, 0.00000000000000000000e+00) (0, 0, 0.00000000000000000000e+00) (0, 0, 0.00000000000000000000e+00) (0, 0, 0.00000000000000000000e+00) (0, 0, 0.00000000000000000000e+00) (0, 0, 0.00000000000000000000e+00) (0, 0, 0.00000000000000000000e+00) (0, 0, 0.00000000000000000000e+00) (0, 0, 0.00000000000000000000e+00) (0, 0, 0.00000000000000000000e+00) (0, 0, 0.00000000000000000000e+00) (0, 0, 0.00000000000000000000e+00) (0, 0, 0.00000000000000000000e+00) (0, 0, 0.00000000000000000000e+00) (0, 0, 0.00000000000000000000e+00) (0, 0, 0.00000000000000000000e+00) (0, 0, 0.00000000000000000000e+00) (0, 0, 0.00000000000000000000e+00) (0, 0, 0.00000000000000000000e+00) (0, 0, 0.00000000000000000000e+00) (0, 0, 0.00000000000000000000e+00) (0, 0, 0.00000000000000000000e+00) (0, 0, 0.00000000000000000000e+00) (0, 0, 0.00000000000000000000e+00) (0, 0, 0.00000000000000000000e+00) (0, 0, 0.00000000000000000000e+00) (0, 0, 0.00000000000000000000e+00) (0, 0, 0.00000000000000000000e+00) (0, 0, 0.00000000000000000000e+00) (0, 0, 0.00000000000000000000e+00) (0, 0, 0.00000000000000000000e+00) (0, 0, 0.00000000000000000000e+00) (0, 0, 0.00000000000000000000e+00) (0, 0, 0.00000000000000000000e+00) (0, 0, 0.00000000000000000000e+00) (0, 0, 0.00000000000000000000e+00) (0, 0, 0.00000000000000000000e+00) (0, 0, 0.00000000000000000000e+00) (0, 0, 0.00000000000000000000e+00) (0, 0, 0.00000000000000000000e+00) (0, 0, 0.00000000000000000000e+00) (0, 0, 0.00000000000000000000e+00) (0, 0, 0.00000000000000000000e+00) (0, 0, 0.00000000000000000000e+00) (0, 0, 0.00000000000000000000e+00) (0, 0, 0.00000000000000000000e+00) (0, 0, 0.00000000000000000000e+00) (0, 0, 0.00000000000000000000e+00) (0, 0, 0.00000000000000000000e+00) (0, 0, 0.00000000000000000000e+00) (0, 0, 0.00000000000000000000e+00) (0, 0, 0.00000000000000000000e+00) (0, 0, 0.00000000000000000000e+00) (0, 0, 0.00000000000000000000e+00) (0, 0, 0.00000000000000000000e+00) (194, 3, 5.00000000000000000000e-01) (194, 3, 5.00000000000000000000e-01) (194, 3, 5.00000000000000000000e-01) (194, 3, 5.00000000000000000000e-01) (194, 3, 5.00000000000000000000e-01) (194, 3, 5.00000000000000000000e-01) (194, 3, 5.00000000000000000000e-01) (194, 3, 5.00000000000000000000e-01) (194, 3, 5.00000000000000000000e-01) (194, 3, 5.00000000000000000000e-01) (194, 3, 5.00000000000000000000e-01) (194, 3, 5.00000000000000000000e-01) (194, 3, 5.00000000000000000000e-01) (194, 3, 5.00000000000000000000e-01) (194, 3, 5.00000000000000000000e-01) (194, 3, 5.00000000000000000000e-01) (194, 3, 5.00000000000000000000e-01) (194, 3, 5.00000000000000000000e-01) (194, 3, 5.00000000000000000000e-01) (194, 3, 5.00000000000000000000e-01) (194, 3, 5.00000000000000000000e-01) (194, 3, 5.00000000000000000000e-01) (194, 3, 5.00000000000000000000e-01) (194, 3, 5.00000000000000000000e-01) (194, 3, 5.00000000000000000000e-01) (194, 3, 5.00000000000000000000e-01) (194, 3, 5.00000000000000000000e-01) (194, 3, 5.00000000000000000000e-01) (194, 3, 5.00000000000000000000e-01) (194, 3, 5.00000000000000000000e-01) (194, 3, 5.00000000000000000000e-01) (194, 3, 5.00000000000000000000e-01) (0, 3, 0.00000000000000000000e+00) (33, 3, 5.00000000000000000000e-01) (33, 3, 5.00000000000000000000e-01) (33, 3, 5.00000000000000000000e-01) (33, 3, 5.00000000000000000000e-01) (33, 3, 5.00000000000000000000e-01) (33, 3, 5.00000000000000000000e-01) (33, 3, 5.00000000000000000000e-01) (33, 3, 5.00000000000000000000e-01) (0, 3, 0.00000000000000000000e+00) (9, 3, 5.00000000000000000000e-01) (9, 3, 5.00000000000000000000e-01) (9, 3, 5.00000000000000000000e-01) (9, 3, 5.00000000000000000000e-01) (0, 3, 0.00000000000000000000e+00) 
connections (connected_to_neuron, weight)=(0, 3.60727339982986450195e-01) (1, -9.20935869216918945312e-01) (2, -1.69455960392951965332e-01) (3, 1.75824224948883056641e+00) (4, 6.78559732437133789062e+00) (5, 2.69478291273117065430e-01) (6, -5.64911603927612304688e+00) (7, 4.76232624053955078125e+00) (8, 1.97837471961975097656e+00) (9, 3.51640343666076660156e+00) (10, 2.51942563056945800781e+00) (11, 7.05306351184844970703e-01) (12, 7.83763885498046875000e-01) (13, 2.47996583580970764160e-01) (14, 1.26203680038452148438e+00) (15, 1.27868962287902832031e+00) (16, -5.09332036972045898438e+00) (17, -9.17382597923278808594e-01) (18, -3.51499319076538085938e-01) (19, -1.11285173892974853516e+00) (20, 1.19001340866088867188e+01) (21, -4.90061610937118530273e-01) (22, 8.18346500396728515625e-01) (23, 2.94738340377807617188e+00) (24, 5.55207538604736328125e+00) (25, 8.93568754196166992188e-01) (26, 5.67267179489135742188e-01) (27, -7.74523243308067321777e-02) (28, -2.44984102249145507812e+00) (29, -2.28399372100830078125e+01) (30, 1.77205145359039306641e+00) (31, 1.33395159244537353516e+00) (32, 2.98614811897277832031e+00) (33, 5.92943334579467773438e+00) (34, -1.95110130310058593750e+00) (35, 1.44104146957397460938e+00) (36, -4.04532521963119506836e-01) (37, 1.41097414493560791016e+00) (38, 7.17736911773681640625e+00) (39, 3.34149658679962158203e-01) (40, 8.71465396881103515625e+00) (41, -6.05432748794555664062e-01) (42, 3.37291646003723144531e+00) (43, 6.22528791427612304688e-01) (44, 1.71002721786499023438e+00) (45, 1.64459228515625000000e+00) (46, -2.23862960934638977051e-01) (47, 1.50000000000000000000e+03) (48, 1.50000000000000000000e+03) (49, 1.50000000000000000000e+03) (50, 1.50000000000000000000e+03) (51, 1.50000000000000000000e+03) (52, 1.50000000000000000000e+03) (53, 1.50000000000000000000e+03) (54, 1.50000000000000000000e+03) (55, 1.50000000000000000000e+03) (56, 1.50000000000000000000e+03) (57, 1.50000000000000000000e+03) (58, 1.50000000000000000000e+03) (59, 1.50000000000000000000e+03) (60, 1.24168884754180908203e+00) (61, 7.53188431262969970703e-01) (62, 9.89827334880828857422e-01) (63, 1.13135957717895507812e+00) (64, 8.89376819133758544922e-01) (65, 6.08067870140075683594e-01) (66, 6.71079397201538085938e-01) (67, 6.39577329158782958984e-01) (68, 1.12343358993530273438e+00) (69, 7.67521202564239501953e-01) (70, 7.07967460155487060547e-01) (71, 1.16212213039398193359e+00) (72, 8.05315136909484863281e-01) (73, 1.24800419807434082031e+00) (74, 6.63488149642944335938e-01) (75, 1.00989890098571777344e+00) (76, 1.13724875450134277344e+00) (77, 9.76802766323089599609e-01) (78, 6.37688398361206054688e-01) (79, 7.10888862609863281250e-01) (80, 8.47910702228546142578e-01) (81, 1.09577059745788574219e+00) (82, 7.79282450675964355469e-01) (83, 8.00234794616699218750e-01) (84, 7.34972476959228515625e-01) (85, 7.37228929996490478516e-01) (86, 1.53567051887512207031e+00) (87, 3.69923019409179687500e+00) (88, -1.26715695858001708984e+00) (89, 8.86319160461425781250e-01) (90, 2.10451737046241760254e-01) (91, -1.57710921764373779297e+00) (92, 9.64672803878784179688e-01) (93, -2.12804770469665527344e+00) (94, 1.50000000000000000000e+03) (95, 1.50000000000000000000e+03) (96, 1.50000000000000000000e+03) (97, 1.50000000000000000000e+03) (98, 1.50000000000000000000e+03) (99, 1.50000000000000000000e+03) (100, 1.50000000000000000000e+03) (101, 1.50000000000000000000e+03) (102, 1.50000000000000000000e+03) (103, 1.50000000000000000000e+03) (104, 1.50000000000000000000e+03) (105, 1.50000000000000000000e+03) (106, 1.50000000000000000000e+03) (107, -2.09811639785766601562e+00) (108, 5.12691020965576171875e+00) (109, 3.28579545021057128906e+00) (110, 4.89721715450286865234e-01) (111, 5.79947519302368164062e+00) (112, -1.75357425212860107422e+00) (113, -7.08454132080078125000e+00) (114, 1.04112178087234497070e-02) (115, 2.88066029548645019531e-01) (116, -2.09456562995910644531e+00) (117, 2.00781837105751037598e-01) (118, 5.77837419509887695312e+00) (119, 5.54921209812164306641e-01) (120, -1.33210659027099609375e+00) (121, 4.72655713558197021484e-01) (122, 1.76594722270965576172e+00) (123, 1.01618075370788574219e+00) (124, 1.40949916839599609375e+00) (125, 4.59872388839721679688e+00) (126, 5.06561040878295898438e-01) (127, 8.83020222187042236328e-01) (128, 4.35805678367614746094e-01) (129, -4.83436465263366699219e-01) (130, 3.96825015544891357422e-01) (131, 3.24654150009155273438e+00) (132, 5.77676713466644287109e-01) (133, -3.21074056625366210938e+00) (134, 6.81231677532196044922e-01) (135, 1.00359845161437988281e+00) (136, -9.36963140964508056641e-01) (137, 1.05563993453979492188e+01) (138, -4.87374639511108398438e+00) (139, -1.35057735443115234375e+00) (140, -1.04061985015869140625e+00) (141, 1.50000000000000000000e+03) (142, 1.50000000000000000000e+03) (143, 1.50000000000000000000e+03) (144, 1.50000000000000000000e+03) (145, 1.50000000000000000000e+03) (146, 1.50000000000000000000e+03) (147, 1.50000000000000000000e+03) (148, 1.50000000000000000000e+03) (149, 1.50000000000000000000e+03) (150, 1.50000000000000000000e+03) (151, 1.50000000000000000000e+03) (152, 1.50000000000000000000e+03) (153, 1.50000000000000000000e+03) (154, 3.49441504478454589844e+00) (155, 1.66832014918327331543e-01) (156, 1.53200864791870117188e-01) (157, -2.23467633128166198730e-01) (158, 2.59005725383758544922e-01) (159, 9.03552353382110595703e-01) (160, -3.38380932807922363281e-01) (161, -2.25284263491630554199e-01) (162, 3.99867206811904907227e-01) (163, 1.48362302780151367188e+00) (164, 1.19069233536720275879e-01) (165, -1.46960038691759109497e-02) (166, -2.91623592376708984375e-01) (167, 4.69288063049316406250e+00) (168, 1.26151051372289657593e-02) (169, 5.59118688106536865234e-02) (170, 2.35725656151771545410e-01) (171, 3.90872925519943237305e-01) (172, 6.84119343757629394531e-01) (173, -2.45757460594177246094e-01) (174, -2.31937438249588012695e-01) (175, 2.73965239524841308594e-01) (176, 1.08287572860717773438e+00) (177, 1.44670560956001281738e-01) (178, -8.18585529923439025879e-02) (179, -3.40982884168624877930e-01) (180, -1.28470873832702636719e+00) (181, -5.13528871536254882812e+00) (182, 2.74823260307312011719e+00) (183, -6.93576908111572265625e+00) (184, -6.06805944442749023438e+00) (185, 3.34172773361206054688e+00) (186, 1.47700047492980957031e+00) (187, 4.87034231424331665039e-01) (188, -3.67119371891021728516e-01) (189, 9.73127424716949462891e-01) (190, -1.44791632890701293945e-01) (191, -3.49539160728454589844e+00) (192, 9.92355346679687500000e-01) (193, 4.94428992271423339844e-01) (0, -1.08319750976562500000e+03) (1, 1.50000000000000000000e+03) (2, -5.31600036621093750000e+02) (3, -1.50000000000000000000e+03) (4, 3.49128631591796875000e+02) (5, 1.39031872558593750000e+03) (6, -3.42225585937500000000e+02) (7, 1.50000000000000000000e+03) (8, 1.12509667968750000000e+03) (9, -1.50000000000000000000e+03) (10, 8.29124938964843750000e+02) (11, 2.90800048828125000000e+02) (12, 1.13406274414062500000e+03) (13, 8.83570190429687500000e+02) (14, -9.08722900390625000000e+02) (15, 6.99131835937500000000e+02) (16, 1.42485205078125000000e+03) (17, 1.50000000000000000000e+03) (18, 3.94674621582031250000e+02) (19, -4.19254943847656250000e+02) (20, -5.95958496093750000000e+02) (21, 1.50000000000000000000e+03) (22, -6.16022216796875000000e+02) (23, -2.19615844726562500000e+02) (24, 6.96430358886718750000e+02) (25, 1.50000000000000000000e+03) (26, -1.75804779052734375000e+02) (27, 1.42413879394531250000e+02) (28, 1.25447583007812500000e+03) (29, 7.60153808593750000000e+01) (30, 6.90436828613281250000e+02) (31, 2.82477111816406250000e+02) (32, 5.38346130371093750000e+02) (33, 4.47260375976562500000e+02) (34, 5.26459716796875000000e+02) (35, 1.50000000000000000000e+03) (36, 4.56313232421875000000e+02) (37, 1.84199951171875000000e+02) (38, 1.33660945892333984375e+01) (39, -3.03350524902343750000e+02) (40, 1.50000000000000000000e+03) (41, 1.29122912597656250000e+03) (42, -3.48738212585449218750e+01) (43, -2.34291133880615234375e+01) (44, -1.35820126533508300781e+00) (45, -1.32104431152343750000e+02) (46, 1.50000000000000000000e+03) (47, 1.50000000000000000000e+03) (48, 1.50000000000000000000e+03) (49, 1.50000000000000000000e+03) (50, 1.50000000000000000000e+03) (51, 1.50000000000000000000e+03) (52, 1.50000000000000000000e+03) (53, 1.50000000000000000000e+03) (54, 1.50000000000000000000e+03) (55, 1.50000000000000000000e+03) (56, 1.50000000000000000000e+03) (57, 1.50000000000000000000e+03) (58, 1.50000000000000000000e+03) (59, 1.50000000000000000000e+03) (60, -6.12775802612304687500e+01) (61, -1.10704933166503906250e+02) (62, -6.14349517822265625000e+01) (63, -3.53058586120605468750e+01) (64, -2.41378746032714843750e+01) (65, -6.95839309692382812500e+01) (66, -1.89176742553710937500e+02) (67, -7.37872695922851562500e+01) (68, -1.49038269042968750000e+02) (69, -3.20347976684570312500e+01) (70, -2.68788280487060546875e+01) (71, -2.21787261962890625000e+02) (72, -5.24812278747558593750e+01) (73, -4.85557327270507812500e+01) (74, -1.10711616516113281250e+02) (75, -6.15008735656738281250e+01) (76, -4.41719322204589843750e+01) (77, -2.41649055480957031250e+01) (78, -6.96313095092773437500e+01) (79, -1.89097702026367187500e+02) (80, -7.37772140502929687500e+01) (81, -6.36351318359375000000e+01) (82, -2.58558845520019531250e+01) (83, -2.63447322845458984375e+01) (84, -2.07651550292968750000e+02) (85, -6.54599609375000000000e+01) (86, 1.25310375976562500000e+03) (87, 1.50000000000000000000e+03) (88, 1.50000000000000000000e+03) (89, 1.07214465332031250000e+03) (90, 1.04231616210937500000e+03) (91, 6.69144409179687500000e+02) (92, 1.50000000000000000000e+03) (93, 1.50000000000000000000e+03) (94, 1.50000000000000000000e+03) (95, 1.50000000000000000000e+03) (96, 1.50000000000000000000e+03) (97, 1.50000000000000000000e+03) (98, 1.50000000000000000000e+03) (99, 1.50000000000000000000e+03) (100, 1.50000000000000000000e+03) (101, 1.50000000000000000000e+03) (102, 1.50000000000000000000e+03) (103, 1.50000000000000000000e+03) (104, 1.50000000000000000000e+03) (105, 1.50000000000000000000e+03) (106, 1.50000000000000000000e+03) (107, -1.40603601074218750000e+03) (108, -9.95455505371093750000e+02) (109, 1.45843066406250000000e+03) (110, 4.75480010986328125000e+02) (111, 1.07604956054687500000e+03) (112, 1.50000000000000000000e+03) (113, 1.50000000000000000000e+03) (114, 1.99748352050781250000e+02) (115, 1.50000000000000000000e+03) (116, -1.04886230468750000000e+02) (117, 1.42474395751953125000e+02) (118, -3.56103515625000000000e+02) (119, 1.50000000000000000000e+03) (120, -2.70614624023437500000e+01) (121, 3.59917426109313964844e+00) (122, 3.61900749206542968750e+01) (123, 1.50608167648315429688e+01) (124, -1.44866955566406250000e+03) (125, 9.21651489257812500000e+02) (126, 1.85379981994628906250e+00) (127, -7.76004577636718750000e+02) (128, 1.01247375488281250000e+02) (129, 4.02859725952148437500e+01) (130, -1.26027404785156250000e+03) (131, 6.69822814941406250000e+02) (132, -1.33505957031250000000e+03) (133, -1.06704162597656250000e+03) (134, 7.77938659667968750000e+02) (135, -2.41115814208984375000e+02) (136, 1.50000000000000000000e+03) (137, 1.34531713867187500000e+03) (138, 1.50000000000000000000e+03) (139, 1.37534436035156250000e+03) (140, 2.60518981933593750000e+02) (141, 1.50000000000000000000e+03) (142, 1.50000000000000000000e+03) (143, 1.50000000000000000000e+03) (144, 1.50000000000000000000e+03) (145, 1.50000000000000000000e+03) (146, 1.50000000000000000000e+03) (147, 1.50000000000000000000e+03) (148, 1.50000000000000000000e+03) (149, 1.50000000000000000000e+03) (150, 1.50000000000000000000e+03) (151, 1.50000000000000000000e+03) (152, 1.50000000000000000000e+03) (153, 1.50000000000000000000e+03) (154, 6.64967712402343750000e+02) (155, -4.93395843505859375000e+02) (156, 3.00059356689453125000e+02) (157, -8.83680572509765625000e+01) (158, 1.48913037109375000000e+03) (159, 4.94726989746093750000e+02) (160, -2.02453582763671875000e+02) (161, 1.49229150390625000000e+03) (162, -1.59914398193359375000e+02) (163, -2.70813323974609375000e+02) (164, 1.37392761230468750000e+03) (165, -1.65769195556640625000e+01) (166, 1.49755419921875000000e+03) (167, 6.64967712402343750000e+02) (168, -4.82604217529296875000e+02) (169, 2.64196929931640625000e+02) (170, -2.04247570037841796875e+01) (171, 1.47933227539062500000e+03) (172, 1.27749902343750000000e+03) (173, -4.55493354797363281250e+00) (174, 1.33501818847656250000e+03) (175, -1.61417694091796875000e+02) (176, -5.14534545898437500000e+02) (177, 1.35613500976562500000e+03) (178, -4.27389764785766601562e+00) (179, 1.50000000000000000000e+03) (180, -1.28061401367187500000e+02) (181, -5.92570922851562500000e+02) (182, -1.78188827514648437500e+02) (183, 1.50000000000000000000e+03) (184, -1.50000000000000000000e+03) (185, 1.50000000000000000000e+03) (186, 1.50000000000000000000e+03) (187, -1.03212719726562500000e+03) (188, -1.14560009765625000000e+03) (189, 1.08691009521484375000e+02) (190, -3.81600036621093750000e+02) (191, -1.48442480468750000000e+03) (192, 1.50000000000000000000e+03) (193, 3.47660034894943237305e-01) (0, -1.01610481739044189453e+00) (1, 7.87027657032012939453e-01) (2, 3.98283243179321289062e-01) (3, -5.71179986000061035156e-02) (4, 2.35606265068054199219e+00) (5, 3.13942998647689819336e-01) (6, -8.47488939762115478516e-02) (7, 6.78261041641235351562e+00) (8, 1.07558765411376953125e+01) (9, -4.49837827682495117188e+00) (10, -1.00321412086486816406e+00) (11, -2.23409605026245117188e+00) (12, -3.79835867881774902344e+00) (13, -6.70114374160766601562e+00) (14, -1.24996066093444824219e+00) (15, 7.55299329757690429688e-01) (16, 2.96401888132095336914e-01) (17, 1.29782164096832275391e+00) (18, 1.18479084968566894531e+00) (19, 3.47908306121826171875e+00) (20, -1.81972229480743408203e+00) (21, 2.12633514404296875000e+00) (22, 9.32680666446685791016e-01) (23, 9.29995250701904296875e+00) (24, -2.45312666893005371094e+00) (25, -3.17519783973693847656e+00) (26, -1.29265618324279785156e+00) (27, -1.01000177860260009766e+00) (28, 3.58431994915008544922e-01) (29, 5.85229098796844482422e-01) (30, 4.58088874816894531250e-01) (31, -7.02797353267669677734e-01) (32, 2.69236421585083007812e+00) (33, -1.28868609666824340820e-01) (34, 3.63880604505538940430e-01) (35, -1.12643611431121826172e+00) (36, -9.60296213626861572266e-01) (37, 6.57762432098388671875e+00) (38, 2.12885546684265136719e+00) (39, 7.57572412490844726562e-01) (40, -5.59536337852478027344e-01) (41, -1.34372174739837646484e+00) (42, -3.23732942342758178711e-02) (43, -2.53799349069595336914e-01) (44, -1.57564699649810791016e-01) (45, -8.01119422912597656250e+00) (46, -1.21519482135772705078e+00) (47, 1.50000000000000000000e+03) (48, 1.50000000000000000000e+03) (49, 1.50000000000000000000e+03) (50, 1.50000000000000000000e+03) (51, 1.50000000000000000000e+03) (52, 1.50000000000000000000e+03) (53, 1.50000000000000000000e+03) (54, 1.50000000000000000000e+03) (55, 1.50000000000000000000e+03) (56, 1.50000000000000000000e+03) (57, 1.50000000000000000000e+03) (58, 1.50000000000000000000e+03) (59, 1.50000000000000000000e+03) (60, -2.65096575021743774414e-01) (61, -1.77668541669845581055e-01) (62, -8.26082378625869750977e-02) (63, -1.61942645907402038574e-01) (64, -1.46097436547279357910e-01) (65, -2.48778030276298522949e-01) (66, -2.18458026647567749023e-01) (67, -5.34746348857879638672e-02) (68, -3.31185400485992431641e-01) (69, -1.75411358475685119629e-01) (70, -8.60514640808105468750e-02) (71, -6.55813813209533691406e-02) (72, -3.07270251214504241943e-02) (73, -2.59852826595306396484e-01) (74, -1.96106716990470886230e-01) (75, -1.58393859863281250000e-01) (76, -1.96955084800720214844e-01) (77, -1.48339107632637023926e-01) (78, -1.20198771357536315918e-01) (79, -2.08308279514312744141e-01) (80, -1.68770909309387207031e-01) (81, -3.49092185497283935547e-01) (82, -1.31125330924987792969e-01) (83, 7.07183324266225099564e-04) (84, -9.71837490797042846680e-02) (85, -1.83984450995922088623e-02) (86, 2.74148678779602050781e+00) (87, -2.20761132240295410156e+00) (88, -7.42054700851440429688e-01) (89, -2.56845045089721679688e+00) (90, -1.86021551489830017090e-01) (91, -2.64531254768371582031e+00) (92, -6.18289947509765625000e+00) (93, -2.16102766990661621094e+00) (94, 1.50000000000000000000e+03) (95, 1.50000000000000000000e+03) (96, 1.50000000000000000000e+03) (97, 1.50000000000000000000e+03) (98, 1.50000000000000000000e+03) (99, 1.50000000000000000000e+03) (100, 1.50000000000000000000e+03) (101, 1.50000000000000000000e+03) (102, 1.50000000000000000000e+03) (103, 1.50000000000000000000e+03) (104, 1.50000000000000000000e+03) (105, 1.50000000000000000000e+03) (106, 1.50000000000000000000e+03) (107, -2.05951094627380371094e+00) (108, 1.33025515079498291016e+00) (109, 1.93047678470611572266e+00) (110, 4.50797367095947265625e+00) (111, 7.41342604160308837891e-01) (112, 3.42159962654113769531e+00) (113, 1.95737838745117187500e+00) (114, -1.47507786750793457031e+00) (115, -2.72865056991577148438e-01) (116, 2.07786858081817626953e-01) (117, 2.15849652886390686035e-02) (118, -1.17251074314117431641e+00) (119, 1.28656625747680664062e+00) (120, 1.61302947998046875000e+00) (121, 1.96275091171264648438e+00) (122, 1.08144197463989257812e+01) (123, 1.47329223155975341797e+00) (124, 1.73255002498626708984e+00) (125, 9.37115132808685302734e-01) (126, 2.24017930030822753906e+00) (127, 8.96529316902160644531e-01) (128, 5.33507704734802246094e-01) (129, 3.61511087417602539062e+00) (130, 7.63537168502807617188e-01) (131, 4.14123439788818359375e+00) (132, 2.20615959167480468750e+00) (133, 4.09970283508300781250e-01) (134, 4.19580698013305664062e-01) (135, -1.90845638513565063477e-01) (136, 4.17072153091430664062e+00) (137, 4.35611438751220703125e+00) (138, -5.90261888504028320312e+00) (139, 1.03839921951293945312e+00) (140, 3.65067839622497558594e+00) (141, 1.50000000000000000000e+03) (142, 1.50000000000000000000e+03) (143, 1.50000000000000000000e+03) (144, 1.50000000000000000000e+03) (145, 1.50000000000000000000e+03) (146, 1.50000000000000000000e+03) (147, 1.50000000000000000000e+03) (148, 1.50000000000000000000e+03) (149, 1.50000000000000000000e+03) (150, 1.50000000000000000000e+03) (151, 1.50000000000000000000e+03) (152, 1.50000000000000000000e+03) (153, 1.50000000000000000000e+03) (154, -1.62043914198875427246e-01) (155, -1.21376299858093261719e+00) (156, -1.44111692905426025391e-01) (157, -6.69710338115692138672e-02) (158, -1.17244350910186767578e+00) (159, -2.66564607620239257812e-01) (160, -7.00295984745025634766e-01) (161, 1.79985404014587402344e-01) (162, -1.25343590974807739258e-01) (163, -3.98406535387039184570e-01) (164, -8.90830084681510925293e-02) (165, 2.19431500881910324097e-02) (166, -5.62692761421203613281e-01) (167, -1.74904584884643554688e-01) (168, -9.41554367542266845703e-01) (169, -6.28496780991554260254e-02) (170, -1.24377813190221786499e-02) (171, -1.66837751865386962891e+00) (172, -5.58491289615631103516e-01) (173, -6.85288429260253906250e-01) (174, 9.39675867557525634766e-02) (175, -8.83738622069358825684e-02) (176, -1.72681584954261779785e-01) (177, 3.70611459016799926758e-01) (178, -4.05377894639968872070e-02) (179, -6.27452552318572998047e-01) (180, -3.57649993896484375000e+00) (181, 2.56000471115112304688e+00) (182, -5.94024896621704101562e-01) (183, 4.17428779602050781250e+00) (184, -6.93459749221801757812e+00) (185, 1.52539455890655517578e+00) (186, 1.00975227355957031250e+00) (187, -9.50453057885169982910e-02) (188, -1.44253683090209960938e+00) (189, 2.23411941528320312500e+00) (190, 2.22623562812805175781e+00) (191, 9.95834648609161376953e-01) (192, -9.57656955718994140625e+00) (193, 4.60525542497634887695e-01) (0, 4.77176666259765625000e-01) (1, -9.25646051764488220215e-02) (2, 8.35821151733398437500e-01) (3, -5.30393242835998535156e-01) (4, 7.73909926414489746094e-01) (5, 4.08238470554351806641e-01) (6, 1.54185724258422851562e+00) (7, 1.25030946731567382812e+00) (8, -2.02933597564697265625e+00) (9, -2.16502413153648376465e-01) (10, 7.06039011478424072266e-01) (11, 3.67873167991638183594e+00) (12, 2.74516284465789794922e-01) (13, -1.86246848106384277344e+00) (14, -9.31177794933319091797e-01) (15, -2.16854989528656005859e-01) (16, -2.26641917228698730469e+00) (17, 4.31088060140609741211e-01) (18, 8.68288725614547729492e-02) (19, -5.70414781570434570312e-01) (20, -4.48631477355957031250e+00) (21, 1.08142399787902832031e+00) (22, -5.04886269569396972656e-01) (23, 6.60249650478363037109e-01) (24, -4.90530401468276977539e-01) (25, 4.45259761810302734375e+00) (26, -2.68212914466857910156e+00) (27, -2.18119993805885314941e-01) (28, 1.57731696963310241699e-01) (29, 5.44194161891937255859e-01) (30, -2.64245450496673583984e-01) (31, 4.53013420104980468750e-01) (32, 2.53546923398971557617e-01) (33, -1.81582614779472351074e-01) (34, 5.42157769203186035156e-01) (35, -4.89270359277725219727e-01) (36, 1.33585244417190551758e-01) (37, 1.44436240196228027344e-01) (38, 1.28106272220611572266e+00) (39, 1.49649238586425781250e+00) (40, 3.88559907674789428711e-01) (41, 1.69666081666946411133e-01) (42, -4.79776173830032348633e-01) (43, -2.91692558676004409790e-03) (44, 2.48509660363197326660e-01) (45, -1.32102501392364501953e+00) (46, -1.04792702198028564453e+00) (47, 1.50000000000000000000e+03) (48, 1.50000000000000000000e+03) (49, 1.50000000000000000000e+03) (50, 1.50000000000000000000e+03) (51, 1.50000000000000000000e+03) (52, 1.50000000000000000000e+03) (53, 1.50000000000000000000e+03) (54, 1.50000000000000000000e+03) (55, 1.50000000000000000000e+03) (56, 1.50000000000000000000e+03) (57, 1.50000000000000000000e+03) (58, 1.50000000000000000000e+03) (59, 1.50000000000000000000e+03) (60, -8.49094241857528686523e-02) (61, -3.01095675677061080933e-02) (62, 5.74045740067958831787e-02) (63, -9.51797049492597579956e-03) (64, 6.78666010499000549316e-02) (65, -7.50479176640510559082e-02) (66, 6.45530084148049354553e-03) (67, -6.66808262467384338379e-02) (68, -7.98936709761619567871e-02) (69, -1.03756964206695556641e-01) (70, -2.68762819468975067139e-02) (71, -7.40377232432365417480e-02) (72, -4.47398088872432708740e-02) (73, -8.28617587685585021973e-02) (74, 4.15635816752910614014e-02) (75, -1.46600306034088134766e-01) (76, -2.25738296285271644592e-03) (77, 3.44366952776908874512e-03) (78, 1.46750537678599357605e-02) (79, -5.99930100142955780029e-02) (80, 6.67370781302452087402e-02) (81, -5.61242848634719848633e-02) (82, -1.72423183917999267578e-01) (83, 4.39231693744659423828e-02) (84, -5.60995414853096008301e-02) (85, 3.04333530366420745850e-02) (86, 3.50526070594787597656e+00) (87, 5.33848702907562255859e-01) (88, 1.47710174322128295898e-01) (89, 6.15074157714843750000e-01) (90, -7.54320085048675537109e-01) (91, 7.06635117530822753906e-01) (92, 1.30284860730171203613e-01) (93, 3.32715153694152832031e+00) (94, 1.50000000000000000000e+03) (95, 1.50000000000000000000e+03) (96, 1.50000000000000000000e+03) (97, 1.50000000000000000000e+03) (98, 1.50000000000000000000e+03) (99, 1.50000000000000000000e+03) (100, 1.50000000000000000000e+03) (101, 1.50000000000000000000e+03) (102, 1.50000000000000000000e+03) (103, 1.50000000000000000000e+03) (104, 1.50000000000000000000e+03) (105, 1.50000000000000000000e+03) (106, 1.50000000000000000000e+03) (107, -6.79517507553100585938e-01) (108, -9.33242797851562500000e-01) (109, 4.29254025220870971680e-01) (110, -2.00869131088256835938e+00) (111, 6.53138399124145507812e-01) (112, -6.44222497940063476562e-02) (113, 8.71757209300994873047e-01) (114, 7.14941099286079406738e-02) (115, -1.55095949769020080566e-01) (116, 4.60584700107574462891e-01) (117, 1.55233129858970642090e-01) (118, 1.77513515949249267578e+00) (119, 1.14075052738189697266e+00) (120, 7.04881310462951660156e-01) (121, 3.85404795408248901367e-01) (122, 5.01533627510070800781e-01) (123, 1.91311985254287719727e-01) (124, -8.88309329748153686523e-02) (125, -3.75004500150680541992e-01) (126, 2.87172168493270874023e-01) (127, 1.69356167316436767578e-01) (128, 4.56496238708496093750e-01) (129, 3.01581859588623046875e-01) (130, 3.43099147081375122070e-01) (131, -1.12067353725433349609e+00) (132, -6.55754953622817993164e-02) (133, -2.27327704429626464844e+00) (134, 2.18330240249633789062e+00) (135, 9.57466006278991699219e-01) (136, -1.46120870113372802734e+00) (137, 1.39821183681488037109e+00) (138, -2.35561943054199218750e+00) (139, -1.55906081199645996094e+00) (140, -2.15764895081520080566e-01) (141, 1.50000000000000000000e+03) (142, 1.50000000000000000000e+03) (143, 1.50000000000000000000e+03) (144, 1.50000000000000000000e+03) (145, 1.50000000000000000000e+03) (146, 1.50000000000000000000e+03) (147, 1.50000000000000000000e+03) (148, 1.50000000000000000000e+03) (149, 1.50000000000000000000e+03) (150, 1.50000000000000000000e+03) (151, 1.50000000000000000000e+03) (152, 1.50000000000000000000e+03) (153, 1.50000000000000000000e+03) (154, 9.96449142694473266602e-02) (155, -1.48430585861206054688e-01) (156, 5.98323345184326171875e-03) (157, 2.93556630611419677734e-01) (158, 2.71340131759643554688e-01) (159, 2.97558084130287170410e-02) (160, 5.77860586345195770264e-02) (161, 3.20588648319244384766e-01) (162, 7.26996064186096191406e-02) (163, -7.48247876763343811035e-02) (164, -2.94885467737913131714e-02) (165, 3.57147544622421264648e-01) (166, -8.53403151035308837891e-01) (167, -1.26826763153076171875e-01) (168, -7.49264210462570190430e-02) (169, 2.01231688261032104492e-02) (170, 2.18384504318237304688e-01) (171, 2.87219107151031494141e-01) (172, 1.60741716623306274414e-01) (173, 1.03240825235843658447e-01) (174, 1.28635093569755554199e-01) (175, 8.50089266896247863770e-02) (176, -6.99081420898437500000e-02) (177, 5.56426122784614562988e-02) (178, 3.39729756116867065430e-01) (179, -4.70852777361869812012e-02) (180, -1.09096467494964599609e+00) (181, -2.36716166138648986816e-01) (182, 9.95511829853057861328e-01) (183, -6.42516314983367919922e-01) (184, -4.09207165241241455078e-01) (185, 1.70944333076477050781e+00) (186, -1.41896045207977294922e+00) (187, 4.74396301433444023132e-03) (188, 2.61099010705947875977e-01) (189, -1.86016452312469482422e+00) (190, 3.07410883903503417969e+00) (191, -3.82462143898010253906e-01) (192, -1.77263975143432617188e-01) (193, 1.61211919784545898438e+00) (0, -1.50000000000000000000e+03) (1, -6.71193176269531250000e+02) (2, 1.50000000000000000000e+03) (3, 1.29575488281250000000e+03) (4, -1.30000000000000000000e+03) (5, -1.50000000000000000000e+03) (6, -9.28849731445312500000e+02) (7, -1.44755993652343750000e+03) (8, -4.94282989501953125000e+02) (9, 1.45478173828125000000e+03) (10, -1.50000000000000000000e+03) (11, -1.50000000000000000000e+03) (12, 1.50000000000000000000e+03) (13, -1.50000000000000000000e+03) (14, -1.46848120117187500000e+03) (15, -1.50000000000000000000e+03) (16, -2.29035095214843750000e+02) (17, -1.06518347167968750000e+03) (18, 7.90945312500000000000e+02) (19, 1.50000000000000000000e+03) (20, 1.44789880371093750000e+03) (21, 1.45528030395507812500e+02) (22, -2.93853759765625000000e+00) (23, 5.26633117675781250000e+02) (24, 7.25936401367187500000e+02) (25, 1.50000000000000000000e+03) (26, -1.50000000000000000000e+03) (27, -5.95638061523437500000e+02) (28, -1.49089489746093750000e+03) (29, 1.31382434082031250000e+03) (30, 1.45522021484375000000e+03) (31, 1.50000000000000000000e+03) (32, 1.50000000000000000000e+03) (33, 1.50000000000000000000e+03) (34, 5.42469055175781250000e+02) (35, -1.11989916992187500000e+03) (36, -1.59199951171875000000e+02) (37, 2.72861450195312500000e+02) (38, 1.50000000000000000000e+03) (39, 1.50000000000000000000e+03) (40, -1.50000000000000000000e+03) (41, -1.50000000000000000000e+03) (42, -1.34820080566406250000e+03) (43, -3.88793365478515625000e+02) (44, -1.50000000000000000000e+03) (45, -1.50000000000000000000e+03) (46, -1.24125256347656250000e+03) (47, 1.50000000000000000000e+03) (48, 1.50000000000000000000e+03) (49, 1.50000000000000000000e+03) (50, 1.50000000000000000000e+03) (51, 1.50000000000000000000e+03) (52, 1.50000000000000000000e+03) (53, 1.50000000000000000000e+03) (54, 1.50000000000000000000e+03) (55, 1.50000000000000000000e+03) (56, 1.50000000000000000000e+03) (57, 1.50000000000000000000e+03) (58, 1.50000000000000000000e+03) (59, 1.50000000000000000000e+03) (60, -7.24635864257812500000e+02) (61, -6.29863281250000000000e+02) (62, -8.68484863281250000000e+02) (63, -4.28882843017578125000e+02) (64, -1.31828259277343750000e+03) (65, -8.39231933593750000000e+02) (66, -1.12457946777343750000e+03) (67, -1.10908789062500000000e+03) (68, -4.44139709472656250000e+02) (69, -1.50000000000000000000e+03) (70, -1.50000000000000000000e+03) (71, -1.50000000000000000000e+03) (72, -1.34912646484375000000e+03) (73, -4.30203186035156250000e+02) (74, -6.29848205566406250000e+02) (75, -1.10927709960937500000e+03) (76, -3.58880645751953125000e+02) (77, -1.31829003906250000000e+03) (78, -8.39305358886718750000e+02) (79, -1.12472619628906250000e+03) (80, -1.35189123535156250000e+03) (81, -4.44255035400390625000e+02) (82, -1.50000000000000000000e+03) (83, -1.50000000000000000000e+03) (84, -1.50000000000000000000e+03) (85, -1.28796337890625000000e+03) (86, -1.01468511962890625000e+03) (87, -1.50000000000000000000e+03) (88, -1.50000000000000000000e+03) (89, -1.50000000000000000000e+03) (90, -1.50000000000000000000e+03) (91, -1.50000000000000000000e+03) (92, -1.50000000000000000000e+03) (93, -1.50000000000000000000e+03) (94, 1.50000000000000000000e+03) (95, 1.50000000000000000000e+03) (96, 1.50000000000000000000e+03) (97, 1.50000000000000000000e+03) (98, 1.50000000000000000000e+03) (99, 1.50000000000000000000e+03) (100, 1.50000000000000000000e+03) (101, 1.50000000000000000000e+03) (102, 1.50000000000000000000e+03) (103, 1.50000000000000000000e+03) (104, 1.50000000000000000000e+03) (105, 1.50000000000000000000e+03) (106, 1.50000000000000000000e+03) (107, -1.11089897155761718750e+01) (108, -1.50000000000000000000e+03) (109, -6.27382080078125000000e+02) (110, 1.49315722656250000000e+03) (111, -1.39197290039062500000e+03) (112, 1.63289947509765625000e+02) (113, 1.08961547851562500000e+03) (114, -1.03160009765625000000e+03) (115, -1.42606945800781250000e+03) (116, 3.71475006103515625000e+02) (117, -7.76894470214843750000e+02) (118, -6.47673217773437500000e+02) (119, 1.95302551269531250000e+02) (120, 1.13244580078125000000e+03) (121, 9.81302978515625000000e+02) (122, 1.47071582031250000000e+03) (123, 1.37565991210937500000e+03) (124, 4.31109313964843750000e+02) (125, 5.96717590332031250000e+02) (126, 5.16501770019531250000e+02) (127, 1.50000000000000000000e+03) (128, 1.16282641601562500000e+03) (129, 1.43058337402343750000e+03) (130, 1.50000000000000000000e+03) (131, 7.75918426513671875000e+01) (132, 1.50000000000000000000e+03) (133, 1.17721337890625000000e+03) (134, -4.33674652099609375000e+02) (135, -6.06457092285156250000e+02) (136, -5.13509643554687500000e+02) (137, -1.50000000000000000000e+03) (138, -1.24458190917968750000e+03) (139, -6.68463012695312500000e+02) (140, -1.42513391113281250000e+03) (141, 1.50000000000000000000e+03) (142, 1.50000000000000000000e+03) (143, 1.50000000000000000000e+03) (144, 1.50000000000000000000e+03) (145, 1.50000000000000000000e+03) (146, 1.50000000000000000000e+03) (147, 1.50000000000000000000e+03) (148, 1.50000000000000000000e+03) (149, 1.50000000000000000000e+03) (150, 1.50000000000000000000e+03) (151, 1.50000000000000000000e+03) (152, 1.50000000000000000000e+03) (153, 1.50000000000000000000e+03) (154, -1.40684326171875000000e+03) (155, -1.11619689941406250000e+03) (156, -1.50000000000000000000e+03) (157, -1.28552722167968750000e+03) (158, -1.50000000000000000000e+03) (159, -1.50000000000000000000e+03) (160, -8.72163330078125000000e+02) (161, -1.50000000000000000000e+03) (162, -1.13894067382812500000e+03) (163, -1.44013574218750000000e+03) (164, -1.50000000000000000000e+03) (165, -1.28552722167968750000e+03) (166, -1.50000000000000000000e+03) (167, -1.42853002929687500000e+03) (168, -1.00672338867187500000e+03) (169, -1.50000000000000000000e+03) (170, -1.28552722167968750000e+03) (171, -1.50000000000000000000e+03) (172, -1.50000000000000000000e+03) (173, -6.46378356933593750000e+02) (174, -1.50000000000000000000e+03) (175, -1.41616516113281250000e+03) (176, -1.50000000000000000000e+03) (177, -1.50000000000000000000e+03) (178, -1.21829162597656250000e+03) (179, -1.50000000000000000000e+03) (180, 1.00378094482421875000e+03) (181, -8.30110412597656250000e+02) (182, 2.49212646484375000000e+01) (183, -1.44164949655532836914e-01) (184, 8.06974334716796875000e+01) (185, -5.45277118682861328125e+00) (186, -6.22580444335937500000e+02) (187, -1.47278356933593750000e+03) (188, 1.50000000000000000000e+03) (189, 1.50000000000000000000e+03) (190, 1.50000000000000000000e+03) (191, 1.50000000000000000000e+03) (192, -1.50000000000000000000e+03) (193, 5.71517372131347656250e+00) (0, -6.80541455745697021484e-01) (1, -1.43212449550628662109e+00) (2, -1.15988504886627197266e+00) (3, 7.37546825408935546875e+00) (4, 1.03413414955139160156e+00) (5, 6.68869793415069580078e-01) (6, -2.05986261367797851562e+00) (7, 1.48211270570755004883e-02) (8, -1.62154823541641235352e-01) (9, 2.56278228759765625000e+00) (10, 2.16484856605529785156e+00) (11, 2.92887091636657714844e+00) (12, 1.04677152633666992188e+00) (13, -3.13283443450927734375e-01) (14, 8.66023361682891845703e-01) (15, -1.54897367954254150391e+00) (16, 1.84043955802917480469e+00) (17, -1.51331794261932373047e+00) (18, 1.90416765213012695312e+00) (19, 6.44839572906494140625e+00) (20, 5.62865495681762695312e-01) (21, -3.52531403303146362305e-01) (22, 1.51053829193115234375e+01) (23, 1.30942468643188476562e+01) (24, 1.27787906676530838013e-02) (25, -9.35463070869445800781e-01) (26, 1.31467795372009277344e+00) (27, -7.24372684955596923828e-01) (28, -3.37353062629699707031e+00) (29, 1.62923049926757812500e+00) (30, 5.96161723136901855469e-01) (31, 1.92412227392196655273e-01) (32, 6.02167546749114990234e-01) (33, 1.55667102336883544922e+00) (34, 5.96681475639343261719e-01) (35, -4.79555988311767578125e+00) (36, -2.65166819095611572266e-01) (37, 3.95291864871978759766e-01) (38, -9.78445529937744140625e-01) (39, 1.25787520408630371094e+00) (40, -3.32905292510986328125e+00) (41, -3.82489204406738281250e-01) (42, 1.97532683610916137695e-01) (43, 2.81074464321136474609e-01) (44, 2.17758223414421081543e-01) (45, 3.68489891290664672852e-01) (46, 2.48496389389038085938e+00) (47, 1.50000000000000000000e+03) (48, 1.50000000000000000000e+03) (49, 1.50000000000000000000e+03) (50, 1.50000000000000000000e+03) (51, 1.50000000000000000000e+03) (52, 1.50000000000000000000e+03) (53, 1.50000000000000000000e+03) (54, 1.50000000000000000000e+03) (55, 1.50000000000000000000e+03) (56, 1.50000000000000000000e+03) (57, 1.50000000000000000000e+03) (58, 1.50000000000000000000e+03) (59, 1.50000000000000000000e+03) (60, 4.75472897291183471680e-01) (61, 3.80435913801193237305e-01) (62, 1.95463582873344421387e-01) (63, 2.31048941612243652344e-01) (64, 2.15497180819511413574e-01) (65, 2.32415765523910522461e-01) (66, 3.31365019083023071289e-01) (67, 3.39193522930145263672e-01) (68, 2.33902290463447570801e-01) (69, 2.25236371159553527832e-01) (70, 2.72141396999359130859e-01) (71, 2.23173558712005615234e-01) (72, 3.65159153938293457031e-01) (73, 3.76716375350952148438e-01) (74, 4.35283094644546508789e-01) (75, 3.34511280059814453125e-01) (76, 3.54141443967819213867e-01) (77, 3.95106285810470581055e-01) (78, 2.64042556285858154297e-01) (79, 3.44502568244934082031e-01) (80, 2.68363624811172485352e-01) (81, 2.95364379882812500000e-01) (82, 4.00744169950485229492e-01) (83, 3.56341749429702758789e-01) (84, 2.73908853530883789062e-01) (85, 3.32296192646026611328e-01) (86, -5.25109529495239257812e+00) (87, 1.42119896411895751953e+00) (88, -1.39305531978607177734e-01) (89, 3.07913124561309814453e-01) (90, 4.62947756052017211914e-01) (91, -5.23618519306182861328e-01) (92, 3.25123906135559082031e-01) (93, -7.84276664257049560547e-01) (94, 1.50000000000000000000e+03) (95, 1.50000000000000000000e+03) (96, 1.50000000000000000000e+03) (97, 1.50000000000000000000e+03) (98, 1.50000000000000000000e+03) (99, 1.50000000000000000000e+03) (100, 1.50000000000000000000e+03) (101, 1.50000000000000000000e+03) (102, 1.50000000000000000000e+03) (103, 1.50000000000000000000e+03) (104, 1.50000000000000000000e+03) (105, 1.50000000000000000000e+03) (106, 1.50000000000000000000e+03) (107, -1.18526113033294677734e+00) (108, -1.41544914245605468750e+00) (109, 1.98285770416259765625e+00) (110, 3.30892825126647949219e+00) (111, -1.87735393643379211426e-01) (112, 1.33219492435455322266e+00) (113, 7.70454227924346923828e-01) (114, 2.84589123725891113281e+00) (115, 8.72856795787811279297e-01) (116, 1.71910393238067626953e+00) (117, 2.63556480407714843750e+00) (118, 3.52881908416748046875e+00) (119, 1.59816575050354003906e+00) (120, 3.93485814332962036133e-01) (121, -3.54909324645996093750e+00) (122, 2.55515873432159423828e-01) (123, 3.98508906364440917969e-01) (124, 1.07540285587310791016e+00) (125, 8.23240101337432861328e-01) (126, 2.94412851333618164062e-01) (127, 8.28583717346191406250e-01) (128, -2.66753166913986206055e-01) (129, 2.87813276052474975586e-01) (130, 5.38355290889739990234e-01) (131, 4.61608707904815673828e-01) (132, 1.05424392223358154297e+00) (133, -1.04295122623443603516e+00) (134, 4.58337354660034179688e+00) (135, -1.41351044178009033203e+00) (136, 4.43187236785888671875e-01) (137, 2.28632020950317382812e+00) (138, 1.37454792857170104980e-01) (139, 8.44650173187255859375e+00) (140, -4.30162668228149414062e+00) (141, 1.50000000000000000000e+03) (142, 1.50000000000000000000e+03) (143, 1.50000000000000000000e+03) (144, 1.50000000000000000000e+03) (145, 1.50000000000000000000e+03) (146, 1.50000000000000000000e+03) (147, 1.50000000000000000000e+03) (148, 1.50000000000000000000e+03) (149, 1.50000000000000000000e+03) (150, 1.50000000000000000000e+03) (151, 1.50000000000000000000e+03) (152, 1.50000000000000000000e+03) (153, 1.50000000000000000000e+03) (154, 1.05239436030387878418e-01) (155, 1.15948066115379333496e-01) (156, 7.07342103123664855957e-02) (157, 2.48324908316135406494e-02) (158, 6.11145198345184326172e-02) (159, 4.42111790180206298828e-02) (160, 1.19646199047565460205e-01) (161, -1.28713443875312805176e-01) (162, 2.01431706547737121582e-01) (163, 4.62166279554367065430e-01) (164, 4.27703112363815307617e-02) (165, 1.02008230984210968018e-01) (166, 1.97056904435157775879e-01) (167, 2.27183386683464050293e-01) (168, 2.22001820802688598633e-01) (169, 1.68455354869365692139e-02) (170, 3.57623323798179626465e-02) (171, 5.99541850388050079346e-02) (172, 8.12237802892923355103e-03) (173, 8.40261280536651611328e-02) (174, -1.97170227766036987305e-01) (175, 1.78294882178306579590e-01) (176, 2.56582707166671752930e-01) (177, -1.09699871391057968140e-02) (178, 1.22579604387283325195e-01) (179, 1.55394956469535827637e-01) (180, 4.78035688400268554688e+00) (181, 6.58655405044555664062e-01) (182, -2.03481769561767578125e+00) (183, -2.65152752399444580078e-01) (184, 2.44109958410263061523e-01) (185, 1.96884965896606445312e+00) (186, 4.11181062459945678711e-01) (187, -4.75874304771423339844e-01) (188, -1.16625034809112548828e+00) (189, -4.75173890590667724609e-01) (190, -3.45022886991500854492e-01) (191, 2.65063524246215820312e-01) (192, 2.86978912353515625000e+00) (193, -3.35544204711914062500e+00) (0, 4.37759590148925781250e+00) (1, 5.76741516590118408203e-01) (2, -3.65181493759155273438e+00) (3, 1.99618124961853027344e+00) (4, 4.53026199340820312500e+00) (5, 1.98657408356666564941e-01) (6, -2.33445262908935546875e+00) (7, 1.84415960311889648438e+00) (8, -4.23557639122009277344e-01) (9, 2.51453220844268798828e-01) (10, 1.56138670444488525391e+00) (11, 3.40250515937805175781e+00) (12, 8.17985236644744873047e-01) (13, 1.02699029445648193359e+00) (14, -2.28968694806098937988e-01) (15, -1.37932443618774414062e+00) (16, -3.55360597372055053711e-01) (17, -1.64759945869445800781e+00) (18, -8.63114595413208007812e-01) (19, 6.83384895324707031250e-01) (20, -1.18144281208515167236e-01) (21, 5.10735940933227539062e+00) (22, 2.92149901390075683594e+00) (23, -6.71552002429962158203e-01) (24, 9.44141149520874023438e-02) (25, 2.62076884508132934570e-01) (26, -3.48215140402317047119e-02) (27, 6.31371363997459411621e-02) (28, 9.82043564319610595703e-01) (29, 1.21275973320007324219e+00) (30, 5.99064290523529052734e-01) (31, 2.81615519523620605469e+00) (32, 7.83968344330787658691e-02) (33, -1.00072205066680908203e+00) (34, -1.07694053649902343750e+00) (35, -3.87346804141998291016e-01) (36, -3.94063162803649902344e+00) (37, -6.81626439094543457031e-01) (38, -2.00488895177841186523e-01) (39, 1.25788223743438720703e+00) (40, -1.79680085182189941406e+00) (41, -2.67717146873474121094e+00) (42, -5.35520493984222412109e-01) (43, 6.53631031513214111328e-01) (44, 1.81572675704956054688e-01) (45, 7.19804614782333374023e-02) (46, 5.76601624488830566406e-01) (47, 1.50000000000000000000e+03) (48, 1.50000000000000000000e+03) (49, 1.50000000000000000000e+03) (50, 1.50000000000000000000e+03) (51, 1.50000000000000000000e+03) (52, 1.50000000000000000000e+03) (53, 1.50000000000000000000e+03) (54, 1.50000000000000000000e+03) (55, 1.50000000000000000000e+03) (56, 1.50000000000000000000e+03) (57, 1.50000000000000000000e+03) (58, 1.50000000000000000000e+03) (59, 1.50000000000000000000e+03) (60, 1.92935571074485778809e-01) (61, 2.79337912797927856445e-01) (62, 4.49175626039505004883e-01) (63, 2.92371541261672973633e-01) (64, 2.48607039451599121094e-01) (65, 3.38503479957580566406e-01) (66, 2.70822346210479736328e-01) (67, 3.39281737804412841797e-01) (68, 3.54017287492752075195e-01) (69, 2.78060734272003173828e-01) (70, 4.53550517559051513672e-01) (71, 3.30147862434387207031e-01) (72, 2.98577547073364257812e-01) (73, 2.16200083494186401367e-01) (74, 3.16144764423370361328e-01) (75, 4.65053707361221313477e-01) (76, 3.39832156896591186523e-01) (77, 2.82525539398193359375e-01) (78, 3.88103455305099487305e-01) (79, 3.04598838090896606445e-01) (80, 3.32114666700363159180e-01) (81, 3.38804662227630615234e-01) (82, 3.61591309309005737305e-01) (83, 2.90096223354339599609e-01) (84, 3.91944020986557006836e-01) (85, 3.54264259338378906250e-01) (86, 1.48964476585388183594e+00) (87, 8.48027646541595458984e-01) (88, 5.92057313770055770874e-03) (89, -2.05077245831489562988e-01) (90, -2.54715889692306518555e-01) (91, 3.21014070510864257812e+00) (92, -2.56064367294311523438e+00) (93, 1.32038986682891845703e+00) (94, 1.50000000000000000000e+03) (95, 1.50000000000000000000e+03) (96, 1.50000000000000000000e+03) (97, 1.50000000000000000000e+03) (98, 1.50000000000000000000e+03) (99, 1.50000000000000000000e+03) (100, 1.50000000000000000000e+03) (101, 1.50000000000000000000e+03) (102, 1.50000000000000000000e+03) (103, 1.50000000000000000000e+03) (104, 1.50000000000000000000e+03) (105, 1.50000000000000000000e+03) (106, 1.50000000000000000000e+03) (107, -5.26311755180358886719e-01) (108, 1.69602155685424804688e+00) (109, -1.17493903636932373047e+00) (110, 3.59867286682128906250e+00) (111, 2.19585728645324707031e+00) (112, 1.47912967205047607422e+00) (113, -1.19829618930816650391e+00) (114, -3.22371870279312133789e-02) (115, 2.37744879722595214844e+00) (116, 2.60857534408569335938e+00) (117, -4.68801915645599365234e-01) (118, -3.58103364706039428711e-01) (119, -5.60529589653015136719e-01) (120, 5.24873912334442138672e-01) (121, 3.00039827823638916016e-01) (122, -1.06833659112453460693e-01) (123, 8.29365253448486328125e-02) (124, -5.76195083558559417725e-02) (125, -2.27970883250236511230e-01) (126, 3.08237522840499877930e-01) (127, 1.31453737616539001465e-01) (128, 3.02253365516662597656e-01) (129, 1.88904833793640136719e+00) (130, 1.38178586959838867188e-01) (131, -4.70361672341823577881e-03) (132, 3.90325576066970825195e-01) (133, 1.37781500816345214844e+00) (134, 1.54044437408447265625e+00) (135, -2.42522859573364257812e+00) (136, -6.00482940673828125000e-01) (137, -2.09074401855468750000e+00) (138, -8.26316952705383300781e-01) (139, 1.99780642986297607422e+00) (140, 3.17445844411849975586e-01) (141, 1.50000000000000000000e+03) (142, 1.50000000000000000000e+03) (143, 1.50000000000000000000e+03) (144, 1.50000000000000000000e+03) (145, 1.50000000000000000000e+03) (146, 1.50000000000000000000e+03) (147, 1.50000000000000000000e+03) (148, 1.50000000000000000000e+03) (149, 1.50000000000000000000e+03) (150, 1.50000000000000000000e+03) (151, 1.50000000000000000000e+03) (152, 1.50000000000000000000e+03) (153, 1.50000000000000000000e+03) (154, 1.66244953870773315430e-02) (155, 1.03292562067508697510e-01) (156, 1.18130278587341308594e+00) (157, 7.11145818233489990234e-01) (158, 2.68438756465911865234e-01) (159, 7.37016022205352783203e-01) (160, 7.07517052069306373596e-03) (161, 5.59087991714477539062e-01) (162, 2.69135057926177978516e-01) (163, 1.99536815285682678223e-01) (164, 1.37539550662040710449e-01) (165, 6.50135576725006103516e-01) (166, 1.37069448828697204590e-01) (167, -8.52395355701446533203e-01) (168, 6.66833996772766113281e-01) (169, 1.31122267246246337891e+00) (170, 6.82068705558776855469e-01) (171, 1.97754755616188049316e-01) (172, 7.20511078834533691406e-01) (173, 5.50383813679218292236e-02) (174, 3.60908746719360351562e-01) (175, 2.71813184022903442383e-01) (176, -2.66506940126419067383e-01) (177, 5.15127778053283691406e-01) (178, 4.93127048015594482422e-01) (179, 7.55542442202568054199e-02) (180, -1.89544296264648437500e+00) (181, 1.75492227077484130859e+00) (182, -8.77169847488403320312e-01) (183, 1.05442173779010772705e-01) (184, 1.99550651013851165771e-02) (185, -1.81362196803092956543e-01) (186, -4.16336488723754882812e+00) (187, -4.27038460969924926758e-01) (188, 9.17512297630310058594e-01) (189, 5.12698745727539062500e+00) (190, 1.74547421932220458984e+00) (191, -3.09406375885009765625e+00) (192, -3.78194093704223632812e-01) (193, 4.52549886703491210938e+00) (0, -8.17080764770507812500e+01) (1, 1.11677914857864379883e-01) (2, 2.35945472717285156250e+01) (3, 1.49451732635498046875e+00) (4, -1.44431762695312500000e+01) (5, -7.48885869979858398438e+00) (6, 9.46459233760833740234e-01) (7, -2.93272949218750000000e+02) (8, 5.52541923522949218750e+00) (9, -3.45854687690734863281e+00) (10, -2.19250202178955078125e-01) (11, -6.29508117675781250000e+02) (12, -1.58730304241180419922e+00) (13, -3.82182647705078125000e+02) (14, -7.12467529296875000000e+02) (15, -1.10310876369476318359e+00) (16, -3.29883308410644531250e+01) (17, -1.03305816650390625000e+01) (18, 3.41466808319091796875e+00) (19, 2.77422332763671875000e+00) (20, -1.17436146736145019531e+00) (21, -2.35377807617187500000e+01) (22, -1.10446338653564453125e+01) (23, -4.47747985839843750000e+02) (24, 5.80445003509521484375e+00) (25, 1.42332725524902343750e+01) (26, -7.10925842285156250000e+02) (27, 3.70896077156066894531e+00) (28, 1.14525508880615234375e+00) (29, 1.20207834243774414062e+00) (30, 4.27594184875488281250e-01) (31, 7.30921554565429687500e+01) (32, 1.50000000000000000000e+03) (33, 1.43846511840820312500e+01) (34, 5.95922422409057617188e+00) (35, -1.68559402465820312500e+02) (36, -1.73971130371093750000e+02) (37, -1.58899555206298828125e+01) (38, 3.60539817810058593750e+01) (39, -1.37718653678894042969e+00) (40, -2.11711958050727844238e-01) (41, -1.02185630798339843750e+01) (42, -1.02020269775390625000e+03) (43, -1.05114404296875000000e+03) (44, -3.60867370605468750000e+02) (45, -8.10689941406250000000e+02) (46, 1.55087435245513916016e+00) (47, 1.50000000000000000000e+03) (48, 1.50000000000000000000e+03) (49, 1.50000000000000000000e+03) (50, 1.50000000000000000000e+03) (51, 1.50000000000000000000e+03) (52, 1.50000000000000000000e+03) (53, 1.50000000000000000000e+03) (54, 1.50000000000000000000e+03) (55, 1.50000000000000000000e+03) (56, 1.50000000000000000000e+03) (57, 1.50000000000000000000e+03) (58, 1.50000000000000000000e+03) (59, 1.50000000000000000000e+03) (60, -8.10370483398437500000e+02) (61, -8.10136535644531250000e+02) (62, -8.10117797851562500000e+02) (63, -1.05122814941406250000e+03) (64, -8.10139831542968750000e+02) (65, -8.10304748535156250000e+02) (66, -8.10486328125000000000e+02) (67, -8.10073486328125000000e+02) (68, -8.10329956054687500000e+02) (69, -8.10413879394531250000e+02) (70, -8.10324462890625000000e+02) (71, -8.10323425292968750000e+02) (72, -8.10143188476562500000e+02) (73, -8.10362731933593750000e+02) (74, -8.10236328125000000000e+02) (75, -8.10173034667968750000e+02) (76, -1.05123352050781250000e+03) (77, -8.10197387695312500000e+02) (78, -8.10321289062500000000e+02) (79, -8.10443786621093750000e+02) (80, -8.10057678222656250000e+02) (81, -8.10371337890625000000e+02) (82, -8.10121704101562500000e+02) (83, -8.10373046875000000000e+02) (84, -8.10389282226562500000e+02) (85, -8.10197143554687500000e+02) (86, -3.87609910964965820312e+00) (87, -3.88367523193359375000e+02) (88, -1.71745178222656250000e+02) (89, 1.25490820407867431641e+00) (90, -1.01426486968994140625e+01) (91, -1.59435546398162841797e+00) (92, -3.80648193359375000000e+01) (93, -3.21017379760742187500e+01) (94, 1.50000000000000000000e+03) (95, 1.50000000000000000000e+03) (96, 1.50000000000000000000e+03) (97, 1.50000000000000000000e+03) (98, 1.50000000000000000000e+03) (99, 1.50000000000000000000e+03) (100, 1.50000000000000000000e+03) (101, 1.50000000000000000000e+03) (102, 1.50000000000000000000e+03) (103, 1.50000000000000000000e+03) (104, 1.50000000000000000000e+03) (105, 1.50000000000000000000e+03) (106, 1.50000000000000000000e+03) (107, 1.40371632575988769531e+00) (108, 2.34614658355712890625e+00) (109, -1.47344860839843750000e+03) (110, 5.41583776473999023438e+00) (111, -3.43891024589538574219e-01) (112, 1.33514571189880371094e+00) (113, 7.96940267086029052734e-01) (114, -5.74820816516876220703e-01) (115, 2.38093376159667968750e+00) (116, 3.91080528497695922852e-01) (117, -9.75947284698486328125e+00) (118, -2.61491394042968750000e+01) (119, 8.91288578510284423828e-01) (120, 7.57970511913299560547e-02) (121, -6.18028602600097656250e+01) (122, 3.75788269042968750000e+01) (123, -8.13194870948791503906e-01) (124, 7.94606876373291015625e+00) (125, -1.16595802307128906250e+01) (126, 2.76911947876214981079e-02) (127, -3.74140167236328125000e+00) (128, 1.33880466222763061523e-01) (129, 1.81626009941101074219e+00) (130, 1.28486828613281250000e+03) (131, -1.19843459129333496094e+00) (132, -2.07815930247306823730e-01) (133, -1.37971326708793640137e-01) (134, 1.54206264019012451172e+00) (135, 3.25305151939392089844e+00) (136, 2.24698448181152343750e+00) (137, -2.58722152709960937500e+01) (138, 3.17137032747268676758e-01) (139, -3.72348213195800781250e+01) (140, -2.83127903938293457031e-01) (141, 1.50000000000000000000e+03) (142, 1.50000000000000000000e+03) (143, 1.50000000000000000000e+03) (144, 1.50000000000000000000e+03) (145, 1.50000000000000000000e+03) (146, 1.50000000000000000000e+03) (147, 1.50000000000000000000e+03) (148, 1.50000000000000000000e+03) (149, 1.50000000000000000000e+03) (150, 1.50000000000000000000e+03) (151, 1.50000000000000000000e+03) (152, 1.50000000000000000000e+03) (153, 1.50000000000000000000e+03) (154, -1.60241737961769104004e-01) (155, 4.18924152851104736328e-01) (156, -1.23338874816894531250e+02) (157, 9.83233034610748291016e-01) (158, 6.34988605976104736328e-01) (159, 1.11484900116920471191e-01) (160, 3.22089374065399169922e-01) (161, 1.89205741882324218750e+00) (162, 9.06439125537872314453e-01) (163, -1.79507255554199218750e+00) (164, -1.38777380371093750000e+03) (165, 1.00622832775115966797e+00) (166, 8.91773223876953125000e-01) (167, -1.16476428508758544922e+00) (168, 8.87590706348419189453e-01) (169, -2.25814773559570312500e+02) (170, 8.58670592308044433594e-01) (171, 6.52919650077819824219e-01) (172, 5.73121547698974609375e-01) (173, 5.17150998115539550781e-01) (174, 1.45280301570892333984e+00) (175, 8.41716349124908447266e-01) (176, -3.84052014350891113281e+00) (177, -1.50000000000000000000e+03) (178, 9.01277601718902587891e-01) (179, 8.70447516441345214844e-01) (180, 3.07802219390869140625e+01) (181, -4.79402971267700195312e+00) (182, -4.86936235427856445312e+00) (183, 3.67745828628540039062e+00) (184, -1.37371501922607421875e+01) (185, 4.57037496566772460938e+00) (186, -1.20005397796630859375e+01) (187, -3.21025228500366210938e+00) (188, -4.23197412490844726562e+00) (189, -7.85198974609375000000e+00) (190, 4.19199333190917968750e+01) (191, -4.29494094848632812500e+00) (192, -1.30743193626403808594e+00) (193, 8.24774622917175292969e-01) (0, 4.79201674461364746094e-01) (1, 1.43703174591064453125e+00) (2, -1.63352084159851074219e+00) (3, 3.12415790557861328125e+00) (4, 1.42956817150115966797e+00) (5, 2.59547472000122070312e+00) (6, -1.69162821769714355469e+00) (7, 1.98307275772094726562e+00) (8, 2.47142508625984191895e-01) (9, -1.31048727035522460938e+00) (10, 1.26135933399200439453e+00) (11, 1.00268716812133789062e+01) (12, -6.94424867630004882812e-01) (13, 3.09101963043212890625e+00) (14, 4.55528879165649414062e+00) (15, -1.84645378589630126953e+00) (16, 2.47599229216575622559e-01) (17, -1.03844523429870605469e+00) (18, 4.29965883493423461914e-01) (19, 4.09914642572402954102e-01) (20, -2.67877912521362304688e+00) (21, 2.20876789093017578125e+00) (22, -4.81401979923248291016e-01) (23, -4.19272601604461669922e-01) (24, 3.84447067975997924805e-01) (25, 5.41718053817749023438e+00) (26, 3.41707706451416015625e-01) (27, 7.73728728294372558594e-01) (28, -4.55642610788345336914e-01) (29, 2.21035078167915344238e-01) (30, 6.05828940868377685547e-01) (31, -6.57994031906127929688e-01) (32, -3.01162505149841308594e+00) (33, 5.60539066791534423828e-01) (34, -9.69481348991394042969e-01) (35, 1.71004319190979003906e+00) (36, -1.73667919635772705078e+00) (37, -3.79635262489318847656e+00) (38, 8.33859741687774658203e-01) (39, 4.05680596828460693359e-01) (40, -7.40720152854919433594e-01) (41, -3.48271584510803222656e+00) (42, 7.62851834297180175781e-02) (43, 6.87643811106681823730e-02) (44, 2.46522903442382812500e-01) (45, -1.88284322619438171387e-01) (46, -8.89494359493255615234e-01) (47, 1.50000000000000000000e+03) (48, 1.50000000000000000000e+03) (49, 1.50000000000000000000e+03) (50, 1.50000000000000000000e+03) (51, 1.50000000000000000000e+03) (52, 1.50000000000000000000e+03) (53, 1.50000000000000000000e+03) (54, 1.50000000000000000000e+03) (55, 1.50000000000000000000e+03) (56, 1.50000000000000000000e+03) (57, 1.50000000000000000000e+03) (58, 1.50000000000000000000e+03) (59, 1.50000000000000000000e+03) (60, -1.78236529231071472168e-01) (61, -6.17208406329154968262e-02) (62, -1.29682524129748344421e-02) (63, -1.32194429636001586914e-01) (64, -9.42145958542823791504e-02) (65, -9.89923030138015747070e-02) (66, -1.43866583704948425293e-01) (67, -2.01630264520645141602e-01) (68, -2.11468026041984558105e-01) (69, -1.52593746781349182129e-01) (70, 4.45517338812351226807e-02) (71, -1.05511806905269622803e-01) (72, -1.81414455175399780273e-01) (73, -1.17332309484481811523e-01) (74, 2.51298081129789352417e-02) (75, 7.82303139567375183105e-02) (76, -2.14779093861579895020e-01) (77, -2.39900082349777221680e-01) (78, -2.06661343574523925781e-01) (79, -2.36725628376007080078e-01) (80, -8.42920243740081787109e-02) (81, -1.87252342700958251953e-01) (82, -1.10130548477172851562e-01) (83, -7.11721703410148620605e-02) (84, -2.38282889127731323242e-01) (85, -1.25400677323341369629e-01) (86, -6.26115322113037109375e-01) (87, -3.97765398025512695312e-01) (88, 5.37687873840332031250e+00) (89, -5.85401356220245361328e-01) (90, -3.15962028503417968750e+00) (91, -9.01495695114135742188e-01) (92, 4.61339712142944335938e-01) (93, 4.43575024604797363281e-01) (94, 1.50000000000000000000e+03) (95, 1.50000000000000000000e+03) (96, 1.50000000000000000000e+03) (97, 1.50000000000000000000e+03) (98, 1.50000000000000000000e+03) (99, 1.50000000000000000000e+03) (100, 1.50000000000000000000e+03) (101, 1.50000000000000000000e+03) (102, 1.50000000000000000000e+03) (103, 1.50000000000000000000e+03) (104, 1.50000000000000000000e+03) (105, 1.50000000000000000000e+03) (106, 1.50000000000000000000e+03) (107, 1.43120300769805908203e+00) (108, -1.19855976104736328125e+00) (109, -2.79718136787414550781e+00) (110, 4.45262163877487182617e-01) (111, 1.30055272579193115234e+00) (112, 2.47098016738891601562e+00) (113, -7.69691467285156250000e-01) (114, 1.54195177555084228516e+00) (115, -3.48680108785629272461e-01) (116, 6.24979555606842041016e-01) (117, 2.58022189140319824219e+00) (118, 5.94695138931274414062e+00) (119, 8.61541509628295898438e-01) (120, 6.73066258430480957031e-01) (121, -3.19455832242965698242e-01) (122, 3.95141303539276123047e-01) (123, 9.74019825458526611328e-01) (124, 4.54132407903671264648e-01) (125, -1.66807863861322402954e-02) (126, 3.42436701059341430664e-01) (127, 7.14827418327331542969e-01) (128, -2.27622136473655700684e-01) (129, 4.14855450391769409180e-01) (130, 9.79945659637451171875e-01) (131, 4.12838131189346313477e-01) (132, 3.67310583591461181641e-01) (133, 1.50998675823211669922e+00) (134, -3.98987084627151489258e-01) (135, -3.59123778343200683594e+00) (136, 9.63417053222656250000e-01) (137, 2.29071044921875000000e+00) (138, 2.20015382766723632812e+00) (139, 2.40558409690856933594e+00) (140, -3.00464487075805664062e+00) (141, 1.50000000000000000000e+03) (142, 1.50000000000000000000e+03) (143, 1.50000000000000000000e+03) (144, 1.50000000000000000000e+03) (145, 1.50000000000000000000e+03) (146, 1.50000000000000000000e+03) (147, 1.50000000000000000000e+03) (148, 1.50000000000000000000e+03) (149, 1.50000000000000000000e+03) (150, 1.50000000000000000000e+03) (151, 1.50000000000000000000e+03) (152, 1.50000000000000000000e+03) (153, 1.50000000000000000000e+03) (154, 3.95677387714385986328e-02) (155, 2.32639193534851074219e-01) (156, 1.44663289189338684082e-01) (157, 5.83429113030433654785e-02) (158, 5.32693974673748016357e-02) (159, 2.62949466705322265625e-01) (160, 2.81620293855667114258e-01) (161, 6.82002186775207519531e-01) (162, 1.21091693639755249023e-01) (163, 9.01609361171722412109e-02) (164, -4.59141761064529418945e-01) (165, 2.86797642707824707031e-01) (166, 5.20851053297519683838e-02) (167, 1.21972985565662384033e-01) (168, 2.95037329196929931641e-01) (169, -1.43224507570266723633e-01) (170, 5.33111616969108581543e-02) (171, -1.46910548210144042969e-01) (172, 3.01648378372192382812e-01) (173, 3.03633183240890502930e-01) (174, -1.15006692707538604736e-01) (175, 1.51615038514137268066e-01) (176, 1.41425073146820068359e-01) (177, -9.67377424240112304688e-02) (178, 2.10376918315887451172e-01) (179, 1.33801653981208801270e-01) (180, 8.42973828315734863281e-01) (181, -5.17124605178833007812e+00) (182, 7.45094418525695800781e-01) (183, 3.45305085182189941406e+00) (184, -1.79977089166641235352e-01) (185, -7.18370452523231506348e-02) (186, 1.61144816875457763672e+00) (187, -2.19717955589294433594e+00) (188, 1.54328155517578125000e+00) (189, 2.04886242747306823730e-01) (190, -2.39507049322128295898e-01) (191, -1.15534801483154296875e+01) (192, -3.33576703071594238281e+00) (193, 7.46306717395782470703e-01) (0, 4.91889810562133789062e+00) (1, -6.48333132266998291016e-01) (2, 2.88879096508026123047e-01) (3, 2.62702488899230957031e+00) (4, 1.31298923492431640625e+00) (5, -5.25607168674468994141e-01) (6, 2.30590417981147766113e-01) (7, 4.87235879898071289062e+00) (8, 3.99714149534702301025e-02) (9, 5.60647547245025634766e-01) (10, -2.73271620273590087891e-01) (11, 2.79368019104003906250e+00) (12, 1.09676167368888854980e-01) (13, 4.25663292407989501953e-01) (14, 1.25757670402526855469e+00) (15, -1.42108273506164550781e+00) (16, 1.92456185817718505859e+00) (17, 1.51324260234832763672e+00) (18, -4.01462733745574951172e-01) (19, 1.20183837413787841797e+00) (20, -3.50406497716903686523e-01) (21, 8.92277061939239501953e-02) (22, -3.30193519592285156250e-01) (23, 2.89413839578628540039e-01) (24, -4.70989525318145751953e-01) (25, -5.96004053950309753418e-02) (26, 3.05607199668884277344e+00) (27, 1.95712924003601074219e+00) (28, 1.05475568771362304688e+00) (29, 4.82729047536849975586e-01) (30, 7.04247832298278808594e-01) (31, -8.36696207523345947266e-01) (32, 6.16588704288005828857e-02) (33, -4.74024564027786254883e-01) (34, 3.16717386245727539062e-01) (35, -2.59370625019073486328e-01) (36, -5.96144199371337890625e-01) (37, 5.25003314018249511719e-01) (38, -1.33919572830200195312e+00) (39, 4.62168604135513305664e-01) (40, -3.93221005797386169434e-02) (41, 1.67407587170600891113e-01) (42, -4.80170130729675292969e-01) (43, 3.63319665193557739258e-01) (44, -8.94273072481155395508e-02) (45, -1.82545036077499389648e-01) (46, 6.12732708454132080078e-01) (47, 1.50000000000000000000e+03) (48, 1.50000000000000000000e+03) (49, 1.50000000000000000000e+03) (50, 1.50000000000000000000e+03) (51, 1.50000000000000000000e+03) (52, 1.50000000000000000000e+03) (53, 1.50000000000000000000e+03) (54, 1.50000000000000000000e+03) (55, 1.50000000000000000000e+03) (56, 1.50000000000000000000e+03) (57, 1.50000000000000000000e+03) (58, 1.50000000000000000000e+03) (59, 1.50000000000000000000e+03) (60, 1.96932747960090637207e-01) (61, 3.39457303285598754883e-01) (62, 2.64673739671707153320e-01) (63, 7.39961192011833190918e-02) (64, 2.69455641508102416992e-01) (65, 3.42080295085906982422e-01) (66, 2.96709865331649780273e-01) (67, 2.53860980272293090820e-01) (68, 2.58965224027633666992e-01) (69, 2.70515441894531250000e-01) (70, 2.09228381514549255371e-01) (71, 3.39531868696212768555e-01) (72, 2.16621339321136474609e-01) (73, 3.20497006177902221680e-01) (74, 3.05243521928787231445e-01) (75, 2.35435217618942260742e-01) (76, 3.50126743316650390625e-01) (77, 2.51581430435180664062e-01) (78, 3.01861464977264404297e-01) (79, 2.73028224706649780273e-01) (80, 2.57558196783065795898e-01) (81, 2.92655766010284423828e-01) (82, 3.59996289014816284180e-01) (83, 2.11971417069435119629e-01) (84, 3.00664186477661132812e-01) (85, 2.96838104724884033203e-01) (86, 1.03268480300903320312e+00) (87, -6.21298670768737792969e-01) (88, 8.71940135955810546875e-01) (89, -9.10800933837890625000e-01) (90, 5.86202228441834449768e-03) (91, 1.52947652339935302734e+00) (92, 6.25021085143089294434e-02) (93, 5.42705059051513671875e-01) (94, 1.50000000000000000000e+03) (95, 1.50000000000000000000e+03) (96, 1.50000000000000000000e+03) (97, 1.50000000000000000000e+03) (98, 1.50000000000000000000e+03) (99, 1.50000000000000000000e+03) (100, 1.50000000000000000000e+03) (101, 1.50000000000000000000e+03) (102, 1.50000000000000000000e+03) (103, 1.50000000000000000000e+03) (104, 1.50000000000000000000e+03) (105, 1.50000000000000000000e+03) (106, 1.50000000000000000000e+03) (107, -6.16717338562011718750e-01) (108, 1.50433802604675292969e+00) (109, 1.86019790172576904297e+00) (110, -1.26644921302795410156e+00) (111, -2.30654001235961914062e-01) (112, 8.73302578926086425781e-01) (113, -8.09614896774291992188e-01) (114, 1.03382766246795654297e+00) (115, 1.07899355888366699219e+00) (116, -2.82261073589324951172e-01) (117, -1.40807068347930908203e+00) (118, 1.26290619373321533203e+00) (119, 9.81411552429199218750e+00) (120, 2.55410939455032348633e-01) (121, 4.34231430292129516602e-01) (122, -9.36815738677978515625e-02) (123, 5.51651060581207275391e-01) (124, 3.02613139152526855469e-01) (125, 3.26261043548583984375e-01) (126, 5.66991150379180908203e-01) (127, 4.58684831857681274414e-01) (128, -5.79360544681549072266e-01) (129, 2.74339526891708374023e-01) (130, 4.31667000055313110352e-01) (131, 1.99692890048027038574e-01) (132, 5.38956105709075927734e-01) (133, 6.84244811534881591797e-01) (134, -1.42649722099304199219e+00) (135, -1.64309293031692504883e-01) (136, 2.45282578468322753906e+00) (137, 2.06231236457824707031e+00) (138, 2.34123253822326660156e+00) (139, 3.22865033149719238281e+00) (140, 8.84034574031829833984e-01) (141, 1.50000000000000000000e+03) (142, 1.50000000000000000000e+03) (143, 1.50000000000000000000e+03) (144, 1.50000000000000000000e+03) (145, 1.50000000000000000000e+03) (146, 1.50000000000000000000e+03) (147, 1.50000000000000000000e+03) (148, 1.50000000000000000000e+03) (149, 1.50000000000000000000e+03) (150, 1.50000000000000000000e+03) (151, 1.50000000000000000000e+03) (152, 1.50000000000000000000e+03) (153, 1.50000000000000000000e+03) (154, 9.27390679717063903809e-02) (155, -1.62320032715797424316e-01) (156, 1.08339166641235351562e+00) (157, 8.73785186558961868286e-03) (158, 1.77127137780189514160e-01) (159, 1.05974860489368438721e-01) (160, -2.51026004552841186523e-01) (161, 4.78306174278259277344e-01) (162, 7.89923965930938720703e-01) (163, 2.13448822498321533203e-01) (164, 1.02026939392089843750e+00) (165, 6.24604225158691406250e-01) (166, 1.20873272418975830078e-01) (167, 1.82035844773054122925e-02) (168, 5.57639077305793762207e-03) (169, 2.09094548225402832031e+00) (170, 3.42458367347717285156e-01) (171, 9.16358157992362976074e-02) (172, -1.99005920439958572388e-02) (173, -6.99865892529487609863e-02) (174, 4.21870112419128417969e-01) (175, 9.52953398227691650391e-01) (176, 2.20215275883674621582e-01) (177, 1.96624949574470520020e-01) (178, 9.29905354976654052734e-01) (179, 8.55591595172882080078e-02) (180, 2.86644756793975830078e-01) (181, -2.06976699829101562500e+00) (182, 2.45537593960762023926e-01) (183, -5.88860154151916503906e-01) (184, -1.88175916671752929688e+00) (185, -3.82089048624038696289e-01) (186, -7.00139951705932617188e+00) (187, -1.56391322612762451172e+00) (188, -1.08364725112915039062e+00) (189, -1.06551611423492431641e+00) (190, 3.82920950651168823242e-01) (191, -2.69101357460021972656e+00) (192, -1.23521339893341064453e+00) (193, 2.39161416888236999512e-01) (0, -1.26180756092071533203e+00) (1, 6.95763301849365234375e+00) (2, 3.10949230194091796875e+00) (3, 1.14474499225616455078e+00) (4, -2.69956707954406738281e+00) (5, -3.52783113718032836914e-01) (6, -2.11605429649353027344e-01) (7, -8.53465735912322998047e-01) (8, 3.75077128410339355469e-01) (9, -1.26695454120635986328e-01) (10, 1.80509161949157714844e+00) (11, 6.16900253295898437500e+00) (12, -2.86371254920959472656e+00) (13, -2.20811486244201660156e+00) (14, -1.84627079963684082031e+00) (15, 1.88843858242034912109e+00) (16, 3.17797809839248657227e-02) (17, -4.49326857924461364746e-02) (18, -3.67359608411788940430e-01) (19, 1.79850578308105468750e+00) (20, 3.47688406705856323242e-01) (21, 1.05281937122344970703e+00) (22, 9.81423139572143554688e-01) (23, 4.87937510013580322266e-01) (24, 7.21088767051696777344e-01) (25, -1.41935050487518310547e+00) (26, -6.31378293037414550781e-01) (27, -6.19975686073303222656e-01) (28, -2.55990117788314819336e-01) (29, 4.63001012802124023438e-01) (30, -1.76443923264741897583e-02) (31, 3.74104666709899902344e+00) (32, 1.66553866863250732422e+00) (33, 1.28233706951141357422e+00) (34, 3.21486997604370117188e+00) (35, -2.92045068740844726562e+00) (36, 7.31392577290534973145e-02) (37, 1.67490100860595703125e+00) (38, 2.77455639839172363281e+00) (39, -1.29893112182617187500e+00) (40, -1.78018105030059814453e+00) (41, -2.80804093927145004272e-02) (42, 1.02616086602210998535e-01) (43, 4.09395173192024230957e-02) (44, -3.04426252841949462891e-01) (45, -8.14183056354522705078e-01) (46, -8.56568992137908935547e-01) (47, 1.50000000000000000000e+03) (48, 1.50000000000000000000e+03) (49, 1.50000000000000000000e+03) (50, 1.50000000000000000000e+03) (51, 1.50000000000000000000e+03) (52, 1.50000000000000000000e+03) (53, 1.50000000000000000000e+03) (54, 1.50000000000000000000e+03) (55, 1.50000000000000000000e+03) (56, 1.50000000000000000000e+03) (57, 1.50000000000000000000e+03) (58, 1.50000000000000000000e+03) (59, 1.50000000000000000000e+03) (60, 7.39367380738258361816e-02) (61, 1.39183461666107177734e-01) (62, 1.91184133291244506836e-01) (63, 7.97674804925918579102e-02) (64, 1.37141913175582885742e-01) (65, 1.67153939604759216309e-01) (66, 1.68224334716796875000e-01) (67, 2.07087114453315734863e-01) (68, 1.20634511113166809082e-01) (69, 1.01377382874488830566e-01) (70, 7.19921812415122985840e-02) (71, 1.32864996790885925293e-01) (72, 1.12134926021099090576e-01) (73, 3.15949656069278717041e-02) (74, 1.62262991070747375488e-01) (75, 1.76886543631553649902e-01) (76, 2.18125268816947937012e-01) (77, 2.01809465885162353516e-01) (78, 6.15723878145217895508e-02) (79, 2.01605916023254394531e-01) (80, 1.93345174193382263184e-01) (81, 1.72999292612075805664e-01) (82, 6.50561749935150146484e-02) (83, 1.91400930285453796387e-01) (84, 7.22674503922462463379e-02) (85, 1.90262988209724426270e-01) (86, 1.73612952232360839844e+00) (87, -1.74942624568939208984e+00) (88, -7.62345254421234130859e-01) (89, -6.99786138534545898438e+00) (90, -4.56333637237548828125e-01) (91, -1.00306463241577148438e+00) (92, -5.71969628334045410156e-01) (93, 1.47267782688140869141e+00) (94, 1.50000000000000000000e+03) (95, 1.50000000000000000000e+03) (96, 1.50000000000000000000e+03) (97, 1.50000000000000000000e+03) (98, 1.50000000000000000000e+03) (99, 1.50000000000000000000e+03) (100, 1.50000000000000000000e+03) (101, 1.50000000000000000000e+03) (102, 1.50000000000000000000e+03) (103, 1.50000000000000000000e+03) (104, 1.50000000000000000000e+03) (105, 1.50000000000000000000e+03) (106, 1.50000000000000000000e+03) (107, -1.61143159866333007812e+00) (108, -1.51056981086730957031e+00) (109, 1.65660965442657470703e+00) (110, 1.32318532466888427734e+00) (111, -1.93885374069213867188e+00) (112, 1.03045594692230224609e+00) (113, -2.16266945004463195801e-01) (114, 1.75179350376129150391e+00) (115, 8.95117938518524169922e-01) (116, 4.33338451385498046875e+00) (117, 8.05686533451080322266e-01) (118, 5.76344442367553710938e+00) (119, 2.08510065078735351562e+00) (120, 1.31805324554443359375e+00) (121, 1.12266373634338378906e+00) (122, 8.71380209922790527344e-01) (123, 4.14348661899566650391e-01) (124, 8.91636669635772705078e-01) (125, 9.06170725822448730469e-01) (126, 1.68247711658477783203e+00) (127, 6.95278704166412353516e-01) (128, 6.11310005187988281250e-01) (129, 1.80317902565002441406e+00) (130, 4.47598397731781005859e-01) (131, -2.29184913635253906250e+00) (132, 9.30239498615264892578e-01) (133, -1.51778829097747802734e+00) (134, -4.49677228927612304688e-01) (135, -5.82184410095214843750e+00) (136, -3.00692892074584960938e+00) (137, 6.34069919586181640625e-01) (138, 9.03459012508392333984e-01) (139, 5.18696403503417968750e+00) (140, -3.59498524665832519531e+00) (141, 1.50000000000000000000e+03) (142, 1.50000000000000000000e+03) (143, 1.50000000000000000000e+03) (144, 1.50000000000000000000e+03) (145, 1.50000000000000000000e+03) (146, 1.50000000000000000000e+03) (147, 1.50000000000000000000e+03) (148, 1.50000000000000000000e+03) (149, 1.50000000000000000000e+03) (150, 1.50000000000000000000e+03) (151, 1.50000000000000000000e+03) (152, 1.50000000000000000000e+03) (153, 1.50000000000000000000e+03) (154, -1.98351770639419555664e-01) (155, -6.81582152843475341797e-01) (156, 1.27598911523818969727e-01) (157, -9.45008322596549987793e-02) (158, -9.10930514335632324219e-01) (159, -3.38451951742172241211e-01) (160, -8.12461853027343750000e-01) (161, -1.64327964186668395996e-01) (162, 8.99156704545021057129e-02) (163, -3.71793895959854125977e-01) (164, 2.04826906323432922363e-01) (165, 2.62857288122177124023e-01) (166, -1.09340637922286987305e-01) (167, -1.85350075364112854004e-01) (168, -9.57492589950561523438e-01) (169, 1.62612080574035644531e+00) (170, 6.77535310387611389160e-02) (171, -8.38584244251251220703e-01) (172, -3.89040231704711914062e-01) (173, -1.06881916522979736328e+00) (174, -2.42722004652023315430e-01) (175, 1.52854233980178833008e-01) (176, -2.69499093294143676758e-01) (177, 2.10563793778419494629e-01) (178, 1.21995031833648681641e+00) (179, -1.49693533778190612793e-01) (180, -1.38889682292938232422e+00) (181, -5.33346843719482421875e+00) (182, 2.03182205557823181152e-01) (183, 7.50989437103271484375e+00) (184, -1.42648220062255859375e+00) (185, 4.52125668525695800781e-01) (186, -7.13595688343048095703e-01) (187, -1.82493686676025390625e+00) (188, -2.07872509956359863281e+00) (189, 1.73274233937263488770e-01) (190, 5.58683586120605468750e+00) (191, -2.76320409774780273438e+00) (192, -1.47851788997650146484e+00) (193, 8.22289288043975830078e-01) (0, 4.02186250686645507812e+00) (1, -9.77309799194335937500e+00) (2, 2.59628981351852416992e-01) (3, 2.86060690879821777344e+00) (4, -7.50591039657592773438e-01) (5, 3.14149403572082519531e+00) (6, -6.68665826320648193359e-01) (7, 4.51427125930786132812e+00) (8, 9.99419271945953369141e-01) (9, -6.51083707809448242188e-01) (10, 9.61044013500213623047e-01) (11, 2.72626543045043945312e+00) (12, -2.31461524963378906250e+00) (13, 1.77216649055480957031e+00) (14, 1.40495330095291137695e-01) (15, 6.35181486606597900391e-01) (16, -1.93426048755645751953e+00) (17, 6.57141506671905517578e-01) (18, -7.29423880577087402344e-01) (19, -3.40208262205123901367e-01) (20, -4.84650039672851562500e+00) (21, 1.32515478134155273438e+00) (22, 1.62066137790679931641e+00) (23, 1.25463509559631347656e+00) (24, -1.87695607542991638184e-01) (25, 1.97036492824554443359e+00) (26, -5.75252234935760498047e-01) (27, 7.72276878356933593750e-01) (28, 4.70844179391860961914e-01) (29, 7.55080401897430419922e-01) (30, 2.49284490942955017090e-01) (31, 1.14790272712707519531e+00) (32, 2.20668387413024902344e+00) (33, 1.88343715667724609375e+00) (34, 6.33139991760253906250e+00) (35, -7.78581798076629638672e-01) (36, -1.31642377376556396484e+00) (37, 8.98807227611541748047e-01) (38, 1.39393985271453857422e+00) (39, -6.37589991092681884766e-01) (40, 9.65838670730590820312e-01) (41, -8.40751349925994873047e-01) (42, 3.94056767225265502930e-01) (43, -1.35838380083441734314e-03) (44, -2.31652945280075073242e-01) (45, 2.02133488655090332031e+00) (46, 3.65451288223266601562e+00) (47, 1.50000000000000000000e+03) (48, 1.50000000000000000000e+03) (49, 1.50000000000000000000e+03) (50, 1.50000000000000000000e+03) (51, 1.50000000000000000000e+03) (52, 1.50000000000000000000e+03) (53, 1.50000000000000000000e+03) (54, 1.50000000000000000000e+03) (55, 1.50000000000000000000e+03) (56, 1.50000000000000000000e+03) (57, 1.50000000000000000000e+03) (58, 1.50000000000000000000e+03) (59, 1.50000000000000000000e+03) (60, -4.48954012244939804077e-03) (61, -1.03485539555549621582e-01) (62, -7.25819170475006103516e-02) (63, -1.02433256804943084717e-01) (64, -5.69658167660236358643e-02) (65, 3.35640422999858856201e-02) (66, 3.47264762967824935913e-03) (67, 3.73449511826038360596e-02) (68, -1.72711946070194244385e-02) (69, -2.52103339880704879761e-02) (70, -1.75758227705955505371e-02) (71, -7.11600109934806823730e-02) (72, -8.15077722072601318359e-02) (73, -7.42800608277320861816e-02) (74, 4.29595112800598144531e-02) (75, -7.23800286650657653809e-02) (76, -9.65963974595069885254e-02) (77, -1.68438218533992767334e-02) (78, -1.16187006235122680664e-01) (79, 2.36037615686655044556e-02) (80, 5.15778250992298126221e-02) (81, -2.04867813736200332642e-02) (82, 1.74205750226974487305e-02) (83, -7.28604570031166076660e-02) (84, -9.79584679007530212402e-02) (85, 4.83959391713142395020e-02) (86, -3.09582680463790893555e-01) (87, 7.47012495994567871094e-02) (88, 2.64184522628784179688e+00) (89, -2.34270051121711730957e-01) (90, -1.24153280258178710938e+00) (91, 1.31784784793853759766e+00) (92, 1.30427002906799316406e+00) (93, 4.40080821514129638672e-01) (94, 1.50000000000000000000e+03) (95, 1.50000000000000000000e+03) (96, 1.50000000000000000000e+03) (97, 1.50000000000000000000e+03) (98, 1.50000000000000000000e+03) (99, 1.50000000000000000000e+03) (100, 1.50000000000000000000e+03) (101, 1.50000000000000000000e+03) (102, 1.50000000000000000000e+03) (103, 1.50000000000000000000e+03) (104, 1.50000000000000000000e+03) (105, 1.50000000000000000000e+03) (106, 1.50000000000000000000e+03) (107, -2.41954731941223144531e+00) (108, -1.17456448078155517578e+00) (109, 1.38825133442878723145e-01) (110, 1.08134448528289794922e+00) (111, 2.32069805264472961426e-01) (112, 1.85350596904754638672e+00) (113, 1.60234844684600830078e+00) (114, -2.91963815689086914062e+00) (115, 2.78838545083999633789e-01) (116, 5.21971106529235839844e-01) (117, 9.34079959988594055176e-02) (118, -1.83877535164356231689e-02) (119, -6.01448595523834228516e-01) (120, 1.48924636840820312500e+00) (121, 4.82483655214309692383e-01) (122, 8.45107287168502807617e-02) (123, 4.57893460988998413086e-02) (124, 1.42138063907623291016e+00) (125, 3.32136243581771850586e-01) (126, 3.06299686431884765625e-01) (127, 1.75341486930847167969e-01) (128, 1.82939127087593078613e-01) (129, 5.61244130134582519531e-01) (130, 3.38860362768173217773e-01) (131, 5.30647277832031250000e-01) (132, 8.08711528778076171875e-01) (133, 1.12776958942413330078e+00) (134, -2.26078540086746215820e-01) (135, -3.27740669250488281250e+00) (136, -1.10581159591674804688e+00) (137, 1.66712892055511474609e+00) (138, -3.62060695886611938477e-01) (139, 1.50811791419982910156e+00) (140, 6.82267844676971435547e-01) (141, 1.50000000000000000000e+03) (142, 1.50000000000000000000e+03) (143, 1.50000000000000000000e+03) (144, 1.50000000000000000000e+03) (145, 1.50000000000000000000e+03) (146, 1.50000000000000000000e+03) (147, 1.50000000000000000000e+03) (148, 1.50000000000000000000e+03) (149, 1.50000000000000000000e+03) (150, 1.50000000000000000000e+03) (151, 1.50000000000000000000e+03) (152, 1.50000000000000000000e+03) (153, 1.50000000000000000000e+03) (154, 7.68909931182861328125e-01) (155, 3.97885501384735107422e-01) (156, 4.38120961189270019531e-01) (157, 6.34085416793823242188e-01) (158, -7.60200500488281250000e-01) (159, 3.23678135871887207031e-01) (160, 3.94074797630310058594e-01) (161, 4.45712834596633911133e-01) (162, 5.84376871585845947266e-01) (163, 3.66862267255783081055e-01) (164, 4.66852933168411254883e-01) (165, 2.87020206451416015625e-01) (166, -8.21990519762039184570e-02) (167, 6.26540541648864746094e-01) (168, 1.39179542660713195801e-01) (169, 6.11056327819824218750e-01) (170, 6.22856974601745605469e-01) (171, -8.01366388797760009766e-01) (172, 4.12228971719741821289e-01) (173, 3.28946232795715332031e-01) (174, 4.33639883995056152344e-01) (175, 5.06141722202301025391e-01) (176, 3.07235658168792724609e-01) (177, 5.64050376415252685547e-01) (178, 4.00853931903839111328e-01) (179, -6.02319762110710144043e-02) (180, 9.27138328552246093750e-01) (181, 6.35613977909088134766e-01) (182, -4.26940053701400756836e-01) (183, 1.68522760272026062012e-01) (184, 3.79423916339874267578e-01) (185, 2.90938043594360351562e+00) (186, -8.49420368671417236328e-01) (187, -3.65262359380722045898e-01) (188, -1.84235310554504394531e+00) (189, -3.38324308395385742188e+00) (190, 1.05940723419189453125e+00) (191, -4.41055393218994140625e+00) (192, 1.46177542209625244141e+00) (193, 6.50297924876213073730e-02) (0, 2.77940630912780761719e+00) (1, -2.11498403549194335938e+00) (2, -2.09086701273918151855e-01) (3, 4.16319340467453002930e-01) (4, 1.02109789848327636719e+00) (5, 2.78711867332458496094e+00) (6, 3.39532196521759033203e-01) (7, 4.37273502349853515625e+00) (8, -1.08496427536010742188e+00) (9, 7.28681027889251708984e-01) (10, -7.34072268009185791016e-01) (11, 3.23425388336181640625e+00) (12, 2.76820802688598632812e+00) (13, 1.12304174900054931641e+00) (14, 8.46635639667510986328e-01) (15, 2.45381012558937072754e-01) (16, 2.44817090034484863281e+00) (17, -1.18543338775634765625e+00) (18, -7.88782417774200439453e-01) (19, 1.51144814491271972656e+00) (20, 6.67792379856109619141e-01) (21, -1.25024485588073730469e+00) (22, 1.67311465740203857422e+00) (23, 4.29076814651489257812e+00) (24, 5.91368190944194793701e-02) (25, 1.58898556232452392578e+00) (26, 2.28598451614379882812e+00) (27, 2.48545795679092407227e-01) (28, -1.42504647374153137207e-01) (29, 7.88877248764038085938e-01) (30, 3.55321198701858520508e-01) (31, 1.23814754188060760498e-01) (32, 6.12155139446258544922e-01) (33, 4.48411673307418823242e-01) (34, 1.16688847541809082031e-01) (35, -5.11793279647827148438e+00) (36, 3.16425395011901855469e+00) (37, 4.17609035968780517578e-01) (38, 2.78988480567932128906e-01) (39, -3.67910683155059814453e-01) (40, 2.04130363464355468750e+00) (41, -1.78695106506347656250e+00) (42, -5.28587758541107177734e-01) (43, 1.24745192006230354309e-02) (44, -4.93392318487167358398e-01) (45, -3.25573533773422241211e-01) (46, -9.01955723762512207031e-01) (47, 1.50000000000000000000e+03) (48, 1.50000000000000000000e+03) (49, 1.50000000000000000000e+03) (50, 1.50000000000000000000e+03) (51, 1.50000000000000000000e+03) (52, 1.50000000000000000000e+03) (53, 1.50000000000000000000e+03) (54, 1.50000000000000000000e+03) (55, 1.50000000000000000000e+03) (56, 1.50000000000000000000e+03) (57, 1.50000000000000000000e+03) (58, 1.50000000000000000000e+03) (59, 1.50000000000000000000e+03) (60, -1.01786732673645019531e-01) (61, -9.59449112415313720703e-02) (62, -1.16663858294486999512e-01) (63, -1.89045995473861694336e-01) (64, -3.28917920589447021484e-01) (65, -1.96019142866134643555e-01) (66, -1.38741970062255859375e-01) (67, -3.45552861690521240234e-01) (68, -1.44762068986892700195e-01) (69, -7.07153007388114929199e-02) (70, -1.31890237331390380859e-01) (71, -1.39266148209571838379e-01) (72, -1.75185337662696838379e-01) (73, -2.06278905272483825684e-01) (74, -2.36534401774406433105e-02) (75, -4.54819165170192718506e-02) (76, -1.07719816267490386963e-01) (77, -2.02975824475288391113e-01) (78, -1.90659105777740478516e-01) (79, -1.58061310648918151855e-01) (80, -2.35130086541175842285e-01) (81, -1.20886094868183135986e-01) (82, -2.02096641063690185547e-01) (83, -2.08137467503547668457e-01) (84, -2.81098932027816772461e-01) (85, -2.26754441857337951660e-01) (86, -9.19568002223968505859e-01) (87, -4.88425874710083007812e+00) (88, 1.36367511749267578125e+00) (89, 1.49006903171539306641e-01) (90, -3.57193946838378906250e-01) (91, 8.86085867881774902344e-01) (92, 5.57261407375335693359e-01) (93, 7.29523375630378723145e-02) (94, 1.50000000000000000000e+03) (95, 1.50000000000000000000e+03) (96, 1.50000000000000000000e+03) (97, 1.50000000000000000000e+03) (98, 1.50000000000000000000e+03) (99, 1.50000000000000000000e+03) (100, 1.50000000000000000000e+03) (101, 1.50000000000000000000e+03) (102, 1.50000000000000000000e+03) (103, 1.50000000000000000000e+03) (104, 1.50000000000000000000e+03) (105, 1.50000000000000000000e+03) (106, 1.50000000000000000000e+03) (107, 1.18278002738952636719e+00) (108, -3.14310336112976074219e+00) (109, -1.05790245532989501953e+00) (110, -6.79275214672088623047e-01) (111, 3.39153575897216796875e+00) (112, 1.45915687084197998047e+00) (113, -6.49840712547302246094e-01) (114, 9.96903181076049804688e-01) (115, 4.47733700275421142578e-01) (116, -2.46488952636718750000e+00) (117, -5.82875251770019531250e-01) (118, -4.32486712932586669922e-01) (119, 1.36066830158233642578e+00) (120, 4.67281609773635864258e-01) (121, 4.08206045627593994141e-01) (122, -4.23232734203338623047e-01) (123, 1.06894588470458984375e+00) (124, 2.56304335594177246094e+00) (125, 1.87609747052192687988e-01) (126, 2.60567992925643920898e-01) (127, 5.20320773124694824219e-01) (128, -3.33977818489074707031e-01) (129, 3.05206954479217529297e-01) (130, 2.45127066969871520996e-01) (131, -6.32098019123077392578e-01) (132, 8.71994435787200927734e-01) (133, -9.86971616744995117188e-01) (134, -5.44512793421745300293e-02) (135, 5.48069298267364501953e-01) (136, 9.79433834552764892578e-01) (137, 3.12640368938446044922e-01) (138, 8.57907235622406005859e-01) (139, -1.91112792491912841797e+00) (140, 1.70682275295257568359e+00) (141, 1.50000000000000000000e+03) (142, 1.50000000000000000000e+03) (143, 1.50000000000000000000e+03) (144, 1.50000000000000000000e+03) (145, 1.50000000000000000000e+03) (146, 1.50000000000000000000e+03) (147, 1.50000000000000000000e+03) (148, 1.50000000000000000000e+03) (149, 1.50000000000000000000e+03) (150, 1.50000000000000000000e+03) (151, 1.50000000000000000000e+03) (152, 1.50000000000000000000e+03) (153, 1.50000000000000000000e+03) (154, 1.98591381311416625977e-01) (155, 2.11341202259063720703e-01) (156, 4.12609308958053588867e-01) (157, 2.88128286600112915039e-01) (158, -5.50557672977447509766e-01) (159, 4.40198421478271484375e-01) (160, 3.26469808816909790039e-01) (161, 3.58058840036392211914e-01) (162, 1.23349940776824951172e+00) (163, -7.87482112646102905273e-02) (164, 2.80657589435577392578e-01) (165, 1.32615029811859130859e+00) (166, -3.56974989175796508789e-01) (167, 3.40240985155105590820e-01) (168, 3.68601828813552856445e-01) (169, 2.44724571704864501953e-01) (170, 2.93137788772583007812e-01) (171, -5.26076912879943847656e-01) (172, 3.58014196157455444336e-01) (173, 3.71310502290725708008e-01) (174, 3.89959752559661865234e-01) (175, 1.62011301517486572266e+00) (176, 1.15515097975730895996e-01) (177, 4.60707396268844604492e-01) (178, 1.20268821716308593750e+00) (179, -1.89216628670692443848e-01) (180, 4.48866993188858032227e-01) (181, -1.14067471027374267578e+00) (182, -2.32566666603088378906e+00) (183, -2.54419302940368652344e+00) (184, 4.46725702285766601562e+00) (185, 2.01851439476013183594e+00) (186, 8.14563930034637451172e-01) (187, -1.61590623855590820312e+00) (188, -2.67769908905029296875e+00) (189, -1.12544369697570800781e+00) (190, -2.18031620979309082031e+00) (191, -2.68157196044921875000e+00) (192, -3.00895303487777709961e-01) (193, -5.37087142467498779297e-01) (0, 1.46121358871459960938e+00) (1, 1.43776547908782958984e+00) (2, 1.69971251487731933594e+00) (3, 1.25639462471008300781e+00) (4, -1.31207239627838134766e+00) (5, 1.56119143962860107422e+00) (6, 2.73251366615295410156e+00) (7, 1.93351173400878906250e+00) (8, 2.94981002807617187500e+00) (9, 8.19591104984283447266e-01) (10, 1.32216942310333251953e+00) (11, -2.30990815162658691406e+00) (12, -2.68223023414611816406e+00) (13, 5.60843133926391601562e+00) (14, -1.67590230703353881836e-01) (15, -2.66639254987239837646e-02) (16, 3.89511495828628540039e-01) (17, 1.12282598018646240234e+00) (18, -5.11954903602600097656e-01) (19, -1.52290582656860351562e+00) (20, 2.93975472450256347656e+00) (21, 1.40579760074615478516e+00) (22, -1.32733598351478576660e-01) (23, 7.25356578826904296875e-01) (24, 4.02941375970840454102e-01) (25, 2.74572908878326416016e-01) (26, -1.09366416931152343750e+00) (27, 9.11510735750198364258e-02) (28, -1.11360657215118408203e+00) (29, -3.04709374904632568359e-01) (30, 3.86009275913238525391e-01) (31, -1.33452367782592773438e+00) (32, -4.78000164031982421875e+00) (33, 1.17509709671139717102e-02) (34, 2.18883371353149414062e+00) (35, -1.21166658401489257812e+00) (36, 1.48506891727447509766e+00) (37, 4.47582304477691650391e-01) (38, -3.74646377563476562500e+00) (39, -5.76154291629791259766e-01) (40, -6.39788150787353515625e-01) (41, -3.59801411628723144531e-01) (42, 1.30996155738830566406e+00) (43, 7.24101290106773376465e-02) (44, 1.19609721004962921143e-01) (45, 1.45121105015277862549e-02) (46, -2.46488738059997558594e+00) (47, 1.50000000000000000000e+03) (48, 1.50000000000000000000e+03) (49, 1.50000000000000000000e+03) (50, 1.50000000000000000000e+03) (51, 1.50000000000000000000e+03) (52, 1.50000000000000000000e+03) (53, 1.50000000000000000000e+03) (54, 1.50000000000000000000e+03) (55, 1.50000000000000000000e+03) (56, 1.50000000000000000000e+03) (57, 1.50000000000000000000e+03) (58, 1.50000000000000000000e+03) (59, 1.50000000000000000000e+03) (60, 3.02746053785085678101e-02) (61, 2.05077007412910461426e-02) (62, 1.35680660605430603027e-01) (63, 7.01216012239456176758e-02) (64, 8.15851166844367980957e-02) (65, 5.02906329929828643799e-02) (66, 1.41970247030258178711e-01) (67, 6.40956684947013854980e-02) (68, 3.29733081161975860596e-02) (69, 1.58745586872100830078e-01) (70, 6.44915252923965454102e-02) (71, 1.62250265479087829590e-01) (72, 6.92756474018096923828e-02) (73, 2.98905074596405029297e-02) (74, 1.33277010172605514526e-02) (75, 1.56172320246696472168e-01) (76, 1.46239355206489562988e-01) (77, 1.77584484219551086426e-01) (78, 1.21245710179209709167e-02) (79, 1.39791950583457946777e-01) (80, 5.82753913477063179016e-03) (81, 1.43296465277671813965e-01) (82, 1.31494522094726562500e-01) (83, 5.06333336234092712402e-02) (84, -1.02036842145025730133e-03) (85, 1.59663364291191101074e-01) (86, 3.14263367652893066406e+00) (87, -1.14936724305152893066e-01) (88, -1.61328479647636413574e-01) (89, -1.82335472106933593750e+00) (90, -8.25754225254058837891e-01) (91, 3.82036417722702026367e-01) (92, -1.03005833923816680908e-01) (93, 2.55525541305541992188e+00) (94, 1.50000000000000000000e+03) (95, 1.50000000000000000000e+03) (96, 1.50000000000000000000e+03) (97, 1.50000000000000000000e+03) (98, 1.50000000000000000000e+03) (99, 1.50000000000000000000e+03) (100, 1.50000000000000000000e+03) (101, 1.50000000000000000000e+03) (102, 1.50000000000000000000e+03) (103, 1.50000000000000000000e+03) (104, 1.50000000000000000000e+03) (105, 1.50000000000000000000e+03) (106, 1.50000000000000000000e+03) (107, -4.11184406280517578125e+00) (108, -4.43202686309814453125e+00) (109, 2.07296752929687500000e+00) (110, 1.91667330265045166016e+00) (111, -3.25666815042495727539e-01) (112, 1.47000706195831298828e+00) (113, -3.58967185020446777344e+00) (114, 2.52169752120971679688e+00) (115, 5.77577710151672363281e-01) (116, -1.88799083232879638672e+00) (117, 1.68313968181610107422e+00) (118, 1.05815753340721130371e-03) (119, -3.00115609169006347656e+00) (120, 4.97106343507766723633e-01) (121, 7.03331172466278076172e-01) (122, 5.65484881401062011719e-01) (123, 6.50173783302307128906e-01) (124, 1.21667778491973876953e+00) (125, 2.38342165946960449219e+00) (126, 6.97098076343536376953e-01) (127, 7.13404238224029541016e-01) (128, 4.90848809480667114258e-01) (129, 1.18142175674438476562e+00) (130, 3.58741044998168945312e-01) (131, 7.92219400405883789062e-01) (132, 5.90943992137908935547e-01) (133, 2.84212255477905273438e+00) (134, 1.84012281894683837891e+00) (135, 8.20324242115020751953e-01) (136, 3.15137542784214019775e-02) (137, -1.22363102436065673828e+00) (138, 1.58119881153106689453e+00) (139, 1.32645976543426513672e+00) (140, -4.92830961942672729492e-01) (141, 1.50000000000000000000e+03) (142, 1.50000000000000000000e+03) (143, 1.50000000000000000000e+03) (144, 1.50000000000000000000e+03) (145, 1.50000000000000000000e+03) (146, 1.50000000000000000000e+03) (147, 1.50000000000000000000e+03) (148, 1.50000000000000000000e+03) (149, 1.50000000000000000000e+03) (150, 1.50000000000000000000e+03) (151, 